float conv2_bias [100] = {
-0.0034699056, -0.0028225740, -0.0411016420, -0.0300642494, -0.0390589871, -0.0226447247, -0.0384493507, -0.0184724499, -0.0114053842, -1.0684711933, -1.2629683018, 0.5592251420, -1.1426119804, 1.1408873796, 0.3684972525, 0.4569667578, -0.0316018909, 0.4269793332, -0.2287677974, -0.0268378668, -0.0270556323, -0.1090370864, 0.9850200415, -0.0384088419, 0.4094563425, -0.0430147909, -1.4385433197, -0.0195540506, 0.6992809772, -0.0435058288, -0.0283681750, -0.2434689850, 1.4434206486, -0.6654644012, 0.9814628363, -0.2606360018, 0.3312122226, -0.0157923922, 1.1625739336, 0.2447134107, -0.0287399646, -0.0293794721, 0.0144929141, -0.9857155681, -0.0270800665, -0.4327438176, -0.6744415760, 0.0377757289, 0.0856488422, 0.0937405899, 0.8629174829, -0.0387753062, -0.0297044627, 0.8033525348, 0.1403460801, -0.0482305326, -0.0286438763, -0.1729846746, -0.0318590924, -0.0328679979, -0.0117889727, -0.0415907837, -0.3098213077, 0.3830555081, 0.1203539595, -0.0292313099, 0.7669584751, -0.5768469572, 0.2574543357, -0.9566335678, -0.6862752438, -0.0289703999, -0.0342093520, -0.0457172729, -0.0283431765, 0.6100150347, -0.0310786795, 0.1435779780, -0.0269824583, -0.0288070273, -0.2597887516, -0.0304195061, 0.7195389271, -0.0409591682, -0.0804521814, 0.3380896747, -0.0285546090, 0.5760914683, 0.7109952569, 0.0631941184, -0.0287815873, -0.0355854481, -0.0291331280, -0.2325729132, -0.5884764791, 0.5780559778, -0.0122962017, -0.0332148150, 0.8131794930, -0.3905193508 };