float conv_last_bias [384] = {
-0.6084735990, 0.4670329988, -0.0250353999, -0.0209933482, -0.0082743950, -0.0010286877, 0.4269207418, -0.0120713571, 0.3666494191, -0.0844758749, -0.0652801171, -0.0506815240, -0.0033921953, -0.0019095836, -0.0398984551, -0.0950271636, -0.0056906668, 0.2134667933, -0.0005982021, -0.0001969561, -0.0013553554, 0.3868506551, -0.0093735512, 0.8751706481, 0.4458777308, -0.4888535142, -0.0352401994, 0.6969488859, 0.3064741194, 0.6120387912, -0.0070095304, 0.5632109642, 0.7198787928, -0.0056014941, 0.5475225449, -0.0278396253, 0.5409700871, 0.3446598649, -0.0149039673, -0.1054167897, -0.0092393421, -0.0247817673, -0.0071839122, -0.0068056099, 0.0241547413, 0.7748828530, -0.0009048884, -0.3886668980, -0.0077630351, -0.1426295936, -0.0385953709, -0.0029626084, -0.2129863203, -0.0232514888, 0.2357863933, -0.0356393307, -0.0087564774, -0.2199872732, 0.6365383267, -0.0009213246, -0.0101322932, -0.0044808025, -0.0080179889, -0.0036576686, 0.7947581410, -0.0030985423, -0.0055740918, -0.0225966237, -0.0083100647, 0.4023908675, -0.0563373640, -0.3436118364, -0.2571341991, -0.1017588824, 0.5332450867, -0.0759811103, -0.0089795720, -0.0580856279, -0.0037730187, -0.1150403917, -0.0130990054, -0.0402568690, 0.3540852368, -0.0390022546, -0.0273890216, 0.6557432413, -0.6144349575, -0.0002347264, -0.0222267248, -0.0291480888, -0.0041957940, -0.0620464496, -0.0954689607, -0.0342393294, -0.0025881659, 0.3318241835, -0.0382285528, -0.4920165539, -0.0364422649, -0.0287275072, -0.0029483724, -0.0119319167, 0.3627822399, -0.0372155197, -0.0180851333, -0.0088000642, -0.3997122645, -0.0045516305, -0.0525493585, 0.6290915608, -0.0205454044, 0.5619768500, -0.0293020345, -0.0013511060, 1.1204019785, -0.4450098276, 0.4249728024, -0.0342930816, 0.8245831728, 0.6638716459, -0.1758331805, -0.0045258841, 0.3365712166, 0.4269886017, -0.0445316136, 0.8231956363, -0.1458157003, -0.0124189826, 0.4914488196, -0.1029814407, 0.5699934363, -0.8051908612, 0.8321405649, -0.0005991824, 0.4626221359, 0.3915139139, -0.0006938262, 0.4361835420, -0.0089248586, -0.0625053644, -0.0053357463, 0.0594031624, -0.0024802750, -0.0065570129, -0.1065980941, 0.3814244866, -0.0549204350, -0.0024925657, -0.0015923744, -0.0088078836, -0.0521173663, -0.0261584595, 0.3760630786, -0.0461551212, 0.2849234045, 0.4027927220, 0.4819967151, -0.0134765748, 0.4877839386, 0.6384729743, -0.0228569340, 0.7582654357, -0.0565957762, -0.0478553809, -0.7749871612, 0.4433983266, 0.4824507833, -0.0573914908, 0.3408324718, -0.1045498997, -0.0483828560, -0.0348803513, -0.0042641219, -0.0027764114, -0.0238050409, 0.6952129006, -0.0020049862, -0.0030167375, -0.0013643856, 1.0710139275, -0.0573651530, 0.0869922563, -0.0839396268, -0.0110467514, -0.0449920483, 0.9017001390, 0.4579334557, -0.7409045696, 0.4598740935, 0.8972832561, -0.0494486354, -0.2009191513, -0.0019270487, 0.8882912993, -0.0033064107, 0.1108916402, -0.0586824641, -0.0302008223, -0.0350755043, 1.1184175014, -0.0399115682, -0.0234891307, -0.0500637218, 0.4364446998, -0.0200215001, -0.0008658529, -0.0126576442, -0.0340603665, -0.0031676146, -0.0253807493, -0.0025903936, -0.0331601016, -0.0166755635, -0.0362577140, 0.3994543254, -0.0023348616, -0.0858519971, 0.5242943168, 0.5918014646, -0.0066749188, -0.2086136490, 0.2860696316, -0.0178562962, -0.0505135953, -0.0132440329, -0.0701306909, -0.0161667671, 0.2906199694, -0.0042188396, -0.0115207294, 0.5241335630, -0.3399597108, -0.0035776841, -0.0038744200, -0.0077121560, -0.0511670299, 0.2009639889, -0.0077380119, -0.0305000301, 0.8897786140, -0.0041445177, -0.0115240384, -0.0083520189, 0.3740702271, -0.0021669019, -0.0452966243, 0.2094330937, -0.0063030962, 0.2677053809, -0.0033311937, 0.6532908678, -0.4249028265, 0.9197436571, 0.1910584718, -0.0014359320, -0.0649297461, -0.2897164524, -0.2889525294, -0.0514161177, 0.2313186228, -0.0042772130, 0.4076417387, 0.2620787621, -0.0112624168, 0.1854396760, -0.4431321919, -0.0005260025, 0.3722736537, 0.5921768546, -0.2123576254, 0.3274496496, -0.0172049459, -0.0245562270, -0.0628708601, 0.2838906646, -0.0249910615, -0.1376250535, 0.6516816616, -0.0013949246, -0.1707091480, -0.0131231630, -0.0048161470, -0.2499961704, -0.1359860450, -0.0018456038, -0.4788826704, 0.7135196924, -0.0780444443, -0.4280533493, -0.4129521549, 0.4812241793, -0.0115320869, -0.1015219614, 0.4961947203, 0.7624925375, -0.2035109252, 0.1213977113, -0.0010403323, 0.6577016711, -0.0573791787, 0.3594349623, 0.1511100084, -0.0012543951, -0.0029281939, 0.3340117335, -0.0041145934, -0.2656218708, 0.2706830502, -0.0063629160, -0.2004065961, -0.0308139808, -0.0025406601, 1.1258748770, -0.0623314828, -0.1598674953, -0.0042542182, -0.0131731704, -0.0435842089, 0.3010757267, -0.0040018694, -0.0009025100, -0.0103643220, -0.0690335110, -0.0020914166, -0.0579210147, -0.4275590479, -0.0073535824, -0.0357114710, 0.1147225872, 0.9722993374, -0.0046920385, -0.3425104320, -0.1547193527, -0.0514874011, -0.0363418385, -0.0095087485, 0.3394791782, -0.4342789650, -0.0007697094, -0.4121710360, -0.0129131405, 0.5044736862, -0.0115423743, -0.1479348540, -0.0052194982, 0.6854842901, -0.0111838663, 0.4793407023, 0.4893865287, -0.0491081737, 0.4461067915, -0.0051119858, 0.7357406616, 0.3397633731, -0.0108923018, -0.0089373682, -0.0087592248, 0.0986335054, -0.0131165264, -0.0260755029, 0.2363443077, -0.0180554371, 0.7523510456, 0.7651936412, 0.8480472565, -0.0034232736, 0.4354730546, 0.7157765627, -0.2381590903, -0.0106028086, 0.8313403130, -0.0063593779, 0.5341544151, 0.5698159337, -0.0005572008, -0.0801284835, -0.0044009364, 0.5197113156, 0.4299323261, -0.1142034233, 0.5274921656, 0.4193484187, -0.0007759063, 0.3043992519 };