float conv2_weights [100][64][3][3] = {
-0.0000000000, 0.0000000000, -0.0000000000 ,
-0.0000000000, -0.0000000000, -0.0000000000 ,
0.0000000000, 0.0000000000, -0.0000000000 
,
-0.0000000000, -0.0000000000, -0.0000000000 ,
0.0000000000, -0.0000000000, 0.0000000000 ,
0.0000000000, -0.0000000000, -0.0000000000 
,
-0.0000000000, -0.0000000000, 0.0000000000 ,
0.0000000000, 0.0000000000, 0.0000000000 ,
-0.0000000000, -0.0000000000, -0.0000000000 
,
-0.0000000000, -0.0000000000, 0.0000000000 ,
-0.0000000000, 0.0000000000, -0.0000000000 ,
0.0000000000, -0.0000000000, -0.0000000000 
,
-0.0000000000, 0.0000000000, -0.0000000000 ,
-0.0000000000, -0.0000000000, -0.0000000000 ,
-0.0000000000, -0.0000000000, 0.0000000000 
,
-0.0000000000, -0.0000000000, -0.0000000000 ,
0.0000000000, -0.0000000000, 0.0000000000 ,
0.0000000000, 0.0000000000, -0.0000000000 
,
-0.0000000000, -0.0000000000, -0.0000000000 ,
0.0000000000, -0.0000000000, -0.0000000000 ,
-0.0000000000, -0.0000000000, -0.0000000000 
,
-0.0000000000, -0.0000000000, -0.0000000000 ,
-0.0000000000, -0.0000000000, -0.0000000000 ,
-0.0000000000, 0.0000000000, -0.0000000000 
,
-0.0000000000, 0.0000000000, -0.0000000000 ,
0.0000000000, -0.0000000000, -0.0000000000 ,
-0.0000000000, -0.0000000000, -0.0000000000 
,
0.0000000000, -0.0000000000, 0.0000000000 ,
0.0000000000, -0.0000000000, -0.0000000000 ,
0.0000000000, 0.0000000000, 0.0000000000 
,
-0.0000000000, 0.0000000000, -0.0000000000 ,
0.0000000000, -0.0000000000, 0.0000000000 ,
0.0000000000, -0.0000000000, 0.0000000000 
,
0.0000000000, -0.0000000000, -0.0000000000 ,
0.0000000000, 0.0000000000, -0.0000000000 ,
0.0000000000, -0.0000000000, -0.0000000000 
,
-0.0000000000, -0.0000000000, 0.0000000000 ,
0.0000000000, -0.0000000000, 0.0000000000 ,
0.0000000000, 0.0000000000, -0.0000000000 
,
0.0000000000, -0.0000000000, 0.0000000000 ,
-0.0000000000, 0.0000000000, -0.0000000000 ,
0.0000000000, -0.0000000000, -0.0000000000 
,
-0.0000000000, -0.0000000000, -0.0000000000 ,
-0.0000000000, -0.0000000000, 0.0000000000 ,
-0.0000000000, -0.0000000000, -0.0000000000 
,
0.0000000000, 0.0000000000, 0.0000000000 ,
0.0000000000, 0.0000000000, -0.0000000000 ,
-0.0000000000, -0.0000000000, -0.0000000000 
,
-0.0000000000, 0.0000000000, -0.0000000000 ,
-0.0000000000, -0.0000000000, -0.0000000000 ,
-0.0000000000, 0.0000000000, -0.0000000000 
,
0.0000000000, 0.0000000000, -0.0000000000 ,
-0.0000000000, -0.0000000000, -0.0000000000 ,
-0.0000000000, 0.0000000000, -0.0000000000 
,
0.0000000000, 0.0000000000, -0.0000000000 ,
0.0000000000, -0.0000000000, -0.0000000000 ,
-0.0000000000, 0.0000000000, 0.0000000000 
,
0.0000000000, -0.0000000000, -0.0000000000 ,
-0.0000000000, -0.0000000000, -0.0000000000 ,
-0.0000000000, -0.0000000000, -0.0000000000 
,
-0.0000000000, -0.0000000000, -0.0000000000 ,
-0.0000000000, -0.0000000000, -0.0000000000 ,
-0.0000000000, -0.0000000000, -0.0000000000 
,
0.0000000000, -0.0000000000, -0.0000000000 ,
-0.0000000000, -0.0000000000, 0.0000000000 ,
-0.0000000000, -0.0000000000, -0.0000000000 
,
0.0000000000, -0.0000000000, 0.0000000000 ,
-0.0000000000, -0.0000000000, -0.0000000000 ,
0.0000000000, 0.0000000000, 0.0000000000 
,
0.0000000000, -0.0000000000, -0.0000000000 ,
0.0000000000, -0.0000000000, -0.0000000000 ,
0.0000000000, -0.0000000000, -0.0000000000 
,
-0.0000000000, -0.0000000000, -0.0000000000 ,
-0.0000000000, -0.0000000000, -0.0000000000 ,
-0.0000000000, 0.0000000000, -0.0000000000 
,
-0.0000000000, 0.0000000000, 0.0000000000 ,
-0.0000000000, -0.0000000000, 0.0000000000 ,
0.0000000000, 0.0000000000, -0.0000000000 
,
-0.0000000000, -0.0000000000, -0.0000000000 ,
-0.0000000000, -0.0000000000, -0.0000000000 ,
-0.0000000000, -0.0000000000, -0.0000000000 
,
-0.0000000000, 0.0000000000, 0.0000000000 ,
0.0000000000, -0.0000000000, 0.0000000000 ,
-0.0000000000, -0.0000000000, 0.0000000000 
,
-0.0000000000, -0.0000000000, -0.0000000000 ,
-0.0000000000, -0.0000000000, 0.0000000000 ,
-0.0000000000, 0.0000000000, 0.0000000000 
,
-0.0000000000, 0.0000000000, -0.0000000000 ,
-0.0000000000, 0.0000000000, -0.0000000000 ,
0.0000000000, -0.0000000000, -0.0000000000 
,
-0.0000000000, -0.0000000000, -0.0000000000 ,
0.0000000000, -0.0000000000, -0.0000000000 ,
-0.0000000000, -0.0000000000, -0.0000000000 
,
-0.0000000000, 0.0000000000, -0.0000000000 ,
-0.0000000000, -0.0000000000, -0.0000000000 ,
-0.0000000000, 0.0000000000, 0.0000000000 
,
-0.0000000000, -0.0000000000, 0.0000000000 ,
-0.0000000000, -0.0000000000, 0.0000000000 ,
0.0000000000, 0.0000000000, -0.0000000000 
,
-0.0000000000, -0.0000000000, -0.0000000000 ,
0.0000000000, -0.0000000000, -0.0000000000 ,
-0.0000000000, -0.0000000000, -0.0000000000 
,
-0.0000000000, 0.0000000000, 0.0000000000 ,
-0.0000000000, -0.0000000000, -0.0000000000 ,
-0.0000000000, -0.0000000000, -0.0000000000 
,
-0.0000000000, -0.0000000000, -0.0000000000 ,
-0.0000000000, 0.0000000000, -0.0000000000 ,
0.0000000000, -0.0000000000, -0.0000000000 
,
0.0000000000, -0.0000000000, -0.0000000000 ,
0.0000000000, 0.0000000000, 0.0000000000 ,
-0.0000000000, -0.0000000000, 0.0000000000 
,
-0.0000000000, -0.0000000000, -0.0000000000 ,
-0.0000000000, -0.0000000000, 0.0000000000 ,
0.0000000000, 0.0000000000, -0.0000000000 
,
-0.0000000000, -0.0000000000, -0.0000000000 ,
-0.0000000000, -0.0000000000, -0.0000000000 ,
0.0000000000, 0.0000000000, -0.0000000000 
,
-0.0000000000, -0.0000000000, -0.0000000000 ,
-0.0000000000, -0.0000000000, -0.0000000000 ,
-0.0000000000, 0.0000000000, -0.0000000000 
,
-0.0000000000, 0.0000000000, -0.0000000000 ,
-0.0000000000, -0.0000000000, -0.0000000000 ,
-0.0000000000, 0.0000000000, 0.0000000000 
,
-0.0000000000, 0.0000000000, 0.0000000000 ,
0.0000000000, 0.0000000000, 0.0000000000 ,
-0.0000000000, -0.0000000000, -0.0000000000 
,
-0.0000000000, -0.0000000000, 0.0000000000 ,
-0.0000000000, -0.0000000000, 0.0000000000 ,
0.0000000000, 0.0000000000, 0.0000000000 
,
-0.0000000000, -0.0000000000, -0.0000000000 ,
-0.0000000000, 0.0000000000, -0.0000000000 ,
-0.0000000000, 0.0000000000, -0.0000000000 
,
-0.0000000000, -0.0000000000, -0.0000000000 ,
-0.0000000000, 0.0000000000, -0.0000000000 ,
-0.0000000000, -0.0000000000, -0.0000000000 
,
-0.0000000000, 0.0000000000, 0.0000000000 ,
-0.0000000000, -0.0000000000, 0.0000000000 ,
-0.0000000000, 0.0000000000, -0.0000000000 
,
-0.0000000000, 0.0000000000, 0.0000000000 ,
0.0000000000, 0.0000000000, -0.0000000000 ,
-0.0000000000, -0.0000000000, 0.0000000000 
,
-0.0000000000, 0.0000000000, -0.0000000000 ,
-0.0000000000, -0.0000000000, -0.0000000000 ,
-0.0000000000, -0.0000000000, 0.0000000000 
,
0.0000000000, -0.0000000000, -0.0000000000 ,
0.0000000000, 0.0000000000, 0.0000000000 ,
0.0000000000, 0.0000000000, -0.0000000000 
,
-0.0000000000, -0.0000000000, -0.0000000000 ,
-0.0000000000, -0.0000000000, -0.0000000000 ,
-0.0000000000, -0.0000000000, -0.0000000000 
,
0.0000000000, -0.0000000000, -0.0000000000 ,
-0.0000000000, -0.0000000000, -0.0000000000 ,
-0.0000000000, 0.0000000000, 0.0000000000 
,
0.0000000000, -0.0000000000, -0.0000000000 ,
-0.0000000000, -0.0000000000, 0.0000000000 ,
-0.0000000000, -0.0000000000, 0.0000000000 
,
0.0000000000, -0.0000000000, -0.0000000000 ,
-0.0000000000, -0.0000000000, -0.0000000000 ,
0.0000000000, 0.0000000000, -0.0000000000 
,
-0.0000000000, 0.0000000000, -0.0000000000 ,
-0.0000000000, -0.0000000000, -0.0000000000 ,
-0.0000000000, -0.0000000000, -0.0000000000 
,
-0.0000000000, -0.0000000000, -0.0000000000 ,
-0.0000000000, -0.0000000000, 0.0000000000 ,
0.0000000000, 0.0000000000, 0.0000000000 
,
0.0000000000, -0.0000000000, -0.0000000000 ,
-0.0000000000, -0.0000000000, -0.0000000000 ,
0.0000000000, -0.0000000000, -0.0000000000 
,
-0.0000000000, -0.0000000000, -0.0000000000 ,
0.0000000000, 0.0000000000, 0.0000000000 ,
-0.0000000000, -0.0000000000, -0.0000000000 
,
0.0000000000, 0.0000000000, 0.0000000000 ,
0.0000000000, -0.0000000000, -0.0000000000 ,
-0.0000000000, 0.0000000000, -0.0000000000 
,
-0.0000000000, -0.0000000000, 0.0000000000 ,
-0.0000000000, 0.0000000000, -0.0000000000 ,
-0.0000000000, 0.0000000000, -0.0000000000 
,
-0.0000000000, -0.0000000000, -0.0000000000 ,
-0.0000000000, -0.0000000000, 0.0000000000 ,
-0.0000000000, -0.0000000000, -0.0000000000 
,
0.0000000000, -0.0000000000, -0.0000000000 ,
-0.0000000000, 0.0000000000, 0.0000000000 ,
-0.0000000000, -0.0000000000, -0.0000000000 
,
0.0000000000, 0.0000000000, 0.0000000000 ,
-0.0000000000, -0.0000000000, -0.0000000000 ,
-0.0000000000, -0.0000000000, 0.0000000000 
,
-0.0000000000, 0.0000000000, 0.0000000000 ,
0.0000000000, -0.0000000000, -0.0000000000 ,
-0.0000000000, -0.0000000000, 0.0000000000 
,
-0.0000000000, 0.0000000000, -0.0000000000 ,
-0.0000000000, -0.0000000000, -0.0000000000 ,
-0.0000000000, -0.0000000000, -0.0000000000 

,
-0.0000000000, -0.0000000000, 0.0000000000 ,
-0.0000000000, 0.0000000000, -0.0000000000 ,
0.0000000000, 0.0000000000, 0.0000000000 
,
-0.0000000000, -0.0000000000, -0.0000000000 ,
-0.0000000000, -0.0000000000, -0.0000000000 ,
-0.0000000000, -0.0000000000, 0.0000000000 
,
-0.0000000000, -0.0000000000, -0.0000000000 ,
0.0000000000, 0.0000000000, -0.0000000000 ,
0.0000000000, 0.0000000000, 0.0000000000 
,
0.0000000000, 0.0000000000, -0.0000000000 ,
0.0000000000, -0.0000000000, -0.0000000000 ,
-0.0000000000, -0.0000000000, 0.0000000000 
,
-0.0000000000, -0.0000000000, -0.0000000000 ,
0.0000000000, -0.0000000000, 0.0000000000 ,
0.0000000000, 0.0000000000, -0.0000000000 
,
-0.0000000000, 0.0000000000, -0.0000000000 ,
0.0000000000, 0.0000000000, 0.0000000000 ,
0.0000000000, -0.0000000000, -0.0000000000 
,
-0.0000000000, -0.0000000000, 0.0000000000 ,
-0.0000000000, -0.0000000000, 0.0000000000 ,
-0.0000000000, -0.0000000000, -0.0000000000 
,
-0.0000000000, 0.0000000000, 0.0000000000 ,
-0.0000000000, 0.0000000000, 0.0000000000 ,
-0.0000000000, -0.0000000000, -0.0000000000 
,
0.0000000000, 0.0000000000, 0.0000000000 ,
0.0000000000, -0.0000000000, -0.0000000000 ,
0.0000000000, -0.0000000000, -0.0000000000 
,
-0.0000000000, -0.0000000000, -0.0000000000 ,
0.0000000000, -0.0000000000, 0.0000000000 ,
-0.0000000000, -0.0000000000, -0.0000000000 
,
-0.0000000000, -0.0000000000, -0.0000000000 ,
-0.0000000000, 0.0000000000, 0.0000000000 ,
-0.0000000000, 0.0000000000, -0.0000000000 
,
-0.0000000000, -0.0000000000, 0.0000000000 ,
0.0000000000, -0.0000000000, -0.0000000000 ,
0.0000000000, -0.0000000000, -0.0000000000 
,
0.0000000000, 0.0000000000, 0.0000000000 ,
0.0000000000, 0.0000000000, 0.0000000000 ,
-0.0000000000, 0.0000000000, 0.0000000000 
,
0.0000000000, -0.0000000000, -0.0000000000 ,
-0.0000000000, -0.0000000000, -0.0000000000 ,
-0.0000000000, 0.0000000000, -0.0000000000 
,
-0.0000000000, -0.0000000000, -0.0000000000 ,
-0.0000000000, -0.0000000000, -0.0000000000 ,
-0.0000000000, 0.0000000000, -0.0000000000 
,
0.0000000000, -0.0000000000, -0.0000000000 ,
0.0000000000, -0.0000000000, -0.0000000000 ,
-0.0000000000, -0.0000000000, 0.0000000000 
,
0.0000000000, -0.0000000000, -0.0000000000 ,
-0.0000000000, -0.0000000000, 0.0000000000 ,
0.0000000000, -0.0000000000, -0.0000000000 
,
-0.0000000000, -0.0000000000, -0.0000000000 ,
-0.0000000000, -0.0000000000, 0.0000000000 ,
0.0000000000, -0.0000000000, 0.0000000000 
,
-0.0000000000, -0.0000000000, 0.0000000000 ,
0.0000000000, 0.0000000000, 0.0000000000 ,
-0.0000000000, -0.0000000000, -0.0000000000 
,
-0.0000000000, -0.0000000000, -0.0000000000 ,
-0.0000000000, -0.0000000000, -0.0000000000 ,
-0.0000000000, -0.0000000000, 0.0000000000 
,
-0.0000000000, 0.0000000000, -0.0000000000 ,
-0.0000000000, 0.0000000000, 0.0000000000 ,
0.0000000000, -0.0000000000, 0.0000000000 
,
0.0000000000, -0.0000000000, -0.0000000000 ,
0.0000000000, -0.0000000000, -0.0000000000 ,
-0.0000000000, 0.0000000000, 0.0000000000 
,
-0.0000000000, -0.0000000000, -0.0000000000 ,
-0.0000000000, 0.0000000000, -0.0000000000 ,
-0.0000000000, -0.0000000000, 0.0000000000 
,
-0.0000000000, -0.0000000000, -0.0000000000 ,
0.0000000000, -0.0000000000, -0.0000000000 ,
0.0000000000, -0.0000000000, -0.0000000000 
,
-0.0000000000, 0.0000000000, -0.0000000000 ,
-0.0000000000, 0.0000000000, 0.0000000000 ,
0.0000000000, 0.0000000000, -0.0000000000 
,
0.0000000000, -0.0000000000, 0.0000000000 ,
0.0000000000, 0.0000000000, -0.0000000000 ,
-0.0000000000, 0.0000000000, 0.0000000000 
,
-0.0000000000, 0.0000000000, -0.0000000000 ,
-0.0000000000, -0.0000000000, -0.0000000000 ,
0.0000000000, 0.0000000000, -0.0000000000 
,
-0.0000000000, -0.0000000000, -0.0000000000 ,
-0.0000000000, 0.0000000000, -0.0000000000 ,
-0.0000000000, -0.0000000000, -0.0000000000 
,
0.0000000000, -0.0000000000, 0.0000000000 ,
0.0000000000, 0.0000000000, 0.0000000000 ,
0.0000000000, 0.0000000000, -0.0000000000 
,
-0.0000000000, 0.0000000000, 0.0000000000 ,
0.0000000000, -0.0000000000, 0.0000000000 ,
0.0000000000, 0.0000000000, 0.0000000000 
,
0.0000000000, 0.0000000000, 0.0000000000 ,
-0.0000000000, 0.0000000000, -0.0000000000 ,
0.0000000000, -0.0000000000, 0.0000000000 
,
-0.0000000000, 0.0000000000, -0.0000000000 ,
-0.0000000000, 0.0000000000, 0.0000000000 ,
0.0000000000, 0.0000000000, -0.0000000000 
,
-0.0000000000, -0.0000000000, -0.0000000000 ,
0.0000000000, 0.0000000000, 0.0000000000 ,
-0.0000000000, 0.0000000000, -0.0000000000 
,
0.0000000000, 0.0000000000, -0.0000000000 ,
0.0000000000, 0.0000000000, 0.0000000000 ,
0.0000000000, 0.0000000000, 0.0000000000 
,
-0.0000000000, -0.0000000000, -0.0000000000 ,
-0.0000000000, 0.0000000000, -0.0000000000 ,
0.0000000000, -0.0000000000, -0.0000000000 
,
0.0000000000, -0.0000000000, -0.0000000000 ,
-0.0000000000, 0.0000000000, -0.0000000000 ,
0.0000000000, 0.0000000000, -0.0000000000 
,
0.0000000000, 0.0000000000, 0.0000000000 ,
0.0000000000, -0.0000000000, 0.0000000000 ,
-0.0000000000, -0.0000000000, -0.0000000000 
,
0.0000000000, 0.0000000000, -0.0000000000 ,
0.0000000000, 0.0000000000, -0.0000000000 ,
0.0000000000, 0.0000000000, -0.0000000000 
,
0.0000000000, -0.0000000000, -0.0000000000 ,
0.0000000000, -0.0000000000, 0.0000000000 ,
-0.0000000000, 0.0000000000, -0.0000000000 
,
0.0000000000, -0.0000000000, 0.0000000000 ,
-0.0000000000, -0.0000000000, 0.0000000000 ,
0.0000000000, 0.0000000000, -0.0000000000 
,
-0.0000000000, -0.0000000000, 0.0000000000 ,
-0.0000000000, -0.0000000000, 0.0000000000 ,
0.0000000000, -0.0000000000, -0.0000000000 
,
-0.0000000000, -0.0000000000, 0.0000000000 ,
0.0000000000, -0.0000000000, 0.0000000000 ,
-0.0000000000, -0.0000000000, -0.0000000000 
,
-0.0000000000, 0.0000000000, 0.0000000000 ,
-0.0000000000, 0.0000000000, -0.0000000000 ,
-0.0000000000, 0.0000000000, 0.0000000000 
,
0.0000000000, -0.0000000000, 0.0000000000 ,
0.0000000000, -0.0000000000, -0.0000000000 ,
0.0000000000, 0.0000000000, -0.0000000000 
,
-0.0000000000, -0.0000000000, -0.0000000000 ,
0.0000000000, -0.0000000000, -0.0000000000 ,
-0.0000000000, -0.0000000000, -0.0000000000 
,
0.0000000000, -0.0000000000, -0.0000000000 ,
-0.0000000000, 0.0000000000, -0.0000000000 ,
-0.0000000000, 0.0000000000, -0.0000000000 
,
0.0000000000, 0.0000000000, 0.0000000000 ,
-0.0000000000, 0.0000000000, 0.0000000000 ,
0.0000000000, 0.0000000000, -0.0000000000 
,
-0.0000000000, -0.0000000000, -0.0000000000 ,
-0.0000000000, -0.0000000000, 0.0000000000 ,
0.0000000000, 0.0000000000, -0.0000000000 
,
0.0000000000, 0.0000000000, -0.0000000000 ,
-0.0000000000, -0.0000000000, -0.0000000000 ,
-0.0000000000, -0.0000000000, 0.0000000000 
,
-0.0000000000, 0.0000000000, -0.0000000000 ,
-0.0000000000, 0.0000000000, -0.0000000000 ,
-0.0000000000, -0.0000000000, 0.0000000000 
,
-0.0000000000, 0.0000000000, -0.0000000000 ,
-0.0000000000, -0.0000000000, -0.0000000000 ,
-0.0000000000, -0.0000000000, 0.0000000000 
,
0.0000000000, -0.0000000000, -0.0000000000 ,
0.0000000000, 0.0000000000, 0.0000000000 ,
0.0000000000, -0.0000000000, -0.0000000000 
,
0.0000000000, 0.0000000000, -0.0000000000 ,
-0.0000000000, -0.0000000000, -0.0000000000 ,
-0.0000000000, 0.0000000000, -0.0000000000 
,
-0.0000000000, -0.0000000000, 0.0000000000 ,
-0.0000000000, -0.0000000000, 0.0000000000 ,
0.0000000000, -0.0000000000, -0.0000000000 
,
0.0000000000, 0.0000000000, 0.0000000000 ,
0.0000000000, 0.0000000000, -0.0000000000 ,
0.0000000000, -0.0000000000, -0.0000000000 
,
0.0000000000, 0.0000000000, -0.0000000000 ,
-0.0000000000, 0.0000000000, 0.0000000000 ,
-0.0000000000, 0.0000000000, -0.0000000000 
,
-0.0000000000, -0.0000000000, -0.0000000000 ,
-0.0000000000, -0.0000000000, -0.0000000000 ,
0.0000000000, -0.0000000000, 0.0000000000 
,
-0.0000000000, -0.0000000000, -0.0000000000 ,
-0.0000000000, 0.0000000000, -0.0000000000 ,
-0.0000000000, 0.0000000000, -0.0000000000 
,
0.0000000000, 0.0000000000, 0.0000000000 ,
0.0000000000, -0.0000000000, -0.0000000000 ,
-0.0000000000, -0.0000000000, -0.0000000000 
,
-0.0000000000, -0.0000000000, 0.0000000000 ,
0.0000000000, -0.0000000000, 0.0000000000 ,
-0.0000000000, -0.0000000000, -0.0000000000 
,
-0.0000000000, 0.0000000000, 0.0000000000 ,
-0.0000000000, 0.0000000000, -0.0000000000 ,
0.0000000000, -0.0000000000, -0.0000000000 
,
-0.0000000000, -0.0000000000, -0.0000000000 ,
-0.0000000000, 0.0000000000, 0.0000000000 ,
-0.0000000000, -0.0000000000, 0.0000000000 
,
-0.0000000000, -0.0000000000, -0.0000000000 ,
0.0000000000, -0.0000000000, -0.0000000000 ,
-0.0000000000, -0.0000000000, 0.0000000000 
,
0.0000000000, -0.0000000000, -0.0000000000 ,
0.0000000000, 0.0000000000, -0.0000000000 ,
-0.0000000000, -0.0000000000, 0.0000000000 

,
-0.0000000000, -0.0000000000, -0.0000000000 ,
-0.0000000000, 0.0000000000, -0.0000000000 ,
-0.0000000000, -0.0000000000, -0.0000000000 
,
-0.0000000000, -0.0000000000, -0.0000000000 ,
0.0000000000, -0.0000000000, 0.0000000000 ,
-0.0000000000, 0.0000000000, -0.0000000000 
,
0.0000000000, -0.0000000000, -0.0000000000 ,
-0.0000000000, 0.0000000000, 0.0000000000 ,
-0.0000000000, -0.0000000000, -0.0000000000 
,
-0.0000000000, 0.0000000000, 0.0000000000 ,
-0.0000000000, -0.0000000000, 0.0000000000 ,
0.0000000000, 0.0000000000, -0.0000000000 
,
0.0000000000, -0.0000000000, 0.0000000000 ,
0.0000000000, 0.0000000000, 0.0000000000 ,
-0.0000000000, -0.0000000000, -0.0000000000 
,
-0.0000000000, -0.0000000000, 0.0000000000 ,
-0.0000000000, 0.0000000000, -0.0000000000 ,
-0.0000000000, -0.0000000000, 0.0000000000 
,
-0.0000000000, 0.0000000000, 0.0000000000 ,
-0.0000000000, -0.0000000000, -0.0000000000 ,
-0.0000000000, -0.0000000000, -0.0000000000 
,
-0.0000000000, 0.0000000000, 0.0000000000 ,
0.0000000000, -0.0000000000, -0.0000000000 ,
-0.0000000000, -0.0000000000, -0.0000000000 
,
-0.0000000000, -0.0000000000, 0.0000000000 ,
-0.0000000000, 0.0000000000, -0.0000000000 ,
-0.0000000000, 0.0000000000, 0.0000000000 
,
-0.0000000000, -0.0000000000, -0.0000000000 ,
-0.0000000000, -0.0000000000, 0.0000000000 ,
-0.0000000000, -0.0000000000, -0.0000000000 
,
0.0000000000, -0.0000000000, 0.0000000000 ,
-0.0000000000, -0.0000000000, -0.0000000000 ,
-0.0000000000, -0.0000000000, -0.0000000000 
,
-0.0000000000, 0.0000000000, 0.0000000000 ,
-0.0000000000, 0.0000000000, 0.0000000000 ,
0.0000000000, 0.0000000000, 0.0000000000 
,
-0.0000000000, 0.0000000000, 0.0000000000 ,
-0.0000000000, -0.0000000000, 0.0000000000 ,
-0.0000000000, -0.0000000000, -0.0000000000 
,
0.0000000000, -0.0000000000, 0.0000000000 ,
0.0000000000, -0.0000000000, 0.0000000000 ,
-0.0000000000, -0.0000000000, 0.0000000000 
,
-0.0000000000, -0.0000000000, 0.0000000000 ,
0.0000000000, -0.0000000000, -0.0000000000 ,
0.0000000000, 0.0000000000, -0.0000000000 
,
0.0000000000, -0.0000000000, -0.0000000000 ,
-0.0000000000, 0.0000000000, -0.0000000000 ,
-0.0000000000, -0.0000000000, -0.0000000000 
,
-0.0000000000, -0.0000000000, 0.0000000000 ,
-0.0000000000, -0.0000000000, 0.0000000000 ,
0.0000000000, -0.0000000000, -0.0000000000 
,
-0.0000000000, -0.0000000000, 0.0000000000 ,
0.0000000000, 0.0000000000, -0.0000000000 ,
-0.0000000000, 0.0000000000, 0.0000000000 
,
-0.0000000000, -0.0000000000, -0.0000000000 ,
0.0000000000, -0.0000000000, 0.0000000000 ,
-0.0000000000, 0.0000000000, -0.0000000000 
,
0.0000000000, -0.0000000000, -0.0000000000 ,
-0.0000000000, -0.0000000000, -0.0000000000 ,
0.0000000000, 0.0000000000, -0.0000000000 
,
-0.0000000000, 0.0000000000, -0.0000000000 ,
0.0000000000, -0.0000000000, -0.0000000000 ,
0.0000000000, 0.0000000000, -0.0000000000 
,
-0.0000000000, -0.0000000000, -0.0000000000 ,
0.0000000000, -0.0000000000, 0.0000000000 ,
-0.0000000000, -0.0000000000, 0.0000000000 
,
-0.0000000000, -0.0000000000, 0.0000000000 ,
0.0000000000, 0.0000000000, 0.0000000000 ,
-0.0000000000, -0.0000000000, -0.0000000000 
,
0.0000000000, 0.0000000000, -0.0000000000 ,
-0.0000000000, 0.0000000000, 0.0000000000 ,
-0.0000000000, -0.0000000000, -0.0000000000 
,
-0.0000000000, 0.0000000000, -0.0000000000 ,
0.0000000000, 0.0000000000, 0.0000000000 ,
-0.0000000000, 0.0000000000, -0.0000000000 
,
-0.0000000000, -0.0000000000, 0.0000000000 ,
-0.0000000000, -0.0000000000, -0.0000000000 ,
0.0000000000, -0.0000000000, 0.0000000000 
,
-0.0000000000, -0.0000000000, 0.0000000000 ,
-0.0000000000, -0.0000000000, 0.0000000000 ,
0.0000000000, 0.0000000000, 0.0000000000 
,
-0.0000000000, -0.0000000000, -0.0000000000 ,
0.0000000000, 0.0000000000, 0.0000000000 ,
0.0000000000, 0.0000000000, 0.0000000000 
,
-0.0000000000, -0.0000000000, 0.0000000000 ,
-0.0000000000, -0.0000000000, -0.0000000000 ,
-0.0000000000, 0.0000000000, -0.0000000000 
,
-0.0000000000, 0.0000000000, -0.0000000000 ,
-0.0000000000, -0.0000000000, -0.0000000000 ,
-0.0000000000, -0.0000000000, -0.0000000000 
,
-0.0000000000, 0.0000000000, -0.0000000000 ,
-0.0000000000, -0.0000000000, -0.0000000000 ,
0.0000000000, 0.0000000000, 0.0000000000 
,
-0.0000000000, 0.0000000000, -0.0000000000 ,
-0.0000000000, 0.0000000000, -0.0000000000 ,
-0.0000000000, -0.0000000000, 0.0000000000 
,
0.0000000000, 0.0000000000, -0.0000000000 ,
-0.0000000000, 0.0000000000, 0.0000000000 ,
-0.0000000000, -0.0000000000, -0.0000000000 
,
-0.0000000000, -0.0000000000, -0.0000000000 ,
-0.0000000000, -0.0000000000, 0.0000000000 ,
0.0000000000, -0.0000000000, -0.0000000000 
,
-0.0000000000, 0.0000000000, 0.0000000000 ,
0.0000000000, 0.0000000000, -0.0000000000 ,
0.0000000000, 0.0000000000, -0.0000000000 
,
0.0000000000, -0.0000000000, -0.0000000000 ,
-0.0000000000, -0.0000000000, -0.0000000000 ,
-0.0000000000, -0.0000000000, -0.0000000000 
,
0.0000000000, 0.0000000000, -0.0000000000 ,
-0.0000000000, 0.0000000000, 0.0000000000 ,
-0.0000000000, -0.0000000000, -0.0000000000 
,
0.0000000000, 0.0000000000, 0.0000000000 ,
-0.0000000000, -0.0000000000, 0.0000000000 ,
-0.0000000000, 0.0000000000, -0.0000000000 
,
0.0000000000, -0.0000000000, -0.0000000000 ,
-0.0000000000, -0.0000000000, 0.0000000000 ,
0.0000000000, -0.0000000000, 0.0000000000 
,
-0.0000000000, -0.0000000000, 0.0000000000 ,
-0.0000000000, -0.0000000000, -0.0000000000 ,
0.0000000000, -0.0000000000, 0.0000000000 
,
-0.0000000000, 0.0000000000, 0.0000000000 ,
-0.0000000000, 0.0000000000, -0.0000000000 ,
-0.0000000000, -0.0000000000, -0.0000000000 
,
-0.0000000000, 0.0000000000, 0.0000000000 ,
0.0000000000, 0.0000000000, -0.0000000000 ,
-0.0000000000, -0.0000000000, 0.0000000000 
,
-0.0000000000, 0.0000000000, 0.0000000000 ,
-0.0000000000, -0.0000000000, -0.0000000000 ,
-0.0000000000, -0.0000000000, -0.0000000000 
,
-0.0000000000, -0.0000000000, -0.0000000000 ,
-0.0000000000, -0.0000000000, 0.0000000000 ,
0.0000000000, 0.0000000000, -0.0000000000 
,
0.0000000000, -0.0000000000, -0.0000000000 ,
-0.0000000000, -0.0000000000, -0.0000000000 ,
-0.0000000000, -0.0000000000, 0.0000000000 
,
-0.0000000000, -0.0000000000, -0.0000000000 ,
-0.0000000000, -0.0000000000, -0.0000000000 ,
0.0000000000, -0.0000000000, 0.0000000000 
,
-0.0000000000, -0.0000000000, -0.0000000000 ,
-0.0000000000, 0.0000000000, 0.0000000000 ,
0.0000000000, -0.0000000000, -0.0000000000 
,
0.0000000000, -0.0000000000, 0.0000000000 ,
0.0000000000, -0.0000000000, -0.0000000000 ,
-0.0000000000, 0.0000000000, 0.0000000000 
,
0.0000000000, 0.0000000000, 0.0000000000 ,
-0.0000000000, 0.0000000000, -0.0000000000 ,
-0.0000000000, -0.0000000000, -0.0000000000 
,
0.0000000000, -0.0000000000, -0.0000000000 ,
-0.0000000000, 0.0000000000, -0.0000000000 ,
0.0000000000, 0.0000000000, -0.0000000000 
,
-0.0000000000, -0.0000000000, 0.0000000000 ,
-0.0000000000, -0.0000000000, -0.0000000000 ,
-0.0000000000, 0.0000000000, -0.0000000000 
,
0.0000000000, 0.0000000000, -0.0000000000 ,
-0.0000000000, -0.0000000000, -0.0000000000 ,
-0.0000000000, -0.0000000000, 0.0000000000 
,
-0.0000000000, -0.0000000000, 0.0000000000 ,
-0.0000000000, -0.0000000000, -0.0000000000 ,
-0.0000000000, 0.0000000000, -0.0000000000 
,
-0.0000000000, -0.0000000000, -0.0000000000 ,
0.0000000000, -0.0000000000, -0.0000000000 ,
0.0000000000, -0.0000000000, 0.0000000000 
,
0.0000000000, -0.0000000000, 0.0000000000 ,
0.0000000000, 0.0000000000, -0.0000000000 ,
0.0000000000, -0.0000000000, -0.0000000000 
,
0.0000000000, 0.0000000000, -0.0000000000 ,
-0.0000000000, -0.0000000000, -0.0000000000 ,
-0.0000000000, 0.0000000000, 0.0000000000 
,
-0.0000000000, -0.0000000000, -0.0000000000 ,
-0.0000000000, -0.0000000000, 0.0000000000 ,
-0.0000000000, -0.0000000000, -0.0000000000 
,
-0.0000000000, 0.0000000000, -0.0000000000 ,
-0.0000000000, 0.0000000000, -0.0000000000 ,
0.0000000000, -0.0000000000, -0.0000000000 
,
0.0000000000, -0.0000000000, -0.0000000000 ,
-0.0000000000, -0.0000000000, -0.0000000000 ,
0.0000000000, -0.0000000000, 0.0000000000 
,
-0.0000000000, 0.0000000000, 0.0000000000 ,
0.0000000000, -0.0000000000, -0.0000000000 ,
-0.0000000000, -0.0000000000, 0.0000000000 
,
-0.0000000000, -0.0000000000, 0.0000000000 ,
-0.0000000000, -0.0000000000, 0.0000000000 ,
-0.0000000000, -0.0000000000, -0.0000000000 
,
0.0000000000, -0.0000000000, -0.0000000000 ,
-0.0000000000, -0.0000000000, 0.0000000000 ,
-0.0000000000, -0.0000000000, 0.0000000000 
,
-0.0000000000, 0.0000000000, 0.0000000000 ,
-0.0000000000, -0.0000000000, 0.0000000000 ,
0.0000000000, -0.0000000000, -0.0000000000 
,
-0.0000000000, 0.0000000000, -0.0000000000 ,
0.0000000000, 0.0000000000, -0.0000000000 ,
-0.0000000000, 0.0000000000, 0.0000000000 

,
-0.0000000000, -0.0000000000, -0.0000000000 ,
0.0000000000, -0.0000000000, -0.0000000000 ,
-0.0000000000, -0.0000000000, 0.0000000000 
,
0.0000000000, 0.0000000000, 0.0000000000 ,
0.0000000000, -0.0000000000, -0.0000000000 ,
0.0000000000, -0.0000000000, -0.0000000000 
,
-0.0000000000, -0.0000000000, -0.0000000000 ,
0.0000000000, 0.0000000000, 0.0000000000 ,
-0.0000000000, 0.0000000000, -0.0000000000 
,
0.0000000000, 0.0000000000, -0.0000000000 ,
0.0000000000, 0.0000000000, 0.0000000000 ,
-0.0000000000, 0.0000000000, -0.0000000000 
,
-0.0000000000, 0.0000000000, -0.0000000000 ,
-0.0000000000, -0.0000000000, 0.0000000000 ,
0.0000000000, -0.0000000000, -0.0000000000 
,
0.0000000000, -0.0000000000, -0.0000000000 ,
0.0000000000, 0.0000000000, 0.0000000000 ,
0.0000000000, -0.0000000000, 0.0000000000 
,
0.0000000000, 0.0000000000, -0.0000000000 ,
0.0000000000, -0.0000000000, 0.0000000000 ,
-0.0000000000, -0.0000000000, 0.0000000000 
,
0.0000000000, -0.0000000000, -0.0000000000 ,
0.0000000000, 0.0000000000, -0.0000000000 ,
-0.0000000000, 0.0000000000, -0.0000000000 
,
-0.0000000000, -0.0000000000, -0.0000000000 ,
-0.0000000000, 0.0000000000, 0.0000000000 ,
-0.0000000000, -0.0000000000, -0.0000000000 
,
-0.0000000000, -0.0000000000, -0.0000000000 ,
-0.0000000000, -0.0000000000, -0.0000000000 ,
-0.0000000000, 0.0000000000, -0.0000000000 
,
0.0000000000, 0.0000000000, 0.0000000000 ,
0.0000000000, 0.0000000000, 0.0000000000 ,
0.0000000000, -0.0000000000, 0.0000000000 
,
0.0000000000, 0.0000000000, -0.0000000000 ,
0.0000000000, -0.0000000000, -0.0000000000 ,
-0.0000000000, -0.0000000000, 0.0000000000 
,
0.0000000000, -0.0000000000, -0.0000000000 ,
0.0000000000, 0.0000000000, 0.0000000000 ,
0.0000000000, 0.0000000000, 0.0000000000 
,
0.0000000000, -0.0000000000, 0.0000000000 ,
-0.0000000000, 0.0000000000, -0.0000000000 ,
-0.0000000000, -0.0000000000, -0.0000000000 
,
0.0000000000, 0.0000000000, -0.0000000000 ,
-0.0000000000, 0.0000000000, 0.0000000000 ,
-0.0000000000, 0.0000000000, -0.0000000000 
,
0.0000000000, -0.0000000000, 0.0000000000 ,
-0.0000000000, -0.0000000000, -0.0000000000 ,
0.0000000000, -0.0000000000, -0.0000000000 
,
-0.0000000000, 0.0000000000, -0.0000000000 ,
0.0000000000, 0.0000000000, 0.0000000000 ,
-0.0000000000, 0.0000000000, -0.0000000000 
,
-0.0000000000, 0.0000000000, -0.0000000000 ,
-0.0000000000, 0.0000000000, -0.0000000000 ,
0.0000000000, -0.0000000000, 0.0000000000 
,
-0.0000000000, -0.0000000000, -0.0000000000 ,
0.0000000000, -0.0000000000, -0.0000000000 ,
0.0000000000, 0.0000000000, 0.0000000000 
,
0.0000000000, 0.0000000000, -0.0000000000 ,
0.0000000000, -0.0000000000, -0.0000000000 ,
0.0000000000, -0.0000000000, 0.0000000000 
,
-0.0000000000, -0.0000000000, 0.0000000000 ,
-0.0000000000, -0.0000000000, -0.0000000000 ,
-0.0000000000, -0.0000000000, -0.0000000000 
,
-0.0000000000, 0.0000000000, -0.0000000000 ,
-0.0000000000, 0.0000000000, -0.0000000000 ,
-0.0000000000, -0.0000000000, 0.0000000000 
,
0.0000000000, 0.0000000000, -0.0000000000 ,
-0.0000000000, 0.0000000000, -0.0000000000 ,
-0.0000000000, 0.0000000000, 0.0000000000 
,
-0.0000000000, -0.0000000000, 0.0000000000 ,
0.0000000000, -0.0000000000, -0.0000000000 ,
0.0000000000, 0.0000000000, 0.0000000000 
,
-0.0000000000, 0.0000000000, 0.0000000000 ,
-0.0000000000, -0.0000000000, -0.0000000000 ,
0.0000000000, -0.0000000000, -0.0000000000 
,
0.0000000000, -0.0000000000, 0.0000000000 ,
-0.0000000000, 0.0000000000, -0.0000000000 ,
0.0000000000, 0.0000000000, -0.0000000000 
,
0.0000000000, 0.0000000000, -0.0000000000 ,
0.0000000000, -0.0000000000, 0.0000000000 ,
0.0000000000, 0.0000000000, 0.0000000000 
,
-0.0000000000, 0.0000000000, -0.0000000000 ,
-0.0000000000, 0.0000000000, 0.0000000000 ,
0.0000000000, 0.0000000000, 0.0000000000 
,
0.0000000000, -0.0000000000, 0.0000000000 ,
-0.0000000000, 0.0000000000, 0.0000000000 ,
-0.0000000000, -0.0000000000, 0.0000000000 
,
0.0000000000, -0.0000000000, -0.0000000000 ,
-0.0000000000, -0.0000000000, 0.0000000000 ,
-0.0000000000, -0.0000000000, 0.0000000000 
,
-0.0000000000, -0.0000000000, -0.0000000000 ,
-0.0000000000, -0.0000000000, -0.0000000000 ,
-0.0000000000, -0.0000000000, -0.0000000000 
,
0.0000000000, -0.0000000000, -0.0000000000 ,
-0.0000000000, 0.0000000000, 0.0000000000 ,
0.0000000000, -0.0000000000, -0.0000000000 
,
0.0000000000, -0.0000000000, -0.0000000000 ,
0.0000000000, 0.0000000000, -0.0000000000 ,
0.0000000000, -0.0000000000, 0.0000000000 
,
-0.0000000000, -0.0000000000, 0.0000000000 ,
0.0000000000, -0.0000000000, 0.0000000000 ,
0.0000000000, -0.0000000000, -0.0000000000 
,
-0.0000000000, 0.0000000000, -0.0000000000 ,
0.0000000000, -0.0000000000, -0.0000000000 ,
-0.0000000000, -0.0000000000, -0.0000000000 
,
0.0000000000, -0.0000000000, -0.0000000000 ,
-0.0000000000, 0.0000000000, -0.0000000000 ,
-0.0000000000, -0.0000000000, -0.0000000000 
,
-0.0000000000, 0.0000000000, -0.0000000000 ,
0.0000000000, -0.0000000000, -0.0000000000 ,
-0.0000000000, 0.0000000000, 0.0000000000 
,
-0.0000000000, -0.0000000000, -0.0000000000 ,
0.0000000000, -0.0000000000, -0.0000000000 ,
-0.0000000000, 0.0000000000, -0.0000000000 
,
0.0000000000, -0.0000000000, 0.0000000000 ,
-0.0000000000, 0.0000000000, -0.0000000000 ,
-0.0000000000, 0.0000000000, 0.0000000000 
,
-0.0000000000, -0.0000000000, -0.0000000000 ,
0.0000000000, -0.0000000000, -0.0000000000 ,
-0.0000000000, -0.0000000000, 0.0000000000 
,
0.0000000000, 0.0000000000, 0.0000000000 ,
0.0000000000, -0.0000000000, -0.0000000000 ,
0.0000000000, -0.0000000000, 0.0000000000 
,
0.0000000000, 0.0000000000, 0.0000000000 ,
-0.0000000000, 0.0000000000, -0.0000000000 ,
-0.0000000000, 0.0000000000, 0.0000000000 
,
-0.0000000000, 0.0000000000, -0.0000000000 ,
-0.0000000000, 0.0000000000, -0.0000000000 ,
-0.0000000000, 0.0000000000, 0.0000000000 
,
0.0000000000, -0.0000000000, -0.0000000000 ,
0.0000000000, -0.0000000000, 0.0000000000 ,
-0.0000000000, -0.0000000000, 0.0000000000 
,
-0.0000000000, 0.0000000000, -0.0000000000 ,
-0.0000000000, -0.0000000000, -0.0000000000 ,
-0.0000000000, -0.0000000000, -0.0000000000 
,
0.0000000000, 0.0000000000, 0.0000000000 ,
0.0000000000, -0.0000000000, -0.0000000000 ,
-0.0000000000, 0.0000000000, 0.0000000000 
,
0.0000000000, -0.0000000000, 0.0000000000 ,
0.0000000000, 0.0000000000, 0.0000000000 ,
-0.0000000000, -0.0000000000, -0.0000000000 
,
-0.0000000000, -0.0000000000, -0.0000000000 ,
-0.0000000000, 0.0000000000, -0.0000000000 ,
0.0000000000, -0.0000000000, -0.0000000000 
,
-0.0000000000, 0.0000000000, 0.0000000000 ,
-0.0000000000, -0.0000000000, 0.0000000000 ,
0.0000000000, -0.0000000000, 0.0000000000 
,
0.0000000000, 0.0000000000, -0.0000000000 ,
-0.0000000000, 0.0000000000, 0.0000000000 ,
-0.0000000000, -0.0000000000, -0.0000000000 
,
0.0000000000, -0.0000000000, 0.0000000000 ,
-0.0000000000, 0.0000000000, 0.0000000000 ,
-0.0000000000, 0.0000000000, 0.0000000000 
,
0.0000000000, -0.0000000000, 0.0000000000 ,
0.0000000000, -0.0000000000, 0.0000000000 ,
-0.0000000000, 0.0000000000, 0.0000000000 
,
0.0000000000, 0.0000000000, -0.0000000000 ,
-0.0000000000, -0.0000000000, 0.0000000000 ,
-0.0000000000, -0.0000000000, -0.0000000000 
,
0.0000000000, -0.0000000000, -0.0000000000 ,
-0.0000000000, -0.0000000000, 0.0000000000 ,
-0.0000000000, 0.0000000000, -0.0000000000 
,
0.0000000000, -0.0000000000, -0.0000000000 ,
-0.0000000000, -0.0000000000, -0.0000000000 ,
-0.0000000000, 0.0000000000, -0.0000000000 
,
0.0000000000, -0.0000000000, 0.0000000000 ,
0.0000000000, -0.0000000000, -0.0000000000 ,
0.0000000000, 0.0000000000, -0.0000000000 
,
-0.0000000000, -0.0000000000, 0.0000000000 ,
0.0000000000, 0.0000000000, 0.0000000000 ,
-0.0000000000, -0.0000000000, 0.0000000000 
,
-0.0000000000, 0.0000000000, 0.0000000000 ,
-0.0000000000, -0.0000000000, -0.0000000000 ,
-0.0000000000, -0.0000000000, 0.0000000000 
,
0.0000000000, -0.0000000000, -0.0000000000 ,
0.0000000000, 0.0000000000, 0.0000000000 ,
-0.0000000000, 0.0000000000, -0.0000000000 
,
-0.0000000000, 0.0000000000, -0.0000000000 ,
0.0000000000, -0.0000000000, -0.0000000000 ,
-0.0000000000, -0.0000000000, 0.0000000000 
,
-0.0000000000, 0.0000000000, -0.0000000000 ,
0.0000000000, 0.0000000000, -0.0000000000 ,
-0.0000000000, -0.0000000000, -0.0000000000 
,
0.0000000000, -0.0000000000, -0.0000000000 ,
0.0000000000, 0.0000000000, 0.0000000000 ,
0.0000000000, 0.0000000000, 0.0000000000 
,
-0.0000000000, 0.0000000000, -0.0000000000 ,
-0.0000000000, -0.0000000000, -0.0000000000 ,
-0.0000000000, 0.0000000000, -0.0000000000 
,
-0.0000000000, 0.0000000000, 0.0000000000 ,
-0.0000000000, -0.0000000000, 0.0000000000 ,
-0.0000000000, 0.0000000000, -0.0000000000 

,
0.0000000000, -0.0000000000, -0.0000000000 ,
-0.0000000000, -0.0000000000, 0.0000000000 ,
0.0000000000, -0.0000000000, 0.0000000000 
,
-0.0000000000, 0.0000000000, -0.0000000000 ,
-0.0000000000, -0.0000000000, -0.0000000000 ,
-0.0000000000, -0.0000000000, 0.0000000000 
,
0.0000000000, -0.0000000000, -0.0000000000 ,
-0.0000000000, -0.0000000000, -0.0000000000 ,
-0.0000000000, -0.0000000000, -0.0000000000 
,
-0.0000000000, -0.0000000000, 0.0000000000 ,
0.0000000000, 0.0000000000, -0.0000000000 ,
0.0000000000, -0.0000000000, 0.0000000000 
,
0.0000000000, -0.0000000000, -0.0000000000 ,
0.0000000000, -0.0000000000, 0.0000000000 ,
-0.0000000000, 0.0000000000, 0.0000000000 
,
-0.0000000000, 0.0000000000, 0.0000000000 ,
-0.0000000000, 0.0000000000, 0.0000000000 ,
-0.0000000000, 0.0000000000, -0.0000000000 
,
0.0000000000, -0.0000000000, 0.0000000000 ,
0.0000000000, -0.0000000000, -0.0000000000 ,
-0.0000000000, -0.0000000000, -0.0000000000 
,
-0.0000000000, -0.0000000000, 0.0000000000 ,
-0.0000000000, -0.0000000000, -0.0000000000 ,
-0.0000000000, -0.0000000000, -0.0000000000 
,
-0.0000000000, -0.0000000000, 0.0000000000 ,
-0.0000000000, -0.0000000000, -0.0000000000 ,
-0.0000000000, 0.0000000000, -0.0000000000 
,
0.0000000000, 0.0000000000, -0.0000000000 ,
0.0000000000, -0.0000000000, -0.0000000000 ,
-0.0000000000, 0.0000000000, -0.0000000000 
,
0.0000000000, 0.0000000000, -0.0000000000 ,
0.0000000000, 0.0000000000, -0.0000000000 ,
0.0000000000, 0.0000000000, 0.0000000000 
,
-0.0000000000, 0.0000000000, -0.0000000000 ,
-0.0000000000, 0.0000000000, -0.0000000000 ,
0.0000000000, -0.0000000000, 0.0000000000 
,
-0.0000000000, 0.0000000000, 0.0000000000 ,
-0.0000000000, -0.0000000000, 0.0000000000 ,
-0.0000000000, 0.0000000000, -0.0000000000 
,
0.0000000000, -0.0000000000, 0.0000000000 ,
0.0000000000, 0.0000000000, 0.0000000000 ,
-0.0000000000, -0.0000000000, -0.0000000000 
,
-0.0000000000, -0.0000000000, -0.0000000000 ,
-0.0000000000, -0.0000000000, -0.0000000000 ,
-0.0000000000, -0.0000000000, -0.0000000000 
,
0.0000000000, -0.0000000000, -0.0000000000 ,
-0.0000000000, 0.0000000000, -0.0000000000 ,
0.0000000000, -0.0000000000, 0.0000000000 
,
-0.0000000000, -0.0000000000, -0.0000000000 ,
-0.0000000000, 0.0000000000, -0.0000000000 ,
-0.0000000000, -0.0000000000, -0.0000000000 
,
-0.0000000000, 0.0000000000, 0.0000000000 ,
-0.0000000000, -0.0000000000, -0.0000000000 ,
-0.0000000000, -0.0000000000, 0.0000000000 
,
-0.0000000000, -0.0000000000, -0.0000000000 ,
0.0000000000, -0.0000000000, -0.0000000000 ,
0.0000000000, -0.0000000000, -0.0000000000 
,
-0.0000000000, -0.0000000000, -0.0000000000 ,
-0.0000000000, 0.0000000000, 0.0000000000 ,
-0.0000000000, -0.0000000000, -0.0000000000 
,
0.0000000000, 0.0000000000, -0.0000000000 ,
0.0000000000, -0.0000000000, -0.0000000000 ,
-0.0000000000, 0.0000000000, -0.0000000000 
,
-0.0000000000, -0.0000000000, 0.0000000000 ,
0.0000000000, 0.0000000000, 0.0000000000 ,
-0.0000000000, 0.0000000000, -0.0000000000 
,
0.0000000000, 0.0000000000, 0.0000000000 ,
0.0000000000, 0.0000000000, 0.0000000000 ,
0.0000000000, 0.0000000000, 0.0000000000 
,
-0.0000000000, -0.0000000000, 0.0000000000 ,
-0.0000000000, 0.0000000000, 0.0000000000 ,
0.0000000000, 0.0000000000, -0.0000000000 
,
0.0000000000, -0.0000000000, -0.0000000000 ,
0.0000000000, -0.0000000000, -0.0000000000 ,
-0.0000000000, 0.0000000000, 0.0000000000 
,
0.0000000000, 0.0000000000, -0.0000000000 ,
0.0000000000, -0.0000000000, -0.0000000000 ,
0.0000000000, 0.0000000000, 0.0000000000 
,
-0.0000000000, -0.0000000000, -0.0000000000 ,
0.0000000000, 0.0000000000, -0.0000000000 ,
-0.0000000000, -0.0000000000, -0.0000000000 
,
-0.0000000000, 0.0000000000, -0.0000000000 ,
-0.0000000000, -0.0000000000, -0.0000000000 ,
0.0000000000, -0.0000000000, -0.0000000000 
,
0.0000000000, 0.0000000000, 0.0000000000 ,
-0.0000000000, 0.0000000000, -0.0000000000 ,
0.0000000000, 0.0000000000, 0.0000000000 
,
-0.0000000000, 0.0000000000, 0.0000000000 ,
-0.0000000000, 0.0000000000, -0.0000000000 ,
-0.0000000000, -0.0000000000, -0.0000000000 
,
0.0000000000, 0.0000000000, -0.0000000000 ,
-0.0000000000, -0.0000000000, 0.0000000000 ,
-0.0000000000, -0.0000000000, -0.0000000000 
,
0.0000000000, -0.0000000000, -0.0000000000 ,
-0.0000000000, 0.0000000000, -0.0000000000 ,
-0.0000000000, 0.0000000000, -0.0000000000 
,
0.0000000000, -0.0000000000, 0.0000000000 ,
-0.0000000000, 0.0000000000, -0.0000000000 ,
-0.0000000000, -0.0000000000, -0.0000000000 
,
0.0000000000, -0.0000000000, 0.0000000000 ,
-0.0000000000, -0.0000000000, 0.0000000000 ,
-0.0000000000, -0.0000000000, 0.0000000000 
,
-0.0000000000, -0.0000000000, -0.0000000000 ,
-0.0000000000, -0.0000000000, -0.0000000000 ,
-0.0000000000, -0.0000000000, -0.0000000000 
,
0.0000000000, -0.0000000000, -0.0000000000 ,
-0.0000000000, -0.0000000000, -0.0000000000 ,
-0.0000000000, 0.0000000000, 0.0000000000 
,
-0.0000000000, -0.0000000000, -0.0000000000 ,
0.0000000000, -0.0000000000, -0.0000000000 ,
-0.0000000000, 0.0000000000, -0.0000000000 
,
-0.0000000000, -0.0000000000, -0.0000000000 ,
-0.0000000000, 0.0000000000, -0.0000000000 ,
-0.0000000000, -0.0000000000, -0.0000000000 
,
-0.0000000000, -0.0000000000, -0.0000000000 ,
0.0000000000, 0.0000000000, -0.0000000000 ,
-0.0000000000, -0.0000000000, -0.0000000000 
,
-0.0000000000, 0.0000000000, -0.0000000000 ,
-0.0000000000, 0.0000000000, -0.0000000000 ,
-0.0000000000, -0.0000000000, 0.0000000000 
,
-0.0000000000, -0.0000000000, -0.0000000000 ,
-0.0000000000, -0.0000000000, 0.0000000000 ,
0.0000000000, -0.0000000000, -0.0000000000 
,
0.0000000000, -0.0000000000, 0.0000000000 ,
-0.0000000000, 0.0000000000, -0.0000000000 ,
0.0000000000, 0.0000000000, -0.0000000000 
,
0.0000000000, 0.0000000000, 0.0000000000 ,
-0.0000000000, -0.0000000000, -0.0000000000 ,
-0.0000000000, -0.0000000000, -0.0000000000 
,
0.0000000000, -0.0000000000, -0.0000000000 ,
0.0000000000, 0.0000000000, -0.0000000000 ,
0.0000000000, 0.0000000000, -0.0000000000 
,
-0.0000000000, -0.0000000000, -0.0000000000 ,
-0.0000000000, 0.0000000000, -0.0000000000 ,
0.0000000000, 0.0000000000, -0.0000000000 
,
0.0000000000, -0.0000000000, -0.0000000000 ,
0.0000000000, -0.0000000000, -0.0000000000 ,
0.0000000000, 0.0000000000, -0.0000000000 
,
-0.0000000000, -0.0000000000, -0.0000000000 ,
-0.0000000000, -0.0000000000, -0.0000000000 ,
-0.0000000000, 0.0000000000, -0.0000000000 
,
0.0000000000, 0.0000000000, -0.0000000000 ,
-0.0000000000, -0.0000000000, -0.0000000000 ,
0.0000000000, 0.0000000000, -0.0000000000 
,
0.0000000000, 0.0000000000, -0.0000000000 ,
-0.0000000000, -0.0000000000, -0.0000000000 ,
-0.0000000000, 0.0000000000, -0.0000000000 
,
0.0000000000, -0.0000000000, -0.0000000000 ,
0.0000000000, 0.0000000000, -0.0000000000 ,
-0.0000000000, 0.0000000000, -0.0000000000 
,
-0.0000000000, -0.0000000000, -0.0000000000 ,
-0.0000000000, 0.0000000000, 0.0000000000 ,
-0.0000000000, -0.0000000000, -0.0000000000 
,
-0.0000000000, -0.0000000000, -0.0000000000 ,
-0.0000000000, -0.0000000000, -0.0000000000 ,
0.0000000000, -0.0000000000, 0.0000000000 
,
-0.0000000000, -0.0000000000, 0.0000000000 ,
-0.0000000000, -0.0000000000, -0.0000000000 ,
0.0000000000, -0.0000000000, -0.0000000000 
,
-0.0000000000, 0.0000000000, -0.0000000000 ,
0.0000000000, 0.0000000000, 0.0000000000 ,
-0.0000000000, 0.0000000000, 0.0000000000 
,
0.0000000000, 0.0000000000, -0.0000000000 ,
-0.0000000000, -0.0000000000, -0.0000000000 ,
0.0000000000, -0.0000000000, -0.0000000000 
,
0.0000000000, 0.0000000000, -0.0000000000 ,
-0.0000000000, -0.0000000000, 0.0000000000 ,
0.0000000000, -0.0000000000, -0.0000000000 
,
-0.0000000000, -0.0000000000, -0.0000000000 ,
-0.0000000000, -0.0000000000, 0.0000000000 ,
0.0000000000, -0.0000000000, 0.0000000000 
,
-0.0000000000, 0.0000000000, 0.0000000000 ,
0.0000000000, -0.0000000000, 0.0000000000 ,
-0.0000000000, 0.0000000000, -0.0000000000 
,
-0.0000000000, -0.0000000000, -0.0000000000 ,
-0.0000000000, -0.0000000000, -0.0000000000 ,
0.0000000000, 0.0000000000, -0.0000000000 
,
0.0000000000, -0.0000000000, 0.0000000000 ,
0.0000000000, 0.0000000000, 0.0000000000 ,
-0.0000000000, -0.0000000000, 0.0000000000 
,
0.0000000000, -0.0000000000, 0.0000000000 ,
0.0000000000, -0.0000000000, 0.0000000000 ,
-0.0000000000, -0.0000000000, -0.0000000000 
,
-0.0000000000, -0.0000000000, -0.0000000000 ,
0.0000000000, -0.0000000000, 0.0000000000 ,
0.0000000000, -0.0000000000, -0.0000000000 
,
0.0000000000, -0.0000000000, 0.0000000000 ,
-0.0000000000, 0.0000000000, 0.0000000000 ,
-0.0000000000, -0.0000000000, -0.0000000000 
,
0.0000000000, -0.0000000000, -0.0000000000 ,
-0.0000000000, 0.0000000000, 0.0000000000 ,
-0.0000000000, -0.0000000000, 0.0000000000 

,
-0.0000000000, -0.0000000000, 0.0000000000 ,
-0.0000000000, -0.0000000000, 0.0000000000 ,
-0.0000000000, 0.0000000000, 0.0000000000 
,
-0.0000000000, 0.0000000000, 0.0000000000 ,
-0.0000000000, -0.0000000000, -0.0000000000 ,
-0.0000000000, 0.0000000000, -0.0000000000 
,
-0.0000000000, -0.0000000000, -0.0000000000 ,
0.0000000000, -0.0000000000, -0.0000000000 ,
0.0000000000, 0.0000000000, -0.0000000000 
,
-0.0000000000, -0.0000000000, -0.0000000000 ,
-0.0000000000, -0.0000000000, -0.0000000000 ,
0.0000000000, -0.0000000000, 0.0000000000 
,
-0.0000000000, -0.0000000000, -0.0000000000 ,
-0.0000000000, -0.0000000000, -0.0000000000 ,
-0.0000000000, 0.0000000000, -0.0000000000 
,
0.0000000000, 0.0000000000, 0.0000000000 ,
0.0000000000, -0.0000000000, -0.0000000000 ,
-0.0000000000, 0.0000000000, -0.0000000000 
,
-0.0000000000, -0.0000000000, 0.0000000000 ,
-0.0000000000, -0.0000000000, 0.0000000000 ,
0.0000000000, 0.0000000000, 0.0000000000 
,
0.0000000000, 0.0000000000, 0.0000000000 ,
-0.0000000000, -0.0000000000, -0.0000000000 ,
-0.0000000000, -0.0000000000, -0.0000000000 
,
-0.0000000000, -0.0000000000, -0.0000000000 ,
-0.0000000000, -0.0000000000, 0.0000000000 ,
-0.0000000000, -0.0000000000, -0.0000000000 
,
-0.0000000000, -0.0000000000, 0.0000000000 ,
0.0000000000, -0.0000000000, -0.0000000000 ,
0.0000000000, 0.0000000000, 0.0000000000 
,
-0.0000000000, -0.0000000000, -0.0000000000 ,
0.0000000000, -0.0000000000, -0.0000000000 ,
-0.0000000000, 0.0000000000, 0.0000000000 
,
-0.0000000000, 0.0000000000, 0.0000000000 ,
-0.0000000000, -0.0000000000, 0.0000000000 ,
-0.0000000000, -0.0000000000, -0.0000000000 
,
-0.0000000000, -0.0000000000, 0.0000000000 ,
0.0000000000, 0.0000000000, -0.0000000000 ,
-0.0000000000, -0.0000000000, 0.0000000000 
,
-0.0000000000, 0.0000000000, 0.0000000000 ,
-0.0000000000, -0.0000000000, 0.0000000000 ,
0.0000000000, 0.0000000000, -0.0000000000 
,
-0.0000000000, -0.0000000000, 0.0000000000 ,
-0.0000000000, -0.0000000000, -0.0000000000 ,
-0.0000000000, 0.0000000000, -0.0000000000 
,
-0.0000000000, 0.0000000000, -0.0000000000 ,
-0.0000000000, -0.0000000000, -0.0000000000 ,
0.0000000000, -0.0000000000, -0.0000000000 
,
-0.0000000000, 0.0000000000, 0.0000000000 ,
0.0000000000, 0.0000000000, -0.0000000000 ,
-0.0000000000, 0.0000000000, 0.0000000000 
,
0.0000000000, -0.0000000000, -0.0000000000 ,
-0.0000000000, -0.0000000000, 0.0000000000 ,
-0.0000000000, -0.0000000000, -0.0000000000 
,
0.0000000000, -0.0000000000, -0.0000000000 ,
-0.0000000000, -0.0000000000, 0.0000000000 ,
-0.0000000000, -0.0000000000, -0.0000000000 
,
-0.0000000000, 0.0000000000, -0.0000000000 ,
-0.0000000000, 0.0000000000, 0.0000000000 ,
-0.0000000000, 0.0000000000, -0.0000000000 
,
0.0000000000, -0.0000000000, 0.0000000000 ,
-0.0000000000, 0.0000000000, 0.0000000000 ,
-0.0000000000, 0.0000000000, 0.0000000000 
,
-0.0000000000, 0.0000000000, 0.0000000000 ,
0.0000000000, -0.0000000000, -0.0000000000 ,
-0.0000000000, 0.0000000000, 0.0000000000 
,
0.0000000000, 0.0000000000, -0.0000000000 ,
0.0000000000, 0.0000000000, -0.0000000000 ,
-0.0000000000, -0.0000000000, -0.0000000000 
,
0.0000000000, -0.0000000000, -0.0000000000 ,
-0.0000000000, 0.0000000000, -0.0000000000 ,
0.0000000000, 0.0000000000, 0.0000000000 
,
-0.0000000000, -0.0000000000, 0.0000000000 ,
-0.0000000000, -0.0000000000, 0.0000000000 ,
0.0000000000, 0.0000000000, -0.0000000000 
,
0.0000000000, -0.0000000000, 0.0000000000 ,
-0.0000000000, -0.0000000000, -0.0000000000 ,
-0.0000000000, -0.0000000000, -0.0000000000 
,
0.0000000000, 0.0000000000, 0.0000000000 ,
0.0000000000, -0.0000000000, -0.0000000000 ,
-0.0000000000, 0.0000000000, -0.0000000000 
,
-0.0000000000, 0.0000000000, 0.0000000000 ,
-0.0000000000, -0.0000000000, 0.0000000000 ,
0.0000000000, 0.0000000000, -0.0000000000 
,
-0.0000000000, 0.0000000000, -0.0000000000 ,
-0.0000000000, -0.0000000000, 0.0000000000 ,
-0.0000000000, 0.0000000000, -0.0000000000 
,
-0.0000000000, -0.0000000000, 0.0000000000 ,
-0.0000000000, 0.0000000000, 0.0000000000 ,
-0.0000000000, 0.0000000000, 0.0000000000 
,
-0.0000000000, -0.0000000000, 0.0000000000 ,
0.0000000000, -0.0000000000, 0.0000000000 ,
-0.0000000000, -0.0000000000, 0.0000000000 
,
-0.0000000000, 0.0000000000, 0.0000000000 ,
-0.0000000000, -0.0000000000, -0.0000000000 ,
0.0000000000, -0.0000000000, -0.0000000000 
,
0.0000000000, 0.0000000000, -0.0000000000 ,
-0.0000000000, -0.0000000000, 0.0000000000 ,
0.0000000000, 0.0000000000, -0.0000000000 
,
0.0000000000, 0.0000000000, -0.0000000000 ,
-0.0000000000, -0.0000000000, 0.0000000000 ,
0.0000000000, -0.0000000000, -0.0000000000 
,
-0.0000000000, -0.0000000000, 0.0000000000 ,
-0.0000000000, 0.0000000000, 0.0000000000 ,
0.0000000000, -0.0000000000, -0.0000000000 
,
-0.0000000000, -0.0000000000, 0.0000000000 ,
0.0000000000, -0.0000000000, 0.0000000000 ,
-0.0000000000, 0.0000000000, -0.0000000000 
,
0.0000000000, 0.0000000000, -0.0000000000 ,
-0.0000000000, -0.0000000000, -0.0000000000 ,
0.0000000000, -0.0000000000, -0.0000000000 
,
0.0000000000, -0.0000000000, 0.0000000000 ,
-0.0000000000, 0.0000000000, -0.0000000000 ,
0.0000000000, -0.0000000000, 0.0000000000 
,
0.0000000000, -0.0000000000, -0.0000000000 ,
0.0000000000, 0.0000000000, -0.0000000000 ,
-0.0000000000, 0.0000000000, -0.0000000000 
,
-0.0000000000, -0.0000000000, 0.0000000000 ,
-0.0000000000, 0.0000000000, 0.0000000000 ,
-0.0000000000, 0.0000000000, -0.0000000000 
,
0.0000000000, -0.0000000000, -0.0000000000 ,
-0.0000000000, 0.0000000000, 0.0000000000 ,
-0.0000000000, 0.0000000000, 0.0000000000 
,
-0.0000000000, 0.0000000000, 0.0000000000 ,
-0.0000000000, -0.0000000000, -0.0000000000 ,
-0.0000000000, 0.0000000000, 0.0000000000 
,
0.0000000000, -0.0000000000, -0.0000000000 ,
0.0000000000, -0.0000000000, -0.0000000000 ,
0.0000000000, 0.0000000000, -0.0000000000 
,
0.0000000000, -0.0000000000, 0.0000000000 ,
0.0000000000, 0.0000000000, -0.0000000000 ,
0.0000000000, 0.0000000000, 0.0000000000 
,
-0.0000000000, -0.0000000000, 0.0000000000 ,
-0.0000000000, -0.0000000000, -0.0000000000 ,
-0.0000000000, -0.0000000000, -0.0000000000 
,
0.0000000000, 0.0000000000, 0.0000000000 ,
-0.0000000000, -0.0000000000, 0.0000000000 ,
0.0000000000, -0.0000000000, -0.0000000000 
,
-0.0000000000, -0.0000000000, -0.0000000000 ,
0.0000000000, -0.0000000000, -0.0000000000 ,
0.0000000000, 0.0000000000, -0.0000000000 
,
-0.0000000000, -0.0000000000, 0.0000000000 ,
-0.0000000000, 0.0000000000, -0.0000000000 ,
0.0000000000, 0.0000000000, 0.0000000000 
,
0.0000000000, -0.0000000000, 0.0000000000 ,
0.0000000000, 0.0000000000, 0.0000000000 ,
-0.0000000000, -0.0000000000, -0.0000000000 
,
-0.0000000000, 0.0000000000, -0.0000000000 ,
0.0000000000, 0.0000000000, 0.0000000000 ,
0.0000000000, 0.0000000000, 0.0000000000 
,
-0.0000000000, -0.0000000000, 0.0000000000 ,
-0.0000000000, -0.0000000000, 0.0000000000 ,
-0.0000000000, -0.0000000000, -0.0000000000 
,
0.0000000000, -0.0000000000, -0.0000000000 ,
-0.0000000000, -0.0000000000, 0.0000000000 ,
-0.0000000000, 0.0000000000, 0.0000000000 
,
0.0000000000, -0.0000000000, -0.0000000000 ,
-0.0000000000, 0.0000000000, 0.0000000000 ,
0.0000000000, 0.0000000000, -0.0000000000 
,
0.0000000000, -0.0000000000, 0.0000000000 ,
0.0000000000, -0.0000000000, -0.0000000000 ,
-0.0000000000, 0.0000000000, -0.0000000000 
,
-0.0000000000, -0.0000000000, -0.0000000000 ,
0.0000000000, -0.0000000000, 0.0000000000 ,
0.0000000000, 0.0000000000, -0.0000000000 
,
-0.0000000000, 0.0000000000, 0.0000000000 ,
-0.0000000000, 0.0000000000, -0.0000000000 ,
-0.0000000000, -0.0000000000, 0.0000000000 
,
-0.0000000000, -0.0000000000, 0.0000000000 ,
0.0000000000, -0.0000000000, -0.0000000000 ,
-0.0000000000, 0.0000000000, 0.0000000000 
,
-0.0000000000, 0.0000000000, 0.0000000000 ,
0.0000000000, -0.0000000000, 0.0000000000 ,
-0.0000000000, -0.0000000000, -0.0000000000 
,
0.0000000000, -0.0000000000, -0.0000000000 ,
-0.0000000000, 0.0000000000, -0.0000000000 ,
0.0000000000, -0.0000000000, -0.0000000000 
,
-0.0000000000, -0.0000000000, -0.0000000000 ,
-0.0000000000, -0.0000000000, -0.0000000000 ,
-0.0000000000, 0.0000000000, -0.0000000000 
,
-0.0000000000, 0.0000000000, 0.0000000000 ,
0.0000000000, -0.0000000000, -0.0000000000 ,
0.0000000000, -0.0000000000, -0.0000000000 
,
0.0000000000, -0.0000000000, -0.0000000000 ,
-0.0000000000, -0.0000000000, 0.0000000000 ,
-0.0000000000, 0.0000000000, -0.0000000000 
,
-0.0000000000, 0.0000000000, -0.0000000000 ,
0.0000000000, 0.0000000000, -0.0000000000 ,
-0.0000000000, -0.0000000000, 0.0000000000 
,
0.0000000000, -0.0000000000, 0.0000000000 ,
0.0000000000, 0.0000000000, -0.0000000000 ,
0.0000000000, -0.0000000000, 0.0000000000 

,
0.0000000000, -0.0000000000, -0.0000000000 ,
0.0000000000, 0.0000000000, -0.0000000000 ,
-0.0000000000, -0.0000000000, -0.0000000000 
,
-0.0000000000, -0.0000000000, -0.0000000000 ,
-0.0000000000, -0.0000000000, -0.0000000000 ,
-0.0000000000, -0.0000000000, -0.0000000000 
,
-0.0000000000, 0.0000000000, 0.0000000000 ,
0.0000000000, 0.0000000000, -0.0000000000 ,
0.0000000000, 0.0000000000, -0.0000000000 
,
0.0000000000, -0.0000000000, -0.0000000000 ,
-0.0000000000, 0.0000000000, 0.0000000000 ,
-0.0000000000, -0.0000000000, -0.0000000000 
,
0.0000000000, -0.0000000000, -0.0000000000 ,
-0.0000000000, -0.0000000000, -0.0000000000 ,
-0.0000000000, -0.0000000000, -0.0000000000 
,
0.0000000000, 0.0000000000, -0.0000000000 ,
0.0000000000, 0.0000000000, 0.0000000000 ,
0.0000000000, -0.0000000000, -0.0000000000 
,
-0.0000000000, -0.0000000000, -0.0000000000 ,
-0.0000000000, -0.0000000000, 0.0000000000 ,
0.0000000000, -0.0000000000, -0.0000000000 
,
-0.0000000000, -0.0000000000, -0.0000000000 ,
-0.0000000000, 0.0000000000, 0.0000000000 ,
-0.0000000000, -0.0000000000, -0.0000000000 
,
-0.0000000000, -0.0000000000, -0.0000000000 ,
-0.0000000000, 0.0000000000, -0.0000000000 ,
0.0000000000, 0.0000000000, -0.0000000000 
,
-0.0000000000, -0.0000000000, -0.0000000000 ,
-0.0000000000, 0.0000000000, -0.0000000000 ,
-0.0000000000, -0.0000000000, -0.0000000000 
,
-0.0000000000, -0.0000000000, -0.0000000000 ,
-0.0000000000, -0.0000000000, 0.0000000000 ,
-0.0000000000, -0.0000000000, 0.0000000000 
,
0.0000000000, 0.0000000000, -0.0000000000 ,
-0.0000000000, 0.0000000000, -0.0000000000 ,
0.0000000000, 0.0000000000, -0.0000000000 
,
-0.0000000000, -0.0000000000, -0.0000000000 ,
-0.0000000000, 0.0000000000, -0.0000000000 ,
-0.0000000000, -0.0000000000, -0.0000000000 
,
-0.0000000000, 0.0000000000, -0.0000000000 ,
-0.0000000000, -0.0000000000, 0.0000000000 ,
-0.0000000000, -0.0000000000, 0.0000000000 
,
-0.0000000000, -0.0000000000, 0.0000000000 ,
-0.0000000000, 0.0000000000, -0.0000000000 ,
0.0000000000, 0.0000000000, -0.0000000000 
,
-0.0000000000, -0.0000000000, -0.0000000000 ,
0.0000000000, -0.0000000000, -0.0000000000 ,
-0.0000000000, -0.0000000000, 0.0000000000 
,
-0.0000000000, -0.0000000000, -0.0000000000 ,
-0.0000000000, -0.0000000000, -0.0000000000 ,
-0.0000000000, 0.0000000000, -0.0000000000 
,
-0.0000000000, -0.0000000000, 0.0000000000 ,
-0.0000000000, 0.0000000000, 0.0000000000 ,
-0.0000000000, -0.0000000000, -0.0000000000 
,
0.0000000000, -0.0000000000, -0.0000000000 ,
0.0000000000, 0.0000000000, 0.0000000000 ,
-0.0000000000, -0.0000000000, -0.0000000000 
,
0.0000000000, -0.0000000000, 0.0000000000 ,
-0.0000000000, -0.0000000000, 0.0000000000 ,
0.0000000000, 0.0000000000, -0.0000000000 
,
-0.0000000000, -0.0000000000, -0.0000000000 ,
-0.0000000000, 0.0000000000, -0.0000000000 ,
-0.0000000000, -0.0000000000, -0.0000000000 
,
-0.0000000000, -0.0000000000, 0.0000000000 ,
0.0000000000, 0.0000000000, -0.0000000000 ,
-0.0000000000, -0.0000000000, -0.0000000000 
,
0.0000000000, -0.0000000000, -0.0000000000 ,
-0.0000000000, -0.0000000000, -0.0000000000 ,
-0.0000000000, 0.0000000000, -0.0000000000 
,
-0.0000000000, -0.0000000000, -0.0000000000 ,
0.0000000000, -0.0000000000, -0.0000000000 ,
-0.0000000000, 0.0000000000, 0.0000000000 
,
-0.0000000000, -0.0000000000, -0.0000000000 ,
0.0000000000, 0.0000000000, -0.0000000000 ,
0.0000000000, -0.0000000000, -0.0000000000 
,
-0.0000000000, 0.0000000000, 0.0000000000 ,
0.0000000000, -0.0000000000, 0.0000000000 ,
0.0000000000, 0.0000000000, -0.0000000000 
,
-0.0000000000, -0.0000000000, -0.0000000000 ,
0.0000000000, -0.0000000000, -0.0000000000 ,
0.0000000000, -0.0000000000, -0.0000000000 
,
-0.0000000000, -0.0000000000, 0.0000000000 ,
-0.0000000000, 0.0000000000, -0.0000000000 ,
-0.0000000000, -0.0000000000, 0.0000000000 
,
-0.0000000000, -0.0000000000, 0.0000000000 ,
0.0000000000, -0.0000000000, 0.0000000000 ,
0.0000000000, 0.0000000000, 0.0000000000 
,
-0.0000000000, -0.0000000000, -0.0000000000 ,
0.0000000000, -0.0000000000, -0.0000000000 ,
0.0000000000, 0.0000000000, -0.0000000000 
,
-0.0000000000, -0.0000000000, -0.0000000000 ,
0.0000000000, 0.0000000000, -0.0000000000 ,
-0.0000000000, -0.0000000000, -0.0000000000 
,
-0.0000000000, 0.0000000000, -0.0000000000 ,
0.0000000000, -0.0000000000, -0.0000000000 ,
-0.0000000000, -0.0000000000, 0.0000000000 
,
0.0000000000, 0.0000000000, 0.0000000000 ,
0.0000000000, -0.0000000000, -0.0000000000 ,
-0.0000000000, -0.0000000000, -0.0000000000 
,
-0.0000000000, 0.0000000000, 0.0000000000 ,
-0.0000000000, 0.0000000000, -0.0000000000 ,
0.0000000000, -0.0000000000, 0.0000000000 
,
0.0000000000, -0.0000000000, -0.0000000000 ,
-0.0000000000, -0.0000000000, -0.0000000000 ,
-0.0000000000, -0.0000000000, -0.0000000000 
,
-0.0000000000, -0.0000000000, -0.0000000000 ,
-0.0000000000, -0.0000000000, -0.0000000000 ,
-0.0000000000, -0.0000000000, -0.0000000000 
,
-0.0000000000, -0.0000000000, -0.0000000000 ,
-0.0000000000, -0.0000000000, -0.0000000000 ,
-0.0000000000, -0.0000000000, -0.0000000000 
,
0.0000000000, -0.0000000000, -0.0000000000 ,
0.0000000000, -0.0000000000, 0.0000000000 ,
-0.0000000000, -0.0000000000, -0.0000000000 
,
0.0000000000, -0.0000000000, -0.0000000000 ,
-0.0000000000, -0.0000000000, -0.0000000000 ,
0.0000000000, -0.0000000000, -0.0000000000 
,
-0.0000000000, 0.0000000000, -0.0000000000 ,
0.0000000000, -0.0000000000, -0.0000000000 ,
-0.0000000000, -0.0000000000, 0.0000000000 
,
-0.0000000000, -0.0000000000, 0.0000000000 ,
-0.0000000000, 0.0000000000, -0.0000000000 ,
-0.0000000000, -0.0000000000, 0.0000000000 
,
-0.0000000000, -0.0000000000, 0.0000000000 ,
-0.0000000000, 0.0000000000, -0.0000000000 ,
-0.0000000000, -0.0000000000, 0.0000000000 
,
-0.0000000000, -0.0000000000, -0.0000000000 ,
-0.0000000000, -0.0000000000, 0.0000000000 ,
-0.0000000000, -0.0000000000, -0.0000000000 
,
0.0000000000, -0.0000000000, -0.0000000000 ,
-0.0000000000, -0.0000000000, -0.0000000000 ,
-0.0000000000, -0.0000000000, -0.0000000000 
,
-0.0000000000, -0.0000000000, 0.0000000000 ,
-0.0000000000, 0.0000000000, -0.0000000000 ,
0.0000000000, -0.0000000000, -0.0000000000 
,
-0.0000000000, -0.0000000000, -0.0000000000 ,
-0.0000000000, 0.0000000000, -0.0000000000 ,
-0.0000000000, -0.0000000000, 0.0000000000 
,
0.0000000000, -0.0000000000, -0.0000000000 ,
0.0000000000, -0.0000000000, -0.0000000000 ,
-0.0000000000, 0.0000000000, 0.0000000000 
,
-0.0000000000, -0.0000000000, -0.0000000000 ,
0.0000000000, -0.0000000000, 0.0000000000 ,
-0.0000000000, 0.0000000000, -0.0000000000 
,
-0.0000000000, -0.0000000000, 0.0000000000 ,
-0.0000000000, -0.0000000000, 0.0000000000 ,
0.0000000000, -0.0000000000, 0.0000000000 
,
-0.0000000000, -0.0000000000, -0.0000000000 ,
-0.0000000000, 0.0000000000, -0.0000000000 ,
-0.0000000000, -0.0000000000, -0.0000000000 
,
0.0000000000, -0.0000000000, 0.0000000000 ,
0.0000000000, -0.0000000000, -0.0000000000 ,
-0.0000000000, 0.0000000000, -0.0000000000 
,
0.0000000000, 0.0000000000, -0.0000000000 ,
-0.0000000000, -0.0000000000, 0.0000000000 ,
-0.0000000000, -0.0000000000, 0.0000000000 
,
-0.0000000000, -0.0000000000, -0.0000000000 ,
-0.0000000000, 0.0000000000, -0.0000000000 ,
-0.0000000000, 0.0000000000, -0.0000000000 
,
0.0000000000, -0.0000000000, 0.0000000000 ,
0.0000000000, -0.0000000000, -0.0000000000 ,
-0.0000000000, -0.0000000000, -0.0000000000 
,
-0.0000000000, 0.0000000000, -0.0000000000 ,
0.0000000000, 0.0000000000, -0.0000000000 ,
-0.0000000000, -0.0000000000, 0.0000000000 
,
-0.0000000000, -0.0000000000, -0.0000000000 ,
-0.0000000000, 0.0000000000, -0.0000000000 ,
-0.0000000000, 0.0000000000, -0.0000000000 
,
-0.0000000000, 0.0000000000, -0.0000000000 ,
-0.0000000000, -0.0000000000, 0.0000000000 ,
-0.0000000000, 0.0000000000, -0.0000000000 
,
0.0000000000, 0.0000000000, 0.0000000000 ,
-0.0000000000, 0.0000000000, -0.0000000000 ,
-0.0000000000, 0.0000000000, -0.0000000000 
,
0.0000000000, -0.0000000000, -0.0000000000 ,
0.0000000000, -0.0000000000, 0.0000000000 ,
0.0000000000, 0.0000000000, -0.0000000000 
,
-0.0000000000, -0.0000000000, -0.0000000000 ,
-0.0000000000, -0.0000000000, -0.0000000000 ,
0.0000000000, 0.0000000000, 0.0000000000 
,
0.0000000000, -0.0000000000, -0.0000000000 ,
0.0000000000, 0.0000000000, 0.0000000000 ,
-0.0000000000, -0.0000000000, 0.0000000000 
,
-0.0000000000, 0.0000000000, 0.0000000000 ,
-0.0000000000, -0.0000000000, -0.0000000000 ,
-0.0000000000, 0.0000000000, -0.0000000000 
,
-0.0000000000, -0.0000000000, -0.0000000000 ,
-0.0000000000, -0.0000000000, -0.0000000000 ,
0.0000000000, 0.0000000000, -0.0000000000 
,
-0.0000000000, 0.0000000000, -0.0000000000 ,
-0.0000000000, -0.0000000000, -0.0000000000 ,
0.0000000000, -0.0000000000, -0.0000000000 

,
-0.0000000000, 0.0000000000, -0.0000000000 ,
0.0000000000, -0.0000000000, -0.0000000000 ,
-0.0000000000, -0.0000000000, -0.0000000000 
,
-0.0000000000, -0.0000000000, 0.0000000000 ,
0.0000000000, -0.0000000000, -0.0000000000 ,
-0.0000000000, -0.0000000000, -0.0000000000 
,
0.0000000000, -0.0000000000, 0.0000000000 ,
0.0000000000, -0.0000000000, -0.0000000000 ,
0.0000000000, -0.0000000000, -0.0000000000 
,
-0.0000000000, -0.0000000000, 0.0000000000 ,
0.0000000000, -0.0000000000, -0.0000000000 ,
-0.0000000000, -0.0000000000, -0.0000000000 
,
-0.0000000000, 0.0000000000, -0.0000000000 ,
-0.0000000000, -0.0000000000, 0.0000000000 ,
-0.0000000000, -0.0000000000, -0.0000000000 
,
0.0000000000, -0.0000000000, -0.0000000000 ,
-0.0000000000, 0.0000000000, -0.0000000000 ,
-0.0000000000, 0.0000000000, -0.0000000000 
,
-0.0000000000, 0.0000000000, -0.0000000000 ,
-0.0000000000, 0.0000000000, -0.0000000000 ,
-0.0000000000, 0.0000000000, -0.0000000000 
,
0.0000000000, 0.0000000000, -0.0000000000 ,
-0.0000000000, 0.0000000000, -0.0000000000 ,
-0.0000000000, -0.0000000000, -0.0000000000 
,
0.0000000000, -0.0000000000, 0.0000000000 ,
0.0000000000, -0.0000000000, -0.0000000000 ,
0.0000000000, -0.0000000000, 0.0000000000 
,
-0.0000000000, -0.0000000000, -0.0000000000 ,
-0.0000000000, -0.0000000000, -0.0000000000 ,
-0.0000000000, -0.0000000000, -0.0000000000 
,
-0.0000000000, -0.0000000000, -0.0000000000 ,
0.0000000000, -0.0000000000, -0.0000000000 ,
0.0000000000, 0.0000000000, -0.0000000000 
,
0.0000000000, -0.0000000000, 0.0000000000 ,
-0.0000000000, -0.0000000000, -0.0000000000 ,
-0.0000000000, -0.0000000000, 0.0000000000 
,
0.0000000000, -0.0000000000, -0.0000000000 ,
-0.0000000000, 0.0000000000, 0.0000000000 ,
0.0000000000, 0.0000000000, -0.0000000000 
,
0.0000000000, -0.0000000000, -0.0000000000 ,
0.0000000000, -0.0000000000, -0.0000000000 ,
-0.0000000000, -0.0000000000, 0.0000000000 
,
-0.0000000000, -0.0000000000, -0.0000000000 ,
-0.0000000000, -0.0000000000, -0.0000000000 ,
0.0000000000, -0.0000000000, 0.0000000000 
,
-0.0000000000, 0.0000000000, -0.0000000000 ,
-0.0000000000, 0.0000000000, -0.0000000000 ,
0.0000000000, -0.0000000000, 0.0000000000 
,
-0.0000000000, 0.0000000000, -0.0000000000 ,
-0.0000000000, 0.0000000000, 0.0000000000 ,
0.0000000000, -0.0000000000, -0.0000000000 
,
0.0000000000, -0.0000000000, -0.0000000000 ,
0.0000000000, -0.0000000000, -0.0000000000 ,
0.0000000000, 0.0000000000, 0.0000000000 
,
0.0000000000, 0.0000000000, 0.0000000000 ,
-0.0000000000, 0.0000000000, -0.0000000000 ,
-0.0000000000, -0.0000000000, -0.0000000000 
,
-0.0000000000, -0.0000000000, -0.0000000000 ,
0.0000000000, -0.0000000000, 0.0000000000 ,
-0.0000000000, -0.0000000000, -0.0000000000 
,
0.0000000000, -0.0000000000, 0.0000000000 ,
-0.0000000000, 0.0000000000, -0.0000000000 ,
0.0000000000, -0.0000000000, 0.0000000000 
,
-0.0000000000, -0.0000000000, 0.0000000000 ,
-0.0000000000, 0.0000000000, -0.0000000000 ,
-0.0000000000, 0.0000000000, -0.0000000000 
,
-0.0000000000, -0.0000000000, -0.0000000000 ,
0.0000000000, -0.0000000000, -0.0000000000 ,
-0.0000000000, -0.0000000000, -0.0000000000 
,
0.0000000000, -0.0000000000, -0.0000000000 ,
-0.0000000000, -0.0000000000, -0.0000000000 ,
0.0000000000, -0.0000000000, -0.0000000000 
,
0.0000000000, -0.0000000000, -0.0000000000 ,
0.0000000000, -0.0000000000, -0.0000000000 ,
0.0000000000, -0.0000000000, 0.0000000000 
,
-0.0000000000, -0.0000000000, -0.0000000000 ,
-0.0000000000, -0.0000000000, 0.0000000000 ,
0.0000000000, -0.0000000000, -0.0000000000 
,
-0.0000000000, 0.0000000000, -0.0000000000 ,
0.0000000000, -0.0000000000, -0.0000000000 ,
-0.0000000000, 0.0000000000, 0.0000000000 
,
-0.0000000000, -0.0000000000, -0.0000000000 ,
-0.0000000000, 0.0000000000, -0.0000000000 ,
-0.0000000000, -0.0000000000, -0.0000000000 
,
0.0000000000, -0.0000000000, -0.0000000000 ,
0.0000000000, -0.0000000000, -0.0000000000 ,
-0.0000000000, 0.0000000000, -0.0000000000 
,
0.0000000000, -0.0000000000, -0.0000000000 ,
0.0000000000, -0.0000000000, 0.0000000000 ,
-0.0000000000, -0.0000000000, -0.0000000000 
,
0.0000000000, -0.0000000000, 0.0000000000 ,
-0.0000000000, 0.0000000000, 0.0000000000 ,
0.0000000000, -0.0000000000, -0.0000000000 
,
-0.0000000000, 0.0000000000, -0.0000000000 ,
-0.0000000000, -0.0000000000, -0.0000000000 ,
-0.0000000000, -0.0000000000, 0.0000000000 
,
-0.0000000000, -0.0000000000, -0.0000000000 ,
0.0000000000, -0.0000000000, -0.0000000000 ,
-0.0000000000, -0.0000000000, 0.0000000000 
,
0.0000000000, -0.0000000000, -0.0000000000 ,
0.0000000000, -0.0000000000, -0.0000000000 ,
-0.0000000000, -0.0000000000, -0.0000000000 
,
0.0000000000, -0.0000000000, -0.0000000000 ,
-0.0000000000, -0.0000000000, 0.0000000000 ,
-0.0000000000, 0.0000000000, -0.0000000000 
,
-0.0000000000, -0.0000000000, -0.0000000000 ,
0.0000000000, -0.0000000000, 0.0000000000 ,
-0.0000000000, -0.0000000000, -0.0000000000 
,
-0.0000000000, 0.0000000000, -0.0000000000 ,
0.0000000000, -0.0000000000, -0.0000000000 ,
-0.0000000000, -0.0000000000, -0.0000000000 
,
0.0000000000, 0.0000000000, -0.0000000000 ,
-0.0000000000, -0.0000000000, -0.0000000000 ,
-0.0000000000, -0.0000000000, -0.0000000000 
,
-0.0000000000, 0.0000000000, -0.0000000000 ,
-0.0000000000, -0.0000000000, 0.0000000000 ,
-0.0000000000, -0.0000000000, -0.0000000000 
,
-0.0000000000, -0.0000000000, -0.0000000000 ,
-0.0000000000, 0.0000000000, -0.0000000000 ,
-0.0000000000, -0.0000000000, -0.0000000000 
,
-0.0000000000, -0.0000000000, -0.0000000000 ,
-0.0000000000, -0.0000000000, -0.0000000000 ,
0.0000000000, 0.0000000000, 0.0000000000 
,
-0.0000000000, 0.0000000000, -0.0000000000 ,
0.0000000000, -0.0000000000, -0.0000000000 ,
-0.0000000000, -0.0000000000, -0.0000000000 
,
0.0000000000, -0.0000000000, -0.0000000000 ,
-0.0000000000, -0.0000000000, -0.0000000000 ,
-0.0000000000, -0.0000000000, -0.0000000000 
,
-0.0000000000, 0.0000000000, -0.0000000000 ,
0.0000000000, 0.0000000000, -0.0000000000 ,
-0.0000000000, -0.0000000000, -0.0000000000 
,
-0.0000000000, -0.0000000000, 0.0000000000 ,
-0.0000000000, 0.0000000000, -0.0000000000 ,
-0.0000000000, 0.0000000000, -0.0000000000 
,
-0.0000000000, -0.0000000000, -0.0000000000 ,
-0.0000000000, 0.0000000000, 0.0000000000 ,
-0.0000000000, -0.0000000000, -0.0000000000 
,
-0.0000000000, -0.0000000000, -0.0000000000 ,
-0.0000000000, -0.0000000000, -0.0000000000 ,
0.0000000000, -0.0000000000, -0.0000000000 
,
0.0000000000, -0.0000000000, 0.0000000000 ,
0.0000000000, 0.0000000000, 0.0000000000 ,
-0.0000000000, 0.0000000000, -0.0000000000 
,
-0.0000000000, -0.0000000000, 0.0000000000 ,
-0.0000000000, 0.0000000000, -0.0000000000 ,
-0.0000000000, -0.0000000000, -0.0000000000 
,
-0.0000000000, -0.0000000000, -0.0000000000 ,
0.0000000000, 0.0000000000, 0.0000000000 ,
0.0000000000, 0.0000000000, -0.0000000000 
,
0.0000000000, -0.0000000000, -0.0000000000 ,
-0.0000000000, -0.0000000000, 0.0000000000 ,
-0.0000000000, -0.0000000000, -0.0000000000 
,
-0.0000000000, 0.0000000000, -0.0000000000 ,
-0.0000000000, 0.0000000000, -0.0000000000 ,
-0.0000000000, -0.0000000000, -0.0000000000 
,
0.0000000000, 0.0000000000, 0.0000000000 ,
-0.0000000000, 0.0000000000, -0.0000000000 ,
-0.0000000000, -0.0000000000, -0.0000000000 
,
-0.0000000000, -0.0000000000, -0.0000000000 ,
-0.0000000000, -0.0000000000, -0.0000000000 ,
-0.0000000000, 0.0000000000, -0.0000000000 
,
-0.0000000000, -0.0000000000, -0.0000000000 ,
-0.0000000000, 0.0000000000, -0.0000000000 ,
0.0000000000, -0.0000000000, -0.0000000000 
,
-0.0000000000, -0.0000000000, -0.0000000000 ,
-0.0000000000, -0.0000000000, -0.0000000000 ,
-0.0000000000, 0.0000000000, -0.0000000000 
,
-0.0000000000, 0.0000000000, -0.0000000000 ,
0.0000000000, -0.0000000000, -0.0000000000 ,
0.0000000000, -0.0000000000, 0.0000000000 
,
-0.0000000000, -0.0000000000, 0.0000000000 ,
-0.0000000000, -0.0000000000, -0.0000000000 ,
-0.0000000000, 0.0000000000, -0.0000000000 
,
-0.0000000000, -0.0000000000, -0.0000000000 ,
-0.0000000000, 0.0000000000, -0.0000000000 ,
0.0000000000, 0.0000000000, -0.0000000000 
,
0.0000000000, 0.0000000000, 0.0000000000 ,
-0.0000000000, -0.0000000000, 0.0000000000 ,
-0.0000000000, 0.0000000000, -0.0000000000 
,
-0.0000000000, -0.0000000000, -0.0000000000 ,
0.0000000000, -0.0000000000, -0.0000000000 ,
-0.0000000000, -0.0000000000, -0.0000000000 
,
0.0000000000, -0.0000000000, 0.0000000000 ,
-0.0000000000, -0.0000000000, -0.0000000000 ,
0.0000000000, -0.0000000000, -0.0000000000 
,
-0.0000000000, -0.0000000000, 0.0000000000 ,
-0.0000000000, -0.0000000000, 0.0000000000 ,
-0.0000000000, -0.0000000000, -0.0000000000 
,
0.0000000000, -0.0000000000, -0.0000000000 ,
-0.0000000000, -0.0000000000, -0.0000000000 ,
-0.0000000000, 0.0000000000, -0.0000000000 

,
-0.0000000000, 0.0000000000, -0.0000000000 ,
0.0000000000, 0.0000000000, 0.0000000000 ,
0.0000000000, -0.0000000000, 0.0000000000 
,
-0.0000000000, -0.0000000000, 0.0000000000 ,
0.0000000000, -0.0000000000, -0.0000000000 ,
-0.0000000000, 0.0000000000, 0.0000000000 
,
-0.0000000000, -0.0000000000, -0.0000000000 ,
-0.0000000000, -0.0000000000, -0.0000000000 ,
0.0000000000, -0.0000000000, -0.0000000000 
,
0.0000000000, -0.0000000000, 0.0000000000 ,
-0.0000000000, -0.0000000000, 0.0000000000 ,
-0.0000000000, 0.0000000000, 0.0000000000 
,
0.0000000000, 0.0000000000, -0.0000000000 ,
-0.0000000000, 0.0000000000, -0.0000000000 ,
0.0000000000, 0.0000000000, 0.0000000000 
,
0.0000000000, 0.0000000000, 0.0000000000 ,
-0.0000000000, 0.0000000000, -0.0000000000 ,
0.0000000000, -0.0000000000, -0.0000000000 
,
-0.0000000000, -0.0000000000, 0.0000000000 ,
-0.0000000000, -0.0000000000, 0.0000000000 ,
-0.0000000000, -0.0000000000, 0.0000000000 
,
0.0000000000, -0.0000000000, -0.0000000000 ,
-0.0000000000, 0.0000000000, 0.0000000000 ,
-0.0000000000, -0.0000000000, 0.0000000000 
,
-0.0000000000, -0.0000000000, 0.0000000000 ,
-0.0000000000, 0.0000000000, 0.0000000000 ,
-0.0000000000, -0.0000000000, -0.0000000000 
,
0.0000000000, -0.0000000000, 0.0000000000 ,
0.0000000000, 0.0000000000, -0.0000000000 ,
-0.0000000000, -0.0000000000, 0.0000000000 
,
-0.0000000000, 0.0000000000, -0.0000000000 ,
0.0000000000, 0.0000000000, -0.0000000000 ,
0.0000000000, 0.0000000000, -0.0000000000 
,
0.0000000000, -0.0000000000, 0.0000000000 ,
-0.0000000000, 0.0000000000, 0.0000000000 ,
-0.0000000000, -0.0000000000, -0.0000000000 
,
-0.0000000000, 0.0000000000, 0.0000000000 ,
-0.0000000000, -0.0000000000, 0.0000000000 ,
-0.0000000000, 0.0000000000, 0.0000000000 
,
-0.0000000000, -0.0000000000, 0.0000000000 ,
-0.0000000000, 0.0000000000, -0.0000000000 ,
-0.0000000000, 0.0000000000, -0.0000000000 
,
-0.0000000000, -0.0000000000, 0.0000000000 ,
-0.0000000000, 0.0000000000, -0.0000000000 ,
-0.0000000000, 0.0000000000, 0.0000000000 
,
-0.0000000000, -0.0000000000, -0.0000000000 ,
-0.0000000000, 0.0000000000, 0.0000000000 ,
-0.0000000000, 0.0000000000, -0.0000000000 
,
-0.0000000000, 0.0000000000, 0.0000000000 ,
-0.0000000000, 0.0000000000, -0.0000000000 ,
0.0000000000, -0.0000000000, -0.0000000000 
,
-0.0000000000, -0.0000000000, -0.0000000000 ,
-0.0000000000, -0.0000000000, -0.0000000000 ,
-0.0000000000, -0.0000000000, -0.0000000000 
,
-0.0000000000, 0.0000000000, 0.0000000000 ,
0.0000000000, -0.0000000000, 0.0000000000 ,
-0.0000000000, -0.0000000000, -0.0000000000 
,
0.0000000000, 0.0000000000, 0.0000000000 ,
0.0000000000, -0.0000000000, -0.0000000000 ,
0.0000000000, -0.0000000000, 0.0000000000 
,
-0.0000000000, -0.0000000000, -0.0000000000 ,
0.0000000000, -0.0000000000, -0.0000000000 ,
0.0000000000, -0.0000000000, -0.0000000000 
,
-0.0000000000, -0.0000000000, 0.0000000000 ,
-0.0000000000, 0.0000000000, 0.0000000000 ,
0.0000000000, -0.0000000000, -0.0000000000 
,
0.0000000000, 0.0000000000, 0.0000000000 ,
0.0000000000, -0.0000000000, 0.0000000000 ,
-0.0000000000, -0.0000000000, 0.0000000000 
,
-0.0000000000, 0.0000000000, 0.0000000000 ,
0.0000000000, -0.0000000000, -0.0000000000 ,
-0.0000000000, -0.0000000000, -0.0000000000 
,
-0.0000000000, -0.0000000000, -0.0000000000 ,
-0.0000000000, -0.0000000000, -0.0000000000 ,
-0.0000000000, -0.0000000000, -0.0000000000 
,
0.0000000000, 0.0000000000, 0.0000000000 ,
-0.0000000000, -0.0000000000, 0.0000000000 ,
0.0000000000, 0.0000000000, -0.0000000000 
,
0.0000000000, 0.0000000000, -0.0000000000 ,
-0.0000000000, -0.0000000000, 0.0000000000 ,
0.0000000000, -0.0000000000, 0.0000000000 
,
0.0000000000, 0.0000000000, -0.0000000000 ,
-0.0000000000, -0.0000000000, -0.0000000000 ,
-0.0000000000, -0.0000000000, -0.0000000000 
,
-0.0000000000, 0.0000000000, -0.0000000000 ,
0.0000000000, -0.0000000000, -0.0000000000 ,
-0.0000000000, -0.0000000000, 0.0000000000 
,
0.0000000000, -0.0000000000, -0.0000000000 ,
-0.0000000000, -0.0000000000, -0.0000000000 ,
-0.0000000000, -0.0000000000, 0.0000000000 
,
-0.0000000000, -0.0000000000, 0.0000000000 ,
0.0000000000, -0.0000000000, -0.0000000000 ,
-0.0000000000, 0.0000000000, -0.0000000000 
,
-0.0000000000, -0.0000000000, 0.0000000000 ,
-0.0000000000, -0.0000000000, -0.0000000000 ,
-0.0000000000, -0.0000000000, -0.0000000000 
,
-0.0000000000, 0.0000000000, 0.0000000000 ,
0.0000000000, -0.0000000000, -0.0000000000 ,
-0.0000000000, -0.0000000000, -0.0000000000 
,
-0.0000000000, 0.0000000000, -0.0000000000 ,
0.0000000000, 0.0000000000, -0.0000000000 ,
-0.0000000000, -0.0000000000, -0.0000000000 
,
0.0000000000, -0.0000000000, 0.0000000000 ,
0.0000000000, -0.0000000000, 0.0000000000 ,
-0.0000000000, -0.0000000000, -0.0000000000 
,
0.0000000000, 0.0000000000, 0.0000000000 ,
-0.0000000000, -0.0000000000, 0.0000000000 ,
-0.0000000000, 0.0000000000, -0.0000000000 
,
0.0000000000, 0.0000000000, 0.0000000000 ,
0.0000000000, 0.0000000000, -0.0000000000 ,
0.0000000000, 0.0000000000, 0.0000000000 
,
-0.0000000000, 0.0000000000, -0.0000000000 ,
-0.0000000000, -0.0000000000, -0.0000000000 ,
0.0000000000, 0.0000000000, 0.0000000000 
,
0.0000000000, 0.0000000000, -0.0000000000 ,
-0.0000000000, 0.0000000000, 0.0000000000 ,
-0.0000000000, 0.0000000000, 0.0000000000 
,
0.0000000000, 0.0000000000, 0.0000000000 ,
0.0000000000, -0.0000000000, -0.0000000000 ,
0.0000000000, 0.0000000000, 0.0000000000 
,
0.0000000000, 0.0000000000, 0.0000000000 ,
0.0000000000, -0.0000000000, -0.0000000000 ,
-0.0000000000, 0.0000000000, -0.0000000000 
,
0.0000000000, -0.0000000000, 0.0000000000 ,
0.0000000000, -0.0000000000, -0.0000000000 ,
0.0000000000, 0.0000000000, -0.0000000000 
,
-0.0000000000, -0.0000000000, 0.0000000000 ,
0.0000000000, 0.0000000000, 0.0000000000 ,
-0.0000000000, -0.0000000000, -0.0000000000 
,
0.0000000000, 0.0000000000, -0.0000000000 ,
0.0000000000, -0.0000000000, 0.0000000000 ,
0.0000000000, -0.0000000000, -0.0000000000 
,
-0.0000000000, -0.0000000000, -0.0000000000 ,
0.0000000000, 0.0000000000, -0.0000000000 ,
-0.0000000000, -0.0000000000, -0.0000000000 
,
-0.0000000000, -0.0000000000, 0.0000000000 ,
0.0000000000, 0.0000000000, 0.0000000000 ,
-0.0000000000, -0.0000000000, 0.0000000000 
,
0.0000000000, -0.0000000000, -0.0000000000 ,
-0.0000000000, -0.0000000000, 0.0000000000 ,
0.0000000000, 0.0000000000, -0.0000000000 
,
0.0000000000, -0.0000000000, 0.0000000000 ,
-0.0000000000, -0.0000000000, 0.0000000000 ,
-0.0000000000, 0.0000000000, 0.0000000000 
,
0.0000000000, 0.0000000000, -0.0000000000 ,
-0.0000000000, 0.0000000000, -0.0000000000 ,
-0.0000000000, 0.0000000000, -0.0000000000 
,
-0.0000000000, -0.0000000000, 0.0000000000 ,
0.0000000000, 0.0000000000, -0.0000000000 ,
0.0000000000, -0.0000000000, -0.0000000000 
,
0.0000000000, -0.0000000000, 0.0000000000 ,
-0.0000000000, -0.0000000000, -0.0000000000 ,
-0.0000000000, 0.0000000000, -0.0000000000 
,
-0.0000000000, -0.0000000000, -0.0000000000 ,
0.0000000000, 0.0000000000, 0.0000000000 ,
-0.0000000000, -0.0000000000, -0.0000000000 
,
0.0000000000, -0.0000000000, 0.0000000000 ,
-0.0000000000, -0.0000000000, -0.0000000000 ,
0.0000000000, -0.0000000000, -0.0000000000 
,
0.0000000000, -0.0000000000, 0.0000000000 ,
-0.0000000000, 0.0000000000, -0.0000000000 ,
0.0000000000, -0.0000000000, -0.0000000000 
,
-0.0000000000, 0.0000000000, -0.0000000000 ,
-0.0000000000, -0.0000000000, -0.0000000000 ,
-0.0000000000, 0.0000000000, 0.0000000000 
,
0.0000000000, -0.0000000000, 0.0000000000 ,
-0.0000000000, -0.0000000000, 0.0000000000 ,
-0.0000000000, -0.0000000000, -0.0000000000 
,
-0.0000000000, 0.0000000000, 0.0000000000 ,
0.0000000000, 0.0000000000, -0.0000000000 ,
0.0000000000, 0.0000000000, 0.0000000000 
,
-0.0000000000, -0.0000000000, 0.0000000000 ,
0.0000000000, -0.0000000000, -0.0000000000 ,
0.0000000000, -0.0000000000, 0.0000000000 
,
0.0000000000, -0.0000000000, 0.0000000000 ,
-0.0000000000, 0.0000000000, -0.0000000000 ,
0.0000000000, 0.0000000000, 0.0000000000 
,
-0.0000000000, -0.0000000000, 0.0000000000 ,
-0.0000000000, -0.0000000000, -0.0000000000 ,
0.0000000000, -0.0000000000, 0.0000000000 
,
-0.0000000000, -0.0000000000, -0.0000000000 ,
-0.0000000000, 0.0000000000, 0.0000000000 ,
0.0000000000, -0.0000000000, 0.0000000000 
,
-0.0000000000, -0.0000000000, -0.0000000000 ,
0.0000000000, -0.0000000000, -0.0000000000 ,
0.0000000000, -0.0000000000, -0.0000000000 
,
-0.0000000000, -0.0000000000, 0.0000000000 ,
-0.0000000000, -0.0000000000, 0.0000000000 ,
-0.0000000000, -0.0000000000, 0.0000000000 
,
-0.0000000000, -0.0000000000, -0.0000000000 ,
0.0000000000, -0.0000000000, -0.0000000000 ,
-0.0000000000, -0.0000000000, -0.0000000000 

,
-0.0014585615, -0.0010320790, 0.0032359893 ,
-0.0045408360, -0.0048419177, -0.0030380262 ,
-0.0018001917, -0.0050690938, -0.0030255485 
,
-0.0023360625, -0.0071208025, -0.0076261205 ,
-0.0007292682, -0.0044595608, -0.0130057950 ,
0.0119360220, -0.0040175491, -0.0135958148 
,
0.0111746509, 0.0144310510, 0.0349147059 ,
0.0115176458, 0.0059060296, 0.0400214717 ,
0.0018927912, 0.0035866932, 0.0412809104 
,
-0.0020867465, -0.0021852376, -0.0098844087 ,
0.0047036163, -0.0186536293, 0.0053987191 ,
0.0042640418, 0.0129427370, 0.0386018902 
,
-0.0262058750, -0.0364977121, -0.0587559640 ,
-0.0359575562, -0.0196393579, -0.0111236079 ,
-0.0127358502, 0.0080127036, 0.0311484486 
,
0.0337402485, 0.0366411321, 0.0311516114 ,
0.0073942090, 0.0116662718, -0.0089024538 ,
0.0011448432, -0.0083318753, -0.0324657895 
,
0.0004350949, -0.0036568933, -0.0089811673 ,
0.0178738181, 0.0021061539, -0.0049643214 ,
0.0314391889, 0.0096258130, 0.0123734698 
,
0.0758890063, 0.0447223969, 0.0604823306 ,
0.0094546732, -0.0373824462, 0.0313150920 ,
0.0117236031, 0.0330485068, 0.0818734989 
,
-0.0107752513, -0.0041815797, -0.0095619392 ,
-0.0214372296, -0.0192799326, -0.0198355541 ,
-0.0186402909, -0.0144073488, -0.0145883737 
,
-0.0284292009, 0.0243258215, 0.0420659482 ,
-0.0222591888, 0.0087689441, -0.0020665063 ,
0.0091508795, 0.0155116674, 0.0212306064 
,
-0.0175654590, -0.0189409871, -0.0221375246 ,
-0.0170731992, -0.0187929645, -0.0134859756 ,
-0.0164147243, -0.0116016483, -0.0016941811 
,
0.0018475526, 0.0010628282, -0.0066449516 ,
-0.0111835990, -0.0188272577, -0.0318558216 ,
-0.0236179456, -0.0317773633, -0.0438042022 
,
-0.0140538933, 0.0051623872, 0.0072886171 ,
-0.0188724678, -0.0121587869, -0.0060295905 ,
-0.0141712623, -0.0060370127, 0.0123674273 
,
-0.0106658628, -0.0103912065, 0.0026203084 ,
0.0021759921, 0.0231897533, 0.0421845168 ,
0.0083792517, 0.0379233770, 0.0585290901 
,
-0.0016937506, 0.0010564798, 0.0274977740 ,
-0.0022005895, 0.0105298581, 0.0145112742 ,
-0.0001921710, 0.0032834723, 0.0088111786 
,
-0.0007485478, 0.0001609709, 0.0040672682 ,
0.0072804866, 0.0013244838, 0.0008552630 ,
0.0009837796, -0.0010296558, -0.0029320347 
,
-0.0249295402, -0.0310894530, -0.0361078642 ,
-0.0283070765, -0.0280434825, -0.0172011331 ,
-0.0146553088, -0.0066557364, 0.0089729149 
,
0.0397944264, 0.0565118082, 0.1537957489 ,
-0.0119952410, 0.0769578218, 0.1842987090 ,
0.0103558796, 0.1100830436, 0.1528608799 
,
0.0065589468, 0.0024080316, -0.0089994883 ,
-0.0263165254, -0.0302511808, -0.0274945572 ,
-0.0004913470, -0.0021086677, 0.0196397826 
,
0.0341506824, 0.0130661139, 0.0415749326 ,
0.0210400186, -0.0021938244, 0.0040829163 ,
0.0350165926, 0.0159744136, 0.0139667923 
,
0.0300187506, -0.0070267110, 0.0775616914 ,
0.0124541279, -0.0096454620, 0.1085399315 ,
-0.0022085493, 0.0008715509, 0.0865190849 
,
0.0108849313, -0.0012325172, 0.0325906277 ,
0.0046792668, -0.0051825759, 0.0459100753 ,
0.0014175861, 0.0000305915, 0.0532476269 
,
-0.0012845264, -0.0008749079, 0.0031550645 ,
-0.0004598696, 0.0003855037, 0.0039680586 ,
-0.0002875599, 0.0022134285, 0.0032225815 
,
0.0323507376, 0.0193519834, 0.0421818085 ,
0.0315127485, 0.0164236668, 0.0446311533 ,
0.0149037018, 0.0067956918, 0.0294588841 
,
-0.0541857332, -0.0492800735, -0.0620175488 ,
-0.0463344939, -0.0455902442, -0.0386049151 ,
-0.0308942124, -0.0260175373, 0.0060534501 
,
-0.0110187028, -0.0125711048, -0.0099203764 ,
-0.0023567486, 0.0028781595, 0.0154432654 ,
0.0065237596, 0.0184868071, 0.0308462474 
,
-0.0063870270, -0.0031715841, -0.0012565270 ,
0.0121564297, 0.0130886445, 0.0107484069 ,
0.0088546127, 0.0039917505, 0.0005306450 
,
-0.0132961236, -0.0088485051, -0.0073672943 ,
0.0160625782, 0.0214880537, 0.0191501789 ,
0.0161115304, 0.0133352997, 0.0072645065 
,
0.0173074827, 0.0119434176, 0.0129220579 ,
-0.0002009331, 0.0034618748, -0.0011004228 ,
0.0061657792, 0.0025326810, -0.0019383184 
,
0.0957431346, 0.0467528068, 0.0916385278 ,
-0.0040042992, -0.0132841468, 0.0011045809 ,
0.0326305181, 0.0406204499, 0.0368741713 
,
-0.0377094820, -0.0291669387, -0.0104861958 ,
0.0166445076, -0.0001451051, -0.0048504458 ,
0.0402246527, 0.0061754095, 0.0191160459 
,
-0.0318421274, -0.0107475528, 0.0200900529 ,
-0.0377654284, -0.0220880881, 0.0185004771 ,
-0.0226073023, -0.0068388265, 0.0222456697 
,
-0.0226077326, -0.0237968154, -0.0060594524 ,
-0.0100785336, -0.0081603909, 0.0271570906 ,
-0.0208169352, -0.0065882537, 0.0364862494 
,
0.0404667705, 0.0450930931, 0.1288330704 ,
-0.0143209780, 0.0288310684, 0.1145456061 ,
0.0221640822, 0.0631127656, 0.0968354344 
,
-0.0292478483, -0.0304746274, -0.0200121850 ,
0.0147878248, 0.0032062312, 0.0146554904 ,
-0.0002226638, -0.0055893785, -0.0144844986 
,
-0.0153488945, -0.0178424697, -0.0045796912 ,
-0.0190269724, -0.0205849223, -0.0035116666 ,
-0.0150320427, -0.0130889434, 0.0030019172 
,
0.0287246387, 0.0070358310, 0.0508068055 ,
0.0163812246, -0.0026660974, 0.0533855595 ,
0.0001970815, -0.0048258528, 0.0466005094 
,
-0.0256527886, -0.0328514762, -0.0133863082 ,
-0.0481240824, -0.0519746169, -0.0301045980 ,
-0.0402923711, -0.0373407081, -0.0123478835 
,
0.0214812942, 0.0166310370, -0.0009541108 ,
-0.0165609848, -0.0242532566, -0.0292489827 ,
-0.0103690689, -0.0106539438, 0.0013735103 
,
0.0490408652, 0.0380387791, 0.0384314544 ,
0.0148119852, 0.0062760385, -0.0007297667 ,
0.0063452735, -0.0031014811, -0.0074704732 
,
-0.0120643191, -0.0055583017, -0.0035747041 ,
0.0100905756, 0.0133193387, 0.0118452488 ,
0.0072334041, 0.0025181170, -0.0002667070 
,
-0.0112148849, -0.0094193108, 0.0080438815 ,
-0.0069747185, 0.0033799512, 0.0207065940 ,
0.0064310497, 0.0195554085, 0.0256292373 
,
0.0048562731, 0.0155820977, 0.0531036295 ,
-0.0016740937, 0.0060105347, 0.0429085381 ,
0.0168192945, 0.0182809364, 0.0278406944 
,
-0.0019603579, -0.0003035111, 0.0010931435 ,
0.0005782398, 0.0001371856, 0.0002708064 ,
0.0030176633, 0.0000733523, 0.0026652650 
,
-0.0182138942, -0.0198935177, -0.0046723988 ,
0.0093460288, 0.0011802099, 0.0087202080 ,
-0.0077529061, -0.0217365101, -0.0183007028 
,
0.0155851999, 0.0249630157, 0.0302436668 ,
0.0169780646, -0.0000987247, 0.0451782867 ,
0.0066018673, 0.0020629035, 0.0606771410 
,
-0.0034264640, -0.0106887836, -0.0012817256 ,
-0.0075036963, -0.0124049727, -0.0054483502 ,
-0.0228582174, -0.0260244645, -0.0226886421 
,
-0.0020660826, -0.0127937291, -0.0237384364 ,
0.0176409762, 0.0083482387, -0.0107644936 ,
0.0022997835, -0.0064640935, -0.0238344613 
,
0.0026998336, 0.0100560104, -0.0147014782 ,
0.0236728247, 0.0032713122, -0.0138733601 ,
0.0132397525, -0.0012268136, -0.0030816558 
,
-0.0009576179, 0.0022122341, 0.0209220946 ,
-0.0001944051, 0.0100009022, 0.0096922051 ,
0.0019204130, 0.0019153950, 0.0068716127 
,
0.0421298184, 0.0087920874, 0.0578632802 ,
0.0263196174, 0.0149925910, 0.0758415982 ,
0.0177320708, 0.0132997893, 0.0685664266 
,
-0.0125247398, -0.0161992665, -0.0249625146 ,
-0.0152295381, -0.0148978746, -0.0145587157 ,
-0.0384445451, -0.0331006236, -0.0305659883 
,
-0.0106023364, -0.0019133232, 0.0134251351 ,
-0.0105443839, 0.0003258266, 0.0091120154 ,
-0.0065180287, 0.0007004089, 0.0089544347 
,
-0.0093439454, 0.0016439962, -0.0047289082 ,
0.0079257675, 0.0030618506, 0.0109820403 ,
-0.0026641975, -0.0028442971, 0.0088549042 
,
0.0055000228, 0.0083630132, 0.0119318515 ,
0.0328190438, 0.0262065046, 0.0297009125 ,
0.0204869937, 0.0205387101, 0.0184631366 
,
0.0240430068, 0.0146817071, 0.0412658229 ,
0.0104751270, -0.0030744902, 0.0097803744 ,
-0.0045931884, 0.0035399711, 0.0079693301 
,
-0.0145268952, -0.0234413687, -0.0378203839 ,
-0.0144885927, -0.0261540450, -0.0156887546 ,
-0.0045467145, -0.0093220687, 0.0149642117 
,
0.0234531090, 0.0012866214, 0.0835897774 ,
0.0208833907, 0.0451068021, 0.1700913310 ,
0.0139348181, 0.0642677769, 0.1681012213 
,
-0.0083481884, -0.0076028937, 0.0038397748 ,
-0.0055577974, -0.0059006605, -0.0112722330 ,
0.0074648047, 0.0105253235, 0.0069232173 
,
-0.0308056772, -0.0186994746, -0.0111408522 ,
-0.0317471251, -0.0222635381, -0.0196122769 ,
-0.0361634493, -0.0288196690, -0.0251429919 
,
0.0307621900, 0.0211621691, 0.0135973906 ,
0.0224766750, 0.0152465804, 0.0035665315 ,
0.0204343908, 0.0105028562, 0.0006916171 
,
-0.0032684426, -0.0132876188, -0.0052361665 ,
-0.0185890924, -0.0252952445, -0.0082499320 ,
-0.0107750511, 0.0016299430, 0.0037359816 
,
-0.0113659725, 0.0076629771, 0.0162391458 ,
-0.0168122891, -0.0101245167, -0.0120350216 ,
0.0026296652, 0.0010062191, -0.0047843722 
,
0.0055550495, 0.0040924787, -0.0116633894 ,
-0.0135859335, -0.0330245346, 0.0190472882 ,
-0.0178108998, 0.0025539154, 0.0389375910 

,
0.0277863126, 0.0281192157, 0.0221070200 ,
0.0272942018, 0.0262155496, 0.0219464246 ,
0.0332549177, 0.0311429463, 0.0282569677 
,
0.0037648492, -0.0032773362, 0.0238019265 ,
0.0155010391, 0.0142789464, 0.0473664962 ,
0.0024941054, 0.0010760903, 0.0227762070 
,
0.0243664011, 0.0865215436, 0.0098830555 ,
0.0391631573, 0.1219727322, 0.0290532317 ,
0.0262904670, 0.0989640951, 0.0152774919 
,
-0.0079465201, 0.0201415364, 0.0391848236 ,
0.0165347476, -0.0009878484, -0.0018209394 ,
-0.0101515278, 0.0004716121, 0.0097934185 
,
0.0647908375, -0.0669313893, -0.0035015969 ,
0.1232437789, -0.0386974216, -0.0540694222 ,
0.0711896643, -0.0079847602, -0.0760254189 
,
0.0571384057, 0.0382323675, 0.0634380355 ,
-0.0168567654, 0.0241935588, 0.0140372328 ,
0.0162146036, 0.0306766238, 0.0019259911 
,
-0.0640734509, 0.0343820974, 0.1317984164 ,
-0.0489393622, 0.0256226826, 0.1655965000 ,
-0.0461043231, -0.0030785103, 0.1262469739 
,
-0.0853543654, 0.0223822948, 0.0365732908 ,
-0.0471803099, -0.1022252664, -0.0535843410 ,
-0.0835825130, -0.0862217620, -0.0455920547 
,
0.0023574654, 0.0151043367, 0.0162915196 ,
-0.0218786784, -0.0115224412, -0.0031374821 ,
-0.0103316410, -0.0073269354, -0.0006260941 
,
0.0496093184, 0.0072165076, -0.0214109495 ,
-0.0263232160, 0.0206783470, 0.0425534844 ,
-0.0200648680, 0.0105075473, 0.0149259660 
,
-0.0257588290, -0.0224679001, 0.0202389807 ,
-0.0479335897, -0.0228365902, -0.0039676833 ,
-0.0417497344, -0.0160581358, -0.0028539163 
,
0.0275920127, 0.0268591922, 0.0434708372 ,
0.0491132811, 0.0344107188, 0.0537690260 ,
0.0854799449, 0.0590332858, 0.0652607605 
,
-0.0348220356, -0.0049963957, 0.0042671002 ,
-0.0460178703, -0.0016746185, 0.0188343283 ,
-0.0738387927, -0.0252750404, 0.0242998004 
,
0.1082247719, -0.0122978110, -0.0545411073 ,
0.1422073543, 0.0146405315, -0.0432455800 ,
0.1092920527, -0.0041018780, -0.0778912380 
,
-0.0096958047, 0.0247826539, -0.0118012736 ,
-0.0212358851, 0.0060742418, 0.0144962827 ,
-0.0146589121, -0.0059677805, -0.0050651454 
,
0.0264718011, 0.0459519029, 0.0558610894 ,
0.0434972458, 0.0422135703, 0.0407387130 ,
0.0355810113, 0.0273459814, 0.0432821661 
,
0.0598873235, -0.0450860821, -0.0306555443 ,
0.0413440727, -0.0374780819, -0.0720265806 ,
-0.0100251166, -0.0048844134, -0.0504814647 
,
0.1149143428, 0.0194542091, -0.0425602831 ,
0.2014436424, -0.0317143202, -0.0588648580 ,
0.1713313460, -0.0054553212, -0.0512598343 
,
0.0144189568, -0.0056430446, 0.0125717130 ,
0.0786996409, 0.0840711147, 0.0702590123 ,
0.0604648441, 0.0799458921, 0.0671661124 
,
-0.0191089585, 0.0411333218, 0.0522495583 ,
-0.0349207260, 0.0037478111, 0.0566919930 ,
-0.0142203690, 0.0001453562, 0.0483387522 
,
0.0798845738, 0.0979873911, 0.0183851179 ,
0.0799080506, 0.0726232976, 0.0330625623 ,
0.0376582779, 0.0782148913, 0.0169247836 
,
0.0867843404, 0.1052237004, -0.0093486775 ,
0.0686963275, 0.1302375495, 0.0329469256 ,
0.0445829369, 0.1029781848, 0.0016128706 
,
0.0483973324, 0.0520304441, 0.0514709577 ,
0.0776009858, 0.0775268674, 0.0692856237 ,
0.0867199823, 0.0829121917, 0.0757539570 
,
0.0656473488, 0.0657496676, 0.0567966327 ,
0.0737254322, 0.0869277567, 0.0601051040 ,
0.0443410985, 0.0322855897, 0.0252272878 
,
-0.0996322408, -0.0662413761, 0.0905361027 ,
-0.1549971998, -0.0656472296, 0.0318533033 ,
-0.1094101220, -0.0149670849, 0.0222870782 
,
0.0939512923, -0.0093215080, -0.0345317908 ,
0.0958769992, 0.0053757695, -0.0325087048 ,
0.0656688511, -0.0007737386, -0.0493305512 
,
0.0434632152, 0.0395706445, 0.0318482853 ,
0.0025026740, -0.0040458716, -0.0080400323 ,
-0.0043285112, -0.0103087397, -0.0031222939 
,
0.0446107015, 0.0535992570, 0.0770668313 ,
-0.0203946829, -0.0150977299, 0.0144092115 ,
-0.0341263786, -0.0350245647, -0.0046796589 
,
0.0405275710, 0.0107656419, 0.0153136766 ,
0.0363753997, 0.0078248130, 0.0132841766 ,
0.0133664515, -0.0067301681, 0.0005588508 
,
-0.0696343556, -0.0426194556, -0.0292754564 ,
-0.1258173734, -0.1071593612, -0.0248838756 ,
-0.1034016684, -0.0940553844, -0.0058766888 
,
-0.1049046218, -0.0404008254, 0.1257325113 ,
-0.0803613886, 0.0056938389, 0.1957417578 ,
-0.0955432951, -0.0295562278, 0.1490943134 
,
-0.0419099927, -0.0110135302, -0.0222215541 ,
-0.0519362725, -0.0001731284, -0.0002430219 ,
-0.0540390089, -0.0082978271, 0.0082673961 
,
0.1356934309, 0.0671269074, -0.0292388313 ,
0.1281954944, 0.0525398217, -0.0234659389 ,
0.0532479696, 0.0147821018, -0.0517988130 
,
0.0051216451, 0.0053730886, -0.0100883199 ,
0.0389037989, -0.0436595604, -0.0264212545 ,
0.0094319526, -0.0119021721, -0.0160380527 
,
0.0042192922, 0.0365010314, 0.0468429253 ,
0.0476481840, 0.0781826675, 0.1073014140 ,
0.0870997086, 0.0791200697, 0.0860504434 
,
0.0323455110, 0.0435513146, 0.0227314737 ,
0.0273497086, 0.0303913057, 0.0124329431 ,
0.0129489815, 0.0155696059, 0.0036525433 
,
0.0471330099, 0.0317204706, 0.0056486414 ,
0.0580212213, 0.0671853945, 0.0260214079 ,
0.0385648385, 0.0728406534, 0.0341648087 
,
0.0145716360, 0.0379641093, 0.0065352032 ,
-0.0060896790, 0.0056263013, -0.0274510253 ,
-0.0475231372, -0.0576433390, -0.0659803078 
,
-0.0318535119, 0.0008663024, 0.0604367666 ,
0.0247570127, 0.0453789681, 0.0808936730 ,
0.0361874253, 0.0466692820, 0.0523226336 
,
0.0361302011, 0.0607398003, 0.0529850312 ,
0.0255739242, 0.0137179857, 0.0354856066 ,
0.0145163992, 0.0104948757, 0.0272923168 
,
0.0361393765, 0.0374557674, 0.0350466184 ,
-0.0094849654, -0.0015275135, -0.0092070438 ,
-0.0266806688, -0.0203863028, -0.0240062010 
,
0.0183193628, 0.0297854748, 0.0207227468 ,
0.0328081846, 0.0402063541, 0.0355647244 ,
0.0301703401, 0.0365179144, 0.0310692955 
,
0.0131835155, 0.0501987524, 0.0320985094 ,
0.0020197816, 0.0157848839, 0.0193189848 ,
-0.0215376951, -0.0181573182, -0.0036428466 
,
-0.0119309416, 0.0119457738, 0.0214382652 ,
-0.0084710838, 0.0158975199, 0.0358525813 ,
-0.0084562032, 0.0092911543, 0.0271103587 
,
0.0387254916, 0.0703965202, 0.0917576700 ,
0.0756134912, 0.0821080804, 0.0626396611 ,
0.0535691194, 0.0443955325, 0.0584398843 
,
0.0171475671, 0.1270996183, 0.0159320310 ,
0.0611207373, 0.2011722475, 0.0673747957 ,
0.0495776273, 0.1581174582, 0.0379603803 
,
0.0472455770, 0.0610368922, 0.0386528075 ,
0.0350950956, 0.0401963480, 0.0112939421 ,
0.0446138419, 0.0466810465, 0.0283508040 
,
0.0224568527, 0.0126215881, 0.0235365145 ,
0.0270549376, 0.0077445772, 0.0301935747 ,
0.0353204049, 0.0296058618, 0.0259909611 
,
-0.0824682191, 0.0006898984, 0.0460411198 ,
-0.0627372563, 0.0571166761, 0.0710032880 ,
-0.0592600964, 0.0299386736, 0.0607893839 
,
-0.0100908149, 0.0090864589, 0.0055464217 ,
-0.0122384429, 0.0086589949, 0.0235742759 ,
-0.0082422504, -0.0043713534, 0.0097298734 
,
0.0712527260, 0.0121647846, 0.0190417971 ,
0.0927798599, 0.0440663435, 0.0461615399 ,
0.0676232874, 0.0422786735, 0.0403010100 
,
-0.0064016618, 0.0144286016, 0.0935179442 ,
-0.0047765407, 0.0531902239, 0.1111444756 ,
-0.0250161625, 0.0176490005, 0.0389539562 
,
-0.0143726133, -0.0037265371, -0.0052520377 ,
-0.0079637431, -0.0095441584, -0.0101453979 ,
-0.0104278168, -0.0067307507, -0.0064494964 
,
0.0172770787, 0.0373777263, 0.0346303284 ,
0.0147609981, 0.0194510203, 0.0180317145 ,
-0.0140988156, 0.0044270600, 0.0090708593 
,
0.0430997200, 0.0634844452, 0.0570217445 ,
0.0491049141, 0.0864081904, 0.0719540194 ,
0.0636265874, 0.0722399727, 0.0572051629 
,
0.0855268538, 0.1230813488, 0.1574544460 ,
-0.0058937729, 0.0156890173, 0.0469351895 ,
0.0228647515, 0.0463904254, 0.1012318507 
,
-0.0257556047, 0.0383620672, 0.2046540827 ,
-0.0665622428, 0.0082072522, 0.0964581221 ,
-0.0747419670, 0.0158457346, 0.0759847313 
,
0.1461767554, 0.0484542884, -0.1344761550 ,
0.2408861965, 0.0556359515, -0.1077886522 ,
0.2027832717, 0.0436381139, -0.1423898935 
,
0.0035021671, -0.0096808542, 0.0289020818 ,
0.0153816696, 0.0216099992, -0.0015081356 ,
0.0177440736, -0.0027122032, -0.0124386670 
,
-0.0552049167, -0.0847748369, -0.0743080080 ,
-0.0296930782, -0.0706020594, -0.0653258711 ,
-0.0204889253, -0.0657427460, -0.0726959407 
,
0.0451122262, 0.0400904194, 0.0454329215 ,
0.0254776403, 0.0152815683, 0.0202326626 ,
0.0166657176, 0.0010148924, 0.0065559628 
,
-0.0542828403, 0.0322586149, 0.0456991158 ,
0.0092221154, -0.0003688808, 0.0361250155 ,
0.0094162961, -0.0089583928, -0.0338158049 
,
0.0357076488, 0.0076635266, -0.0036430301 ,
0.0011461179, 0.0228970423, -0.0056270459 ,
-0.0087881424, -0.0165759660, -0.0075062914 
,
-0.0628494322, 0.0370672941, 0.0641244948 ,
0.0419530235, 0.0229787044, 0.0464305691 ,
-0.0090677897, -0.0052649700, -0.0074731861 

,
0.0120991468, 0.0080630537, 0.0083626863 ,
0.0130028287, 0.0086740442, 0.0093084192 ,
-0.0053715263, -0.0059910547, -0.0061891517 
,
0.1301799268, 0.1283326745, 0.1320724934 ,
0.0116189690, 0.0044409814, 0.0095026111 ,
0.0083458368, 0.0150623880, 0.0132396314 
,
-0.0572089106, -0.0524516143, -0.0585691966 ,
-0.0589665547, -0.0575967021, -0.0666247159 ,
-0.0564571917, -0.0654166937, -0.0651693940 
,
-0.0198278949, -0.0379876569, -0.0663893148 ,
-0.0535420924, -0.0596469790, -0.0754529461 ,
-0.0581504405, -0.0316663012, -0.0354082994 
,
0.1182311028, 0.0924675763, 0.1021030173 ,
-0.0280067064, -0.0205119383, -0.0097225970 ,
0.0103387525, -0.0121270847, -0.0158000514 
,
0.0444035940, 0.0221246965, 0.0220681690 ,
-0.0263968538, -0.0223980267, -0.0184796825 ,
-0.0148912789, -0.0342276916, -0.0178638436 
,
-0.0802080557, -0.0669962540, -0.0546399951 ,
-0.0594379865, -0.0585314296, -0.0730085298 ,
-0.0864479020, -0.0723403692, -0.0962317660 
,
0.0530418232, 0.0258173998, 0.0103820115 ,
0.1296612620, 0.0828141794, 0.0610356964 ,
-0.0346726626, -0.0486596301, -0.0378471352 
,
0.0024670740, 0.0132701891, 0.0196521692 ,
0.0237610172, 0.0277995765, 0.0284483023 ,
0.0185104981, 0.0199872255, 0.0228989832 
,
-0.0717867836, -0.0628040060, -0.0433303788 ,
-0.0969615132, -0.0769054219, -0.0676621944 ,
-0.0720754638, -0.0683869123, -0.0859623402 
,
0.0597607121, 0.0525823869, 0.0524067283 ,
0.0157748945, 0.0151790790, 0.0208496563 ,
0.0455804355, 0.0447922796, 0.0442764200 
,
0.0804707259, 0.0886253938, 0.1028446555 ,
0.1252386719, 0.1142657921, 0.1124200299 ,
0.0999790803, 0.0728335381, 0.0764724389 
,
0.0473677702, 0.0345458798, 0.0254386868 ,
-0.0141933570, -0.0171896107, -0.0171349533 ,
-0.0022818011, 0.0015738634, -0.0007697839 
,
0.0209605284, -0.0252995305, -0.0330842845 ,
-0.0542224608, -0.0625341162, -0.0442878567 ,
-0.0430569872, -0.0510437563, -0.0425828509 
,
-0.0564227439, -0.0561526082, -0.0417126156 ,
-0.0670312643, -0.0520727821, -0.0503930934 ,
-0.0433665663, -0.0471402630, -0.0386664718 
,
0.0176932905, 0.0200256109, 0.0165671986 ,
0.0013129053, -0.0025973804, 0.0026513431 ,
0.0113445958, 0.0048447531, 0.0195178408 
,
0.0819581673, 0.0698082224, 0.0591768473 ,
-0.0349344909, -0.0367596075, -0.0171269476 ,
0.0214870851, -0.0156320613, -0.0144721270 
,
0.0263398178, -0.0293008406, -0.0415792428 ,
0.0300006159, -0.0027415054, 0.0002427711 ,
-0.0695051998, -0.0883897468, -0.0575063266 
,
0.0592000522, 0.0656354651, 0.0512347519 ,
0.0181712676, 0.0117043927, 0.0004628101 ,
-0.0129151801, -0.0133201461, -0.0227584504 
,
-0.0198728591, -0.0106012765, 0.0006715394 ,
0.0110674361, 0.0040606633, 0.0060645528 ,
-0.0405598208, -0.0509207919, -0.0652774349 
,
-0.0869276151, -0.1132841632, -0.1270111352 ,
-0.1112851351, -0.1225941628, -0.1022357047 ,
-0.1109911278, -0.1100463569, -0.0831856430 
,
-0.0549254566, -0.0736497492, -0.0840840340 ,
-0.0738318712, -0.0875684172, -0.0830078870 ,
-0.0708010122, -0.0887192115, -0.0852036253 
,
-0.0121110193, -0.0064201592, -0.0001037008 ,
-0.0018662822, 0.0006236044, 0.0047695274 ,
-0.0055496059, -0.0018696247, 0.0005106424 
,
-0.0384925790, -0.0281802677, -0.0438662879 ,
-0.0408014581, -0.0314171575, -0.0392074957 ,
-0.0365335569, -0.0232173968, -0.0303365998 
,
0.1260025948, 0.0972629413, 0.0895072073 ,
-0.0059324922, -0.0289818998, -0.0088301944 ,
0.0284154508, -0.0041132602, 0.0007800310 
,
0.0368189998, 0.0064667095, 0.0058080973 ,
-0.0412240028, -0.0398610644, -0.0233180597 ,
-0.0080390638, -0.0197425690, -0.0166266579 
,
0.0087512434, 0.0094409799, 0.0105765536 ,
-0.0095044477, -0.0063822186, -0.0071121794 ,
0.0324787609, 0.0358093642, 0.0270412862 
,
0.0262963995, 0.0184943266, 0.0197750591 ,
-0.0142064737, -0.0106745949, -0.0118072107 ,
0.0351796821, 0.0398357958, 0.0307322927 
,
-0.0113834273, -0.0101313572, -0.0024652081 ,
-0.0122151850, -0.0091855740, -0.0061942921 ,
-0.0006105536, 0.0053367484, 0.0075260093 
,
0.0619677231, 0.0695335045, 0.0770686567 ,
0.1437337399, 0.1226301119, 0.1204379424 ,
-0.0304936767, -0.0262559764, -0.0543240793 
,
-0.0917196870, -0.1047628149, -0.0883577466 ,
-0.1260131449, -0.1315745413, -0.1571207792 ,
-0.1598182023, -0.1330219060, -0.1787375212 
,
0.0368299261, 0.0151479291, 0.0096928254 ,
-0.0063789152, -0.0187707283, -0.0153554324 ,
-0.0087025827, -0.0163711701, -0.0168119054 
,
-0.0054781772, -0.0044250721, 0.0051960810 ,
-0.0262056552, -0.0190758612, -0.0002554041 ,
-0.0084854821, 0.0028057625, 0.0096228337 
,
0.0787441283, 0.0230218228, 0.0122393994 ,
0.0867847055, 0.0452632234, 0.0409607068 ,
-0.0293827932, -0.0435878932, -0.0329106562 
,
0.1150346547, 0.0995467529, 0.1273879707 ,
0.0617805794, 0.0613911897, 0.0484119505 ,
-0.0307340454, -0.0344462357, -0.0270243026 
,
