float conv1_weights [64][3][5][5] = {
0.0072774463, -0.0039869258, -0.0131668281, -0.0036070934, 0.0024173348 ,
0.0250703413, 0.0208033957, 0.0131550841, 0.0220929608, 0.0216672644 ,
0.0195848588, 0.0196378715, 0.0168825779, 0.0198389422, 0.0151602095 ,
-0.0131106190, -0.0184207521, -0.0260050260, -0.0239273999, -0.0157026928 ,
-0.0264884997, -0.0276726112, -0.0416930579, -0.0382871926, -0.0307910796 
,
-0.0135448026, -0.0276516862, -0.0356299393, -0.0286134668, -0.0201668683 ,
-0.0037444478, -0.0128749767, -0.0202106070, -0.0148964701, -0.0116980104 ,
-0.0163313095, -0.0225529522, -0.0272607766, -0.0256318636, -0.0249472838 ,
-0.0472926982, -0.0595066622, -0.0710200295, -0.0699643418, -0.0552927367 ,
-0.0532618649, -0.0608433969, -0.0773701668, -0.0734380409, -0.0603734590 
,
0.0311162248, 0.0233111046, 0.0239736736, 0.0254777111, 0.0289828461 ,
0.0490353890, 0.0476749837, 0.0494604260, 0.0479664318, 0.0445682853 ,
0.0470597558, 0.0501090661, 0.0552423261, 0.0518705100, 0.0435217358 ,
0.0243750550, 0.0234269872, 0.0248168353, 0.0231656935, 0.0254997909 ,
0.0119741764, 0.0134631535, 0.0064322813, 0.0102430256, 0.0144058447 

,
0.0019217852, -0.0278771091, -0.0429369770, -0.0458429828, -0.0232090540 ,
0.0054250876, -0.0272678919, -0.0391665548, -0.0307699684, -0.0142357489 ,
0.1214568019, 0.1795785427, 0.2078616768, 0.1771705747, 0.1191204116 ,
0.0303416885, 0.0617422573, 0.0657055229, 0.0400921926, 0.0253166109 ,
-0.1545992494, -0.1845684350, -0.2064047605, -0.1829665452, -0.1393201202 
,
-0.0737723187, -0.1055601612, -0.1191971749, -0.1175911203, -0.0857115537 ,
-0.0253356304, -0.0555115305, -0.0621338859, -0.0551340580, -0.0336220190 ,
0.1395937949, 0.2145987302, 0.2537602782, 0.2176772952, 0.1536516696 ,
0.0574638844, 0.1104400903, 0.1312409490, 0.1020669192, 0.0746914074 ,
-0.1265095025, -0.1490742862, -0.1642901152, -0.1314380467, -0.0879314840 
,
-0.0507999919, -0.0874293521, -0.0929551348, -0.0877929106, -0.0597172529 ,
-0.0084433127, -0.0519321226, -0.0526568554, -0.0498404875, -0.0234246794 ,
0.1372926831, 0.1909272671, 0.2275772244, 0.1897749454, 0.1459233165 ,
0.0479723476, 0.0827552527, 0.0983206332, 0.0725657120, 0.0569936261 ,
-0.1181095392, -0.1499155313, -0.1702394783, -0.1431500316, -0.0840022787 

,
0.0014637307, -0.0060691829, -0.0958372056, 0.0543906353, 0.1296596974 ,
-0.0036531165, -0.0342450291, -0.1707202941, 0.0506204180, 0.1662369817 ,
-0.0110419784, -0.0716256276, -0.2013799250, 0.0568448454, 0.2015912682 ,
-0.0137912240, -0.0775851980, -0.1659798175, 0.0604844615, 0.1847520918 ,
-0.0390759408, -0.0752802640, -0.1233265549, 0.0550416484, 0.1352697611 
,
0.0311725307, -0.0138581060, -0.1349842846, 0.0101158516, 0.1061422825 ,
0.0371109657, -0.0494582504, -0.2298604548, -0.0077315150, 0.1387149692 ,
0.0409117751, -0.0626994222, -0.2451602817, 0.0156260785, 0.1816898584 ,
0.0449468344, -0.0534768552, -0.1841045618, 0.0421629176, 0.1784798205 ,
0.0251989495, -0.0409422778, -0.1144535244, 0.0553538576, 0.1386652738 
,
0.1367762983, 0.0777530819, -0.1232872605, -0.0467739962, 0.0126906540 ,
0.1766792536, 0.0732018128, -0.1928299516, -0.0717701092, 0.0281811170 ,
0.2110891044, 0.0706850216, -0.2024226040, -0.0469634719, 0.0626934394 ,
0.1911002398, 0.0547253862, -0.1617860645, -0.0238947105, 0.0657694340 ,
0.1304027885, 0.0323506668, -0.1114532873, -0.0206797756, 0.0232763309 

,
0.0046856119, -0.0163079239, -0.0288660433, -0.0180575307, 0.0164526794 ,
0.2037397325, 0.0667900369, -0.2128286362, -0.1671551913, 0.0132331867 ,
0.2469515502, 0.0255863015, -0.3126663268, -0.1310478151, 0.0869177431 ,
-0.1728024334, -0.1199420765, 0.1580526978, 0.1744162142, 0.0132397106 ,
-0.2560552359, 0.0065009701, 0.3932413161, 0.1739395410, -0.1147259027 
,
-0.0084394021, 0.0490446985, -0.0197787844, -0.0343241468, -0.0207018107 ,
0.2249459624, 0.1310748309, -0.2054095268, -0.1523225158, 0.0156440791 ,
0.2588863671, 0.0187476780, -0.2987363636, -0.1372405291, 0.1047039777 ,
-0.1901625395, -0.1694843620, 0.1531716138, 0.1366719753, -0.0013049379 ,
-0.2943478525, -0.0485868938, 0.3765203655, 0.1723061353, -0.1015299261 
,
0.0031484263, 0.0327517949, 0.0151195638, 0.0229747333, -0.0015410080 ,
0.1998469979, 0.1445502341, -0.1555686891, -0.0922264606, -0.0100285849 ,
0.2515459657, 0.0381208882, -0.3305474222, -0.1042255908, 0.0602021590 ,
-0.1364441514, -0.1490248889, 0.1065270305, 0.0964061171, 0.0189333707 ,
-0.2828141451, -0.0878299698, 0.3340190649, 0.1022807062, -0.0807004198 

,
-0.0910468027, -0.1526592523, -0.2414275259, -0.2683545351, -0.2143805176 ,
0.0203120504, -0.0397184007, -0.1197435856, -0.2057044208, -0.2260210514 ,
0.1115179956, 0.1159658805, 0.1051068604, 0.0232107136, -0.0793817118 ,
0.1088132113, 0.1434908658, 0.1598584503, 0.1237955093, 0.0033285469 ,
0.1092276126, 0.1641287953, 0.1730585396, 0.1695263237, 0.0815854296 
,
-0.0967270285, -0.1715693921, -0.2787711024, -0.3087576032, -0.2497535944 ,
0.0079472363, -0.0649318695, -0.1603386700, -0.2512937188, -0.2726925611 ,
0.1020954922, 0.0979522467, 0.0823936984, -0.0015229667, -0.1095546037 ,
0.1000189260, 0.1317341328, 0.1522990763, 0.1225605384, -0.0025592083 ,
0.0865358934, 0.1381215304, 0.1676378548, 0.1699996442, 0.0827363804 
,
-0.0363533646, -0.1307541877, -0.2591646016, -0.2990115583, -0.2367278934 ,
0.0684755817, -0.0121275662, -0.1200808436, -0.2200249732, -0.2395622432 ,
0.1775155216, 0.1689608991, 0.1395630538, 0.0555087067, -0.0516773723 ,
0.1882408410, 0.2175016701, 0.2347980738, 0.2034885138, 0.0812454298 ,
0.1792384237, 0.2281963080, 0.2572328448, 0.2569005191, 0.1692122966 

,
0.0957171693, 0.0952741951, 0.0837820247, 0.0802807212, 0.0795696005 ,
0.1182784289, 0.1081429049, 0.0947000235, 0.0813161880, 0.0812563002 ,
0.1487994939, 0.1377501935, 0.1183169112, 0.0913747326, 0.0914356411 ,
0.1562194973, 0.1462359577, 0.1275571287, 0.1032659933, 0.0983893275 ,
0.1399324387, 0.1280020922, 0.1113005355, 0.0910494030, 0.0881575495 
,
0.0462895222, 0.0404869244, 0.0336009488, 0.0357131921, 0.0410658717 ,
0.0681347996, 0.0531750359, 0.0439333990, 0.0377417728, 0.0428382605 ,
0.1050825715, 0.0943829864, 0.0787951127, 0.0581361949, 0.0613624230 ,
0.1192344502, 0.1123132184, 0.0985315219, 0.0794664547, 0.0767696574 ,
0.1129847988, 0.1034550220, 0.0924853459, 0.0766407922, 0.0739157498 
,
0.0076086461, 0.0007920357, -0.0042444826, 0.0056758216, 0.0190956574 ,
0.0379499681, 0.0235584062, 0.0154459300, 0.0173169076, 0.0288837869 ,
0.0798524693, 0.0703880861, 0.0558889657, 0.0432650447, 0.0519652404 ,
0.0978114828, 0.0902103633, 0.0769999698, 0.0656744838, 0.0689391866 ,
0.0940154791, 0.0854274705, 0.0734594837, 0.0641735941, 0.0650462955 

,
0.0003834377, -0.0135265291, 0.0390315726, 0.0361454599, -0.0362084247 ,
-0.0317602605, -0.0403428040, 0.0439396016, 0.0458424017, -0.0493516624 ,
-0.0200498607, -0.0475164540, 0.0143094854, 0.0359352082, -0.0370261557 ,
0.0457830429, -0.0253522228, -0.0028310674, 0.0043065078, -0.0382277630 ,
0.0730728433, 0.0008149380, 0.0081679998, -0.0129716629, -0.0275017656 
,
-0.1119665802, -0.0572544634, 0.0830727965, 0.1420208216, 0.0868382677 ,
-0.1776787192, -0.1197356358, 0.0759818405, 0.1647547334, 0.1004504561 ,
-0.1890354306, -0.1536335647, 0.0312596820, 0.1504626721, 0.1068056151 ,
-0.1135444045, -0.1226777658, -0.0025025888, 0.0972428173, 0.0883940980 ,
-0.0777878389, -0.0997548178, -0.0132024139, 0.0478907824, 0.0674223974 
,
-0.2240928411, -0.1274211109, 0.1124861762, 0.2522601187, 0.2093934864 ,
-0.3206277788, -0.2099213153, 0.1091305241, 0.2974973321, 0.2548492551 ,
-0.3603090346, -0.2717847526, 0.0617526434, 0.2877582014, 0.2672130466 ,
-0.2807650864, -0.2423852384, 0.0018828301, 0.2131696492, 0.2297698706 ,
-0.2310728133, -0.2087370604, -0.0280590300, 0.1202127412, 0.1637354791 

,
0.1610180587, 0.2480757684, 0.2284228355, 0.0768355429, 0.0273256712 ,
0.2567747235, 0.2876509428, 0.1538974345, 0.0225378610, -0.0101514300 ,
0.1085389927, -0.0044021658, -0.0819641799, -0.0806606188, -0.0359837450 ,
-0.1593936384, -0.3099375665, -0.2263655216, -0.0776062757, -0.0123581262 ,
-0.2144145966, -0.2421722114, -0.0719401985, 0.0145286266, -0.0008969067 
,
0.1698765010, 0.2936260104, 0.2538903356, 0.1018510982, 0.0197439194 ,
0.2699963152, 0.3074204326, 0.1777805686, 0.0127205728, 0.0010043156 ,
0.1036041528, -0.0197965931, -0.1126150936, -0.0851661265, -0.0198649317 ,
-0.2011229396, -0.3409714699, -0.2389305234, -0.0590703711, -0.0009509200 ,
-0.2413358241, -0.2529809475, -0.0900050551, 0.0175303891, 0.0087686209 
,
0.2034745961, 0.3189902604, 0.2726755738, 0.1171188727, 0.0235639773 ,
0.2594836652, 0.3212780952, 0.1843089312, 0.0100659449, 0.0068458971 ,
0.0933330208, -0.0196517408, -0.1125609353, -0.0833782852, -0.0098874196 ,
-0.2214572281, -0.3452147841, -0.2537088990, -0.0669567659, 0.0099532809 ,
-0.2875097096, -0.3007766902, -0.1354812980, -0.0012691779, 0.0049059908 

,
-0.0367956050, -0.0277179889, -0.0216245279, -0.0119046392, -0.0122335963 ,
-0.0631133616, -0.0493630022, -0.0364024341, -0.0271187890, -0.0257797353 ,
-0.0950730965, -0.0828824043, -0.0659959465, -0.0536403507, -0.0500940941 ,
-0.1258407384, -0.1228730083, -0.1087680906, -0.0990701467, -0.0871679485 ,
-0.1217781007, -0.1321898550, -0.1292324811, -0.1227410734, -0.1037656218 
,
0.0234493874, 0.0360535420, 0.0434996597, 0.0502430722, 0.0478645526 ,
0.0018191141, 0.0181501862, 0.0320904590, 0.0386704840, 0.0373861417 ,
-0.0316383056, -0.0179428495, 0.0000431703, 0.0109637314, 0.0145148681 ,
-0.0812136009, -0.0763327628, -0.0592401847, -0.0485968925, -0.0365548767 ,
-0.0956621841, -0.1049046144, -0.1006525606, -0.0904909521, -0.0688934401 
,
0.0540667959, 0.0649373084, 0.0706616938, 0.0700337142, 0.0667501613 ,
0.0471463688, 0.0612088628, 0.0695408136, 0.0696422458, 0.0651198551 ,
0.0295589510, 0.0441310443, 0.0535034575, 0.0541399643, 0.0485767089 ,
-0.0105990255, -0.0005462854, 0.0078569129, 0.0083290376, 0.0064696041 ,
-0.0423149578, -0.0410881154, -0.0422082059, -0.0385070443, -0.0303975604 

,
-0.0693418682, 0.0001286475, 0.0894008651, -0.0901106298, 0.0591205060 ,
0.0394625962, -0.2937639058, -0.3350687325, 0.1402854621, 0.4271173477 ,
-0.0172033254, -0.0126158549, -0.1821095347, 0.1073602065, 0.1309083998 ,
-0.0131378025, 0.2423276007, 0.2651647627, -0.0933550820, -0.3675636053 ,
0.0728134364, 0.0999511555, 0.1386472881, -0.0091707427, -0.2758397758 
,
-0.0246964581, 0.0361462198, 0.0564459972, -0.0551366173, 0.0609823391 ,
0.0394956656, -0.3142511547, -0.3996691108, 0.2056183368, 0.5059668422 ,
-0.0739925504, -0.0594078936, -0.1788473427, 0.0738519356, 0.1896879226 ,
-0.0646746308, 0.2444373667, 0.3162011802, -0.1494073123, -0.4195907116 ,
0.0353360102, 0.1342082173, 0.1381153464, -0.0865789801, -0.2864826322 
,
-0.0625581592, 0.0303495694, 0.0551566891, -0.0965537652, 0.0217215661 ,
0.0441561192, -0.3515028059, -0.3855101764, 0.2177775353, 0.4964308739 ,
-0.0796760842, -0.1143861338, -0.1732202172, 0.1078481600, 0.1864841133 ,
0.0248818044, 0.2493076771, 0.3761990070, -0.1726956964, -0.4361526370 ,
0.1024525985, 0.1614621580, 0.1958948970, -0.0689731687, -0.3190014362 

,
-0.0469667278, -0.0459774025, -0.0405590795, -0.0393544361, -0.0345827006 ,
-0.0232626852, -0.0225548763, -0.0177159086, -0.0143867834, -0.0071575190 ,
0.0019453891, 0.0081564896, 0.0138840768, 0.0206922069, 0.0236145556 ,
0.0591380782, 0.0792753920, 0.0871425122, 0.0957873389, 0.0832055286 ,
0.0982745960, 0.1221695617, 0.1279636621, 0.1308918148, 0.1107558608 
,
-0.0704467446, -0.0696101487, -0.0634233132, -0.0631314516, -0.0571128502 ,
-0.0522617139, -0.0540735461, -0.0492302068, -0.0444700010, -0.0330213755 ,
-0.0226983819, -0.0206125453, -0.0149073163, -0.0065754778, 0.0042485474 ,
0.0484632328, 0.0674191564, 0.0746545270, 0.0841682628, 0.0780208483 ,
0.0997752249, 0.1243436038, 0.1330657303, 0.1361211538, 0.1177518964 
,
-0.1253035665, -0.1272806823, -0.1230111420, -0.1242167428, -0.1152028516 ,
-0.1002586558, -0.1051527932, -0.1023477316, -0.0990218073, -0.0850422233 ,
-0.0646604523, -0.0651582927, -0.0612043701, -0.0557680540, -0.0406455025 ,
0.0073633906, 0.0231962223, 0.0293975528, 0.0345845222, 0.0331762657 ,
0.0703914985, 0.0898174867, 0.0986063331, 0.0978763178, 0.0854259506 

,
-0.0189028457, -0.0390050560, -0.0777060241, -0.0854324847, -0.0930885971 ,
-0.0675264001, -0.1105097309, -0.1511576772, -0.1481319666, -0.1298158616 ,
-0.1201906651, -0.1756124943, -0.2120079994, -0.2179650217, -0.1927600205 ,
-0.1371994168, -0.1857145876, -0.2006257325, -0.2046587765, -0.2018345892 ,
-0.1672081351, -0.1953539103, -0.2290619612, -0.2220346928, -0.2136978656 
,
0.0633828565, 0.0673081279, 0.0481041558, 0.0450231060, 0.0341467485 ,
0.0553776845, 0.0454345718, 0.0284656994, 0.0393859036, 0.0457248837 ,
0.0401995815, 0.0174855329, 0.0036387183, 0.0119902482, 0.0167662781 ,
0.0257093944, 0.0086788209, 0.0145484982, 0.0164151210, 0.0151737230 ,
-0.0266401805, -0.0287450273, -0.0419693664, -0.0317482986, -0.0369959697 
,
0.1599450558, 0.1895481944, 0.1809424013, 0.1746304184, 0.1444844157 ,
0.1713839173, 0.1964957416, 0.1980698258, 0.1967000365, 0.1813160479 ,
0.1648676097, 0.1866127998, 0.1918514520, 0.1898937970, 0.1712225378 ,
0.1404284239, 0.1631560177, 0.1888645142, 0.1758543849, 0.1539034992 ,
0.0642856508, 0.0915506259, 0.0992592201, 0.0925550163, 0.0690040514 

,
0.0690354779, 0.1041759849, 0.1156942323, 0.1114138886, 0.1434197426 ,
0.0825593993, 0.1103006005, 0.1093991548, 0.1207626089, 0.1461738944 ,
0.0553185344, 0.0769607648, 0.0804928094, 0.1050251946, 0.1400679946 ,
0.0572755039, 0.0692365095, 0.0594284944, 0.0829536244, 0.1110403836 ,
0.0597229451, 0.0745192990, 0.0676521286, 0.0797225088, 0.1007053629 
,
-0.0123665137, 0.0149922632, 0.0412081778, 0.0516183004, 0.1021736264 ,
-0.0051566558, 0.0209815912, 0.0338101983, 0.0639678687, 0.1209912151 ,
-0.0075452505, 0.0122008715, 0.0364722721, 0.0759104043, 0.1430639476 ,
0.0298860800, 0.0432208814, 0.0550321415, 0.0939144269, 0.1432463676 ,
0.0653344393, 0.0868652016, 0.1047554538, 0.1311852783, 0.1600176543 
,
-0.2052811086, -0.2044747025, -0.1817809343, -0.1618645042, -0.0800457075 ,
-0.2114845365, -0.2188130170, -0.2048703283, -0.1601593792, -0.0581242517 ,
-0.2066278607, -0.2180596292, -0.1999808401, -0.1380848885, -0.0231521372 ,
-0.1358988732, -0.1487571150, -0.1337783188, -0.0797548667, 0.0090393843 ,
-0.0597114116, -0.0566123165, -0.0357825570, -0.0008575332, 0.0576470010 

,
0.0831140056, 0.0030891898, -0.1113043427, -0.1700318307, -0.1387252212 ,
0.1649388671, 0.0830053091, -0.0892947316, -0.2176158875, -0.2082145363 ,
0.2200977206, 0.1788708717, 0.0122324266, -0.1680517048, -0.2206407785 ,
0.2030300498, 0.1970319599, 0.0985503942, -0.0858121291, -0.1896353960 ,
0.1693397164, 0.1731795818, 0.1313300133, 0.0170679968, -0.0943367705 
,
0.0729457960, 0.0078519909, -0.0808575228, -0.1269371659, -0.1028139666 ,
0.1198479235, 0.0604255982, -0.0644069239, -0.1672463864, -0.1639709622 ,
0.1439686865, 0.1268046498, 0.0155963795, -0.1260160953, -0.1753557622 ,
0.1127725989, 0.1320263743, 0.0742831901, -0.0629470199, -0.1526409835 ,
0.0878564417, 0.1078242660, 0.0988561884, 0.0262952559, -0.0725915581 
,
0.0684428662, 0.0254317522, -0.0353881046, -0.0509334691, -0.0232895520 ,
0.0818378702, 0.0559567213, -0.0277538821, -0.0837959647, -0.0720674172 ,
0.0741686895, 0.0862954631, 0.0196765494, -0.0709050745, -0.0959668756 ,
0.0275018048, 0.0679413378, 0.0455373302, -0.0432445183, -0.1046932638 ,
0.0004976960, 0.0336820707, 0.0547650829, 0.0190246571, -0.0485213622 

,
0.0076376288, -0.1015906110, 0.1168997288, 0.0762357041, -0.0661909655 ,
0.0888813585, -0.2938621640, 0.1323918551, 0.2303849906, -0.1322251558 ,
0.0398385860, -0.0143855717, -0.0240458939, -0.0967991501, 0.0993375033 ,
-0.1360285133, 0.2740486860, -0.0909163132, -0.1736499220, 0.1110887378 ,
0.0162416603, 0.1226109639, -0.1350782961, -0.0371923186, 0.0005679738 
,
0.0086321859, -0.1694693714, 0.1208050326, 0.1263768524, -0.0949598104 ,
0.1161556542, -0.3234548867, 0.1613889039, 0.2143267691, -0.1649120748 ,
-0.0071671559, 0.0292296708, -0.0788100660, -0.0923753753, 0.0995159671 ,
-0.1198989749, 0.3404152095, -0.1032473072, -0.2387431264, 0.1335777193 ,
-0.0318573564, 0.1683217138, -0.1081440076, -0.0371223502, 0.0333634205 
,
0.0463856161, -0.1768697351, 0.1434448510, 0.0939888358, -0.1183470190 ,
0.1000327021, -0.3209907115, 0.1427005231, 0.2550259829, -0.1773310602 ,
0.0280859731, 0.0357430018, -0.0360415131, -0.1203132346, 0.0954447761 ,
-0.1539738178, 0.3162314892, -0.1128128096, -0.2001674920, 0.1572785825 ,
-0.0446614772, 0.1488814950, -0.1395721138, -0.0044802693, 0.0490265079 

,
0.0341303796, 0.0607313849, 0.0785828605, 0.0713365972, 0.0293235593 ,
-0.0378268436, -0.0345381461, -0.0372881033, -0.0786477476, -0.0888313726 ,
-0.1029077321, -0.1175405607, -0.1209222525, -0.0925412178, -0.0709429607 ,
0.0972130299, 0.0989669636, 0.1510333568, 0.1361932755, 0.0891355053 ,
-0.0055504628, -0.0181309599, 0.0164177231, -0.0242473278, -0.0203652568 
,
0.0402694717, 0.0525035672, 0.0795234367, 0.0630513951, 0.0243946407 ,
-0.0533782318, -0.0661576390, -0.0747454241, -0.0997114331, -0.1129964069 ,
-0.1252375990, -0.1615995318, -0.1529747099, -0.1314802617, -0.0897618383 ,
0.0983972922, 0.0943753198, 0.1372566670, 0.1393398345, 0.1026298404 ,
0.0206829160, 0.0046662125, 0.0425916128, 0.0114313038, 0.0102562634 
,
0.0757383406, 0.0823992342, 0.1283773184, 0.1172522381, 0.0679199472 ,
-0.0345752239, -0.0427561402, -0.0416634120, -0.0590718687, -0.0846150368 ,
-0.1093652397, -0.1575996131, -0.1498498470, -0.1145365536, -0.0859522894 ,
0.0880590901, 0.0796720758, 0.1167445034, 0.1142878830, 0.0983720869 ,
0.0097251497, -0.0033478807, 0.0289131310, -0.0060609053, -0.0148739209 

,
-0.1051936895, -0.1796669066, -0.1952022016, -0.1355460733, -0.0530205406 ,
-0.0108849509, -0.1075024903, -0.1864061058, -0.1842917800, -0.1084990725 ,
0.0925295725, 0.0548691116, -0.0234072227, -0.0967871770, -0.0896800011 ,
0.1100108698, 0.1378688961, 0.1137125567, 0.0238678288, -0.0361515172 ,
0.1034527570, 0.1473661810, 0.1489190012, 0.1061304584, 0.0403882302 
,
-0.0958999470, -0.1723297536, -0.1982174069, -0.1359303445, -0.0614553206 ,
0.0018686755, -0.0911507308, -0.1721438318, -0.1770849973, -0.1085234284 ,
0.1176780462, 0.0869164765, 0.0114610950, -0.0682893693, -0.0648809224 ,
0.1469913721, 0.1799784005, 0.1636098325, 0.0695204288, 0.0059654410 ,
0.1373984516, 0.1892465651, 0.2020509243, 0.1544515938, 0.0849064142 
,
-0.0899812207, -0.1680716872, -0.1926081926, -0.1306591481, -0.0578543060 ,
-0.0062976140, -0.0989472941, -0.1741025895, -0.1736782640, -0.1106122211 ,
0.0980036855, 0.0674709156, 0.0021359725, -0.0700904503, -0.0676788017 ,
0.1346222609, 0.1593827754, 0.1503945738, 0.0643026680, 0.0046751238 ,
0.1413370073, 0.1820899844, 0.2001514286, 0.1583464891, 0.0967539847 

,
0.0247010533, 0.0935374349, 0.1431642771, 0.0896618068, -0.0171175152 ,
0.0789794922, 0.1476982087, 0.1316944659, 0.0072813709, -0.1112952158 ,
0.1021763608, 0.1066773608, 0.0178455487, -0.1215655282, -0.1736177951 ,
0.0549929850, 0.0058922358, -0.1007540673, -0.1845022589, -0.1653881073 ,
-0.0301087406, -0.0877412111, -0.1464796066, -0.1667492986, -0.1195205301 
,
0.1261323243, 0.1957020462, 0.2119887620, 0.1095316708, -0.0556615405 ,
0.1909179389, 0.2538271248, 0.1952905804, 0.0035096591, -0.1714206040 ,
0.2145146877, 0.1979104728, 0.0563083924, -0.1575109512, -0.2635922134 ,
0.1511137038, 0.0763010085, -0.0871072263, -0.2354539186, -0.2570289969 ,
0.0338631943, -0.0532982238, -0.1473018378, -0.2198693305, -0.2131751329 
,
0.1930535138, 0.2402178496, 0.2194455415, 0.0791746750, -0.1063673273 ,
0.2718450725, 0.3042397499, 0.2121477723, -0.0226234049, -0.2241758853 ,
0.2937809825, 0.2517982423, 0.0715090632, -0.1864470840, -0.3216925561 ,
0.2452851832, 0.1406297684, -0.0708430037, -0.2674550116, -0.3245697320 ,
0.1124882996, -0.0090084914, -0.1550848931, -0.2521721125, -0.2654162943 

,
0.2042083144, 0.2521556914, 0.2469583601, 0.2213980854, 0.1683234423 ,
0.1364092976, 0.2074251622, 0.2280872613, 0.2087245882, 0.1342770457 ,
0.0063869935, 0.0498618260, 0.1015658602, 0.0900559723, 0.0758298188 ,
-0.1331980377, -0.1590917110, -0.1361802816, -0.1139885560, -0.0905298144 ,
-0.1969364285, -0.2677873075, -0.2606540024, -0.2186388820, -0.1777053177 
,
-0.0644715875, -0.0779585913, -0.0868877098, -0.0318562984, 0.0241056662 ,
-0.1006062478, -0.1227433309, -0.1096155569, -0.0532986447, -0.0121788168 ,
-0.1308550090, -0.1385754049, -0.0843538418, -0.0179036539, 0.0353226736 ,
-0.1541667432, -0.1913859099, -0.1404385120, -0.0575220138, 0.0245083924 ,
-0.1061864346, -0.1470700204, -0.1275165975, -0.0716696382, 0.0229606517 
,
-0.1906899214, -0.2884281874, -0.3259554505, -0.2962963581, -0.2740799785 ,
-0.0523430482, -0.1209333837, -0.2216268927, -0.2157924026, -0.2020878941 ,
0.1815369725, 0.1620025784, 0.0985103697, 0.0517148748, -0.0420074314 ,
0.3058782220, 0.3746469915, 0.3505621552, 0.2457602173, 0.1255517155 ,
0.3403256834, 0.4026671052, 0.3865419924, 0.2786320150, 0.2074733227 

,
0.0137620531, 0.0833178833, 0.1194197014, 0.1132818237, 0.0886372626 ,
-0.0048612696, 0.0609052181, 0.1393202692, 0.1969570816, 0.1739250571 ,
-0.0533834621, -0.0253159497, 0.0766931698, 0.1980274916, 0.1953251958 ,
-0.0707485080, -0.0973328128, -0.0802655965, 0.0421294495, 0.1456206143 ,
-0.0274160448, -0.0806546435, -0.1422086805, -0.0891238227, 0.0337187983 
,
-0.0150890965, 0.0540322810, 0.0969059095, 0.0947424397, 0.0675821900 ,
-0.0696893781, -0.0091504734, 0.0783844143, 0.1437515914, 0.1350587755 ,
-0.1579920799, -0.1388678402, -0.0325284339, 0.0996767879, 0.1273758858 ,
-0.1727872342, -0.2124806345, -0.1965852678, -0.0685586035, 0.0605709888 ,
-0.1079575047, -0.1669298112, -0.2331531048, -0.1803447753, -0.0424127392 
,
0.0287398770, 0.0975369215, 0.1431145519, 0.1449272782, 0.1219278052 ,
-0.0281659234, 0.0337718613, 0.1218116209, 0.1802885830, 0.1746075749 ,
-0.1296239644, -0.1034378856, -0.0000269190, 0.1234075874, 0.1509513706 ,
-0.1574746519, -0.1852948517, -0.1680790633, -0.0405162349, 0.0858346224 ,
-0.1003441289, -0.1533903480, -0.2179650813, -0.1588802338, -0.0187537875 

,
-0.0817939416, 0.1036569476, 0.0776989758, -0.0629136488, -0.0211130008 ,
-0.0925424322, 0.3080016673, 0.0585694239, -0.2324826419, 0.0398586579 ,
-0.1348997653, 0.4147962630, -0.1138235852, -0.3036189079, 0.1580224335 ,
0.0165967792, 0.3689651191, -0.3735347986, -0.1926440448, 0.1625171006 ,
-0.0010293158, 0.1015059873, -0.3490439653, -0.0200028028, 0.0642060935 
,
-0.0938911736, 0.1757285595, 0.0419712886, -0.1114742458, -0.0029946186 ,
-0.1447634995, 0.3112508953, -0.0192824081, -0.2812026441, 0.0474440567 ,
-0.1395526081, 0.4691054523, -0.2105577439, -0.3290062547, 0.1794008315 ,
-0.0206575543, 0.4127482772, -0.4146580100, -0.1506671160, 0.2332016379 ,
0.0804322734, 0.1697393805, -0.2974635661, 0.0380887538, 0.1536012441 
,
-0.0999676213, 0.1729603559, 0.0894772857, -0.1347371191, 0.0282777585 ,
-0.1711438596, 0.2730441093, -0.0339750610, -0.2087651044, 0.1046562046 ,
-0.1448250413, 0.4421195984, -0.2462507784, -0.2966094315, 0.2173074037 ,
-0.0221277233, 0.3407225311, -0.3952930272, -0.1889560819, 0.2960210443 ,
0.0101341223, 0.0861364529, -0.3195347190, 0.0291209556, 0.1868186444 

,
0.0849211887, -0.0441035181, -0.2119702101, 0.0230979286, 0.1684256792 ,
0.1509631574, -0.0471566878, -0.3696747124, -0.1122026592, 0.2100645006 ,
0.2432097346, 0.0914740562, -0.3602881432, -0.2558806539, 0.1336850673 ,
0.2178370208, 0.1813600063, -0.2331332713, -0.2678674161, 0.0314319246 ,
0.1594044864, 0.1737036705, -0.0910900757, -0.1859741360, -0.0030924489 
,
0.0776354000, -0.0478549004, -0.1787172407, 0.0392484181, 0.1570034921 ,
0.1303383261, -0.0296288338, -0.3380316198, -0.0945504680, 0.2012811303 ,
0.1933862418, 0.0776020214, -0.3214104474, -0.2182510793, 0.1238591373 ,
0.1624744833, 0.1768103242, -0.1730110943, -0.2107495070, 0.0466432273 ,
0.1195757613, 0.1756284237, -0.0391690768, -0.1123726517, 0.0292510279 
,
-0.0121659124, -0.0392842591, -0.0802616552, 0.1127092168, 0.1596293449 ,
0.0405210890, -0.0329160430, -0.2031954378, 0.0600123033, 0.2435650527 ,
0.0670757666, 0.0493117794, -0.1858989745, -0.0575861931, 0.2073309869 ,
0.0325733200, 0.1111909822, -0.0897652879, -0.0770897642, 0.1233766377 ,
-0.0209625047, 0.0881825835, -0.0194913335, -0.0439979136, 0.0582329892 

,
0.0749761760, 0.1059995964, 0.1378675699, 0.1321924925, 0.0887214541 ,
0.0514991730, 0.1143492684, 0.1329916716, 0.1162567213, 0.0846796259 ,
0.0195960477, 0.0482268333, 0.0632309616, 0.0677824020, 0.0369643047 ,
0.0265790056, 0.0449940413, 0.0617355071, 0.0551418401, 0.0436299257 ,
0.0301622655, 0.0474496000, 0.0599284619, 0.0508647449, 0.0274333265 
,
-0.0419380106, -0.1009482145, -0.1382592022, -0.1476425529, -0.1237662360 ,
-0.0910274908, -0.1727432013, -0.2197154462, -0.2364596725, -0.1909722686 ,
-0.1213033274, -0.2126589119, -0.2649612427, -0.2601874769, -0.1857072860 ,
-0.0857079476, -0.1524057090, -0.2089731991, -0.1883345991, -0.1252312660 ,
-0.0255128052, -0.0756440312, -0.1188712642, -0.1000293270, -0.0498639755 
,
0.0212106407, 0.0391395353, 0.0398340523, 0.0524487086, 0.0327307843 ,
0.0474945866, 0.0741403177, 0.0901955143, 0.1043795869, 0.0668848976 ,
0.0511218794, 0.0989650860, 0.1305465549, 0.1232358217, 0.0706221610 ,
0.0365681201, 0.0633881986, 0.0859070271, 0.0770464018, 0.0411626697 ,
0.0320786759, 0.0501868688, 0.0541957282, 0.0457213745, 0.0208046790 

,
-0.0430980772, -0.1770007014, 0.1154656261, -0.1551492214, -0.0264723394 ,
0.1033573598, -0.1028412580, 0.3231303990, -0.1544437706, 0.1354127824 ,
0.0184591394, -0.2032253742, 0.1987984329, -0.2584896982, -0.0337253623 ,
0.1181064248, -0.0639062226, 0.3502300978, -0.1362027079, 0.1479032189 ,
-0.0198773127, -0.2014123797, 0.1768004894, -0.1945144236, -0.0193542466 
,
0.0503073223, -0.1253630072, 0.2253923416, -0.2373595089, 0.0306889750 ,
0.1330860257, -0.0962744355, 0.3685342371, -0.1318428367, 0.1482454836 ,
-0.0503155068, -0.2981326878, 0.2015027255, -0.3657360971, 0.0064748968 ,
0.1288930178, -0.0941570923, 0.4131483734, -0.1667818874, 0.1372841299 ,
0.0155967278, -0.1810970455, 0.2201566249, -0.2036159486, 0.0240391865 
,
0.0301258247, -0.1159778386, 0.2322726399, -0.1741139442, 0.1163845733 ,
0.1244053319, -0.1508135647, 0.3676163554, -0.1925072074, 0.1299434006 ,
-0.0937094912, -0.3038633466, 0.1892049611, -0.3742064536, 0.0062716459 ,
0.0936302617, -0.1556167752, 0.3327839673, -0.1524331868, 0.1634277403 ,
-0.0031211341, -0.1969905496, 0.2170820534, -0.2051612288, 0.0359740332 

,
-0.1689727008, -0.2768669426, -0.2963626087, -0.2359495014, -0.1001664847 ,
-0.1950976551, -0.2413073182, -0.2303574681, -0.1243810728, -0.0107956687 ,
-0.1513699740, -0.1370244622, -0.0866777152, 0.0055102329, 0.0681143627 ,
-0.0822617486, -0.0251516607, 0.0440734699, 0.1057425961, 0.1018352881 ,
0.0440788232, 0.0960477814, 0.1514565945, 0.1966992468, 0.1568325609 
,
-0.1376178116, -0.2285639793, -0.2623243630, -0.2029528916, -0.1014954299 ,
-0.1289790273, -0.1590255052, -0.1374272108, -0.0484817438, 0.0249518137 ,
-0.0341221802, 0.0151362969, 0.0718252063, 0.1266456693, 0.1532413960 ,
0.0962516665, 0.1675439477, 0.2495536059, 0.2599711716, 0.2120883316 ,
0.2311013788, 0.2957577407, 0.3469230235, 0.3343209624, 0.2306044251 
,
-0.2155978531, -0.3206762671, -0.3606311977, -0.2836723924, -0.1432947963 ,
-0.2113574296, -0.2601354718, -0.2316092700, -0.1242671609, -0.0110473130 ,
-0.1110786423, -0.0711082891, 0.0056021800, 0.0772004575, 0.1301886588 ,
0.0565713830, 0.1329215467, 0.2094965428, 0.2342101038, 0.2071799636 ,
0.2413335592, 0.2993797362, 0.3606560826, 0.3325956762, 0.2656922936 

,
0.0016210474, -0.0704946071, -0.1579215676, -0.1518749744, -0.0700965226 ,
0.0593540333, -0.0044037127, -0.1286040246, -0.2027642727, -0.1529949456 ,
0.1215491220, 0.1177384630, 0.0147073325, -0.1280184239, -0.1525494903 ,
0.1244729906, 0.1746864468, 0.1349951476, 0.0049819355, -0.0825189278 ,
0.0920777321, 0.1443413496, 0.1663919687, 0.1047674268, 0.0103454348 
,
0.0193771217, -0.0456008688, -0.1256447136, -0.1219615564, -0.0471233092 ,
0.0565477312, 0.0054668472, -0.1050494909, -0.1785432845, -0.1325737834 ,
0.0952456594, 0.1004274562, 0.0125333471, -0.1147159413, -0.1352499723 ,
0.0774361566, 0.1294534355, 0.1072525382, -0.0016189344, -0.0786001459 ,
0.0357426144, 0.0893390924, 0.1312741190, 0.0910139680, 0.0083137518 
,
0.0556885451, -0.0047883014, -0.0840217993, -0.0781819075, -0.0130981589 ,
0.0739211515, 0.0335653536, -0.0723864213, -0.1379351616, -0.0950010270 ,
0.0896485522, 0.1044626236, 0.0223052558, -0.0887703449, -0.1038971320 ,
0.0561135970, 0.1136482581, 0.0937217399, -0.0045170076, -0.0669464245 ,
0.0098587144, 0.0657356307, 0.1078947484, 0.0768895671, 0.0046648099 

,
-0.1168963090, -0.1601678878, -0.1577942222, -0.1106200740, -0.0797671452 ,
-0.1388151497, -0.1854848266, -0.1757008433, -0.1188918352, -0.0612920336 ,
-0.0831095651, -0.1072640046, -0.0828777775, -0.0231133439, 0.0062205354 ,
0.0665224791, 0.0775187388, 0.1246405020, 0.1538522393, 0.1221002713 ,
0.1129545271, 0.1444075108, 0.1743992269, 0.1721570343, 0.1361961365 
,
-0.0178095661, -0.0181975961, -0.0123232538, 0.0073874369, 0.0019438120 ,
-0.0391770601, -0.0409997255, -0.0351663679, -0.0191051643, -0.0090066874 ,
-0.0479750633, -0.0527506582, -0.0493751504, -0.0135089429, -0.0093503296 ,
0.0139430575, 0.0213142782, 0.0370765366, 0.0556023307, 0.0443510041 ,
0.0235670637, 0.0428520180, 0.0443058982, 0.0493019409, 0.0349047668 
,
0.1021397635, 0.1404358000, 0.1321115941, 0.1102505028, 0.0603673495 ,
0.1032377928, 0.1429881603, 0.1256033331, 0.0782053396, 0.0335964300 ,
0.0402655005, 0.0566588379, 0.0207988918, -0.0056478111, -0.0335577391 ,
-0.0086804815, -0.0184616409, -0.0448553972, -0.0619235225, -0.0672684684 ,
-0.0645319298, -0.0729798302, -0.1028937027, -0.1089459881, -0.1027180851 

,
-0.1716475934, -0.2306459844, -0.3294135034, -0.2994612157, -0.2481101453 ,
-0.0554633178, -0.1184807420, -0.2504209876, -0.3238688409, -0.2535628676 ,
0.0634888113, 0.0254942868, 0.0036135754, 0.0300999377, -0.0509465747 ,
0.2088202089, 0.2600904107, 0.2803053856, 0.2456380576, 0.1959625930 ,
0.1934113950, 0.2816711068, 0.3010711074, 0.2355677933, 0.2124624848 
,
-0.0299517512, -0.0681738257, -0.1055025384, -0.0791169927, -0.0541551411 ,
-0.0300902613, -0.0198976509, -0.0956182331, -0.1407980919, -0.1125337258 ,
-0.0071960851, -0.0138443224, -0.0031609966, 0.0182562359, -0.0672145858 ,
0.0559520945, 0.0767856240, 0.0849404857, 0.0705139637, 0.0809453130 ,
0.0217824597, 0.0848196074, 0.0617386661, 0.0028295773, 0.0560448170 
,
0.1243060604, 0.2041719109, 0.2761971951, 0.3234183192, 0.2360878438 ,
0.0675730780, 0.1502543837, 0.1748447567, 0.1837321520, 0.1216061637 ,
-0.0682978630, -0.0616382211, -0.0040828907, 0.0453531183, -0.0285399370 ,
-0.1381341219, -0.1432619691, -0.1470685452, -0.1414261311, -0.0852207989 ,
-0.1796402335, -0.1965565383, -0.2355997115, -0.2795844674, -0.1644012332 

,
0.0465556495, 0.0550939031, 0.0466470942, 0.0394954309, 0.0294374488 ,
0.0674360320, 0.0828112513, 0.0758989006, 0.0561264232, 0.0366616584 ,
0.0857614875, 0.1114385799, 0.1086414456, 0.0774961263, 0.0468545333 ,
0.0809618011, 0.1020308509, 0.1023472846, 0.0774253234, 0.0449226797 ,
0.0632919371, 0.0771732330, 0.0740515813, 0.0567191467, 0.0334036276 
,
0.0128252469, 0.0172701683, 0.0093838749, 0.0060205334, -0.0006394263 ,
0.0279494766, 0.0366181545, 0.0302287117, 0.0175505951, 0.0033362352 ,
0.0436951406, 0.0609748624, 0.0587498173, 0.0356749855, 0.0116049303 ,
0.0427153669, 0.0572020672, 0.0569502674, 0.0383058377, 0.0126617951 ,
0.0324220434, 0.0414441563, 0.0372216851, 0.0253136102, 0.0072349207 
,
-0.0069384756, -0.0048565986, -0.0114796860, -0.0124348411, -0.0158766042 ,
0.0057821982, 0.0116668046, 0.0063918456, -0.0021357983, -0.0127428882 ,
0.0197604448, 0.0322658084, 0.0310123917, 0.0139721353, -0.0047600968 ,
0.0184014328, 0.0289758611, 0.0294270962, 0.0164307896, -0.0045952224 ,
0.0085334918, 0.0156165296, 0.0128719602, 0.0058958884, -0.0080916295 

,
0.1543330997, 0.3000710905, 0.3564579189, 0.3360757828, 0.2774002850 ,
-0.0131848548, 0.1474625915, 0.2643833160, 0.3052446544, 0.2561743855 ,
-0.1913924813, -0.1299057454, -0.0053250720, 0.1376235336, 0.1467133313 ,
-0.3021965027, -0.3655841947, -0.3369274735, -0.1704499125, -0.0399858616 ,
-0.2796325982, -0.3737576306, -0.4305801392, -0.3359344006, -0.2106361985 
,
0.1300631315, 0.2608898580, 0.3072427213, 0.2700657248, 0.2014131397 ,
0.0027687761, 0.1485852748, 0.2575442195, 0.2727866173, 0.2148371637 ,
-0.1271667480, -0.0695574507, 0.0549008399, 0.1638934910, 0.1775390655 ,
-0.1988078803, -0.2291695923, -0.2106603831, -0.0735057518, 0.0405308008 ,
-0.1510672271, -0.2147946954, -0.2780561149, -0.2083439231, -0.0899672583 
,
0.0905856490, 0.1868537664, 0.2141615450, 0.1773761064, 0.1215602309 ,
-0.0122387512, 0.0951520652, 0.1644931287, 0.1737506241, 0.1278818548 ,
-0.1129097119, -0.0619857870, 0.0251811855, 0.1044827551, 0.1068783402 ,
-0.1487446576, -0.1766096950, -0.1744596660, -0.0637450814, 0.0285483859 ,
-0.1115385368, -0.1567678154, -0.2416241020, -0.1801971495, -0.0741023049 

,
-0.2589497566, -0.2114177942, 0.0119199306, 0.1776474118, 0.2514922917 ,
-0.3712595999, -0.2929570675, 0.0232557878, 0.2670534253, 0.3227509558 ,
-0.4024373889, -0.3019140959, 0.0299301352, 0.2925496101, 0.3572350740 ,
-0.2975338697, -0.2283910215, 0.0283296537, 0.2315646559, 0.2825081944 ,
-0.1961633563, -0.1435964704, 0.0302737262, 0.1675285697, 0.2199925184 
,
-0.2288763374, -0.1911794841, 0.0054476615, 0.1593363583, 0.2130585909 ,
-0.3408693671, -0.2475006282, 0.0179943386, 0.2357748598, 0.2738733590 ,
-0.3567489386, -0.2640736997, 0.0296488870, 0.2690362930, 0.2982077301 ,
-0.2768585086, -0.2054116726, 0.0277411249, 0.1946227103, 0.2381240427 ,
-0.1685229093, -0.1123726070, 0.0436019190, 0.1439372152, 0.1794068664 
,
-0.1959984452, -0.1634492576, 0.0170846190, 0.1480544657, 0.1910730451 ,
-0.2850358784, -0.2047653198, 0.0493577644, 0.2422616333, 0.2424327582 ,
-0.3325624466, -0.2334191948, 0.0515800156, 0.2484126687, 0.2743279040 ,
-0.2642499506, -0.1900108159, 0.0354576595, 0.1913214177, 0.2028792948 ,
-0.1935530156, -0.1368955374, 0.0225994624, 0.1222872809, 0.1243031174 

,
0.2264433652, 0.2272518426, 0.2561306357, 0.2637532949, 0.2413341552 ,
0.2115747035, 0.2453859746, 0.2451032251, 0.2480756491, 0.2465179712 ,
0.1898474395, 0.2139958590, 0.1937608868, 0.2022717595, 0.2178425342 ,
0.1840011925, 0.1612751782, 0.1337473094, 0.1695922017, 0.1998592168 ,
0.1755064726, 0.1805821657, 0.1549901068, 0.1531752646, 0.1476030052 
,
-0.0155495973, -0.0327864364, -0.0107484479, 0.0292393919, 0.0332816765 ,
-0.0344789848, -0.0282865446, -0.0287752822, -0.0077727530, 0.0250112824 ,
-0.0263145398, -0.0295517780, -0.0486261994, -0.0248202924, 0.0187613275 ,
-0.0076078847, -0.0404315777, -0.0704405457, -0.0232487153, 0.0300546996 ,
0.0251799878, 0.0154603021, -0.0020646881, -0.0017708935, 0.0155106746 
,
-0.2094337046, -0.2513031363, -0.2283128798, -0.1774595529, -0.1443694085 ,
-0.2417885065, -0.2634033859, -0.2592899799, -0.2166246325, -0.1473848820 ,
-0.2224825025, -0.2528061271, -0.2811667323, -0.2338124067, -0.1434206069 ,
-0.1726206094, -0.2270345986, -0.2626483142, -0.1958247870, -0.1046444848 ,
-0.1081915200, -0.1258847117, -0.1463152468, -0.1328707933, -0.0883224905 

,
0.0303821210, 0.0110734599, -0.0178444572, -0.0365630463, -0.0320464410 ,
0.0485472865, 0.0273349434, -0.0154541237, -0.0457056686, -0.0425145775 ,
0.0611639358, 0.0421092920, 0.0014969956, -0.0350547321, -0.0518382229 ,
0.0720142648, 0.0621666647, 0.0279917605, -0.0086702285, -0.0363830365 ,
0.0958514139, 0.0881950334, 0.0641102716, 0.0353337489, 0.0106161525 
,
0.0018968995, -0.0240995791, -0.0595423430, -0.0866788849, -0.0803654566 ,
0.0199722704, -0.0143588837, -0.0681366548, -0.1097960100, -0.1039031893 ,
0.0473539047, 0.0163786672, -0.0383003801, -0.0877657682, -0.1037735343 ,
0.0713828728, 0.0560877360, 0.0138283866, -0.0365540721, -0.0664347634 ,
0.1048582569, 0.0962231383, 0.0696517229, 0.0314893574, 0.0059875720 
,
-0.0530080907, -0.1006161794, -0.1555521339, -0.1954820007, -0.1805010438 ,
-0.0345130675, -0.0960771143, -0.1759581417, -0.2310881019, -0.2173147649 ,
0.0030853385, -0.0503339171, -0.1280645579, -0.1949713230, -0.2070954591 ,
0.0379010551, 0.0065550958, -0.0513512641, -0.1171226203, -0.1498053372 ,
0.0831900090, 0.0645849854, 0.0279481206, -0.0224448424, -0.0527145453 

,
0.1536730379, 0.1742888391, 0.1694529057, 0.1345133483, 0.0560624227 ,
0.1992743015, 0.2093966901, 0.1696280390, 0.1116030887, 0.0163372643 ,
0.1862355918, 0.1513191909, 0.0566558614, -0.0195327997, -0.0753902793 ,
0.0814660564, -0.0223457292, -0.1396015733, -0.1750707328, -0.1735884994 ,
-0.0155341672, -0.1297154874, -0.1987767965, -0.1889527440, -0.1655081213 
,
0.0974224210, 0.1146688834, 0.1033010110, 0.0673583895, -0.0024226967 ,
0.1375167817, 0.1365189254, 0.0889170766, 0.0265785810, -0.0517006032 ,
0.1011746451, 0.0548933335, -0.0418412648, -0.1140233129, -0.1525488198 ,
0.0089981351, -0.1006852016, -0.2147304416, -0.2415467650, -0.2318255603 ,
-0.0559064299, -0.1718626022, -0.2346875370, -0.2199629545, -0.1920056045 
,
0.1268596351, 0.1443324238, 0.1415320337, 0.1091671139, 0.0480500236 ,
0.1623227447, 0.1663464606, 0.1304145455, 0.0767541677, 0.0083252098 ,
0.1238257289, 0.0916636810, 0.0152666159, -0.0477007516, -0.0865397155 ,
0.0538544804, -0.0370484628, -0.1347757876, -0.1523430496, -0.1511793435 ,
-0.0044736778, -0.1092448086, -0.1611310691, -0.1429991871, -0.1228373125 

,
-0.1298252791, -0.2098578960, -0.2220282853, -0.2181999832, -0.1731761098 ,
0.2009631246, 0.3067739308, 0.3639093041, 0.3486166894, 0.2407123744 ,
-0.0069625089, -0.0602955706, 0.0243532229, 0.0856591761, 0.0006953246 ,
-0.1446841061, -0.1945166588, -0.2872596681, -0.3282282054, -0.2285978496 ,
0.0614757389, 0.1150445342, 0.1433275491, 0.2071652263, 0.0803814009 
,
-0.0881202146, -0.1893707663, -0.2412654907, -0.1970454454, -0.1096302420 ,
0.2518045008, 0.3844815195, 0.4704471231, 0.3953458071, 0.3046045005 ,
-0.0534859523, -0.0107165109, -0.0129761072, 0.0515803471, -0.0076151979 ,
-0.1598473489, -0.2621794343, -0.3797547221, -0.3938165605, -0.2901157439 ,
0.0529103614, 0.1211989000, 0.0992949307, 0.1429378986, 0.1253720671 
,
-0.0759560466, -0.1441859454, -0.2243226916, -0.1992052197, -0.0941072702 ,
0.1793298721, 0.3673463762, 0.4412518442, 0.3749430180, 0.2844045162 ,
-0.0415674523, -0.0451762900, -0.0030854517, 0.0521143191, 0.0158254690 ,
-0.1416975260, -0.2623520494, -0.3332067430, -0.3840874732, -0.2703549564 ,
0.0451270156, 0.0934855863, 0.1249454692, 0.1500147134, 0.1102354601 

,
-0.0046667675, -0.0076087322, -0.0076402621, -0.0084931999, -0.0062330118 ,
0.0066716536, 0.0011737011, -0.0035658323, -0.0022866079, 0.0018685866 ,
0.0078934710, 0.0004459866, -0.0018240771, 0.0004408814, 0.0038508889 ,
0.0013321035, -0.0025160704, -0.0024466747, -0.0038496892, -0.0035583803 ,
0.0122927558, 0.0116721382, 0.0101388851, 0.0113579910, 0.0119360052 
,
-0.0529551469, -0.0586681888, -0.0617795736, -0.0652020797, -0.0640076622 ,
-0.0469869114, -0.0578672923, -0.0670809373, -0.0678464919, -0.0619980320 ,
-0.0485638864, -0.0628376827, -0.0689139292, -0.0689106286, -0.0629974678 ,
-0.0585074686, -0.0674974322, -0.0697807819, -0.0733044893, -0.0710892454 ,
-0.0435339473, -0.0449115857, -0.0486969501, -0.0484560914, -0.0469570607 
,
-0.0540922433, -0.0609303080, -0.0642263964, -0.0669361800, -0.0673872754 ,
-0.0505531356, -0.0625062436, -0.0714833885, -0.0704768449, -0.0664046034 ,
-0.0577251911, -0.0725914165, -0.0783068538, -0.0764132366, -0.0727640837 ,
-0.0717387870, -0.0798274055, -0.0825608447, -0.0836767107, -0.0843965411 ,
-0.0600723773, -0.0614240952, -0.0674049780, -0.0652813986, -0.0654613748 

,
-0.0658088028, 0.1904472113, -0.1487360448, 0.0261034183, 0.1709603369 ,
-0.1292011738, 0.2054161429, -0.1946045011, -0.0345359854, 0.1731454879 ,
-0.1492241323, 0.2198108882, -0.2162535042, -0.0689598918, 0.1300124526 ,
-0.1409412473, 0.1397489011, -0.1931202710, -0.0671067983, 0.0834913552 ,
-0.1405642927, 0.0530428328, -0.1401410699, -0.0804779455, 0.0682127774 
,
-0.1242788061, 0.2197805494, -0.2032969892, -0.0895591229, 0.0986350626 ,
-0.1557705700, 0.3058614731, -0.2138509899, -0.0887400508, 0.1412415504 ,
-0.1470534056, 0.3216003180, -0.1748411357, -0.0714086592, 0.1584622711 ,
-0.1172192916, 0.2615476847, -0.0983918533, -0.0254958197, 0.1287355572 ,
-0.0419170633, 0.1773580909, -0.0641722605, -0.0069465879, 0.1150941327 
,
-0.0406476222, 0.2851802409, -0.1512991488, -0.0981762260, 0.0238071121 ,
-0.0674701780, 0.3694205880, -0.1673633903, -0.1438830346, 0.0276849642 ,
-0.0779053792, 0.3584999740, -0.1863967478, -0.1455565989, 0.0364401266 ,
-0.0385552049, 0.2914679945, -0.1335179955, -0.1501000971, -0.0093860356 ,
-0.0091373995, 0.2527948022, -0.0541370399, -0.0992176607, -0.0366045162 

,
-0.0263539683, -0.0398825593, -0.0404424220, -0.0374650508, -0.0315297954 ,
-0.0481317565, -0.0607231818, -0.0634347275, -0.0588922612, -0.0506715812 ,
-0.0808486640, -0.0987874418, -0.1030769795, -0.1010541767, -0.0845846012 ,
-0.0991486683, -0.1171889976, -0.1220690385, -0.1243162453, -0.1006498188 ,
-0.0806676224, -0.0945778191, -0.1021559760, -0.1028037444, -0.0852781236 
,
-0.0232529491, -0.0324157216, -0.0306979101, -0.0307248719, -0.0302787591 ,
-0.0402261652, -0.0487598367, -0.0484435819, -0.0470213927, -0.0436261892 ,
-0.0798638165, -0.0987546816, -0.0992208719, -0.1008293033, -0.0862194300 ,
-0.1064856127, -0.1267257482, -0.1287872642, -0.1316387951, -0.1099072173 ,
-0.0930581465, -0.1105518863, -0.1191327572, -0.1210052446, -0.1028601825 
,
-0.0438391119, -0.0558001138, -0.0494657867, -0.0504250191, -0.0503152423 ,
-0.0524178781, -0.0637645051, -0.0561433397, -0.0578841604, -0.0547653772 ,
-0.0926250443, -0.1135735363, -0.1076803803, -0.1114420146, -0.0981611162 ,
-0.1115729138, -0.1348056793, -0.1314816624, -0.1367702931, -0.1165769398 ,
-0.1016287953, -0.1206889600, -0.1266261190, -0.1281298697, -0.1104147360 

,
0.3375423849, 0.2831522524, 0.1711907089, 0.0559378937, 0.0144705577 ,
0.3281024694, 0.2703175545, 0.0881575271, -0.0616295747, -0.0814554840 ,
0.2431806922, 0.1256688535, -0.0593038425, -0.1838913411, -0.2055959404 ,
0.1106843501, -0.0236298405, -0.2008571625, -0.3287760317, -0.3215580583 ,
0.0454343185, -0.0791853294, -0.2216311246, -0.3143527210, -0.3045397103 
,
0.0659039989, 0.0319912918, 0.0404770859, 0.0328915678, 0.0320691504 ,
0.0706176609, 0.0404178649, 0.0229142699, 0.0079967463, 0.0268511772 ,
0.0579463653, 0.0091224601, -0.0096809976, -0.0121849505, 0.0069572143 ,
0.0331164710, -0.0435601026, -0.0493492000, -0.0389671251, -0.0197593011 ,
-0.0057667177, -0.0480577201, -0.0424139276, -0.0466387570, -0.0259181242 
,
-0.2261010706, -0.2466929406, -0.1601939052, -0.1182186231, -0.0504364893 ,
-0.2089534253, -0.1884033680, -0.0982604176, -0.0125271659, 0.0352146737 ,
-0.1249753013, -0.0743988082, 0.0515673198, 0.1835162491, 0.1852979511 ,
-0.0577445589, 0.0117526725, 0.1762614399, 0.3012912869, 0.2718295455 ,
-0.0350612886, 0.0340940580, 0.1969903708, 0.2892752886, 0.2649418414 

,
0.0315487385, 0.0608575940, 0.0724800974, 0.0858851448, 0.0700540170 ,
0.0099664321, 0.0375855640, 0.0510624126, 0.0686517656, 0.0582706407 ,
-0.0373239256, -0.0215675440, -0.0103282919, 0.0149101280, 0.0155281387 ,
-0.0803535730, -0.0806085691, -0.0744627640, -0.0466795377, -0.0312018078 ,
-0.0939055309, -0.0957439616, -0.0978552327, -0.0739486516, -0.0604908317 
,
0.0693011731, 0.0926635340, 0.1016988903, 0.1120059118, 0.0966058299 ,
0.0651409850, 0.0899852514, 0.1035999879, 0.1176018715, 0.1062577888 ,
0.0353728868, 0.0497745797, 0.0600230657, 0.0827260911, 0.0815322325 ,
0.0014536874, 0.0000875183, 0.0054975138, 0.0303032398, 0.0440338403 ,
-0.0109821400, -0.0153662274, -0.0186540671, 0.0024032276, 0.0144846886 
,
0.0561277643, 0.0754901692, 0.0844937861, 0.0919952244, 0.0818048567 ,
0.0608276762, 0.0841690972, 0.0961138010, 0.1063059047, 0.0977231488 ,
0.0427910350, 0.0598134547, 0.0704124123, 0.0870401412, 0.0843843222 ,
0.0117104724, 0.0157916751, 0.0226318836, 0.0413615368, 0.0528341047 ,
-0.0057236496, -0.0063952478, -0.0076014185, 0.0079992600, 0.0187493395 

,
-0.3157343268, -0.3342230320, -0.3011330962, -0.1769966185, -0.0585138202 ,
-0.3036727011, -0.3269633949, -0.2399914861, -0.0754678026, 0.0299698617 ,
-0.1649301648, -0.1481214166, 0.0032196583, 0.1095822826, 0.1646042764 ,
-0.0328139700, 0.0658296868, 0.1888603419, 0.2612451613, 0.2290702164 ,
0.0398409404, 0.1288997382, 0.2023240924, 0.2572561204, 0.2111901641 
,
-0.0250175931, -0.0118442923, 0.0007155500, 0.0298734438, 0.0446164459 ,
-0.0169030186, -0.0214787312, -0.0040610651, 0.0500499606, 0.0724083856 ,
-0.0133812996, -0.0092737610, 0.0614657104, 0.1021913290, 0.0770571679 ,
0.0012415241, 0.0631416067, 0.0904494375, 0.1062464863, 0.0662279129 ,
0.0052722497, 0.0570241436, 0.0651682392, 0.0634371936, 0.0143705299 
,
0.1579807103, 0.2128982395, 0.1703546047, 0.1162493899, 0.0497814156 ,
0.1358533055, 0.1465188116, 0.0760839656, 0.0355823413, 0.0076354356 ,
0.0621633269, 0.0291051231, -0.0247047879, -0.0654769614, -0.0969844609 ,
-0.0177309997, -0.0380689166, -0.1181737185, -0.1439790726, -0.1504660398 ,
-0.0460008942, -0.0705425590, -0.1512786001, -0.1676470041, -0.1700780392 

,
0.0932523459, 0.1037765294, 0.1234292239, 0.0944904834, 0.0624008030 ,
0.1569894403, 0.1795702875, 0.1596640795, 0.1175825000, 0.0934328884 ,
0.1955803484, 0.1784842312, 0.1473391652, 0.1378324330, 0.1161815077 ,
0.1419364065, 0.1059604809, 0.1237819046, 0.1412366629, 0.1071496680 ,
0.1280158013, 0.1118411571, 0.1052146330, 0.1132545173, 0.1071003899 
,
-0.0951691717, -0.0939926729, -0.0772359744, -0.1000796854, -0.1122915894 ,
-0.0527630523, -0.0458632223, -0.0709745884, -0.1009500697, -0.0991229266 ,
-0.0334948339, -0.0665010884, -0.1028099060, -0.1005670130, -0.0987431258 ,
-0.0844562948, -0.1265528798, -0.1165400669, -0.0936467648, -0.1045998856 ,
-0.0692024380, -0.0928523391, -0.1032844111, -0.0862419456, -0.0771908462 
,
-0.0457992554, -0.0261962935, 0.0049276617, -0.0026352676, -0.0164645631 ,
-0.0174676292, 0.0021549743, -0.0071144169, -0.0240997449, -0.0173778478 ,
-0.0211041402, -0.0420179032, -0.0650579557, -0.0503920689, -0.0464288443 ,
-0.0843703449, -0.1204396486, -0.1008645520, -0.0614229031, -0.0678967685 ,
-0.0736773238, -0.0893668458, -0.0933564827, -0.0675082356, -0.0454588160 

,
0.1465035528, 0.1610818803, 0.1718982458, 0.1814691424, 0.1570080370 ,
0.0851057619, 0.0970302522, 0.1059646979, 0.1154563725, 0.0977241024 ,
0.0389761627, 0.0331181847, 0.0251478814, 0.0412110500, 0.0481971018 ,
0.0203537215, 0.0175352674, 0.0119072013, 0.0249786191, 0.0342866331 ,
-0.0042856028, 0.0034909167, 0.0095641669, 0.0155219901, 0.0174697656 
,
0.1376334429, 0.1548918784, 0.1681732535, 0.1657676101, 0.1354713887 ,
0.0542381480, 0.0634030551, 0.0659853891, 0.0665600672, 0.0504895970 ,
-0.0184068587, -0.0369062051, -0.0550233945, -0.0410500057, -0.0247622430 ,
-0.0491434224, -0.0700195432, -0.0849630758, -0.0716131404, -0.0507287458 ,
-0.0715968683, -0.0777559653, -0.0790460259, -0.0750195161, -0.0636649877 
,
0.0889419913, 0.1050343737, 0.1175941080, 0.1122633517, 0.0859040543 ,
-0.0147381928, -0.0112404451, -0.0117155686, -0.0119352676, -0.0212012231 ,
-0.1088106185, -0.1377069801, -0.1584677845, -0.1460591853, -0.1199969202 ,
-0.1451676637, -0.1746728420, -0.1926707923, -0.1816282868, -0.1532253325 ,
-0.1609934717, -0.1747606248, -0.1808450073, -0.1782437861, -0.1621422321 

,
-0.0462603606, -0.0329163224, 0.0039827339, 0.0325831585, 0.0483634807 ,
-0.0669414178, -0.0483473949, 0.0041072280, 0.0468443558, 0.0658726022 ,
-0.0697359219, -0.0509283654, 0.0011154440, 0.0434054397, 0.0646484420 ,
-0.0505561456, -0.0354982764, 0.0018965626, 0.0294498410, 0.0514691509 ,
-0.0397669747, -0.0235508699, 0.0023949679, 0.0175785068, 0.0368911587 
,
-0.0352144651, -0.0263830405, 0.0021887037, 0.0242322907, 0.0372306071 ,
-0.0506651029, -0.0388046354, 0.0020811076, 0.0344809964, 0.0477058999 ,
-0.0523878969, -0.0391846113, -0.0003117715, 0.0322312638, 0.0473385416 ,
-0.0360306129, -0.0262415763, 0.0015280464, 0.0214722268, 0.0364851020 ,
-0.0267415904, -0.0148027698, 0.0037601909, 0.0123497732, 0.0239249077 
,
-0.0148647977, -0.0145611670, 0.0000197911, 0.0136656575, 0.0194679741 ,
-0.0266094953, -0.0226479676, 0.0000983259, 0.0213043075, 0.0260248333 ,
-0.0283917394, -0.0220180005, -0.0000427860, 0.0212095622, 0.0272854716 ,
-0.0182434283, -0.0127287600, 0.0030275381, 0.0142701026, 0.0199766923 ,
-0.0124651548, -0.0046238527, 0.0052156225, 0.0065961294, 0.0099802194 

,
0.0864684135, 0.1518184841, 0.1974324584, 0.1653176099, 0.0755891427 ,
-0.1199350432, -0.1496023685, -0.1895923913, -0.1466588676, -0.1081242785 ,
-0.0114195179, -0.0338011719, -0.0931287557, -0.0896806791, -0.0412688106 ,
0.1116584167, 0.1783673763, 0.2318009585, 0.2210519463, 0.0919740424 ,
-0.0867216513, -0.1120623648, -0.1284343153, -0.0952655226, -0.0632861406 
,
0.0716376677, 0.1901450604, 0.2284066081, 0.2297564745, 0.1776541322 ,
-0.1250645667, -0.1891883016, -0.2644858062, -0.1923612952, -0.1261296570 ,
0.0249375347, -0.0518383756, -0.1263645738, -0.1216027364, -0.0267299265 ,
0.1258357018, 0.2307518572, 0.2835402191, 0.2585459054, 0.1723682135 ,
-0.1404527724, -0.2045456320, -0.1976659745, -0.1612699032, -0.1198433638 
,
-0.0001415636, 0.0316840261, 0.1269645095, 0.1181740388, 0.0675482824 ,
-0.2373224944, -0.3368988633, -0.3786673844, -0.3217273653, -0.2635586560 ,
0.0283697750, -0.0750041381, -0.0966782346, -0.1520819962, -0.0889467448 ,
0.2394321114, 0.3446901143, 0.3986307085, 0.3382158577, 0.2314885557 ,
0.0510807000, -0.0013788766, 0.0187171604, -0.0165697932, 0.0053723860 

,
0.1055996493, -0.1000145823, -0.2183142453, 0.0979928151, 0.0638365075 ,
0.1832795888, -0.1691233069, -0.3248260915, 0.1756349057, 0.1561913043 ,
0.1495708227, -0.1791947335, -0.3227829039, 0.1942142695, 0.1505720913 ,
0.0684389099, -0.1388791800, -0.2242887318, 0.1598072797, 0.1217809916 ,
0.0076200152, -0.1149011403, -0.1380042732, 0.0771015435, 0.0719038546 
,
0.1942090392, -0.0391214900, -0.2150948048, 0.0886164755, 0.0450282469 ,
0.2613775432, -0.1250020266, -0.3333885074, 0.1465563178, 0.0938622728 ,
0.2313582897, -0.1475269198, -0.3457162082, 0.1674003452, 0.0746675059 ,
0.1529509127, -0.0983920097, -0.2262718081, 0.1309161186, 0.0333649926 ,
0.0688188598, -0.0538267531, -0.1115942001, 0.0785693526, 0.0234112088 
,
0.1961126924, -0.0444067009, -0.2539044917, 0.0657939464, 0.0441878252 ,
0.2960621715, -0.1238186359, -0.3722217083, 0.1055986881, 0.0843785107 ,
0.2695456743, -0.1385338753, -0.3538623452, 0.1563413292, 0.0809512064 ,
0.1953103393, -0.0868873149, -0.2250979543, 0.1354731917, 0.0435508192 ,
0.1089418232, -0.0220206603, -0.1036254019, 0.0817212984, -0.0022606200 

,
-0.0979529619, -0.1175150126, -0.1358408928, -0.1381403208, -0.1308361143 ,
-0.1159338132, -0.1398250312, -0.1536580920, -0.1556460112, -0.1399881095 ,
-0.1108983308, -0.1362437308, -0.1470178217, -0.1515183449, -0.1383332610 ,
-0.1010922492, -0.1245053634, -0.1333839297, -0.1379465610, -0.1280463189 ,
-0.0873474181, -0.1020398885, -0.1161603183, -0.1132837385, -0.1057736278 
,
-0.0279084370, -0.0444020741, -0.0670203641, -0.0754038393, -0.0776450410 ,
-0.0467979349, -0.0694217980, -0.0899847299, -0.0988804325, -0.0908760354 ,
-0.0563939288, -0.0834622309, -0.1013165861, -0.1095505878, -0.1001571119 ,
-0.0601132847, -0.0850933194, -0.0971061364, -0.1053057685, -0.0993874297 ,
-0.0590864755, -0.0754413754, -0.0874980092, -0.0883819386, -0.0836905763 
,
0.0057428870, 0.0034664359, -0.0111752972, -0.0173512120, -0.0248591620 ,
-0.0039366623, -0.0108363144, -0.0232073404, -0.0297852233, -0.0288784113 ,
-0.0209863428, -0.0302169751, -0.0425855704, -0.0470329598, -0.0458114706 ,
-0.0279620290, -0.0369269960, -0.0484591797, -0.0543203801, -0.0517683029 ,
-0.0370377265, -0.0440047160, -0.0555313639, -0.0529738851, -0.0503658354 

,
-0.1616149247, -0.1783736050, -0.1575991064, -0.1177851483, -0.0724950731 ,
-0.0915877521, -0.1093204841, -0.0841134489, -0.0536449179, -0.0283867121 ,
-0.0507243238, -0.0706041679, -0.0582545027, -0.0414622799, -0.0063735843 ,
0.0004403997, -0.0123259490, 0.0031251248, 0.0011466568, 0.0208415110 ,
0.0539833866, 0.0448025130, 0.0526166670, 0.0544978529, 0.0414759703 
,
-0.1057604328, -0.1433790624, -0.1396070272, -0.1227053553, -0.0687944591 ,
-0.0920341015, -0.1206524670, -0.1232950389, -0.1067152321, -0.0699601546 ,
-0.0943884328, -0.1416716874, -0.1464897692, -0.1316043437, -0.0895892903 ,
-0.0694554523, -0.1094554216, -0.1117712036, -0.1116355583, -0.0720453337 ,
-0.0387502871, -0.0659101456, -0.0815032125, -0.0713653266, -0.0649319813 
,
0.2052815408, 0.2107438296, 0.2085394561, 0.1583522856, 0.1364176124 ,
0.2348409891, 0.2629249692, 0.2619701326, 0.2156270891, 0.1601125747 ,
0.2012891769, 0.2166291773, 0.2152345926, 0.1738624871, 0.1420078278 ,
0.1436115801, 0.1488436759, 0.1569954902, 0.1183666810, 0.1075643897 ,
0.0950799882, 0.0978012010, 0.0981789753, 0.0888869911, 0.0654451624 

,
-0.0262643918, -0.0895493552, -0.0458233804, 0.0676721409, 0.1434916854 ,
-0.0267596971, -0.0965083614, -0.0250578318, 0.1139742211, 0.2023015618 ,
-0.0304058101, -0.0902861059, -0.0011766996, 0.1663553715, 0.2697513700 ,
-0.0253546815, -0.0379021354, 0.0555689782, 0.1852930933, 0.2568644881 ,
-0.0350549445, -0.0415414274, 0.0609296635, 0.1726775020, 0.2065344006 
,
-0.0371183790, -0.1273736358, -0.1256690770, -0.0434978008, 0.0375685506 ,
-0.0852989405, -0.1895939261, -0.1727619320, -0.0728573352, 0.0133060273 ,
-0.1166093349, -0.2246470749, -0.2038199753, -0.0825066417, 0.0171765145 ,
-0.1332159638, -0.2100378126, -0.1662447304, -0.0780314878, -0.0061592390 ,
-0.1363077611, -0.1842955053, -0.1316809356, -0.0668504909, -0.0082789091 
,
0.0625210330, 0.0259608813, 0.0430478863, 0.0928479508, 0.1424530894 ,
0.0688430592, 0.0158574767, 0.0469841026, 0.1203285828, 0.1667615920 ,
0.0415786095, 0.0120528303, 0.0667060688, 0.1537530720, 0.1915683001 ,
0.0165732466, 0.0134219332, 0.0898347795, 0.1391465366, 0.1692360342 ,
-0.0246178918, -0.0055508371, 0.0699783266, 0.1123312190, 0.1373515129 

,
-0.0053690206, -0.0758990571, 0.0245374385, 0.0668237880, -0.0292012617 ,
0.0786035582, -0.1431684345, -0.0146239148, 0.1183927804, -0.0282177310 ,
-0.0145951984, -0.0501146503, 0.0825296938, -0.0200225431, 0.0043045827 ,
-0.0739052519, 0.1843229383, 0.0205821916, -0.1932640821, 0.0767055750 ,
0.0035882962, 0.0570202693, -0.1055626944, 0.0154976211, 0.0320700109 
,
0.0622508973, -0.0301294178, 0.0428501591, 0.0766114146, -0.0550845563 ,
0.1150054634, -0.1230849177, 0.0021538883, 0.1264108270, -0.0840481818 ,
-0.0021427579, -0.0283825360, 0.0702774450, -0.0553756803, -0.0200485326 ,
-0.0927264765, 0.1885650754, 0.0099418666, -0.2275576890, 0.0603062697 ,
0.0321795642, 0.0738141909, -0.1402074099, -0.0279826354, -0.0035749869 
,
0.0210487992, -0.0755282342, 0.0070940098, 0.0412867405, -0.0636704117 ,
0.0433163829, -0.1827765256, 0.0142498491, 0.1535998285, -0.0609962195 ,
-0.0720338672, -0.0634678006, 0.0890016332, 0.0178855006, 0.0301866680 ,
-0.1374223530, 0.1881308258, 0.0459264405, -0.1537808031, 0.1166280955 ,
0.0034842752, 0.0810602456, -0.1126007587, 0.0273659304, 0.0596019812 

,
-0.0895404145, 0.1022916213, 0.0734555125, -0.2367802411, 0.1396251023 ,
-0.1280237436, 0.1270043552, 0.1682093292, -0.2973731458, 0.1806265712 ,
-0.1539219171, 0.1712124944, 0.1983153075, -0.3115175664, 0.1193097606 ,
-0.1830891073, 0.1230630130, 0.2193011045, -0.2697957158, 0.0970724747 ,
-0.1361911595, 0.0401963815, 0.1209391207, -0.2057960778, 0.0138395866 
,
-0.0816140026, 0.2140343934, 0.0904274136, -0.2385366857, 0.1597308069 ,
-0.2150399089, 0.2576821446, 0.2329514176, -0.3687733710, 0.1508619040 ,
-0.2570468783, 0.2471389174, 0.3427306712, -0.3440972865, 0.0806039199 ,
-0.2797019780, 0.1441154182, 0.2988837659, -0.2755913436, 0.0536907688 ,
-0.2169965804, 0.0993118212, 0.2068787068, -0.1557064205, -0.0187908653 
,
-0.0785735324, 0.2568348050, 0.1147016957, -0.3195511103, 0.0315088071 ,
-0.2226617485, 0.2917213440, 0.2645680308, -0.4449647963, 0.0194280390 ,
-0.3061331511, 0.3028301001, 0.3743258417, -0.4317349195, -0.0417974479 ,
-0.2604736984, 0.1876540929, 0.3893070519, -0.3095059395, -0.0568802059 ,
-0.1882666945, 0.1944658160, 0.3486281335, -0.1045407876, -0.0409497358 

,
-0.1370901167, -0.1549219787, -0.1546418518, -0.1425965428, -0.1204740107 ,
-0.1449708492, -0.1444614530, -0.1096030772, -0.0881655887, -0.0837789476 ,
-0.1322154999, -0.1080061048, -0.0571119227, -0.0463655777, -0.0502490364 ,
-0.1080926582, -0.0837833136, -0.0499781482, -0.0427093655, -0.0449506156 ,
-0.0995652825, -0.0763510317, -0.0481197834, -0.0375422873, -0.0383094735 
,
-0.1025011316, -0.1183837131, -0.1124930084, -0.1013837084, -0.0805055574 ,
-0.1016402394, -0.0932050571, -0.0542963482, -0.0336438380, -0.0352078602 ,
-0.0776367858, -0.0433039404, 0.0068262811, 0.0128164301, 0.0000616048 ,
-0.0490190387, -0.0167651102, 0.0122154383, 0.0111642973, 0.0001284555 ,
-0.0421280637, -0.0147932405, 0.0048885504, 0.0072757145, -0.0008436839 
,
-0.0910500214, -0.1040672660, -0.0911635906, -0.0639381334, -0.0355267301 ,
-0.0813222229, -0.0670835674, -0.0194756743, 0.0085957609, 0.0122212246 ,
-0.0388701297, -0.0002871881, 0.0512115955, 0.0600756817, 0.0494610034 ,
-0.0079489900, 0.0254734214, 0.0518162884, 0.0539779700, 0.0440957025 ,
-0.0021452121, 0.0245072544, 0.0403249264, 0.0449379645, 0.0400204472 

,
0.0120840771, 0.0177322868, 0.0145195527, 0.0127098598, 0.0079392167 ,
0.0164751988, 0.0276671182, 0.0203636829, 0.0081919460, -0.0055331565 ,
0.0053701019, 0.0207034554, 0.0208301451, 0.0037963614, -0.0070791612 ,
-0.0522900745, -0.0559197590, -0.0597898588, -0.0690584928, -0.0596089661 ,
-0.0312658995, -0.0336192958, -0.0374712124, -0.0555955544, -0.0519510396 
,
0.0714882091, 0.0990296975, 0.0981727690, 0.0928562880, 0.0786144361 ,
0.0802357197, 0.1151895225, 0.1180790886, 0.1019508243, 0.0759437308 ,
0.0692351758, 0.1031282693, 0.1167335883, 0.0909851193, 0.0681416392 ,
0.0191812832, 0.0274863895, 0.0306900330, 0.0124440398, 0.0150732743 ,
0.0304777082, 0.0341622680, 0.0299600866, 0.0097442744, 0.0112224491 
,
-0.0589334816, -0.0487689413, -0.0497240350, -0.0529509299, -0.0491689928 ,
-0.0678013861, -0.0558581762, -0.0544573814, -0.0644487143, -0.0688630864 ,
-0.0796222314, -0.0680513158, -0.0598585010, -0.0761612356, -0.0790351182 ,
-0.1177204028, -0.1242943332, -0.1249233484, -0.1350349337, -0.1184016541 ,
-0.0870057121, -0.0921063572, -0.0977847427, -0.1132601798, -0.0987198874 

,
-0.0130924061, -0.0457520075, -0.0203434713, -0.0346606933, -0.0502974242 ,
0.0817714706, 0.0786074251, -0.0796165839, -0.2470354140, -0.1019111276 ,
-0.0226620082, -0.0989192799, -0.1311622411, 0.0376714729, 0.2554494441 ,
-0.1246723980, -0.0730825663, 0.1192698404, 0.2898192108, 0.1699047685 ,
0.0577278286, 0.1259736717, 0.1351669431, 0.0245287511, -0.1399599314 
,
-0.0578922369, -0.0950446874, -0.0223970506, -0.0222056210, -0.0710481554 ,
0.0150704151, 0.0205008108, -0.0778751075, -0.2552535236, -0.1042006761 ,
-0.0514652133, -0.1549490988, -0.1923953146, 0.0322128907, 0.2440911829 ,
-0.1355427653, -0.0711987466, 0.1022903472, 0.3038296103, 0.1504501253 ,
0.0630006790, 0.1451669633, 0.1540880203, 0.0192291345, -0.1458049417 
,
0.0337962694, 0.0605628826, 0.1414932162, 0.1301411986, 0.0426507369 ,
0.1375770718, 0.1553741544, 0.0601588376, -0.1366674751, -0.0804252103 ,
0.0664400607, -0.0440886468, -0.1757154912, -0.0401062258, 0.1330789328 ,
-0.0548418388, -0.0786309540, -0.0393440947, 0.0982353762, -0.0021873717 ,
0.0080204019, 0.0184408668, -0.0375955664, -0.1717533469, -0.2761975825 

,
-0.1029659808, -0.0276010334, -0.2168718725, -0.0231372267, -0.1630876064 ,
0.0724036098, 0.2562982142, 0.0250660032, 0.2497448474, 0.0551172420 ,
-0.1329036057, 0.0201529115, -0.2096098959, 0.0270971078, -0.1758770496 ,
-0.0518103391, 0.0847434551, -0.1009373888, 0.1087572426, -0.0796836242 ,
0.0381986722, 0.1481568366, -0.0854236484, 0.1338645071, -0.0304270592 
,
-0.0337996595, 0.0112662660, -0.2381576449, 0.0901798755, -0.0725259781 ,
0.1106020659, 0.3005601466, 0.0116664181, 0.3735940754, 0.1399930865 ,
-0.1751488894, -0.0403460413, -0.3129210770, 0.0127738286, -0.2140176743 ,
-0.0530088916, 0.0256805122, -0.2093193680, 0.1148558706, -0.0813376009 ,
0.0216795169, 0.1219357625, -0.0383425951, 0.1914617568, 0.0199762248 
,
-0.0144032873, 0.0243373085, -0.2518989146, 0.1397662908, -0.0403025411 ,
0.1686542034, 0.3021343052, 0.0313613899, 0.4093279243, 0.1301914901 ,
-0.1230295077, -0.0254544728, -0.3774238527, -0.0080187628, -0.2383989990 ,
-0.0958245248, 0.0110265901, -0.2819573581, 0.0849060491, -0.1200398356 ,
0.0631792769, 0.1129017919, -0.1187227741, 0.2548266053, 0.0390210450 

,
0.1247838065, 0.2042361051, 0.2276160568, 0.2277245969, 0.1226119325 ,
-0.0093679763, 0.0557687879, 0.0321509689, 0.0324141085, -0.0030086520 ,
-0.2222928554, -0.2905448079, -0.3774064779, -0.2877935171, -0.2118257433 ,
-0.0214945544, -0.0018294691, -0.0127946809, 0.0200151056, -0.0149921291 ,
0.0381570160, 0.1353850663, 0.1344840229, 0.1326186061, 0.0525691248 
,
0.1434839517, 0.2328829318, 0.2483597845, 0.2158602178, 0.1399526447 ,
0.0001531473, -0.0066024959, -0.0348639488, -0.0486541130, -0.0712093115 ,
-0.2514966130, -0.3863553107, -0.4804862738, -0.4029570818, -0.2927637398 ,
0.0324316621, -0.0010810230, -0.0359249599, 0.0010206065, -0.0023856892 ,
0.1360974610, 0.1854528934, 0.2100302279, 0.1945568025, 0.1335428953 
,
0.1676992178, 0.2238832116, 0.2918168604, 0.2715004385, 0.1769939214 ,
-0.0465288348, -0.0238728635, -0.0265557282, -0.0267782602, -0.0357785411 ,
-0.3048999310, -0.3772224784, -0.4906480014, -0.4111603796, -0.2649367452 ,
-0.0165127739, -0.0535726026, -0.0242412128, -0.0173804834, 0.0562680848 ,
0.1469631791, 0.2018977404, 0.2167345285, 0.1927376240, 0.1821521223 

,
-0.0202683881, -0.0825639591, -0.1291701198, -0.0865305290, -0.0208840519 ,
-0.2012619823, -0.2685239911, -0.2307974547, -0.0882532373, 0.0227181818 ,
-0.1740512848, -0.1385533661, -0.0058984552, 0.1299154907, 0.1713750213 ,
0.0335254818, 0.1602700055, 0.2710423172, 0.2905040979, 0.2158434689 ,
0.0922060311, 0.1630198658, 0.2039654851, 0.1750455946, 0.0680016503 
,
-0.0470515266, -0.1197914779, -0.1825554073, -0.1478289366, -0.0803217888 ,
-0.2636154890, -0.3351954222, -0.3041153848, -0.1651640385, -0.0533246063 ,
-0.2409348786, -0.2135122269, -0.0747087672, 0.0609033033, 0.0977009609 ,
-0.0051258695, 0.1198943108, 0.2333930284, 0.2445402890, 0.1601871103 ,
0.0837401226, 0.1524530500, 0.1936115921, 0.1433017999, 0.0224222075 
,
-0.0578339063, -0.1203024909, -0.1607257277, -0.1175078601, -0.0391326658 ,
-0.2673078477, -0.3316794336, -0.2944964468, -0.1385324448, -0.0110192932 ,
-0.2297165394, -0.2013717592, -0.0573999360, 0.0914758518, 0.1500523537 ,
0.0162977781, 0.1506233364, 0.2670702934, 0.2959167957, 0.2252303362 ,
0.1458767951, 0.2198151648, 0.2728298306, 0.2347084433, 0.1225554198 

,
0.1479327083, 0.1389234513, 0.0136598945, -0.0798176825, -0.0647767112 ,
0.2330398262, 0.1844899058, -0.0361079201, -0.1947440505, -0.1170497462 ,
0.3074721396, 0.2191490829, -0.0870785639, -0.2644813061, -0.1802978367 ,
0.3083252907, 0.1696848124, -0.1009301394, -0.2653735280, -0.1892072856 ,
0.2229542285, 0.1137470528, -0.0690841600, -0.2102530450, -0.1697800010 
,
0.1509837359, 0.1299204677, -0.0076535488, -0.1166334897, -0.1044619977 ,
0.2355476022, 0.1783252209, -0.0589506626, -0.2059865147, -0.1638935953 ,
0.3055933714, 0.2005237639, -0.0975377113, -0.2745784521, -0.2206477970 ,
0.2994187772, 0.1698260754, -0.0933758318, -0.2526840568, -0.1945946813 ,
0.2240348607, 0.1238248795, -0.0499758534, -0.1660343856, -0.1505381316 
,
0.1466554403, 0.1053606570, -0.0357629284, -0.1290329248, -0.1280660331 ,
0.2324307710, 0.1849467456, -0.0360591337, -0.1977040470, -0.1837241799 ,
0.3339854777, 0.2456325889, -0.0586644039, -0.2385571748, -0.2028305680 ,
0.3352278471, 0.2175088674, -0.0420457609, -0.1905936003, -0.1720892042 ,
0.2529951036, 0.1556713879, 0.0004146077, -0.1248709708, -0.1264677048 

,
0.0188094042, 0.0246685687, -0.1273618340, -0.0421033241, 0.1911639720 ,
0.0453043990, 0.1860051155, 0.0063806809, -0.1991300285, 0.0364812501 ,
-0.1935504675, 0.0042717173, 0.3426873386, 0.0740373358, -0.2363037020 ,
0.0913875252, -0.1978057623, 0.0227222648, 0.1045344174, -0.0319369435 ,
0.1178491637, -0.0125106862, -0.1771682501, -0.0086721061, 0.0056641526 
,
0.0444613881, 0.0201548114, -0.1929614544, -0.0949211344, 0.1329037845 ,
-0.0175864082, 0.1810282469, -0.0216652304, -0.2694294453, 0.0333230831 ,
-0.2477070689, 0.0158413481, 0.3930172026, 0.1359755993, -0.2382986993 ,
0.0178118255, -0.2288430035, 0.0284519009, 0.2008447051, 0.0277421623 ,
0.1011831984, -0.0533753633, -0.1942299306, 0.0747348070, 0.1059112474 
,
0.0898352489, 0.0187802315, -0.2061932832, -0.1166005135, 0.1147346497 ,
0.0573279634, 0.2068278939, -0.0525983758, -0.2645404041, -0.0049351230 ,
-0.2364412248, 0.0541330948, 0.4267731011, 0.1421446949, -0.2628693581 ,
-0.0120634735, -0.1755635589, 0.0573123991, 0.1887623668, -0.0250669271 ,
0.0775168985, -0.0517793708, -0.1977149695, 0.0622370355, 0.0900741369 

,
-0.1002961248, -0.1268098056, -0.1480159611, -0.1654520184, -0.1399248540 ,
-0.1189770624, -0.1719895154, -0.2103711367, -0.2311104983, -0.1524242312 ,
-0.1633641571, -0.1853638887, -0.2470119596, -0.2209331244, -0.1648120284 ,
-0.1106308252, -0.1680037379, -0.2169286609, -0.1610766053, -0.1353930831 ,
-0.1073810831, -0.1253040731, -0.1375170201, -0.1206675917, -0.0502406806 
,
0.1828155071, 0.2487911135, 0.2702381909, 0.3004584014, 0.2288806885 ,
0.2365243733, 0.3270279169, 0.3821427524, 0.3808102608, 0.2724636197 ,
0.2869623005, 0.3687916398, 0.4197976887, 0.4165636897, 0.3018239141 ,
0.2517411113, 0.3024947941, 0.3648329973, 0.3409596980, 0.2464157641 ,
0.1933008581, 0.2387017906, 0.2815966904, 0.2294231951, 0.1689907461 
,
-0.0908021554, -0.1506149769, -0.1347364485, -0.1419287622, -0.1031464934 ,
-0.1124485880, -0.1758067012, -0.1839108914, -0.1622313261, -0.1266806424 ,
-0.1295423657, -0.1979001760, -0.1979299486, -0.1949466616, -0.1506149024 ,
-0.1206942275, -0.1456567049, -0.1522681266, -0.1817187220, -0.1245596334 ,
-0.0728228912, -0.1296059936, -0.1313115507, -0.1108152419, -0.1255511492 

,
0.0009051133, 0.0020592352, -0.0034435475, -0.0012044292, -0.0059249019 ,
-0.0063848277, -0.0065582157, -0.0120364064, -0.0062661180, -0.0112997182 ,
-0.0191808138, -0.0165399108, -0.0213480443, -0.0181976259, -0.0223023780 ,
-0.0205724463, -0.0162935536, -0.0204779152, -0.0199156068, -0.0191079415 ,
-0.0212314352, -0.0162752364, -0.0207472052, -0.0195178445, -0.0182222575 
,
0.0620950162, 0.0660803318, 0.0593781918, 0.0552552193, 0.0468309186 ,
0.0713505819, 0.0764605850, 0.0700133592, 0.0686166883, 0.0581639186 ,
0.0691679940, 0.0775538087, 0.0727765039, 0.0696131289, 0.0597336143 ,
0.0689362288, 0.0776833296, 0.0739198104, 0.0696509555, 0.0658221245 ,
0.0603010133, 0.0677242130, 0.0620906577, 0.0615044013, 0.0611141399 
,
0.0730846375, 0.0772681683, 0.0693948492, 0.0634205639, 0.0544677339 ,
0.0839667916, 0.0901651978, 0.0828951895, 0.0794967040, 0.0672666728 ,
0.0851218402, 0.0934729427, 0.0886085555, 0.0833427459, 0.0717215911 ,
0.0844055191, 0.0939487889, 0.0906653106, 0.0840807110, 0.0778322220 ,
0.0734317154, 0.0811363831, 0.0752718002, 0.0734260604, 0.0706330836 

,
0.0423127078, 0.2032186389, 0.1395102888, -0.2222200483, -0.1829642504 ,
-0.0245213807, 0.0391008817, 0.2837335169, 0.0696214214, -0.2833206058 ,
-0.0129477056, -0.2446237952, -0.0251477771, 0.3301132917, 0.0489554256 ,
0.0223695859, -0.0560515784, -0.2631163001, 0.0727305859, 0.1906350255 ,
0.0578173511, 0.0515011810, -0.1332489252, -0.1374752373, 0.1133089811 
,
-0.0021726778, 0.1996427327, 0.1750831604, -0.2227559835, -0.2611736357 ,
-0.0756984204, 0.0367210843, 0.3195151389, 0.0766979083, -0.2912360430 ,
-0.0981412083, -0.3177137375, -0.0062674261, 0.3689138293, 0.1178355813 ,
0.0185133982, -0.0908534005, -0.3165304363, 0.0432918444, 0.2970635593 ,
0.0800982416, 0.0724973083, -0.2194332182, -0.1508858800, 0.1866567582 
,
0.0039099022, 0.2248638272, 0.1892195046, -0.2384338826, -0.3259714246 ,
-0.0122310119, 0.0549131297, 0.3570368588, 0.0586086921, -0.3556272089 ,
-0.0624634624, -0.3002166450, -0.0021566746, 0.3852556050, 0.0719207376 ,
0.0075419433, -0.1292229593, -0.3032163084, 0.0814769790, 0.3159225583 ,
0.0655277893, 0.0560811162, -0.2288688421, -0.1617795676, 0.1969961971 

,
-0.0444426984, -0.0206195097, -0.0773125589, 0.0574858412, -0.0085392995 ,
0.0238956828, 0.0024716945, -0.1907485127, -0.1741815507, 0.1989581585 ,
0.0797868297, 0.1062449589, 0.1416545063, -0.3279046714, -0.1285210103 ,
-0.0032650742, -0.0225606542, 0.2121395022, 0.1035663486, -0.1593843848 ,
0.0021827437, -0.0053290292, -0.0390077718, 0.2014794350, -0.0230443943 
,
-0.0203046557, -0.0049570813, -0.0206809416, 0.1914598346, 0.1054827720 ,
0.0055829724, -0.0124372980, -0.2023546547, -0.1255098283, 0.3585833013 ,
0.0495215282, 0.0822327882, 0.1375761181, -0.3379403949, -0.1169027984 ,
-0.0507092662, -0.0266112387, 0.2161826640, 0.0905621573, -0.1991459727 ,
-0.0340972207, -0.0730468333, -0.0393795073, 0.2021417320, -0.0556285270 
,
-0.0742160007, 0.0068201851, -0.0339275971, 0.2237881273, 0.1466387212 ,
-0.0388548560, -0.0696013495, -0.2667626739, -0.1263674945, 0.3618727922 ,
0.0234573428, 0.0675936639, 0.0941196308, -0.3992734849, -0.1472233236 ,
0.0321615711, -0.0230783429, 0.2164013237, 0.0593974553, -0.2510915995 ,
0.0606663823, -0.0017146518, -0.0351879857, 0.2128534615, -0.0924439430 

,
0.0165188555, 0.3811903000, 0.2447841913, -0.2217938006, -0.3219476044 ,
0.1755184829, 0.1431575269, -0.1359602064, -0.1716559231, -0.0090501411 ,
0.0015162604, -0.3075169027, -0.2207430452, 0.2258858234, 0.2987687588 ,
-0.1317846030, -0.1716277003, 0.0366460420, 0.1956900954, 0.0545840301 ,
-0.0297802780, -0.0396947712, 0.0226782169, 0.0493512936, -0.0507142097 
,
0.0789201632, 0.3879354894, 0.3226744831, -0.2717829645, -0.3778428435 ,
0.1953527182, 0.2164223790, -0.1536473334, -0.2665998638, 0.0061843432 ,
-0.0233764723, -0.3530305028, -0.2992675602, 0.2247974128, 0.3488356769 ,
-0.1663078964, -0.2735708356, 0.0038451042, 0.2691993713, 0.0937222019 ,
-0.0202783495, -0.0531540960, 0.0384704135, 0.0761811361, -0.0331883878 
,
0.0248156656, 0.3905978203, 0.2681071460, -0.3470295966, -0.4342993498 ,
0.1894014925, 0.1684608757, -0.1106994376, -0.2602593899, -0.0571185686 ,
-0.0174212139, -0.3447441757, -0.2873878479, 0.2129003108, 0.3635520339 ,
-0.1009770259, -0.2357127070, -0.0186697096, 0.3081832230, 0.1716573685 ,
-0.0849338248, -0.0068340586, 0.1012802199, 0.0738606676, 0.0012174392 


};