float conv_last_weights [384][200][1][1] = {
0.0000000000 
,
0.0000000000 
,
-0.0000000000 
,
0.0000000000 
,
-0.0000000000 
,
-0.0000000000 
,
-0.0000000000 
,
-0.0000000000 
,
-0.0000000000 
,
-0.0000000000 
,
-0.0000000000 
,
0.0000000000 
,
0.0000000000 
,
0.0000000000 
,
-0.0000000000 
,
-0.0000000000 
,
-0.0000727528 
,
-0.0000000000 
,
-0.0000000000 
,
0.0000000000 
,
-0.0000000000 
,
0.0000000000 
,
0.0000727528 
,
0.0000000000 
,
0.0000000000 
,
0.0000000000 
,
0.0000000000 
,
0.0000000000 
,
-0.0000000000 
,
-0.0000000000 
,
-0.0000000000 
,
-0.0000000000 
,
-0.0000000000 
,
0.0000000000 
,
-0.0000000000 
,
-0.0000000000 
,
-0.0000000000 
,
-0.0000000000 
,
0.0000000000 
,
-0.0000000000 
,
0.0000000000 
,
-0.0000000000 
,
0.0000000000 
,
-0.0000000000 
,
0.0000000000 
,
0.0000000000 
,
-0.0000000000 
,
-0.0000000000 
,
0.0000000000 
,
-0.0000000000 
,
-0.0000000000 
,
0.0000000000 
,
0.0000000000 
,
-0.0000000000 
,
-0.0000000000 
,
-0.0000000000 
,
0.0000000000 
,
-0.0000000000 
,
0.0000000000 
,
-0.0000727528 
,
0.0000000000 
,
0.0000000000 
,
-0.0000000000 
,
0.0000000000 
,
0.0000000000 
,
0.0000000000 
,
-0.0000000000 
,
0.0000000000 
,
-0.0000000000 
,
0.0000000000 
,
-0.0000000000 
,
0.0000000000 
,
-0.0000000000 
,
-0.0000000000 
,
-0.0000000000 
,
-0.0000000000 
,
-0.0000000000 
,
0.0000000000 
,
-0.0000000000 
,
-0.0000000000 
,
0.0000000000 
,
-0.0000000000 
,
0.0000000000 
,
-0.0000000000 
,
0.0000000000 
,
-0.0000000000 
,
0.0000000000 
,
-0.0000000000 
,
-0.0000000000 
,
-0.0000000000 
,
-0.0000000000 
,
0.0000000000 
,
0.0000000000 
,
0.0000000000 
,
0.0000000000 
,
0.0000000000 
,
0.0000000000 
,
0.0000000000 
,
-0.0000000000 
,
0.0000000000 
,
-0.0000000000 
,
0.0000000000 
,
0.0000000000 
,
-0.0000000000 
,
-0.0000000000 
,
0.0000000000 
,
-0.0000000000 
,
0.0000000000 
,
0.0000727528 
,
-0.0000000000 
,
0.0000000000 
,
-0.0000000000 
,
-0.0000000000 
,
0.0000000000 
,
-0.0000000000 
,
0.0000000000 
,
-0.0000000000 
,
-0.0000000000 
,
-0.0000000000 
,
-0.0000000000 
,
-0.0000000000 
,
-0.0000000000 
,
0.0000000000 
,
-0.0000000000 
,
0.0000000000 
,
0.0000000000 
,
-0.0000000000 
,
-0.0000000000 
,
-0.0000000000 
,
-0.0000000000 
,
-0.0000000000 
,
-0.0000000000 
,
-0.0000000000 
,
-0.0000000000 
,
-0.0000000000 
,
-0.0000000000 
,
0.0000000000 
,
0.0000000000 
,
0.0000000000 
,
0.0000000000 
,
-0.0000000000 
,
-0.0000000000 
,
-0.0000000000 
,
-0.0000000000 
,
-0.0000000000 
,
-0.0000000000 
,
-0.0000000000 
,
-0.0000000000 
,
-0.0000000000 
,
0.0000000000 
,
-0.0000000000 
,
-0.0000000000 
,
-0.0000000000 
,
0.0000000000 
,
-0.0000000000 
,
-0.0000000000 
,
0.0000000000 
,
-0.0000000000 
,
-0.0000000000 
,
-0.0000000000 
,
-0.0000000000 
,
-0.0000000000 
,
0.0000000000 
,
0.0000000000 
,
0.0000000000 
,
-0.0000000000 
,
-0.0000000000 
,
-0.0000000000 
,
0.0000000000 
,
-0.0000727528 
,
-0.0000000000 
,
-0.0000000000 
,
-0.0000000000 
,
0.0000000000 
,
0.0000000000 
,
-0.0000727528 
,
-0.0000000000 
,
-0.0000000000 
,
0.0000000000 
,
-0.0000000000 
,
-0.0000000000 
,
0.0000000000 
,
-0.0000000000 
,
-0.0000000000 
,
-0.0000000000 
,
0.0000000000 
,
-0.0000000000 
,
0.0000000000 
,
0.0000000000 
,
-0.0000000000 
,
0.0000000000 
,
0.0000000000 
,
0.0000000000 
,
-0.0000000000 
,
-0.0000000000 
,
-0.0000000000 
,
0.0000000000 
,
0.0000000000 
,
-0.0000000000 
,
-0.0000000000 

,
0.0000000000 
,
0.0000000000 
,
-0.0000000000 
,
-0.0180158895 
,
-0.0000000000 
,
-0.0303369053 
,
-0.0174624976 
,
0.0000000000 
,
0.0079479283 
,
0.0000000000 
,
0.0000000000 
,
-0.0206345674 
,
-0.0027796875 
,
0.0000000000 
,
0.0000000000 
,
0.0000000000 
,
0.0000000000 
,
-0.0017383292 
,
-0.0000000000 
,
-0.0128386086 
,
0.0000000000 
,
0.0357440077 
,
0.0000000000 
,
-0.0000000000 
,
-0.0000000000 
,
-0.0223583635 
,
0.0000000000 
,
0.0000000000 
,
-0.0000000000 
,
-0.0191625170 
,
0.0000000000 
,
-0.0000000000 
,
0.0000000000 
,
0.0000000000 
,
0.0000000000 
,
-0.0000000000 
,
0.0000000000 
,
0.0157227535 
,
0.0000727528 
,
0.0000000000 
,
0.0000000000 
,
-0.0000000000 
,
0.0000000000 
,
0.0041853883 
,
0.0217065644 
,
-0.0300573707 
,
-0.0272116866 
,
0.0000000000 
,
-0.0000000000 
,
0.0000000000 
,
0.0000000000 
,
-0.0000000000 
,
0.0000000000 
,
-0.0000000000 
,
-0.0092118150 
,
-0.0000000000 
,
-0.0000000000 
,
0.0000000000 
,
0.0000000000 
,
0.0000000000 
,
0.0000000000 
,
0.0000000000 
,
0.0000000000 
,
0.0000000000 
,
0.0116689559 
,
0.0000000000 
,
0.0067534777 
,
-0.0000000000 
,
0.0000000000 
,
-0.0000000000 
,
-0.0000000000 
,
0.0000000000 
,
-0.0000000000 
,
-0.0004287622 
,
0.0000000000 
,
-0.0000000000 
,
-0.0103968726 
,
-0.0000000000 
,
-0.0000000000 
,
-0.0000000000 
,
-0.0000000000 
,
0.0000000000 
,
-0.0000000000 
,
-0.0000000000 
,
0.0000000000 
,
0.0000000000 
,
-0.0000000000 
,
-0.0000000000 
,
0.0000000000 
,
0.0518792607 
,
0.0000000000 
,
0.0460129641 
,
0.0000000000 
,
0.0000000000 
,
0.0000000000 
,
-0.0106077772 
,
-0.0283893999 
,
-0.0176564548 
,
0.0000000000 
,
0.0000000000 
,
0.0270503145 
,
0.0000000000 
,
0.0000000000 
,
-0.0000000000 
,
-0.0243905224 
,
-0.0049690702 
,
-0.0181451980 
,
0.0010903814 
,
-0.0000000000 
,
-0.0250244439 
,
0.0000000000 
,
0.0000000000 
,
0.0000000000 
,
0.0000000000 
,
-0.0004481975 
,
0.0000000000 
,
-0.0000000000 
,
-0.0000000000 
,
0.0102571566 
,
-0.0014917799 
,
0.0018970368 
,
-0.0115495604 
,
0.0000000000 
,
0.0000000000 
,
0.0281487834 
,
-0.0114792734 
,
-0.0000000000 
,
-0.0000000000 
,
0.0000000000 
,
0.0000000000 
,
-0.0000000000 
,
-0.0000000000 
,
-0.0000000000 
,
-0.0000000000 
,
-0.0000000000 
,
-0.0195396040 
,
0.0000000000 
,
0.0246896408 
,
0.0000000000 
,
-0.0000000000 
,
-0.0000000000 
,
0.0159065649 
,
0.0354916453 
,
0.0000000000 
,
0.0000000000 
,
0.0000000000 
,
0.0000000000 
,
0.0000000000 
,
-0.0000000000 
,
0.0216013659 
,
-0.0000000000 
,
-0.0000000000 
,
-0.0000000000 
,
0.0000000000 
,
0.0000000000 
,
-0.0202446077 
,
0.0000000000 
,
-0.0209656749 
,
-0.0000000000 
,
0.0000000000 
,
0.0000000000 
,
0.0000000000 
,
-0.0000000000 
,
-0.0337714963 
,
0.0000000000 
,
-0.0237653963 
,
0.0000000000 
,
0.0000000000 
,
-0.0225831345 
,
0.0000000000 
,
-0.0000000000 
,
-0.0000000000 
,
-0.0000907853 
,
0.0000000000 
,
-0.0000000000 
,
-0.0000000000 
,
0.0000000000 
,
0.0000000000 
,
0.0000000000 
,
0.0000000000 
,
0.0000000000 
,
-0.0419039503 
,
0.0000000000 
,
0.0112100085 
,
-0.0000000000 
,
0.0000000000 
,
0.0000000000 
,
0.0227515921 
,
-0.0332183912 
,
-0.0181542523 
,
0.0000000000 
,
-0.0000000000 
,
0.0000000000 
,
-0.0000000000 
,
-0.0127425818 
,
0.0106879165 
,
-0.0000000000 
,
0.0000000000 
,
0.0206736121 
,
0.0000000000 

,
0.0000000000 
,
-0.0000000000 
,
-0.0000000000 
,
-0.0000000000 
,
-0.0000000000 
,
-0.0000000000 
,
-0.0000000000 
,
-0.0000000000 
,
-0.0000000000 
,
-0.0000000000 
,
0.0000000000 
,
-0.0000000000 
,
-0.0000000000 
,
-0.0000000000 
,
-0.0000000000 
,
0.0000000000 
,
-0.0000000000 
,
-0.0000000000 
,
-0.0000000000 
,
-0.0000000000 
,
-0.0000000000 
,
-0.0000000000 
,
0.0000727528 
,
0.0000000000 
,
-0.0000000000 
,
0.0000000000 
,
0.0000000000 
,
-0.0000000000 
,
-0.0000000000 
,
-0.0000000000 
,
-0.0000000000 
,
-0.0000000000 
,
-0.0000000000 
,
-0.0000000000 
,
0.0000000000 
,
0.0000000000 
,
0.0000000000 
,
0.0000000000 
,
0.0000000000 
,
-0.0000000000 
,
0.0000000000 
,
-0.0000000000 
,
0.0000000000 
,
-0.0000000000 
,
-0.0000000000 
,
0.0000000000 
,
-0.0000000000 
,
0.0000000000 
,
0.0000000000 
,
-0.0000000000 
,
-0.0000000000 
,
-0.0000000000 
,
0.0000000000 
,
-0.0000727528 
,
-0.0000000000 
,
-0.0000000000 
,
0.0000000000 
,
0.0000000000 
,
-0.0000000000 
,
0.0000000000 
,
0.0000000000 
,
0.0000727528 
,
-0.0000000000 
,
-0.0000000000 
,
0.0000000000 
,
-0.0000000000 
,
-0.0000000000 
,
-0.0000000000 
,
-0.0000000000 
,
0.0000000000 
,
-0.0000000000 
,
-0.0000000000 
,
-0.0000000000 
,
-0.0000000000 
,
0.0000000000 
,
-0.0000000000 
,
0.0000000000 
,
0.0000000000 
,
-0.0000000000 
,
0.0000000000 
,
0.0000000000 
,
-0.0000000000 
,
0.0000000000 
,
-0.0000000000 
,
-0.0000000000 
,
-0.0000000000 
,
0.0000000000 
,
0.0000000000 
,
-0.0000000000 
,
0.0000000000 
,
0.0000000000 
,
0.0000000000 
,
0.0000000000 
,
-0.0000000000 
,
-0.0000000000 
,
-0.0000000000 
,
0.0000000000 
,
-0.0000000000 
,
-0.0000000000 
,
0.0000000000 
,
-0.0000000000 
,
0.0000000000 
,
-0.0000000000 
,
0.0000000000 
,
-0.0000000000 
,
0.0000000000 
,
0.0000000000 
,
-0.0000000000 
,
0.0000000000 
,
-0.0000000000 
,
-0.0000000000 
,
-0.0000000000 
,
-0.0000000000 
,
-0.0000000000 
,
-0.0000000000 
,
-0.0000000000 
,
-0.0000727528 
,
0.0000000000 
,
-0.0000000000 
,
-0.0000000000 
,
0.0000000000 
,
-0.0000000000 
,
-0.0000000000 
,
-0.0000000000 
,
0.0000000000 
,
-0.0000000000 
,
-0.0000000000 
,
0.0000000000 
,
0.0000000000 
,
-0.0000000000 
,
0.0000000000 
,
0.0000000000 
,
-0.0000000000 
,
0.0000000000 
,
0.0000000000 
,
-0.0000000000 
,
-0.0000000000 
,
-0.0000000000 
,
-0.0000000000 
,
-0.0000000000 
,
-0.0000000000 
,
-0.0000000000 
,
0.0000000000 
,
0.0000000000 
,
-0.0000727528 
,
0.0000000000 
,
0.0000000000 
,
0.0000000000 
,
-0.0000000000 
,
-0.0000000000 
,
0.0000727528 
,
0.0000000000 
,
-0.0000000000 
,
-0.0000000000 
,
-0.0000000000 
,
0.0000000000 
,
-0.0000000000 
,
-0.0000000000 
,
0.0000000000 
,
-0.0000000000 
,
-0.0000000000 
,
0.0000000000 
,
0.0000000000 
,
-0.0000000000 
,
-0.0000000000 
,
0.0000000000 
,
-0.0000000000 
,
0.0000000000 
,
0.0000000000 
,
-0.0000000000 
,
0.0000000000 
,
-0.0000000000 
,
-0.0000000000 
,
-0.0000000000 
,
-0.0000000000 
,
-0.0000000000 
,
-0.0000000000 
,
0.0000000000 
,
-0.0000000000 
,
-0.0000000000 
,
-0.0000000000 
,
-0.0000000000 
,
0.0000000000 
,
-0.0000000000 
,
0.0000000000 
,
-0.0000000000 
,
-0.0000000000 
,
0.0000000000 
,
-0.0000000000 
,
0.0000000000 
,
-0.0000000000 
,
0.0000000000 
,
-0.0000000000 
,
0.0000000000 
,
-0.0000000000 
,
0.0000000000 
,
0.0000000000 
,
-0.0000000000 
,
0.0000000000 
,
-0.0000000000 

,
0.0000000000 
,
-0.0000000000 
,
-0.0000000000 
,
-0.0000000000 
,
-0.0000000000 
,
-0.0000000000 
,
-0.0000000000 
,
0.0000000000 
,
0.0000000000 
,
-0.0000000000 
,
0.0000000000 
,
-0.0000000000 
,
-0.0000000000 
,
-0.0000000000 
,
-0.0000000000 
,
-0.0000000000 
,
-0.0000000000 
,
-0.0000000000 
,
-0.0000000000 
,
-0.0000000000 
,
-0.0000000000 
,
-0.0000000000 
,
0.0000000000 
,
-0.0000000000 
,
0.0000000000 
,
-0.0000000000 
,
0.0000000000 
,
0.0000000000 
,
0.0000000000 
,
-0.0000000000 
,
-0.0000000000 
,
-0.0000000000 
,
-0.0000000000 
,
-0.0000000000 
,
-0.0000000000 
,
0.0000000000 
,
-0.0000000000 
,
-0.0000000000 
,
0.0000000000 
,
0.0000000000 
,
0.0000727528 
,
0.0000000000 
,
0.0000000000 
,
-0.0000000000 
,
0.0000000000 
,
0.0000000000 
,
0.0000000000 
,
-0.0000000000 
,
-0.0000000000 
,
0.0000000000 
,
0.0000000000 
,
0.0000000000 
,
0.0000000000 
,
0.0000000000 
,
-0.0000000000 
,
0.0000000000 
,
0.0000000000 
,
-0.0000000000 
,
0.0000000000 
,
-0.0000000000 
,
0.0000727528 
,
0.0000000000 
,
-0.0000000000 
,
-0.0000000000 
,
0.0000000000 
,
-0.0000000000 
,
-0.0000000000 
,
-0.0000000000 
,
0.0000000000 
,
-0.0000000000 
,
-0.0000000000 
,
0.0000000000 
,
0.0000000000 
,
-0.0000000000 
,
-0.0000000000 
,
-0.0000000000 
,
-0.0000000000 
,
-0.0000000000 
,
0.0000000000 
,
0.0000000000 
,
0.0000000000 
,
0.0000000000 
,
0.0000000000 
,
-0.0000000000 
,
0.0000000000 
,
-0.0000000000 
,
-0.0000000000 
,
-0.0000000000 
,
-0.0000727528 
,
-0.0000000000 
,
0.0000000000 
,
-0.0000000000 
,
-0.0000000000 
,
-0.0000000000 
,
-0.0000000000 
,
-0.0000000000 
,
-0.0000000000 
,
-0.0000000000 
,
-0.0000000000 
,
0.0000000000 
,
-0.0000000000 
,
-0.0000000000 
,
-0.0000000000 
,
-0.0000727528 
,
-0.0000000000 
,
0.0000000000 
,
-0.0000000000 
,
0.0000000000 
,
-0.0000000000 
,
0.0000000000 
,
0.0000000000 
,
0.0000000000 
,
0.0000000000 
,
0.0000000000 
,
-0.0000000000 
,
-0.0000000000 
,
0.0000000000 
,
-0.0000000000 
,
0.0000000000 
,
-0.0000000000 
,
-0.0000000000 
,
-0.0000000000 
,
-0.0000000000 
,
-0.0000000000 
,
-0.0000000000 
,
-0.0000000000 
,
-0.0000000000 
,
-0.0000000000 
,
-0.0000000000 
,
-0.0000000000 
,
0.0000000000 
,
-0.0000000000 
,
0.0000000000 
,
0.0000000000 
,
-0.0000000000 
,
-0.0000000000 
,
0.0000000000 
,
-0.0000000000 
,
-0.0000000000 
,
-0.0000000000 
,
-0.0000000000 
,
0.0000000000 
,
-0.0000000000 
,
-0.0000000000 
,
0.0000727528 
,
0.0000000000 
,
0.0000000000 
,
-0.0000000000 
,
0.0000000000 
,
-0.0000000000 
,
-0.0000727528 
,
-0.0000000000 
,
0.0000727528 
,
-0.0000000000 
,
0.0000000000 
,
0.0000000000 
,
-0.0000000000 
,
-0.0000000000 
,
0.0000000000 
,
-0.0000000000 
,
-0.0000000000 
,
-0.0000000000 
,
0.0000000000 
,
-0.0000000000 
,
-0.0000000000 
,
-0.0000000000 
,
-0.0000000000 
,
0.0000000000 
,
-0.0000000000 
,
0.0000000000 
,
0.0000000000 
,
-0.0000000000 
,
0.0000000000 
,
0.0000727528 
,
0.0000000000 
,
0.0000000000 
,
-0.0000000000 
,
0.0000000000 
,
-0.0000000000 
,
-0.0000000000 
,
0.0000727528 
,
-0.0000000000 
,
-0.0000000000 
,
-0.0000000000 
,
0.0000000000 
,
-0.0000000000 
,
0.0000000000 
,
-0.0000000000 
,
0.0000000000 
,
-0.0000000000 
,
-0.0000000000 
,
0.0000000000 
,
-0.0000000000 
,
0.0000000000 
,
-0.0000000000 
,
0.0000000000 
,
0.0000000000 
,
0.0000000000 
,
0.0000000000 
,
0.0000727528 

,
-0.0000000000 
,
0.0000000000 
,
0.0000000000 
,
-0.0000000000 
,
0.0000000000 
,
0.0000000000 
,
0.0000000000 
,
0.0000000000 
,
-0.0000000000 
,
0.0000000000 
,
-0.0000000000 
,
0.0000000000 
,
0.0000000000 
,
-0.0000000000 
,
0.0000000000 
,
-0.0000000000 
,
0.0000727528 
,
-0.0000000000 
,
0.0000000000 
,
-0.0000000000 
,
-0.0000000000 
,
0.0000000000 
,
-0.0000727528 
,
-0.0000000000 
,
0.0000727528 
,
-0.0000000000 
,
0.0000000000 
,
-0.0000000000 
,
-0.0000000000 
,
0.0000000000 
,
0.0000000000 
,
-0.0000000000 
,
-0.0000000000 
,
-0.0000000000 
,
0.0000000000 
,
0.0000000000 
,
0.0000000000 
,
-0.0000000000 
,
-0.0000727528 
,
-0.0000000000 
,
0.0000000000 
,
0.0000000000 
,
-0.0000000000 
,
0.0000000000 
,
-0.0000000000 
,
-0.0000000000 
,
-0.0000000000 
,
-0.0000000000 
,
-0.0000000000 
,
-0.0000000000 
,
0.0000000000 
,
0.0000000000 
,
0.0000000000 
,
-0.0000000000 
,
-0.0000000000 
,
0.0000000000 
,
0.0000000000 
,
-0.0000000000 
,
0.0000000000 
,
0.0000000000 
,
0.0000000000 
,
0.0000000000 
,
0.0000000000 
,
0.0000000000 
,
0.0000000000 
,
0.0000000000 
,
0.0000000000 
,
-0.0000000000 
,
-0.0000000000 
,
-0.0000000000 
,
0.0000000000 
,
0.0000727528 
,
0.0000000000 
,
-0.0000000000 
,
0.0000000000 
,
0.0000000000 
,
-0.0000000000 
,
0.0000000000 
,
-0.0000000000 
,
-0.0000000000 
,
-0.0000000000 
,
-0.0000000000 
,
-0.0000000000 
,
-0.0000727528 
,
0.0000000000 
,
0.0000000000 
,
0.0000000000 
,
0.0000000000 
,
-0.0000000000 
,
0.0000000000 
,
-0.0000727528 
,
-0.0000000000 
,
-0.0000000000 
,
-0.0000000000 
,
-0.0000000000 
,
0.0000000000 
,
-0.0000000000 
,
0.0000000000 
,
0.0000000000 
,
-0.0000000000 
,
0.0000000000 
,
0.0000000000 
,
-0.0000000000 
,
0.0000000000 
,
-0.0000000000 
,
-0.0000000000 
,
-0.0000000000 
,
0.0000000000 
,
0.0000000000 
,
0.0000000000 
,
0.0000000000 
,
0.0000000000 
,
0.0000000000 
,
0.0000000000 
,
-0.0000000000 
,
-0.0000000000 
,
-0.0000000000 
,
0.0000000000 
,
-0.0000000000 
,
-0.0000000000 
,
0.0000000000 
,
-0.0000000000 
,
-0.0000000000 
,
0.0000000000 
,
-0.0000000000 
,
-0.0000000000 
,
-0.0000000000 
,
-0.0000000000 
,
-0.0000000000 
,
-0.0000000000 
,
0.0000000000 
,
-0.0000000000 
,
-0.0000727528 
,
-0.0000000000 
,
0.0000000000 
,
0.0000000000 
,
0.0000000000 
,
-0.0000000000 
,
0.0000000000 
,
0.0000000000 
,
0.0000000000 
,
0.0000000000 
,
-0.0000000000 
,
-0.0000000000 
,
-0.0000000000 
,
0.0000000000 
,
-0.0000000000 
,
-0.0000000000 
,
0.0000000000 
,
0.0000000000 
,
0.0000000000 
,
-0.0000000000 
,
-0.0000000000 
,
-0.0000000000 
,
0.0000727528 
,
0.0000000000 
,
0.0000000000 
,
-0.0000000000 
,
0.0000727528 
,
0.0000000000 
,
-0.0000000000 
,
0.0000000000 
,
-0.0000000000 
,
0.0000000000 
,
0.0000000000 
,
-0.0000727528 
,
0.0000000000 
,
-0.0000000000 
,
-0.0000000000 
,
0.0000000000 
,
0.0000000000 
,
-0.0000000000 
,
-0.0000000000 
,
-0.0000000000 
,
-0.0000000000 
,
-0.0000000000 
,
-0.0000000000 
,
0.0000000000 
,
-0.0000000000 
,
-0.0000000000 
,
0.0000000000 
,
0.0000000000 
,
-0.0000000000 
,
-0.0000000000 
,
0.0000000000 
,
-0.0000000000 
,
-0.0000727528 
,
-0.0000000000 
,
0.0000000000 
,
-0.0000000000 
,
0.0000000000 
,
-0.0000000000 
,
0.0000000000 
,
0.0000727528 
,
0.0000000000 
,
0.0000000000 
,
0.0000000000 
,
0.0000000000 
,
-0.0000000000 
,
0.0000000000 

,
0.0000000000 
,
0.0000000000 
,
-0.0000000000 
,
-0.0000000000 
,
-0.0000000000 
,
0.0000000000 
,
0.0000000000 
,
-0.0000000000 
,
0.0000000000 
,
0.0000000000 
,
-0.0000000000 
,
0.0000000000 
,
-0.0000000000 
,
0.0000000000 
,
0.0000000000 
,
-0.0000000000 
,
0.0000000000 
,
-0.0000000000 
,
-0.0000000000 
,
-0.0000000000 
,
0.0000000000 
,
-0.0000000000 
,
-0.0000000000 
,
0.0000000000 
,
-0.0000000000 
,
-0.0000000000 
,
-0.0000000000 
,
0.0000000000 
,
0.0000000000 
,
-0.0000000000 
,
0.0000000000 
,
0.0000000000 
,
0.0000000000 
,
-0.0000000000 
,
0.0000000000 
,
0.0000000000 
,
-0.0000000000 
,
-0.0000000000 
,
0.0000000000 
,
-0.0000000000 
,
-0.0000000000 
,
-0.0000000000 
,
-0.0000000000 
,
-0.0000000000 
,
-0.0000000000 
,
0.0000000000 
,
-0.0000000000 
,
0.0000000000 
,
0.0000000000 
,
0.0000000000 
,
-0.0000000000 
,
0.0000000000 
,
0.0000727528 
,
0.0000000000 
,
-0.0000000000 
,
-0.0000000000 
,
0.0000000000 
,
-0.0000000000 
,
-0.0000000000 
,
-0.0000000000 
,
-0.0000000000 
,
0.0000000000 
,
0.0000000000 
,
-0.0000000000 
,
-0.0000000000 
,
-0.0000000000 
,
0.0000000000 
,
-0.0000000000 
,
-0.0000000000 
,
-0.0000000000 
,
0.0000000000 
,
0.0000000000 
,
-0.0000000000 
,
-0.0000000000 
,
-0.0000000000 
,
0.0000000000 
,
-0.0000000000 
,
-0.0000000000 
,
0.0000000000 
,
-0.0000000000 
,
0.0000000000 
,
-0.0000000000 
,
0.0000000000 
,
0.0000000000 
,
0.0000000000 
,
0.0000000000 
,
-0.0000000000 
,
0.0000000000 
,
0.0000000000 
,
-0.0000000000 
,
-0.0000000000 
,
-0.0000000000 
,
-0.0000000000 
,
0.0000000000 
,
-0.0000000000 
,
-0.0000000000 
,
-0.0000000000 
,
0.0000000000 
,
0.0000000000 
,
-0.0000000000 
,
-0.0000000000 
,
-0.0000000000 
,
0.0000000000 
,
-0.0000000000 
,
-0.0000000000 
,
-0.0000000000 
,
0.0000000000 
,
0.0000000000 
,
-0.0000000000 
,
-0.0000000000 
,
-0.0000000000 
,
-0.0000000000 
,
-0.0000000000 
,
0.0000000000 
,
0.0000000000 
,
-0.0000000000 
,
-0.0000000000 
,
0.0000000000 
,
-0.0000000000 
,
0.0000000000 
,
0.0000000000 
,
0.0000000000 
,
0.0000000000 
,
-0.0000000000 
,
0.0000000000 
,
0.0000000000 
,
-0.0000000000 
,
-0.0000000000 
,
-0.0000000000 
,
-0.0000000000 
,
0.0000000000 
,
-0.0000000000 
,
0.0000000000 
,
-0.0000000000 
,
-0.0000000000 
,
-0.0000000000 
,
-0.0000000000 
,
0.0000000000 
,
-0.0000000000 
,
-0.0000000000 
,
-0.0000000000 
,
-0.0000000000 
,
0.0000000000 
,
0.0000000000 
,
0.0000000000 
,
-0.0000000000 
,
-0.0000000000 
,
-0.0000000000 
,
-0.0000000000 
,
-0.0000000000 
,
-0.0000000000 
,
0.0000000000 
,
0.0000000000 
,
-0.0000000000 
,
0.0000000000 
,
-0.0000000000 
,
-0.0000000000 
,
-0.0000000000 
,
-0.0000000000 
,
-0.0000000000 
,
-0.0000000000 
,
0.0000000000 
,
0.0000000000 
,
0.0000000000 
,
0.0000727528 
,
0.0000000000 
,
0.0000000000 
,
-0.0000000000 
,
-0.0000000000 
,
-0.0000000000 
,
0.0000000000 
,
-0.0000000000 
,
0.0000000000 
,
-0.0000000000 
,
0.0000000000 
,
0.0000000000 
,
0.0000000000 
,
0.0000000000 
,
-0.0000000000 
,
-0.0000000000 
,
0.0000000000 
,
-0.0000000000 
,
0.0000000000 
,
-0.0000000000 
,
0.0000000000 
,
0.0000000000 
,
0.0000727528 
,
-0.0000000000 
,
-0.0000000000 
,
-0.0000000000 
,
0.0000000000 
,
-0.0000000000 
,
0.0000000000 
,
-0.0000000000 
,
-0.0000000000 
,
0.0000000000 
,
-0.0000000000 
,
-0.0000000000 
,
0.0000000000 
,
0.0000000000 

,
-0.0000000000 
,
-0.0000000000 
,
-0.0000000000 
,
0.0306876134 
,
0.0000000000 
,
0.0051948098 
,
-0.0046615298 
,
-0.0000000000 
,
-0.0194872823 
,
-0.0000000000 
,
-0.0000000000 
,
0.0401593596 
,
0.0472084805 
,
0.0000000000 
,
-0.0000000000 
,
-0.0000000000 
,
-0.0000000000 
,
-0.0194536131 
,
0.0000000000 
,
0.0096354457 
,
0.0000000000 
,
-0.0212599784 
,
-0.0000000000 
,
0.0000000000 
,
0.0000000000 
,
0.0152524412 
,
-0.0000000000 
,
0.0000000000 
,
-0.0000000000 
,
0.0019245675 
,
-0.0000000000 
,
0.0000000000 
,
-0.0000000000 
,
-0.0000000000 
,
-0.0000000000 
,
-0.0000000000 
,
-0.0000000000 
,
0.0102096042 
,
0.0000000000 
,
-0.0000000000 
,
0.0000000000 
,
0.0000000000 
,
-0.0000000000 
,
-0.0115593886 
,
0.0068270271 
,
-0.0233631190 
,
-0.0095197139 
,
-0.0000000000 
,
0.0000000000 
,
-0.0000000000 
,
-0.0000000000 
,
-0.0000000000 
,
-0.0000000000 
,
0.0000000000 
,
-0.0226333030 
,
0.0000000000 
,
-0.0000000000 
,
-0.0000000000 
,
0.0000000000 
,
-0.0000000000 
,
-0.0000000000 
,
0.0000000000 
,
-0.0000000000 
,
-0.0000000000 
,
-0.0032850546 
,
0.0000000000 
,
-0.0343503840 
,
0.0000000000 
,
-0.0000000000 
,
-0.0000000000 
,
-0.0000000000 
,
0.0000000000 
,
0.0000000000 
,
0.0016771023 
,
-0.0000000000 
,
-0.0000000000 
,
0.0618901700 
,
-0.0000000000 
,
-0.0000000000 
,
0.0000000000 
,
-0.0000000000 
,
-0.0000000000 
,
0.0000000000 
,
-0.0000000000 
,
-0.0000000000 
,
-0.0000000000 
,
0.0000000000 
,
-0.0000000000 
,
-0.0000000000 
,
-0.0314070210 
,
-0.0000000000 
,
-0.0355257653 
,
0.0000000000 
,
-0.0000000000 
,
-0.0000000000 
,
0.0337788798 
,
-0.0118060904 
,
0.0450352281 
,
-0.0000000000 
,
0.0000000000 
,
-0.0177133083 
,
-0.0000000000 
,
-0.0000000000 
,
-0.0000000000 
,
0.0003616730 
,
0.0504079126 
,
-0.0085317641 
,
-0.0002157386 
,
0.0000000000 
,
0.0280201696 
,
-0.0000000000 
,
0.0000000000 
,
-0.0000000000 
,
0.0000000000 
,
-0.0141823292 
,
0.0000000000 
,
0.0000000000 
,
0.0000000000 
,
-0.0322206877 
,
0.0006769464 
,
-0.0026058026 
,
-0.0088595236 
,
-0.0000000000 
,
0.0000000000 
,
-0.0063031372 
,
0.0043218671 
,
0.0000000000 
,
-0.0000000000 
,
0.0000000000 
,
0.0000000000 
,
0.0000000000 
,
0.0000000000 
,
0.0000000000 
,
0.0000000000 
,
0.0000000000 
,
0.0102195451 
,
-0.0000000000 
,
0.0000811492 
,
0.0000000000 
,
0.0000000000 
,
-0.0000000000 
,
-0.0003905963 
,
-0.0223080683 
,
-0.0000000000 
,
0.0000000000 
,
0.0000000000 
,
0.0000000000 
,
-0.0000000000 
,
0.0000000000 
,
-0.0035356253 
,
-0.0000000000 
,
-0.0000000000 
,
-0.0000000000 
,
-0.0000000000 
,
0.0000000000 
,
-0.0245719701 
,
-0.0000000000 
,
0.0053165331 
,
0.0000000000 
,
-0.0000000000 
,
0.0000000000 
,
-0.0000000000 
,
0.0000000000 
,
0.0522449501 
,
-0.0000000000 
,
0.0347063690 
,
-0.0000000000 
,
0.0000000000 
,
-0.0376917534 
,
0.0000000000 
,
-0.0000000000 
,
0.0000000000 
,
0.0077084210 
,
-0.0000000000 
,
0.0000000000 
,
0.0000000000 
,
-0.0000000000 
,
0.0000000000 
,
-0.0000000000 
,
0.0000000000 
,
0.0000000000 
,
-0.0160554405 
,
-0.0000000000 
,
0.0038765804 
,
0.0000000000 
,
-0.0000000000 
,
-0.0000000000 
,
0.0514903553 
,
-0.0317630693 
,
0.0057836156 
,
-0.0000000000 
,
0.0000000000 
,
-0.0000000000 
,
0.0000000000 
,
0.0141855143 
,
-0.0091952141 
,
0.0000000000 
,
-0.0000000000 
,
0.0359187387 
,
0.0000000000 

,
0.0000000000 
,
0.0000000000 
,
-0.0000000000 
,
-0.0000000000 
,
0.0000000000 
,
-0.0000000000 
,
-0.0000000000 
,
-0.0000000000 
,
-0.0000000000 
,
-0.0000000000 
,
-0.0000000000 
,
0.0000000000 
,
-0.0000000000 
,
-0.0000000000 
,
-0.0000000000 
,
-0.0000000000 
,
-0.0000000000 
,
0.0000000000 
,
-0.0000000000 
,
0.0000727528 
,
-0.0000000000 
,
0.0000000000 
,
0.0000000000 
,
-0.0000000000 
,
0.0000000000 
,
-0.0000000000 
,
0.0000000000 
,
0.0000000000 
,
-0.0000000000 
,
-0.0000000000 
,
-0.0000000000 
,
0.0000000000 
,
0.0000000000 
,
-0.0000000000 
,
0.0000000000 
,
0.0000000000 
,
0.0000000000 
,
-0.0000000000 
,
-0.0000000000 
,
-0.0000000000 
,
0.0000727528 
,
0.0000000000 
,
0.0000000000 
,
-0.0000000000 
,
-0.0000000000 
,
-0.0000000000 
,
0.0000000000 
,
-0.0000000000 
,
0.0000000000 
,
-0.0000000000 
,
0.0000000000 
,
-0.0000000000 
,
-0.0000000000 
,
-0.0000000000 
,
-0.0000000000 
,
-0.0000000000 
,
0.0000000000 
,
-0.0000000000 
,
0.0000000000 
,
0.0000000000 
,
0.0000727528 
,
-0.0000000000 
,
0.0000000000 
,
0.0000000000 
,
-0.0000000000 
,
0.0000000000 
,
0.0000000000 
,
-0.0000000000 
,
0.0000727528 
,
-0.0000000000 
,
0.0000000000 
,
0.0000000000 
,
-0.0000000000 
,
-0.0000000000 
,
-0.0000000000 
,
0.0000000000 
,
-0.0000000000 
,
-0.0000727528 
,
0.0000000000 
,
-0.0000000000 
,
0.0000000000 
,
-0.0000000000 
,
0.0000000000 
,
-0.0000000000 
,
0.0000000000 
,
0.0000000000 
,
-0.0000000000 
,
-0.0000000000 
,
-0.0000727528 
,
-0.0000000000 
,
-0.0000000000 
,
-0.0000000000 
,
0.0000000000 
,
0.0000000000 
,
-0.0000000000 
,
-0.0000000000 
,
-0.0000000000 
,
-0.0000000000 
,
-0.0000000000 
,
-0.0000000000 
,
-0.0000000000 
,
-0.0000727528 
,
-0.0000000000 
,
0.0000727528 
,
-0.0000000000 
,
-0.0000000000 
,
-0.0000000000 
,
-0.0000000000 
,
-0.0000000000 
,
-0.0000000000 
,
-0.0000000000 
,
0.0000000000 
,
-0.0000000000 
,
0.0000727528 
,
-0.0000000000 
,
-0.0000000000 
,
0.0000727528 
,
0.0000000000 
,
0.0000000000 
,
-0.0000000000 
,
0.0000000000 
,
-0.0000000000 
,
-0.0000000000 
,
-0.0000000000 
,
0.0000000000 
,
0.0000000000 
,
-0.0000000000 
,
0.0000000000 
,
-0.0000000000 
,
-0.0000000000 
,
0.0000000000 
,
-0.0000000000 
,
-0.0000000000 
,
0.0000000000 
,
-0.0000000000 
,
0.0000000000 
,
-0.0000000000 
,
0.0000000000 
,
0.0000000000 
,
0.0000000000 
,
0.0000000000 
,
-0.0000000000 
,
0.0000000000 
,
-0.0000000000 
,
0.0000727528 
,
-0.0000000000 
,
-0.0000000000 
,
0.0000000000 
,
-0.0000000000 
,
-0.0000000000 
,
0.0000727528 
,
-0.0000000000 
,
-0.0000000000 
,
0.0000000000 
,
0.0000000000 
,
-0.0000000000 
,
0.0000000000 
,
-0.0000000000 
,
-0.0000727528 
,
-0.0000000000 
,
-0.0000000000 
,
0.0000000000 
,
-0.0000727528 
,
-0.0000000000 
,
-0.0000000000 
,
-0.0000000000 
,
0.0000000000 
,
-0.0000000000 
,
-0.0000000000 
,
-0.0000000000 
,
0.0000000000 
,
-0.0000000000 
,
-0.0000000000 
,
-0.0000000000 
,
-0.0000727528 
,
-0.0000727528 
,
-0.0000000000 
,
-0.0000000000 
,
-0.0000000000 
,
0.0000000000 
,
0.0000727528 
,
-0.0000000000 
,
0.0000000000 
,
-0.0000000000 
,
0.0000000000 
,
-0.0000000000 
,
-0.0000000000 
,
-0.0000000000 
,
-0.0000000000 
,
0.0000000000 
,
-0.0000000000 
,
0.0000000000 
,
-0.0000727528 
,
0.0000000000 
,
-0.0000000000 
,
-0.0000000000 
,
0.0000000000 
,
-0.0000000000 
,
-0.0000000000 
,
0.0000000000 

,
-0.0000000000 
,
-0.0000000000 
,
0.0000000000 
,
0.0335251130 
,
-0.0000000000 
,
0.0433203615 
,
0.0152272647 
,
0.0000000000 
,
-0.0341620557 
,
-0.0000000000 
,
-0.0000000000 
,
0.0944765881 
,
0.0708319619 
,
-0.0000000000 
,
-0.0000000000 
,
0.0000000000 
,
-0.0000000000 
,
-0.0321627110 
,
0.0000000000 
,
0.0315944068 
,
0.0000000000 
,
-0.0519946665 
,
0.0000000000 
,
0.0000000000 
,
0.0000000000 
,
0.0579053611 
,
0.0000000000 
,
-0.0000000000 
,
-0.0000000000 
,
0.0198359676 
,
-0.0000000000 
,
0.0000000000 
,
-0.0000000000 
,
-0.0000000000 
,
0.0000000000 
,
0.0000000000 
,
-0.0000000000 
,
-0.0023709713 
,
-0.0000000000 
,
-0.0000000000 
,
0.0000000000 
,
0.0000000000 
,
0.0000000000 
,
-0.0149411466 
,
-0.0329113379 
,
0.0064823790 
,
0.0562668256 
,
-0.0000000000 
,
-0.0000000000 
,
0.0000000000 
,
-0.0000000000 
,
0.0000000000 
,
0.0000000000 
,
-0.0000000000 
,
-0.0215393156 
,
0.0000000000 
,
-0.0000000000 
,
-0.0000000000 
,
0.0000000000 
,
-0.0000000000 
,
0.0000000000 
,
-0.0000000000 
,
-0.0000000000 
,
0.0000000000 
,
-0.0395012423 
,
0.0000000000 
,
-0.0354727469 
,
0.0000000000 
,
0.0000000000 
,
-0.0000000000 
,
-0.0000000000 
,
0.0000000000 
,
-0.0000000000 
,
0.0048759491 
,
-0.0000000000 
,
-0.0000000000 
,
0.0732132196 
,
-0.0000000000 
,
0.0000000000 
,
-0.0000000000 
,
0.0000000000 
,
0.0000000000 
,
-0.0000000000 
,
0.0000000000 
,
-0.0000000000 
,
0.0000000000 
,
0.0000000000 
,
-0.0000000000 
,
-0.0000000000 
,
-0.0787873715 
,
-0.0000000000 
,
-0.0854258686 
,
-0.0000000000 
,
-0.0000000000 
,
0.0000000000 
,
0.0470087603 
,
0.0380139351 
,
0.0831352547 
,
0.0000000000 
,
0.0000000000 
,
-0.0469363518 
,
-0.0000000000 
,
0.0000000000 
,
0.0000000000 
,
0.0425360128 
,
0.0509811565 
,
0.0278134719 
,
-0.0005038035 
,
0.0000000000 
,
0.0314099640 
,
0.0000000000 
,
0.0000000000 
,
-0.0000000000 
,
0.0000000000 
,
-0.0511841550 
,
-0.0000000000 
,
0.0000000000 
,
-0.0000000000 
,
-0.0274462029 
,
0.0012730265 
,
-0.0139518054 
,
0.0120554809 
,
0.0000000000 
,
-0.0000000000 
,
-0.0419799350 
,
0.0202298444 
,
0.0000000000 
,
0.0000000000 
,
-0.0000000000 
,
-0.0000000000 
,
-0.0000000000 
,
0.0000000000 
,
0.0000000000 
,
0.0000000000 
,
-0.0000000000 
,
0.0482210107 
,
-0.0000000000 
,
-0.0359157585 
,
0.0000000000 
,
0.0000000000 
,
-0.0000000000 
,
-0.0223474000 
,
-0.0622653067 
,
-0.0000000000 
,
-0.0000000000 
,
-0.0000000000 
,
0.0000000000 
,
-0.0000000000 
,
0.0000000000 
,
-0.0276828725 
,
0.0000000000 
,
-0.0000000000 
,
0.0000000000 
,
-0.0000000000 
,
0.0000000000 
,
0.0041759158 
,
-0.0000000000 
,
0.0518454611 
,
0.0000000000 
,
-0.0000000000 
,
-0.0000000000 
,
0.0000000000 
,
-0.0000000000 
,
0.1045997217 
,
-0.0000000000 
,
0.0865836218 
,
0.0000000000 
,
0.0000000000 
,
-0.0065286499 
,
0.0000000000 
,
-0.0000000000 
,
0.0000000000 
,
0.0116002355 
,
0.0000000000 
,
0.0000000000 
,
0.0000000000 
,
-0.0000000000 
,
-0.0000000000 
,
0.0000000000 
,
-0.0000000000 
,
-0.0000000000 
,
0.0526573621 
,
0.0000000000 
,
-0.0095082950 
,
-0.0000000000 
,
-0.0000000000 
,
0.0000000000 
,
0.0354879647 
,
0.0266207345 
,
0.0459650420 
,
-0.0000000000 
,
0.0000000000 
,
-0.0000000000 
,
0.0000000000 
,
0.0676665157 
,
-0.0141767738 
,
-0.0000000000 
,
0.0000000000 
,
0.0207432155 
,
-0.0000000000 

,
-0.0000000000 
,
-0.0000000000 
,
0.0000000000 
,
-0.0000000000 
,
-0.0000000000 
,
-0.0000000000 
,
-0.0000000000 
,
-0.0000000000 
,
0.0000000000 
,
-0.0000000000 
,
-0.0000000000 
,
0.0000000000 
,
0.0000000000 
,
-0.0000000000 
,
0.0000000000 
,
0.0000000000 
,
0.0000000000 
,
0.0000000000 
,
0.0000000000 
,
-0.0000000000 
,
-0.0000000000 
,
0.0000000000 
,
0.0000000000 
,
0.0000000000 
,
0.0000000000 
,
0.0000000000 
,
-0.0000000000 
,
-0.0000000000 
,
-0.0000000000 
,
0.0000000000 
,
0.0000000000 
,
0.0000000000 
,
-0.0000000000 
,
0.0000000000 
,
0.0000000000 
,
-0.0000000000 
,
-0.0000000000 
,
0.0000000000 
,
-0.0000000000 
,
0.0000000000 
,
0.0000000000 
,
-0.0000000000 
,
0.0000000000 
,
0.0000000000 
,
0.0000000000 
,
-0.0000000000 
,
-0.0000000000 
,
-0.0000000000 
,
0.0000000000 
,
0.0000000000 
,
-0.0000000000 
,
0.0000000000 
,
-0.0000000000 
,
-0.0000000000 
,
0.0000000000 
,
0.0000000000 
,
-0.0000000000 
,
0.0000000000 
,
0.0000000000 
,
0.0000000000 
,
-0.0000000000 
,
0.0000000000 
,
0.0000000000 
,
-0.0000000000 
,
0.0000000000 
,
-0.0000000000 
,
-0.0000000000 
,
0.0000000000 
,
-0.0000000000 
,
-0.0000000000 
,
-0.0000000000 
,
0.0000000000 
,
-0.0000000000 
,
0.0000000000 
,
0.0000000000 
,
-0.0000000000 
,
-0.0000000000 
,
-0.0000727528 
,
0.0000000000 
,
0.0000000000 
,
-0.0000000000 
,
0.0000000000 
,
0.0000000000 
,
-0.0000000000 
,
0.0000000000 
,
-0.0000000000 
,
-0.0000000000 
,
-0.0000000000 
,
0.0000000000 
,
0.0000000000 
,
0.0000000000 
,
0.0000000000 
,
0.0000000000 
,
0.0000000000 
,
0.0000000000 
,
-0.0000000000 
,
0.0000000000 
,
-0.0000000000 
,
-0.0000000000 
,
0.0000000000 
,
-0.0000000000 
,
-0.0000000000 
,
0.0000000000 
,
0.0000000000 
,
0.0000000000 
,
0.0000000000 
,
0.0000000000 
,
-0.0000000000 
,
0.0000000000 
,
-0.0000000000 
,
-0.0000000000 
,
0.0000000000 
,
0.0000000000 
,
-0.0000000000 
,
0.0000000000 
,
-0.0000000000 
,
0.0000727528 
,
-0.0000000000 
,
-0.0000000000 
,
0.0000000000 
,
-0.0000000000 
,
-0.0000000000 
,
-0.0000000000 
,
0.0000000000 
,
-0.0000000000 
,
-0.0000000000 
,
0.0000000000 
,
0.0000000000 
,
0.0000000000 
,
-0.0000000000 
,
-0.0000000000 
,
0.0000000000 
,
0.0000000000 
,
0.0000000000 
,
0.0000000000 
,
0.0000000000 
,
0.0000000000 
,
0.0000000000 
,
0.0000000000 
,
0.0000000000 
,
0.0000727528 
,
0.0000000000 
,
-0.0000000000 
,
0.0000000000 
,
-0.0000000000 
,
-0.0000000000 
,
0.0000000000 
,
0.0000000000 
,
0.0000000000 
,
0.0000000000 
,
0.0000000000 
,
0.0000000000 
,
0.0000000000 
,
0.0000000000 
,
-0.0000000000 
,
-0.0000000000 
,
-0.0000000000 
,
0.0000000000 
,
0.0000000000 
,
-0.0000000000 
,
-0.0000727528 
,
0.0000000000 
,
-0.0000000000 
,
0.0000000000 
,
-0.0000000000 
,
0.0000000000 
,
-0.0000000000 
,
0.0000000000 
,
-0.0000000000 
,
0.0000000000 
,
-0.0000000000 
,
-0.0000000000 
,
0.0000000000 
,
-0.0000000000 
,
0.0000000000 
,
0.0000000000 
,
0.0000000000 
,
-0.0000000000 
,
0.0000727528 
,
0.0000000000 
,
-0.0000000000 
,
-0.0000000000 
,
0.0000000000 
,
0.0000000000 
,
0.0000000000 
,
-0.0000000000 
,
-0.0000000000 
,
0.0000000000 
,
0.0000000000 
,
0.0000000000 
,
-0.0000000000 
,
0.0000000000 
,
0.0000727528 
,
0.0000000000 
,
-0.0000000000 
,
-0.0000000000 
,
-0.0000000000 
,
-0.0000000000 
,
-0.0000000000 
,
-0.0000000000 

,
-0.0000000000 
,
-0.0000000000 
,
-0.0000000000 
,
0.0000000000 
,
0.0000000000 
,
-0.0000000000 
,
0.0000000000 
,
-0.0000000000 
,
0.0000000000 
,
0.0000000000 
,
0.0000000000 
,
-0.0000000000 
,
-0.0000000000 
,
0.0000000000 
,
0.0000000000 
,
0.0000000000 
,
-0.0000000000 
,
0.0000000000 
,
-0.0000000000 
,
0.0000000000 
,
-0.0000000000 
,
0.0000000000 
,
-0.0000000000 
,
-0.0000000000 
,
0.0000000000 
,
0.0000000000 
,
-0.0000000000 
,
0.0000000000 
,
-0.0000000000 
,
0.0000000000 
,
-0.0000000000 
,
-0.0000000000 
,
0.0000000000 
,
-0.0000000000 
,
0.0000000000 
,
0.0000000000 
,
0.0000000000 
,
-0.0000000000 
,
-0.0000000000 
,
-0.0000000000 
,
-0.0000000000 
,
-0.0000000000 
,
0.0000000000 
,
-0.0000000000 
,
-0.0000000000 
,
0.0000000000 
,
-0.0000000000 
,
0.0000000000 
,
-0.0000000000 
,
-0.0000000000 
,
-0.0000000000 
,
-0.0000000000 
,
-0.0000000000 
,
-0.0000000000 
,
-0.0000000000 
,
-0.0000000000 
,
0.0000000000 
,
0.0000000000 
,
0.0000000000 
,
-0.0000000000 
,
0.0000000000 
,
0.0000727528 
,
0.0000000000 
,
0.0000000000 
,
-0.0000000000 
,
0.0000000000 
,
-0.0000000000 
,
0.0000000000 
,
0.0000000000 
,
-0.0000000000 
,
0.0000000000 
,
0.0000000000 
,
-0.0000000000 
,
0.0000000000 
,
0.0000000000 
,
0.0000000000 
,
0.0000000000 
,
0.0000000000 
,
-0.0000000000 
,
0.0000000000 
,
-0.0000000000 
,
0.0000000000 
,
-0.0000000000 
,
0.0000000000 
,
-0.0000000000 
,
0.0000000000 
,
-0.0000000000 
,
0.0000000000 
,
0.0000000000 
,
-0.0000000000 
,
0.0000000000 
,
-0.0000000000 
,
-0.0000000000 
,
-0.0000000000 
,
-0.0000000000 
,
0.0000000000 
,
0.0000000000 
,
-0.0000000000 
,
0.0000000000 
,
0.0000000000 
,
-0.0000000000 
,
0.0000000000 
,
-0.0000000000 
,
0.0000000000 
,
0.0000000000 
,
0.0000000000 
,
0.0000000000 
,
-0.0000000000 
,
-0.0000000000 
,
0.0000000000 
,
0.0000000000 
,
-0.0000000000 
,
-0.0000000000 
,
-0.0000000000 
,
-0.0000000000 
,
0.0000000000 
,
0.0000000000 
,
0.0000000000 
,
-0.0000000000 
,
-0.0000000000 
,
0.0000000000 
,
-0.0000000000 
,
-0.0000000000 
,
0.0000000000 
,
-0.0000000000 
,
0.0000000000 
,
0.0000000000 
,
-0.0000000000 
,
-0.0000000000 
,
-0.0000000000 
,
0.0000000000 
,
-0.0000000000 
,
-0.0000000000 
,
0.0000000000 
,
0.0000000000 
,
0.0000000000 
,
-0.0000000000 
,
0.0000000000 
,
-0.0000000000 
,
0.0000000000 
,
0.0000000000 
,
-0.0000000000 
,
-0.0000000000 
,
-0.0000000000 
,
-0.0000000000 
,
-0.0000000000 
,
0.0000000000 
,
0.0000000000 
,
-0.0000000000 
,
-0.0000000000 
,
-0.0000000000 
,
-0.0000000000 
,
-0.0000000000 
,
-0.0000000000 
,
0.0000000000 
,
-0.0000000000 
,
0.0000000000 
,
0.0000000000 
,
0.0000000000 
,
-0.0000000000 
,
0.0000000000 
,
-0.0000000000 
,
0.0000000000 
,
-0.0000000000 
,
0.0000000000 
,
0.0000000000 
,
0.0000000000 
,
-0.0000000000 
,
0.0000000000 
,
-0.0000000000 
,
0.0000000000 
,
-0.0000000000 
,
0.0000000000 
,
-0.0000000000 
,
-0.0000000000 
,
-0.0000000000 
,
0.0000000000 
,
-0.0000000000 
,
-0.0000000000 
,
-0.0000000000 
,
0.0000000000 
,
-0.0000000000 
,
0.0000000000 
,
-0.0000000000 
,
0.0000000000 
,
-0.0000000000 
,
0.0000000000 
,
-0.0000000000 
,
-0.0000000000 
,
0.0000000000 
,
-0.0000000000 
,
0.0000000000 
,
0.0000000000 
,
-0.0000727528 
,
-0.0000000000 
,
-0.0000000000 
,
-0.0000000000 
,
-0.0000000000 
,
0.0000000000 
,
-0.0000000000 

,
-0.0000000000 
,
-0.0000000000 
,
0.0000000000 
,
0.0000000000 
,
-0.0000000000 
,
0.0000000000 
,
0.0000000000 
,
0.0000000000 
,
-0.0000000000 
,
-0.0000000000 
,
0.0000000000 
,
-0.0000000000 
,
-0.0000727528 
,
-0.0000000000 
,
-0.0000000000 
,
-0.0000000000 
,
-0.0000000000 
,
0.0000000000 
,
-0.0000000000 
,
-0.0000000000 
,
-0.0000000000 
,
0.0000000000 
,
-0.0000727528 
,
-0.0000000000 
,
-0.0000000000 
,
0.0000000000 
,
0.0000000000 
,
-0.0000000000 
,
-0.0000000000 
,
-0.0000000000 
,
-0.0000000000 
,
0.0000000000 
,
0.0000000000 
,
-0.0000000000 
,
0.0000000000 
,
-0.0000000000 
,
-0.0000000000 
,
0.0000000000 
,
-0.0000000000 
,
-0.0000000000 
,
-0.0000000000 
,
0.0000000000 
,
-0.0000000000 
,
-0.0000000000 
,
-0.0000000000 
,
-0.0000000000 
,
-0.0000000000 
,
-0.0000000000 
,
0.0000000000 
,
0.0000000000 
,
-0.0000000000 
,
0.0000000000 
,
-0.0000000000 
,
-0.0000000000 
,
-0.0000000000 
,
-0.0000000000 
,
-0.0000000000 
,
0.0000000000 
,
-0.0000000000 
,
0.0000727528 
,
-0.0000000000 
,
-0.0000000000 
,
0.0000000000 
,
-0.0000000000 
,
-0.0000000000 
,
-0.0000000000 
,
-0.0000000000 
,
-0.0000000000 
,
-0.0000000000 
,
-0.0000000000 
,
0.0000000000 
,
0.0000000000 
,
-0.0000000000 
,
0.0000000000 
,
0.0000727528 
,
0.0000000000 
,
-0.0000000000 
,
-0.0000000000 
,
-0.0000000000 
,
-0.0000000000 
,
-0.0000000000 
,
-0.0000000000 
,
-0.0000000000 
,
0.0000000000 
,
-0.0000000000 
,
0.0000000000 
,
-0.0000000000 
,
0.0000000000 
,
0.0000000000 
,
-0.0000000000 
,
-0.0000000000 
,
-0.0000000000 
,
0.0000000000 
,
0.0000000000 
,
-0.0000000000 
,
0.0000000000 
,
0.0000000000 
,
-0.0000000000 
,
-0.0000000000 
,
0.0000000000 
,
-0.0000000000 
,
-0.0000000000 
,
-0.0000000000 
,
0.0000000000 
,
-0.0000000000 
,
-0.0000000000 
,
-0.0000000000 
,
-0.0000000000 
,
-0.0000000000 
,
-0.0000000000 
,
0.0000000000 
,
-0.0000000000 
,
0.0000000000 
,
0.0000000000 
,
0.0000000000 
,
-0.0000000000 
,
-0.0000000000 
,
-0.0000000000 
,
-0.0000000000 
,
-0.0000000000 
,
-0.0000000000 
,
-0.0000000000 
,
0.0000000000 
,
0.0000000000 
,
-0.0000000000 
,
-0.0000000000 
,
-0.0000000000 
,
-0.0000000000 
,
-0.0000000000 
,
-0.0000000000 
,
-0.0000727528 
,
0.0000000000 
,
-0.0000000000 
,
-0.0000000000 
,
0.0000000000 
,
-0.0000000000 
,
-0.0000000000 
,
-0.0000000000 
,
-0.0000000000 
,
-0.0000000000 
,
0.0000000000 
,
-0.0000000000 
,
-0.0000000000 
,
-0.0000000000 
,
-0.0000000000 
,
0.0000000000 
,
-0.0000000000 
,
-0.0000000000 
,
-0.0000000000 
,
0.0000000000 
,
0.0000000000 
,
-0.0000000000 
,
0.0000000000 
,
0.0000000000 
,
-0.0000000000 
,
-0.0000000000 
,
-0.0000000000 
,
-0.0000000000 
,
0.0000000000 
,
0.0000000000 
,
-0.0000000000 
,
0.0000000000 
,
-0.0000000000 
,
0.0000000000 
,
-0.0000000000 
,
-0.0000000000 
,
0.0000000000 
,
-0.0000000000 
,
-0.0000000000 
,
0.0000000000 
,
0.0000000000 
,
0.0000000000 
,
0.0000000000 
,
-0.0000000000 
,
-0.0000000000 
,
-0.0000000000 
,
0.0000000000 
,
0.0000000000 
,
0.0000000000 
,
-0.0000727528 
,
-0.0000000000 
,
0.0000000000 
,
-0.0000000000 
,
-0.0000000000 
,
0.0000000000 
,
-0.0000000000 
,
-0.0000000000 
,
-0.0000000000 
,
0.0000000000 
,
-0.0000000000 
,
0.0000000000 
,
0.0000000000 
,
-0.0000727528 
,
-0.0000000000 
,
-0.0000000000 
,
-0.0000000000 
,
-0.0000000000 
,
-0.0000000000 
,
0.0000000000 
,
-0.0000000000 

,
-0.0000000000 
,
-0.0000000000 
,
-0.0000000000 
,
-0.0000000000 
,
0.0000727528 
,
-0.0000000000 
,
-0.0000000000 
,
-0.0000000000 
,
-0.0000000000 
,
0.0000000000 
,
0.0000000000 
,
0.0000000000 
,
0.0000000000 
,
0.0000000000 
,
-0.0000727528 
,
-0.0000000000 
,
-0.0000727528 
,
-0.0000000000 
,
-0.0000000000 
,
-0.0000000000 
,
-0.0000727528 
,
-0.0000000000 
,
-0.0000000000 
,
0.0000727528 
,
0.0000000000 
,
-0.0000000000 
,
-0.0000000000 
,
0.0000000000 
,
0.0000000000 
,
-0.0000000000 
,
0.0000727528 
,
0.0000000000 
,
-0.0000000000 
,
0.0000000000 
,
-0.0000000000 
,
0.0000000000 
,
-0.0000000000 
,
0.0000000000 
,
0.0000000000 
,
0.0000000000 
,
-0.0000000000 
,
0.0000000000 
,
0.0000000000 
,
-0.0000000000 
,
0.0000000000 
,
0.0000000000 
,
0.0000000000 
,
-0.0000000000 
,
-0.0000727528 
,
0.0000000000 
,
-0.0000000000 
,
0.0000000000 
,
-0.0000000000 
,
0.0000000000 
,
0.0000000000 
,
0.0000000000 
,
-0.0000000000 
,
-0.0000000000 
,
0.0000000000 
,
-0.0000727528 
,
-0.0000000000 
,
-0.0000000000 
,
-0.0000000000 
,
-0.0000000000 
,
0.0000000000 
,
-0.0000000000 
,
-0.0000000000 
,
-0.0000000000 
,
0.0000000000 
,
0.0000000000 
,
-0.0000000000 
,
0.0000000000 
,
-0.0000000000 
,
0.0000000000 
,
-0.0000000000 
,
0.0000000000 
,
-0.0000000000 
,
-0.0000000000 
,
0.0000000000 
,
-0.0000000000 
,
-0.0000000000 
,
0.0000000000 
,
-0.0000727528 
,
-0.0000000000 
,
0.0000000000 
,
-0.0000000000 
,
0.0000000000 
,
0.0000000000 
,
-0.0000000000 
,
-0.0000000000 
,
-0.0000000000 
,
-0.0000000000 
,
0.0000000000 
,
0.0000000000 
,
-0.0000000000 
,
-0.0000000000 
,
0.0000000000 
,
0.0000000000 
,
-0.0000000000 
,
-0.0000000000 
,
0.0000000000 
,
-0.0000727528 
,
-0.0000000000 
,
0.0000000000 
,
-0.0000000000 
,
-0.0000000000 
,
-0.0000000000 
,
0.0000000000 
,
0.0000000000 
,
-0.0000000000 
,
0.0000000000 
,
0.0000000000 
,
-0.0000000000 
,
-0.0000000000 
,
-0.0000000000 
,
0.0000000000 
,
0.0000000000 
,
0.0000000000 
,
-0.0000000000 
,
-0.0000000000 
,
0.0000000000 
,
-0.0000000000 
,
0.0000000000 
,
0.0000000000 
,
-0.0000000000 
,
0.0000000000 
,
0.0000000000 
,
-0.0000000000 
,
0.0000000000 
,
0.0000000000 
,
0.0000000000 
,
0.0000000000 
,
0.0000000000 
,
-0.0000000000 
,
0.0000000000 
,
0.0000000000 
,
0.0000000000 
,
0.0000000000 
,
-0.0000727528 
,
0.0000000000 
,
-0.0000000000 
,
-0.0000000000 
,
-0.0000000000 
,
0.0000000000 
,
-0.0000000000 
,
0.0000000000 
,
0.0000000000 
,
0.0000000000 
,
-0.0000000000 
,
0.0000000000 
,
0.0000000000 
,
0.0000000000 
,
-0.0000000000 
,
-0.0000000000 
,
-0.0000000000 
,
-0.0000000000 
,
-0.0000000000 
,
-0.0000000000 
,
-0.0000000000 
,
0.0000000000 
,
0.0000000000 
,
-0.0000000000 
,
0.0000000000 
,
0.0000000000 
,
0.0000000000 
,
-0.0000000000 
,
0.0000000000 
,
0.0000000000 
,
-0.0000000000 
,
0.0000000000 
,
-0.0000727528 
,
-0.0000000000 
,
0.0000000000 
,
0.0000000000 
,
-0.0000000000 
,
-0.0000000000 
,
-0.0000000000 
,
-0.0000000000 
,
-0.0000000000 
,
0.0000000000 
,
0.0000000000 
,
-0.0000000000 
,
0.0000000000 
,
-0.0000000000 
,
-0.0000000000 
,
-0.0000000000 
,
-0.0000000000 
,
-0.0000000000 
,
0.0000000000 
,
-0.0000000000 
,
0.0000000000 
,
0.0000000000 
,
0.0000000000 
,
-0.0000727528 
,
-0.0000000000 
,
-0.0000000000 
,
0.0000000000 
,
0.0000000000 
,
-0.0000000000 
,
0.0000000000 

,
0.0000000000 
,
-0.0000727528 
,
0.0000000000 
,
-0.0000000000 
,
0.0000000000 
,
-0.0000000000 
,
0.0000000000 
,
-0.0000000000 
,
-0.0000000000 
,
-0.0000000000 
,
-0.0000000000 
,
-0.0000000000 
,
-0.0000000000 
,
0.0000000000 
,
0.0000000000 
,
0.0000000000 
,
-0.0000000000 
,
-0.0000000000 
,
-0.0000000000 
,
-0.0000000000 
,
-0.0000000000 
,
0.0000000000 
,
-0.0000000000 
,
0.0000000000 
,
-0.0000000000 
,
-0.0000000000 
,
-0.0000000000 
,
0.0000000000 
,
-0.0000000000 
,
-0.0000000000 
,
0.0000000000 
,
-0.0000000000 
,
-0.0000000000 
,
-0.0000000000 
,
0.0000000000 
,
-0.0000000000 
,
-0.0000000000 
,
-0.0000000000 
,
-0.0000000000 
,
0.0000000000 
,
-0.0000000000 
,
-0.0000000000 
,
-0.0000000000 
,
0.0000000000 
,
-0.0000000000 
,
0.0000000000 
,
-0.0000000000 
,
-0.0000000000 
,
-0.0000000000 
,
0.0000000000 
,
-0.0000000000 
,
0.0000000000 
,
-0.0000000000 
,
-0.0000000000 
,
-0.0000000000 
,
-0.0000000000 
,
-0.0000000000 
,
0.0000000000 
,
-0.0000000000 
,
-0.0000000000 
,
0.0000000000 
,
-0.0000000000 
,
-0.0000000000 
,
-0.0000000000 
,
0.0000000000 
,
0.0000000000 
,
-0.0000000000 
,
0.0000000000 
,
0.0000000000 
,
0.0000000000 
,
0.0000000000 
,
0.0000000000 
,
-0.0000000000 
,
0.0000000000 
,
0.0000000000 
,
-0.0000000000 
,
-0.0000000000 
,
0.0000000000 
,
0.0000000000 
,
0.0000000000 
,
-0.0000000000 
,
0.0000000000 
,
-0.0000000000 
,
0.0000000000 
,
-0.0000000000 
,
-0.0000000000 
,
-0.0000000000 
,
0.0000000000 
,
-0.0000000000 
,
-0.0000000000 
,
0.0000000000 
,
-0.0000000000 
,
0.0000000000 
,
-0.0000000000 
,
0.0000000000 
,
-0.0000000000 
,
-0.0000000000 
,
-0.0000000000 
,
-0.0000000000 
,
-0.0000000000 
,
0.0000000000 
,
-0.0000000000 
,
-0.0000000000 
,
0.0000000000 
,
-0.0000000000 
,
-0.0000000000 
,
-0.0000000000 
,
0.0000727528 
,
-0.0000000000 
,
-0.0000000000 
,
-0.0000000000 
,
-0.0000000000 
,
-0.0000000000 
,
0.0000000000 
,
-0.0000000000 
,
0.0000000000 
,
0.0000000000 
,
0.0000000000 
,
0.0000000000 
,
-0.0000000000 
,
-0.0000000000 
,
-0.0000000000 
,
-0.0000000000 
,
0.0000000000 
,
-0.0000000000 
,
0.0000000000 
,
0.0000000000 
,
0.0000000000 
,
0.0000000000 
,
-0.0000000000 
,
0.0000000000 
,
-0.0000000000 
,
0.0000000000 
,
-0.0000000000 
,
0.0000000000 
,
-0.0000000000 
,
0.0000000000 
,
-0.0000000000 
,
0.0000000000 
,
0.0000000000 
,
-0.0000000000 
,
0.0000000000 
,
-0.0000000000 
,
-0.0000000000 
,
-0.0000000000 
,
-0.0000000000 
,
0.0000000000 
,
-0.0000000000 
,
0.0000000000 
,
-0.0000000000 
,
0.0000000000 
,
0.0000000000 
,
0.0000000000 
,
0.0000000000 
,
-0.0000000000 
,
-0.0000000000 
,
0.0000000000 
,
0.0000000000 
,
0.0000000000 
,
-0.0000000000 
,
-0.0000000000 
,
-0.0000000000 
,
0.0000000000 
,
0.0000000000 
,
0.0000000000 
,
0.0000000000 
,
0.0000000000 
,
0.0000000000 
,
-0.0000000000 
,
0.0000000000 
,
-0.0000000000 
,
0.0000000000 
,
-0.0000000000 
,
-0.0000000000 
,
0.0000000000 
,
-0.0000000000 
,
0.0000000000 
,
-0.0000000000 
,
-0.0000000000 
,
-0.0000000000 
,
0.0000000000 
,
-0.0000000000 
,
0.0000000000 
,
-0.0000000000 
,
-0.0000000000 
,
0.0000000000 
,
0.0000000000 
,
-0.0000000000 
,
0.0000000000 
,
-0.0000000000 
,
0.0000000000 
,
-0.0000000000 
,
0.0000000000 
,
-0.0000000000 
,
-0.0000000000 
,
-0.0000000000 
,
-0.0000000000 
,
-0.0000000000 
,
0.0000000000 
,
0.0000000000 

,
-0.0000000000 
,
-0.0000000000 
,
-0.0000000000 
,
-0.0000000000 
,
-0.0000000000 
,
0.0000000000 
,
-0.0000000000 
,
0.0000000000 
,
-0.0000000000 
,
-0.0000000000 
,
-0.0000000000 
,
-0.0000000000 
,
-0.0000000000 
,
-0.0000000000 
,
-0.0000000000 
,
-0.0000000000 
,
0.0000000000 
,
-0.0000000000 
,
-0.0000000000 
,
0.0000000000 
,
-0.0000000000 
,
-0.0000000000 
,
0.0000000000 
,
-0.0000000000 
,
0.0000727528 
,
0.0000000000 
,
0.0000000000 
,
-0.0000000000 
,
-0.0000000000 
,
-0.0000000000 
,
0.0000000000 
,
0.0000000000 
,
-0.0000000000 
,
-0.0000000000 
,
0.0000000000 
,
-0.0000000000 
,
0.0000000000 
,
0.0000000000 
,
-0.0000000000 
,
-0.0000000000 
,
-0.0000000000 
,
-0.0000000000 
,
0.0000000000 
,
-0.0000000000 
,
0.0000000000 
,
-0.0000000000 
,
-0.0000000000 
,
-0.0000000000 
,
0.0000000000 
,
0.0000000000 
,
0.0000000000 
,
-0.0000000000 
,
0.0000000000 
,
0.0000727528 
,
-0.0000000000 
,
-0.0000000000 
,
-0.0000000000 
,
0.0000727528 
,
0.0000000000 
,
0.0000000000 
,
-0.0000000000 
,
0.0000000000 
,
-0.0000000000 
,
-0.0000000000 
,
-0.0000000000 
,
-0.0000000000 
,
-0.0000000000 
,
0.0000000000 
,
-0.0000000000 
,
0.0000727528 
,
-0.0000000000 
,
0.0000727528 
,
0.0000000000 
,
-0.0000000000 
,
-0.0000000000 
,
-0.0000000000 
,
-0.0000000000 
,
0.0000000000 
,
-0.0000000000 
,
-0.0000000000 
,
0.0000727528 
,
0.0000000000 
,
-0.0000000000 
,
-0.0000000000 
,
0.0000000000 
,
0.0000000000 
,
0.0000000000 
,
-0.0000000000 
,
-0.0000000000 
,
-0.0000000000 
,
-0.0000000000 
,
0.0000000000 
,
-0.0000000000 
,
0.0000727528 
,
0.0000000000 
,
-0.0000000000 
,
-0.0000000000 
,
-0.0000000000 
,
-0.0000000000 
,
-0.0000000000 
,
0.0000000000 
,
-0.0000000000 
,
-0.0000000000 
,
-0.0000000000 
,
-0.0000000000 
,
-0.0000000000 
,
-0.0000000000 
,
0.0000000000 
,
-0.0000000000 
,
-0.0000000000 
,
0.0000000000 
,
0.0000000000 
,
-0.0000000000 
,
-0.0000000000 
,
0.0000000000 
,
-0.0000000000 
,
0.0000000000 
,
-0.0000000000 
,
-0.0000000000 
,
-0.0000000000 
,
0.0000000000 
,
0.0000000000 
,
-0.0000000000 
,
-0.0000000000 
,
0.0000000000 
,
-0.0000000000 
,
0.0000000000 
,
-0.0000000000 
,
-0.0000000000 
,
-0.0000000000 
,
0.0000000000 
,
-0.0000000000 
,
0.0000000000 
,
0.0000727528 
,
-0.0000000000 
,
0.0000000000 
,
-0.0000000000 
,
0.0000000000 
,
-0.0000000000 
,
-0.0000000000 
,
0.0000000000 
,
0.0000000000 
,
0.0000000000 
,
-0.0000000000 
,
-0.0000000000 
,
-0.0000000000 
,
0.0000727528 
,
-0.0000000000 
,
-0.0000000000 
,
-0.0000000000 
,
0.0000000000 
,
-0.0000000000 
,
0.0000000000 
,
-0.0000000000 
,
0.0000000000 
,
-0.0000000000 
,
-0.0000000000 
,
-0.0000000000 
,
0.0000727528 
,
-0.0000000000 
,
0.0000000000 
,
-0.0000000000 
,
-0.0000727528 
,
-0.0000000000 
,
-0.0000000000 
,
-0.0000000000 
,
-0.0000000000 
,
-0.0000000000 
,
0.0000000000 
,
0.0000727528 
,
-0.0000000000 
,
-0.0000000000 
,
-0.0000000000 
,
-0.0000000000 
,
-0.0000000000 
,
0.0000000000 
,
0.0000000000 
,
0.0000000000 
,
0.0000000000 
,
-0.0000000000 
,
-0.0000000000 
,
-0.0000000000 
,
-0.0000000000 
,
-0.0000000000 
,
-0.0000000000 
,
-0.0000000000 
,
0.0000000000 
,
-0.0000000000 
,
-0.0000000000 
,
0.0000000000 
,
-0.0000000000 
,
-0.0000000000 
,
0.0000000000 
,
-0.0000000000 
,
-0.0000000000 
,
-0.0000000000 
,
-0.0000000000 
,
-0.0000000000 
,
-0.0000000000 
,
-0.0000000000 

,
-0.0000000000 
,
0.0000000000 
,
0.0000000000 
,
-0.0000000000 
,
-0.0000000000 
,
-0.0000000000 
,
-0.0000000000 
,
0.0000000000 
,
-0.0000000000 
,
0.0000000000 
,
0.0000000000 
,
-0.0000000000 
,
0.0000000000 
,
0.0000000000 
,
-0.0000000000 
,
0.0000000000 
,
-0.0000000000 
,
-0.0000000000 
,
-0.0000000000 
,
0.0000000000 
,
-0.0000000000 
,
-0.0000000000 
,
0.0000000000 
,
-0.0000000000 
,
-0.0000000000 
,
-0.0000000000 
,
-0.0000000000 
,
0.0000000000 
,
-0.0000000000 
,
-0.0000000000 
,
-0.0000000000 
,
-0.0000000000 
,
-0.0000000000 
,
-0.0000000000 
,
0.0000000000 
,
-0.0000000000 
,
0.0000000000 
,
-0.0000000000 
,
0.0000000000 
,
0.0000000000 
,
0.0000000000 
,
-0.0000000000 
,
0.0000000000 
,
0.0000000000 
,
0.0000000000 
,
-0.0000000000 
,
-0.0000000000 
,
-0.0000000000 
,
-0.0000000000 
,
-0.0000727528 
,
-0.0000000000 
,
-0.0000000000 
,
0.0000000000 
,
-0.0000000000 
,
-0.0000000000 
,
-0.0000000000 
,
0.0000000000 
,
0.0000000000 
,
0.0000000000 
,
-0.0000000000 
,
-0.0000000000 
,
-0.0000000000 
,
0.0000000000 
,
-0.0000000000 
,
0.0000000000 
,
-0.0000000000 
,
-0.0000000000 
,
-0.0000000000 
,
0.0000000000 
,
0.0000000000 
,
-0.0000000000 
,
0.0000000000 
,
0.0000000000 
,
-0.0000000000 
,
0.0000000000 
,
-0.0000000000 
,
-0.0000000000 
,
-0.0000000000 
,
-0.0000000000 
,
-0.0000000000 
,
-0.0000000000 
,
-0.0000000000 
,
-0.0000000000 
,
0.0000000000 
,
0.0000000000 
,
0.0000000000 
,
-0.0000000000 
,
-0.0000000000 
,
-0.0000000000 
,
0.0000000000 
,
0.0000000000 
,
-0.0000000000 
,
-0.0000000000 
,
0.0000727528 
,
0.0000000000 
,
-0.0000000000 
,
-0.0000000000 
,
-0.0000000000 
,
-0.0000000000 
,
-0.0000000000 
,
0.0000000000 
,
0.0000000000 
,
-0.0000000000 
,
0.0000000000 
,
-0.0000000000 
,
-0.0000000000 
,
-0.0000000000 
,
0.0000000000 
,
-0.0000000000 
,
-0.0000000000 
,
-0.0000727528 
,
0.0000000000 
,
-0.0000000000 
,
0.0000000000 
,
0.0000000000 
,
0.0000000000 
,
-0.0000000000 
,
-0.0000000000 
,
-0.0000000000 
,
-0.0000000000 
,
-0.0000000000 
,
-0.0000000000 
,
0.0000000000 
,
-0.0000000000 
,
0.0000000000 
,
0.0000000000 
,
-0.0000000000 
,
-0.0000000000 
,
-0.0000000000 
,
-0.0000000000 
,
-0.0000000000 
,
-0.0000000000 
,
-0.0000000000 
,
-0.0000000000 
,
0.0000000000 
,
0.0000000000 
,
-0.0000000000 
,
-0.0000000000 
,
-0.0000000000 
,
-0.0000000000 
,
-0.0000000000 
,
0.0000000000 
,
-0.0000000000 
,
-0.0000000000 
,
0.0000000000 
,
-0.0000000000 
,
0.0000000000 
,
-0.0000000000 
,
-0.0000000000 
,
0.0000000000 
,
-0.0000000000 
,
0.0000000000 
,
-0.0000000000 
,
0.0000000000 
,
-0.0000000000 
,
-0.0000000000 
,
-0.0000000000 
,
0.0000000000 
,
-0.0000000000 
,
-0.0000000000 
,
-0.0000000000 
,
0.0000000000 
,
-0.0000000000 
,
0.0000000000 
,
-0.0000000000 
,
0.0000000000 
,
-0.0000000000 
,
-0.0000000000 
,
-0.0000000000 
,
0.0000000000 
,
0.0000000000 
,
-0.0000000000 
,
-0.0000000000 
,
-0.0000000000 
,
0.0000000000 
,
0.0000000000 
,
-0.0000000000 
,
-0.0000000000 
,
-0.0000000000 
,
-0.0000000000 
,
-0.0000000000 
,
0.0000000000 
,
0.0000000000 
,
0.0000000000 
,
0.0000000000 
,
-0.0000000000 
,
0.0000000000 
,
0.0000000000 
,
0.0000000000 
,
-0.0000000000 
,
0.0000000000 
,
-0.0000000000 
,
0.0000000000 
,
-0.0000000000 
,
0.0000000000 
,
0.0000000000 
,
-0.0000000000 
,
-0.0000000000 
,
0.0000000000 
,
0.0000000000 

,
0.0000000000 
,
0.0000000000 
,
-0.0000000000 
,
-0.0000000000 
,
-0.0000000000 
,
0.0000000000 
,
-0.0000000000 
,
-0.0000000000 
,
-0.0000000000 
,
0.0000000000 
,
-0.0000000000 
,
0.0000000000 
,
-0.0000000000 
,
-0.0000000000 
,
-0.0000000000 
,
-0.0000000000 
,
-0.0000000000 
,
-0.0000000000 
,
-0.0000000000 
,
-0.0000000000 
,
-0.0000000000 
,
-0.0000000000 
,
0.0000000000 
,
-0.0000000000 
,
-0.0000000000 
,
-0.0000000000 
,
0.0000000000 
,
-0.0000000000 
,
-0.0000000000 
,
-0.0000000000 
,
0.0000000000 
,
0.0000000000 
,
0.0000000000 
,
-0.0000000000 
,
-0.0000000000 
,
0.0000000000 
,
0.0000000000 
,
-0.0000000000 
,
-0.0000000000 
,
-0.0000000000 
,
-0.0000000000 
,
0.0000000000 
,
-0.0000000000 
,
-0.0000000000 
,
0.0000000000 
,
-0.0000000000 
,
0.0000000000 
,
0.0000000000 
,
0.0000000000 
,
-0.0000000000 
,
0.0000000000 
,
-0.0000000000 
,
0.0000000000 
,
-0.0000000000 
,
-0.0000000000 
,
-0.0000000000 
,
-0.0000000000 
,
-0.0000000000 
,
0.0000000000 
,
0.0000000000 
,
-0.0000000000 
,
0.0000000000 
,
0.0000000000 
,
-0.0000000000 
,
-0.0000000000 
,
-0.0000000000 
,
0.0000000000 
,
-0.0000000000 
,
-0.0000000000 
,
-0.0000000000 
,
0.0000000000 
,
0.0000000000 
,
-0.0000000000 
,
-0.0000000000 
,
0.0000000000 
,
-0.0000000000 
,
-0.0000000000 
,
-0.0000000000 
,
0.0000000000 
,
-0.0000727528 
,
-0.0000000000 
,
-0.0000000000 
,
0.0000000000 
,
-0.0000000000 
,
-0.0000000000 
,
0.0000000000 
,
-0.0000000000 
,
-0.0000000000 
,
-0.0000000000 
,
-0.0000000000 
,
-0.0000000000 
,
-0.0000000000 
,
-0.0000000000 
,
-0.0000000000 
,
0.0000000000 
,
-0.0000000000 
,
-0.0000000000 
,
0.0000000000 
,
-0.0000000000 
,
0.0000000000 
,
-0.0000000000 
,
0.0000727528 
,
0.0000727528 
,
-0.0000000000 
,
-0.0000000000 
,
-0.0000000000 
,
-0.0000000000 
,
-0.0000000000 
,
-0.0000000000 
,
0.0000000000 
,
0.0000000000 
,
-0.0000000000 
,
0.0000000000 
,
-0.0000000000 
,
-0.0000000000 
,
0.0000000000 
,
0.0000727528 
,
-0.0000000000 
,
-0.0000000000 
,
-0.0000000000 
,
-0.0000000000 
,
0.0000000000 
,
0.0000000000 
,
-0.0000000000 
,
-0.0000000000 
,
-0.0000000000 
,
-0.0000000000 
,
-0.0000000000 
,
0.0000000000 
,
0.0000000000 
,
0.0000000000 
,
0.0000000000 
,
0.0000000000 
,
-0.0000000000 
,
0.0000000000 
,
-0.0000000000 
,
-0.0000000000 
,
0.0000000000 
,
-0.0000000000 
,
0.0000000000 
,
-0.0000000000 
,
-0.0000000000 
,
-0.0000000000 
,
0.0000000000 
,
-0.0000000000 
,
0.0000000000 
,
0.0000000000 
,
-0.0000000000 
,
-0.0000000000 
,
0.0000000000 
,
0.0000000000 
,
-0.0000000000 
,
0.0000000000 
,
-0.0000000000 
,
-0.0000000000 
,
0.0000000000 
,
0.0000000000 
,
-0.0000000000 
,
-0.0000000000 
,
-0.0000000000 
,
-0.0000000000 
,
-0.0000000000 
,
-0.0000000000 
,
-0.0000000000 
,
-0.0000000000 
,
-0.0000000000 
,
-0.0000000000 
,
0.0000000000 
,
-0.0000000000 
,
-0.0000000000 
,
-0.0000000000 
,
0.0000727528 
,
-0.0000000000 
,
0.0000000000 
,
0.0000000000 
,
-0.0000000000 
,
0.0000000000 
,
-0.0000000000 
,
0.0000727528 
,
0.0000000000 
,
-0.0000000000 
,
-0.0000000000 
,
0.0000000000 
,
-0.0000000000 
,
0.0000000000 
,
0.0000727528 
,
-0.0000000000 
,
-0.0000000000 
,
-0.0000000000 
,
-0.0000000000 
,
-0.0000000000 
,
0.0000000000 
,
-0.0000727528 
,
-0.0000000000 
,
0.0000000000 
,
0.0000000000 
,
-0.0000000000 
,
-0.0000000000 
,
-0.0000000000 
,
0.0000727528 

,
0.0000000000 
,
0.0000000000 
,
0.0000000000 
,
0.0089569278 
,
-0.0000000000 
,
0.0040779090 
,
0.0273808669 
,
0.0000000000 
,
-0.0142906299 
,
0.0000000000 
,
-0.0000000000 
,
-0.0221350547 
,
-0.0282589011 
,
0.0000000000 
,
0.0000000000 
,
0.0000000000 
,
-0.0000000000 
,
0.0301436447 
,
-0.0000000000 
,
0.0148361586 
,
-0.0000000000 
,
-0.0148580670 
,
0.0000000000 
,
-0.0000000000 
,
-0.0000000000 
,
0.0109685343 
,
-0.0000000000 
,
0.0000000000 
,
-0.0000000000 
,
-0.0087839570 
,
-0.0000000000 
,
-0.0000000000 
,
-0.0000000000 
,
0.0000000000 
,
-0.0000000000 
,
-0.0000000000 
,
0.0000000000 
,
-0.0206023939 
,
-0.0000000000 
,
0.0000000000 
,
0.0000000000 
,
0.0000000000 
,
-0.0000000000 
,
0.0482410379 
,
-0.0164619610 
,
0.0444039889 
,
-0.0002786767 
,
0.0000000000 
,
0.0000000000 
,
-0.0000000000 
,
-0.0000000000 
,
0.0000000000 
,
0.0000000000 
,
0.0000000000 
,
0.0327615030 
,
-0.0000000000 
,
0.0000000000 
,
0.0000000000 
,
-0.0000000000 
,
-0.0000000000 
,
0.0000000000 
,
0.0000000000 
,
0.0000000000 
,
-0.0000000000 
,
-0.0111591015 
,
-0.0000000000 
,
-0.0040527303 
,
-0.0000000000 
,
0.0000000000 
,
-0.0000000000 
,
-0.0000000000 
,
0.0000000000 
,
0.0000000000 
,
-0.0010074552 
,
0.0000000000 
,
-0.0000000000 
,
-0.0243670456 
,
0.0000000000 
,
0.0000000000 
,
-0.0000000000 
,
0.0000000000 
,
0.0000000000 
,
0.0000000000 
,
-0.0000000000 
,
-0.0000000000 
,
-0.0000000000 
,
0.0000000000 
,
-0.0000000000 
,
-0.0000000000 
,
-0.0018738675 
,
-0.0000000000 
,
0.0004652778 
,
-0.0000000000 
,
-0.0000000000 
,
-0.0000000000 
,
0.0348584466 
,
0.0408438966 
,
0.0026961716 
,
-0.0000000000 
,
-0.0000000000 
,
0.0010858186 
,
0.0000000000 
,
-0.0000000000 
,
-0.0000000000 
,
0.0330833420 
,
-0.0152288750 
,
0.0315042958 
,
0.0006347671 
,
-0.0000000000 
,
-0.0223880243 
,
0.0000000000 
,
-0.0000000000 
,
0.0000000000 
,
0.0000000000 
,
0.0037067984 
,
-0.0000000000 
,
0.0000000000 
,
-0.0000000000 
,
0.0180155914 
,
-0.0002909416 
,
-0.0042488934 
,
0.0362219475 
,
0.0000000000 
,
-0.0000000000 
,
-0.0092797372 
,
0.0196679775 
,
0.0000000000 
,
-0.0000000000 
,
0.0000000000 
,
-0.0000000000 
,
-0.0000000000 
,
-0.0000000000 
,
0.0000000000 
,
-0.0000000000 
,
-0.0000000000 
,
0.0166061949 
,
-0.0000000000 
,
-0.0126850735 
,
0.0000000000 
,
0.0000000000 
,
-0.0000000000 
,
-0.0208549518 
,
-0.0133477673 
,
-0.0000000000 
,
-0.0000000000 
,
-0.0000000000 
,
-0.0000000000 
,
-0.0000000000 
,
0.0000000000 
,
-0.0244467668 
,
0.0000000000 
,
-0.0000000000 
,
-0.0000000000 
,
-0.0000000000 
,
-0.0000000000 
,
0.0387250371 
,
-0.0000000000 
,
0.0118502872 
,
-0.0000000000 
,
-0.0000000000 
,
-0.0000000000 
,
-0.0000000000 
,
-0.0000000000 
,
-0.0079644080 
,
-0.0000000000 
,
-0.0057953289 
,
0.0000000000 
,
0.0000000000 
,
-0.0317476951 
,
0.0000000000 
,
0.0000000000 
,
-0.0000000000 
,
-0.0034905742 
,
0.0000000000 
,
-0.0000000000 
,
-0.0000000000 
,
-0.0000000000 
,
0.0000000000 
,
0.0000000000 
,
-0.0000000000 
,
0.0000000000 
,
-0.0364378877 
,
-0.0000000000 
,
-0.0244536661 
,
-0.0000000000 
,
0.0000000000 
,
0.0000000000 
,
-0.0257954206 
,
0.0236451738 
,
0.0183036905 
,
-0.0000000000 
,
-0.0000000000 
,
-0.0000000000 
,
-0.0000000000 
,
-0.0080634393 
,
-0.0098725064 
,
-0.0000000000 
,
-0.0000000000 
,
-0.0414376073 
,
0.0000000000 

,
0.0000000000 
,
-0.0000000000 
,
-0.0000000000 
,
0.0000000000 
,
0.0000000000 
,
-0.0000000000 
,
-0.0000000000 
,
0.0000000000 
,
0.0000000000 
,
-0.0000000000 
,
0.0000000000 
,
-0.0000000000 
,
0.0000000000 
,
-0.0000000000 
,
0.0000000000 
,
0.0000000000 
,
0.0000000000 
,
-0.0000000000 
,
-0.0000000000 
,
-0.0000000000 
,
-0.0000000000 
,
0.0000000000 
,
-0.0000000000 
,
0.0000000000 
,
-0.0000000000 
,
0.0000000000 
,
-0.0000000000 
,
0.0000000000 
,
0.0000000000 
,
0.0000000000 
,
0.0000000000 
,
0.0000000000 
,
0.0000000000 
,
0.0000000000 
,
-0.0000000000 
,
-0.0000000000 
,
-0.0000000000 
,
-0.0000000000 
,
-0.0000000000 
,
0.0000000000 
,
0.0000000000 
,
0.0000000000 
,
-0.0000000000 
,
0.0000000000 
,
0.0000000000 
,
-0.0000000000 
,
-0.0000000000 
,
0.0000000000 
,
0.0000000000 
,
0.0000000000 
,
-0.0000000000 
,
0.0000000000 
,
-0.0000727528 
,
-0.0000000000 
,
0.0000000000 
,
-0.0000000000 
,
0.0000000000 
,
-0.0000000000 
,
0.0000000000 
,
0.0000000000 
,
0.0000000000 
,
-0.0000000000 
,
-0.0000000000 
,
-0.0000000000 
,
0.0000000000 
,
0.0000000000 
,
0.0000000000 
,
-0.0000000000 
,
0.0000000000 
,
0.0000000000 
,
-0.0000000000 
,
-0.0000000000 
,
-0.0000000000 
,
0.0000000000 
,
-0.0000000000 
,
-0.0000000000 
,
0.0000000000 
,
0.0000000000 
,
-0.0000000000 
,
0.0000000000 
,
0.0000000000 
,
-0.0000000000 
,
0.0000000000 
,
-0.0000000000 
,
0.0000000000 
,
-0.0000000000 
,
0.0000000000 
,
-0.0000000000 
,
-0.0000000000 
,
0.0000000000 
,
0.0000000000 
,
-0.0000000000 
,
-0.0000000000 
,
-0.0000000000 
,
-0.0000000000 
,
-0.0000000000 
,
0.0000000000 
,
0.0000000000 
,
-0.0000000000 
,
-0.0000000000 
,
0.0000000000 
,
-0.0000000000 
,
-0.0000000000 
,
-0.0000000000 
,
-0.0000000000 
,
-0.0000000000 
,
0.0000000000 
,
0.0000000000 
,
-0.0000000000 
,
0.0000000000 
,
-0.0000000000 
,
0.0000000000 
,
0.0000000000 
,
-0.0000000000 
,
0.0000000000 
,
-0.0000000000 
,
-0.0000000000 
,
0.0000000000 
,
-0.0000000000 
,
-0.0000000000 
,
-0.0000000000 
,
0.0000000000 
,
0.0000000000 
,
-0.0000000000 
,
0.0000000000 
,
-0.0000000000 
,
-0.0000000000 
,
0.0000000000 
,
0.0000000000 
,
0.0000000000 
,
-0.0000000000 
,
0.0000000000 
,
-0.0000000000 
,
0.0000000000 
,
0.0000000000 
,
0.0000000000 
,
-0.0000000000 
,
0.0000000000 
,
0.0000000000 
,
-0.0000000000 
,
-0.0000000000 
,
-0.0000000000 
,
0.0000000000 
,
-0.0000000000 
,
0.0000000000 
,
-0.0000000000 
,
0.0000000000 
,
0.0000000000 
,
0.0000000000 
,
0.0000000000 
,
0.0000000000 
,
0.0000000000 
,
-0.0000000000 
,
0.0000000000 
,
-0.0000000000 
,
-0.0000000000 
,
-0.0000000000 
,
-0.0000000000 
,
-0.0000000000 
,
-0.0000000000 
,
-0.0000000000 
,
-0.0000000000 
,
0.0000000000 
,
-0.0000000000 
,
-0.0000000000 
,
0.0000000000 
,
0.0000000000 
,
-0.0000000000 
,
-0.0000000000 
,
0.0000000000 
,
-0.0000000000 
,
-0.0000000000 
,
0.0000000000 
,
-0.0000000000 
,
0.0000000000 
,
-0.0000000000 
,
0.0000000000 
,
-0.0000000000 
,
0.0000000000 
,
-0.0000000000 
,
-0.0000000000 
,
-0.0000000000 
,
-0.0000000000 
,
-0.0000000000 
,
0.0000000000 
,
-0.0000000000 
,
-0.0000000000 
,
-0.0000000000 
,
-0.0000000000 
,
0.0000000000 
,
-0.0000000000 
,
0.0000000000 
,
-0.0000000000 
,
-0.0000727528 
,
0.0000000000 
,
-0.0000000000 
,
-0.0000000000 
,
-0.0000000000 
,
-0.0000000000 
,
0.0000000000 

,
0.0000000000 
,
0.0000000000 
,
0.0000000000 
,
-0.0000000000 
,
-0.0000000000 
,
0.0000000000 
,
-0.0000000000 
,
0.0000000000 
,
-0.0000000000 
,
0.0000000000 
,
-0.0000000000 
,
0.0000000000 
,
-0.0000000000 
,
-0.0000000000 
,
-0.0000000000 
,
-0.0000000000 
,
-0.0000000000 
,
0.0000000000 
,
-0.0000000000 
,
-0.0000000000 
,
-0.0000000000 
,
-0.0000000000 
,
0.0000000000 
,
0.0000000000 
,
0.0000000000 
,
0.0000000000 
,
0.0000000000 
,
0.0000000000 
,
-0.0000000000 
,
-0.0000000000 
,
0.0000000000 
,
0.0000000000 
,
0.0000000000 
,
-0.0000000000 
,
-0.0000000000 
,
0.0000000000 
,
0.0000000000 
,
-0.0000000000 
,
0.0000000000 
,
-0.0000000000 
,
-0.0000000000 
,
0.0000000000 
,
-0.0000000000 
,
0.0000000000 
,
-0.0000000000 
,
0.0000000000 
,
-0.0000000000 
,
-0.0000000000 
,
0.0000000000 
,
-0.0000000000 
,
0.0000000000 
,
0.0000000000 
,
0.0000000000 
,
-0.0000000000 
,
-0.0000000000 
,
0.0000000000 
,
0.0000000000 
,
-0.0000000000 
,
-0.0000000000 
,
-0.0000000000 
,
-0.0000000000 
,
-0.0000000000 
,
-0.0000000000 
,
-0.0000000000 
,
0.0000000000 
,
0.0000000000 
,
0.0000000000 
,
0.0000000000 
,
0.0000000000 
,
-0.0000000000 
,
-0.0000000000 
,
-0.0000000000 
,
-0.0000000000 
,
0.0000000000 
,
0.0000000000 
,
0.0000000000 
,
-0.0000000000 
,
0.0000000000 
,
-0.0000000000 
,
0.0000000000 
,
0.0000000000 
,
-0.0000000000 
,
-0.0000727528 
,
0.0000000000 
,
0.0000000000 
,
0.0000000000 
,
-0.0000000000 
,
-0.0000000000 
,
0.0000000000 
,
-0.0000000000 
,
0.0000000000 
,
-0.0000000000 
,
-0.0000000000 
,
-0.0000000000 
,
0.0000000000 
,
-0.0000000000 
,
-0.0000000000 
,
-0.0000000000 
,
-0.0000000000 
,
0.0000000000 
,
0.0000000000 
,
0.0000000000 
,
-0.0000000000 
,
0.0000000000 
,
-0.0000000000 
,
0.0000000000 
,
0.0000000000 
,
-0.0000000000 
,
-0.0000000000 
,
0.0000000000 
,
-0.0000000000 
,
-0.0000000000 
,
-0.0000000000 
,
0.0000000000 
,
-0.0000000000 
,
-0.0000000000 
,
0.0000000000 
,
-0.0000000000 
,
-0.0000000000 
,
0.0000000000 
,
0.0000000000 
,
-0.0000000000 
,
0.0000000000 
,
-0.0000000000 
,
-0.0000000000 
,
0.0000000000 
,
-0.0000000000 
,
0.0000000000 
,
0.0000000000 
,
-0.0000000000 
,
-0.0000000000 
,
0.0000000000 
,
-0.0000000000 
,
0.0000000000 
,
-0.0000000000 
,
-0.0000000000 
,
0.0000000000 
,
-0.0000000000 
,
-0.0000000000 
,
0.0000000000 
,
-0.0000000000 
,
0.0000000000 
,
-0.0000000000 
,
-0.0000000000 
,
0.0000000000 
,
0.0000000000 
,
-0.0000000000 
,
0.0000000000 
,
-0.0000000000 
,
0.0000000000 
,
-0.0000000000 
,
-0.0000000000 
,
-0.0000000000 
,
-0.0000000000 
,
0.0000727528 
,
0.0000000000 
,
0.0000000000 
,
0.0000000000 
,
-0.0000000000 
,
0.0000000000 
,
-0.0000000000 
,
0.0000000000 
,
0.0000000000 
,
-0.0000000000 
,
-0.0000000000 
,
-0.0000000000 
,
-0.0000000000 
,
-0.0000000000 
,
0.0000000000 
,
0.0000000000 
,
-0.0000000000 
,
-0.0000000000 
,
0.0000000000 
,
0.0000000000 
,
-0.0000000000 
,
-0.0000000000 
,
0.0000000000 
,
-0.0000000000 
,
0.0000000000 
,
-0.0000000000 
,
0.0000000000 
,
-0.0000000000 
,
-0.0000000000 
,
0.0000000000 
,
-0.0000000000 
,
0.0000000000 
,
0.0000000000 
,
-0.0000000000 
,
-0.0000000000 
,
0.0000000000 
,
-0.0000000000 
,
0.0000000000 
,
0.0000000000 
,
-0.0000000000 
,
-0.0000000000 
,
-0.0000000000 
,
0.0000000000 
,
0.0000000000 
,
-0.0000000000 
,
-0.0000000000 

,
0.0000000000 
,
-0.0000000000 
,
-0.0000000000 
,
0.0000000000 
,
-0.0000000000 
,
-0.0000000000 
,
0.0000000000 
,
-0.0000000000 
,
0.0000000000 
,
0.0000000000 
,
0.0000000000 
,
-0.0000000000 
,
-0.0000000000 
,
-0.0000000000 
,
0.0000000000 
,
-0.0000000000 
,
0.0000000000 
,
-0.0000000000 
,
0.0000000000 
,
-0.0000000000 
,
-0.0000000000 
,
-0.0000000000 
,
-0.0000000000 
,
0.0000000000 
,
0.0000000000 
,
0.0000000000 
,
-0.0000000000 
,
-0.0000000000 
,
-0.0000000000 
,
-0.0000000000 
,
0.0000000000 
,
-0.0000000000 
,
-0.0000000000 
,
-0.0000000000 
,
-0.0000000000 
,
0.0000000000 
,
-0.0000000000 
,
0.0000000000 
,
0.0000000000 
,
0.0000000000 
,
-0.0000000000 
,
-0.0000000000 
,
-0.0000000000 
,
-0.0000000000 
,
0.0000000000 
,
0.0000000000 
,
-0.0000000000 
,
0.0000000000 
,
-0.0000000000 
,
0.0000000000 
,
0.0000000000 
,
-0.0000000000 
,
-0.0000000000 
,
-0.0000000000 
,
0.0000000000 
,
-0.0000000000 
,
-0.0000000000 
,
-0.0000000000 
,
-0.0000000000 
,
0.0000000000 
,
0.0000000000 
,
0.0000000000 
,
-0.0000000000 
,
0.0000000000 
,
-0.0000000000 
,
-0.0000000000 
,
0.0000000000 
,
-0.0000000000 
,
0.0000000000 
,
-0.0000000000 
,
-0.0000000000 
,
0.0000000000 
,
-0.0000000000 
,
0.0000000000 
,
-0.0000000000 
,
-0.0000000000 
,
-0.0000000000 
,
-0.0000000000 
,
0.0000000000 
,
0.0000000000 
,
0.0000000000 
,
-0.0000000000 
,
0.0000000000 
,
0.0000000000 
,
0.0000000000 
,
0.0000000000 
,
-0.0000000000 
,
0.0000000000 
,
0.0000000000 
,
-0.0000000000 
,
0.0000000000 
,
-0.0000000000 
,
-0.0000000000 
,
0.0000000000 
,
0.0000000000 
,
0.0000000000 
,
-0.0000000000 
,
-0.0000000000 
,
-0.0000000000 
,
0.0000000000 
,
0.0000000000 
,
0.0000000000 
,
-0.0000000000 
,
0.0000000000 
,
-0.0000000000 
,
-0.0000000000 
,
-0.0000000000 
,
0.0000000000 
,
0.0000000000 
,
0.0000000000 
,
-0.0000727528 
,
-0.0000000000 
,
-0.0000000000 
,
-0.0000000000 
,
0.0000000000 
,
-0.0000000000 
,
0.0000000000 
,
-0.0000000000 
,
-0.0000000000 
,
0.0000000000 
,
-0.0000000000 
,
-0.0000000000 
,
0.0000000000 
,
-0.0000000000 
,
0.0000000000 
,
-0.0000000000 
,
0.0000727528 
,
0.0000000000 
,
0.0000000000 
,
-0.0000000000 
,
-0.0000000000 
,
-0.0000000000 
,
-0.0000000000 
,
0.0000000000 
,
0.0000000000 
,
0.0000000000 
,
-0.0000000000 
,
0.0000000000 
,
-0.0000000000 
,
-0.0000000000 
,
-0.0000000000 
,
-0.0000000000 
,
-0.0000000000 
,
-0.0000000000 
,
-0.0000000000 
,
0.0000000000 
,
-0.0000727528 
,
-0.0000000000 
,
0.0000000000 
,
0.0000000000 
,
0.0000000000 
,
0.0000000000 
,
-0.0000000000 
,
-0.0000727528 
,
0.0000000000 
,
-0.0000000000 
,
0.0000000000 
,
-0.0000000000 
,
-0.0000000000 
,
0.0000000000 
,
0.0000000000 
,
-0.0000000000 
,
0.0000000000 
,
0.0000000000 
,
0.0000000000 
,
0.0000000000 
,
0.0000000000 
,
0.0000000000 
,
0.0000000000 
,
-0.0000000000 
,
0.0000000000 
,
-0.0000000000 
,
0.0000000000 
,
0.0000000000 
,
0.0000000000 
,
-0.0000000000 
,
-0.0000000000 
,
0.0000000000 
,
-0.0000000000 
,
-0.0000000000 
,
0.0000000000 
,
0.0000000000 
,
0.0000000000 
,
-0.0000000000 
,
-0.0000000000 
,
-0.0000000000 
,
0.0000727528 
,
-0.0000000000 
,
-0.0000000000 
,
-0.0000000000 
,
0.0000000000 
,
-0.0000000000 
,
0.0000000000 
,
0.0000000000 
,
-0.0000000000 
,
0.0000000000 
,
-0.0000000000 
,
-0.0000000000 
,
0.0000000000 
,
0.0000000000 

,
-0.0000000000 
,
0.0000000000 
,
0.0000000000 
,
0.0622713305 
,
0.0000000000 
,
0.0203235243 
,
0.0378578641 
,
-0.0000000000 
,
-0.0166417118 
,
0.0000000000 
,
0.0000000000 
,
-0.0552931130 
,
-0.0526930429 
,
0.0000000000 
,
0.0000000000 
,
-0.0000000000 
,
-0.0000000000 
,
0.0768127739 
,
-0.0000000000 
,
0.0065241242 
,
-0.0000000000 
,
-0.0255516116 
,
-0.0000000000 
,
-0.0000000000 
,
-0.0000000000 
,
-0.0096809277 
,
0.0000000000 
,
0.0000000000 
,
0.0000000000 
,
0.0248166155 
,
-0.0000000000 
,
-0.0000000000 
,
-0.0000000000 
,
0.0000000000 
,
0.0000000000 
,
0.0000000000 
,
0.0000000000 
,
-0.0403406732 
,
0.0000000000 
,
0.0000000000 
,
-0.0000000000 
,
0.0000000000 
,
-0.0000000000 
,
0.0681737810 
,
0.0076511097 
,
0.0721078068 
,
-0.0473441929 
,
-0.0000000000 
,
-0.0000000000 
,
0.0000000000 
,
0.0000000000 
,
-0.0000000000 
,
0.0000000000 
,
0.0000000000 
,
0.0630610958 
,
0.0000000000 
,
-0.0000000000 
,
0.0000000000 
,
0.0000000000 
,
0.0000000000 
,
0.0000000000 
,
-0.0000000000 
,
0.0000000000 
,
0.0000000000 
,
0.0377033986 
,
-0.0000000000 
,
-0.0268805958 
,
0.0000000000 
,
0.0000000000 
,
-0.0000000000 
,
0.0000000000 
,
-0.0000000000 
,
0.0000000000 
,
-0.0057892227 
,
-0.0000000000 
,
-0.0000000000 
,
0.0081308372 
,
-0.0000000000 
,
0.0000000000 
,
-0.0000000000 
,
0.0000000000 
,
-0.0000000000 
,
-0.0000000000 
,
0.0000000000 
,
-0.0000000000 
,
-0.0000000000 
,
-0.0000000000 
,
0.0000000000 
,
0.0000000000 
,
-0.0196551234 
,
0.0000000000 
,
-0.0377347916 
,
-0.0000000000 
,
0.0000000000 
,
-0.0000000000 
,
0.0496962108 
,
0.0155873848 
,
-0.0020633908 
,
-0.0000000000 
,
0.0000000000 
,
-0.0130859958 
,
0.0000000000 
,
-0.0000000000 
,
0.0000000000 
,
0.0239320751 
,
0.0173336286 
,
0.0139405783 
,
-0.0017367004 
,
0.0000000000 
,
0.0622129440 
,
0.0000000000 
,
0.0000000000 
,
-0.0000000000 
,
-0.0000000000 
,
0.0869481936 
,
0.0000000000 
,
0.0000000000 
,
0.0000000000 
,
-0.0318433121 
,
0.0000086496 
,
0.0225878526 
,
0.0347040445 
,
-0.0000000000 
,
-0.0000000000 
,
-0.0130620683 
,
0.0206800215 
,
-0.0000000000 
,
0.0000000000 
,
-0.0000000000 
,
0.0000000000 
,
0.0000000000 
,
0.0000000000 
,
0.0000000000 
,
0.0000000000 
,
-0.0000000000 
,
0.0088719493 
,
-0.0000000000 
,
-0.0124492599 
,
0.0000000000 
,
-0.0000000000 
,
-0.0000000000 
,
-0.0167712793 
,
-0.0332591273 
,
0.0000000000 
,
0.0000000000 
,
-0.0000000000 
,
-0.0000000000 
,
0.0000000000 
,
0.0000000000 
,
-0.0209780708 
,
0.0000000000 
,
0.0000000000 
,
-0.0000000000 
,
0.0000000000 
,
-0.0000000000 
,
0.0328482240 
,
-0.0000000000 
,
-0.0204431713 
,
-0.0000000000 
,
-0.0000000000 
,
-0.0000000000 
,
0.0000000000 
,
0.0000000000 
,
-0.0037431291 
,
-0.0000000000 
,
-0.0347146727 
,
-0.0000000000 
,
-0.0000000000 
,
-0.0094619812 
,
0.0000000000 
,
-0.0000000000 
,
0.0000000000 
,
-0.0053942907 
,
-0.0000000000 
,
-0.0000000000 
,
0.0000000000 
,
0.0000000000 
,
-0.0000000000 
,
0.0000000000 
,
0.0000000000 
,
-0.0000000000 
,
-0.0398102701 
,
-0.0000000000 
,
-0.0288255941 
,
-0.0000000000 
,
-0.0000000000 
,
0.0000000000 
,
-0.0349041335 
,
-0.0072230129 
,
-0.0121904006 
,
0.0000000000 
,
-0.0000000000 
,
0.0000000000 
,
-0.0000000000 
,
-0.0696642175 
,
-0.0402668230 
,
0.0000000000 
,
-0.0000000000 
,
-0.0494887754 
,
-0.0000000000 

,
0.0000000000 
,
-0.0000000000 
,
0.0000000000 
,
0.0000000000 
,
-0.0000000000 
,
0.0000000000 
,
0.0000000000 
,
-0.0000000000 
,
0.0000000000 
,
-0.0000000000 
,
0.0000000000 
,
-0.0000000000 
,
0.0000000000 
,
-0.0000000000 
,
-0.0000000000 
,
0.0000000000 
,
-0.0000000000 
,
-0.0000000000 
,
-0.0000000000 
,
0.0000000000 
,
-0.0000000000 
,
0.0000000000 
,
0.0000000000 
,
-0.0000000000 
,
-0.0000000000 
,
-0.0000000000 
,
-0.0000000000 
,
0.0000000000 
,
0.0000000000 
,
-0.0000000000 
,
0.0000000000 
,
-0.0000000000 
,
0.0000000000 
,
0.0000000000 
,
0.0000000000 
,
0.0000000000 
,
0.0000000000 
,
0.0000000000 
,
0.0000000000 
,
0.0000000000 
,
0.0000000000 
,
-0.0000000000 
,
-0.0000000000 
,
0.0000000000 
,
-0.0000000000 
,
-0.0000000000 
,
-0.0000000000 
,
-0.0000000000 
,
-0.0000000000 
,
-0.0000000000 
,
0.0000000000 
,
0.0000000000 
,
-0.0000000000 
,
0.0000000000 
,
0.0000000000 
,
0.0000000000 
,
-0.0000000000 
,
-0.0000000000 
,
-0.0000000000 
,
0.0000000000 
,
0.0000000000 
,
0.0000727528 
,
-0.0000000000 
,
-0.0000000000 
,
-0.0000000000 
,
0.0000000000 
,
-0.0000000000 
,
-0.0000000000 
,
-0.0000000000 
,
-0.0000000000 
,
-0.0000000000 
,
0.0000000000 
,
-0.0000000000 
,
-0.0000000000 
,
-0.0000000000 
,
0.0000000000 
,
0.0000000000 
,
-0.0000000000 
,
-0.0000000000 
,
-0.0000000000 
,
0.0000000000 
,
0.0000000000 
,
-0.0000000000 
,
0.0000000000 
,
0.0000000000 
,
-0.0000000000 
,
-0.0000000000 
,
0.0000000000 
,
-0.0000000000 
,
0.0000000000 
,
0.0000000000 
,
-0.0000000000 
,
0.0000727528 
,
0.0000000000 
,
0.0000000000 
,
0.0000000000 
,
-0.0000000000 
,
0.0000000000 
,
-0.0000000000 
,
0.0000000000 
,
-0.0000000000 
,
0.0000727528 
,
0.0000000000 
,
-0.0000000000 
,
0.0000000000 
,
-0.0000000000 
,
-0.0000000000 
,
-0.0000000000 
,
0.0000727528 
,
-0.0000000000 
,
-0.0000000000 
,
0.0000000000 
,
-0.0000000000 
,
-0.0000000000 
,
0.0000000000 
,
-0.0000000000 
,
0.0000727528 
,
-0.0000000000 
,
0.0000000000 
,
-0.0000000000 
,
-0.0000000000 
,
0.0000000000 
,
-0.0000000000 
,
-0.0000000000 
,
0.0000000000 
,
-0.0000000000 
,
0.0000000000 
,
0.0000000000 
,
-0.0000000000 
,
-0.0000000000 
,
-0.0000000000 
,
0.0000000000 
,
0.0000000000 
,
-0.0000000000 
,
0.0000000000 
,
0.0000000000 
,
-0.0000000000 
,
0.0000000000 
,
-0.0000000000 
,
0.0000000000 
,
-0.0000000000 
,
-0.0000000000 
,
0.0000000000 
,
0.0000000000 
,
0.0000727528 
,
-0.0000000000 
,
0.0000000000 
,
-0.0000000000 
,
-0.0000000000 
,
-0.0000000000 
,
-0.0000727528 
,
0.0000000000 
,
-0.0000000000 
,
-0.0000000000 
,
-0.0000000000 
,
-0.0000000000 
,
-0.0000000000 
,
-0.0000000000 
,
-0.0000000000 
,
0.0000000000 
,
-0.0000727528 
,
-0.0000000000 
,
0.0000000000 
,
-0.0000000000 
,
0.0000000000 
,
0.0000000000 
,
-0.0000000000 
,
0.0000000000 
,
-0.0000000000 
,
0.0000000000 
,
-0.0000000000 
,
0.0000000000 
,
-0.0000000000 
,
0.0000727528 
,
-0.0000727528 
,
-0.0000727528 
,
-0.0000000000 
,
-0.0000000000 
,
0.0000000000 
,
0.0000000000 
,
0.0000000000 
,
0.0000000000 
,
0.0000000000 
,
0.0000000000 
,
0.0000000000 
,
0.0000000000 
,
0.0000000000 
,
-0.0000000000 
,
0.0000000000 
,
-0.0000000000 
,
-0.0000000000 
,
0.0000000000 
,
0.0000727528 
,
-0.0000000000 
,
0.0000000000 
,
-0.0000000000 
,
0.0000000000 
,
0.0000000000 
,
-0.0000000000 
,
-0.0000727528 

,
-0.0000000000 
,
0.0000000000 
,
-0.0000727528 
,
-0.0252148397 
,
0.0000000000 
,
-0.0469100364 
,
-0.0438636951 
,
0.0000000000 
,
0.0229933448 
,
0.0000000000 
,
0.0000000000 
,
-0.0203608014 
,
0.0039692265 
,
-0.0000000000 
,
0.0000000000 
,
-0.0000000000 
,
-0.0000000000 
,
-0.0163856037 
,
-0.0000000000 
,
-0.0318864062 
,
0.0000000000 
,
0.0652067959 
,
0.0000000000 
,
0.0000000000 
,
0.0000000000 
,
-0.0465985313 
,
0.0000000000 
,
0.0000000000 
,
0.0000000000 
,
-0.0192341469 
,
-0.0000000000 
,
0.0000000000 
,
0.0000000000 
,
-0.0000000000 
,
0.0000000000 
,
-0.0000000000 
,
0.0000000000 
,
0.0346769318 
,
-0.0000000000 
,
0.0000000000 
,
0.0000000000 
,
0.0000000000 
,
0.0000000000 
,
-0.0220905114 
,
0.0448727757 
,
-0.0688000992 
,
-0.0452467017 
,
-0.0000000000 
,
-0.0000000000 
,
0.0000000000 
,
-0.0000000000 
,
0.0000000000 
,
-0.0000000000 
,
-0.0000000000 
,
-0.0306745358 
,
-0.0000000000 
,
0.0000000000 
,
0.0000000000 
,
0.0000000000 
,
-0.0000000000 
,
-0.0000000000 
,
0.0000000000 
,
0.0000000000 
,
-0.0000000000 
,
0.0299513247 
,
0.0000000000 
,
0.0123566361 
,
0.0000000000 
,
0.0000000000 
,
-0.0000000000 
,
0.0000000000 
,
0.0000000000 
,
-0.0000000000 
,
-0.0012722957 
,
0.0000000000 
,
0.0000000000 
,
0.0018604414 
,
0.0000000000 
,
0.0000000000 
,
-0.0000000000 
,
-0.0000000000 
,
0.0000000000 
,
-0.0000000000 
,
0.0000000000 
,
0.0000000000 
,
0.0000000000 
,
-0.0000000000 
,
0.0000000000 
,
0.0000000000 
,
0.0848056972 
,
0.0000727528 
,
0.0703284070 
,
-0.0000000000 
,
-0.0000000000 
,
0.0000000000 
,
-0.0399021916 
,
-0.0673076361 
,
-0.0330415070 
,
0.0000000000 
,
0.0000000000 
,
0.0397282243 
,
-0.0000000000 
,
-0.0000000000 
,
-0.0000000000 
,
-0.0593581349 
,
0.0019891541 
,
-0.0476391464 
,
0.0010768728 
,
-0.0000000000 
,
-0.0128376074 
,
0.0000000000 
,
-0.0000000000 
,
-0.0000000000 
,
-0.0000000000 
,
0.0115034152 
,
-0.0000000000 
,
0.0000000000 
,
0.0000000000 
,
-0.0000090233 
,
-0.0016862240 
,
0.0071695200 
,
-0.0392459743 
,
0.0000000000 
,
0.0000000000 
,
0.0469719693 
,
-0.0304573495 
,
-0.0000000000 
,
0.0000000000 
,
0.0000000000 
,
-0.0000000000 
,
0.0000000000 
,
-0.0000000000 
,
0.0000727528 
,
0.0000000000 
,
-0.0000000000 
,
-0.0416616388 
,
0.0000000000 
,
0.0437697992 
,
0.0000000000 
,
0.0000000000 
,
-0.0000000000 
,
0.0384959131 
,
0.0595922843 
,
-0.0000000000 
,
0.0000000000 
,
0.0000000000 
,
0.0000000000 
,
0.0000000000 
,
-0.0000000000 
,
0.0494358279 
,
-0.0000000000 
,
0.0000000000 
,
-0.0000000000 
,
0.0000000000 
,
-0.0000000000 
,
-0.0553308204 
,
-0.0000000000 
,
-0.0447048321 
,
-0.0000000000 
,
-0.0000000000 
,
-0.0000000000 
,
-0.0000000000 
,
0.0000000000 
,
-0.0467271730 
,
-0.0000000000 
,
-0.0395563133 
,
0.0000000000 
,
-0.0000000000 
,
-0.0054007787 
,
-0.0000000000 
,
-0.0000000000 
,
-0.0000000000 
,
0.0013653984 
,
0.0000000000 
,
-0.0000000000 
,
0.0000000000 
,
0.0000000000 
,
0.0000000000 
,
-0.0000000000 
,
-0.0000000000 
,
0.0000000000 
,
-0.0327074714 
,
-0.0000000000 
,
0.0304110348 
,
-0.0000000000 
,
-0.0000000000 
,
0.0000727528 
,
0.0466588698 
,
-0.0687560067 
,
-0.0466611981 
,
-0.0000000000 
,
-0.0000000000 
,
-0.0000000000 
,
-0.0000000000 
,
-0.0254302360 
,
0.0187199246 
,
0.0000000000 
,
0.0000000000 
,
0.0517635643 
,
0.0000000000 

,
0.0000000000 
,
-0.0000000000 
,
-0.0000000000 
,
-0.0271195862 
,
0.0000000000 
,
-0.0325111300 
,
0.0013322890 
,
0.0000000000 
,
0.0005355675 
,
-0.0000000000 
,
0.0000000000 
,
-0.0182547439 
,
-0.0076224990 
,
0.0000000000 
,
-0.0000000000 
,
-0.0000000000 
,
0.0000000000 
,
0.0055242581 
,
0.0000000000 
,
0.0040581166 
,
-0.0000000000 
,
0.0252363943 
,
0.0000000000 
,
-0.0000000000 
,
0.0000000000 
,
-0.0028851733 
,
-0.0000000000 
,
0.0000000000 
,
-0.0000000000 
,
-0.0368003547 
,
-0.0000000000 
,
-0.0000000000 
,
0.0000000000 
,
-0.0000000000 
,
-0.0000000000 
,
0.0000000000 
,
-0.0000000000 
,
0.0089343013 
,
-0.0000000000 
,
0.0000000000 
,
0.0000000000 
,
-0.0000000000 
,
0.0000000000 
,
0.0357614905 
,
0.0015144061 
,
-0.0040895795 
,
-0.0126991766 
,
-0.0000000000 
,
-0.0000000000 
,
0.0000000000 
,
0.0000000000 
,
-0.0000000000 
,
0.0000000000 
,
0.0000000000 
,
0.0046645645 
,
0.0000000000 
,
0.0000000000 
,
0.0000000000 
,
0.0000000000 
,
0.0000000000 
,
-0.0000000000 
,
-0.0000000000 
,
-0.0000000000 
,
-0.0000000000 
,
-0.0136341052 
,
-0.0000000000 
,
0.0093881134 
,
-0.0000000000 
,
-0.0000000000 
,
-0.0000000000 
,
-0.0000000000 
,
-0.0000000000 
,
-0.0000000000 
,
-0.0006624381 
,
-0.0000000000 
,
-0.0000000000 
,
-0.0378051139 
,
-0.0000000000 
,
0.0000000000 
,
0.0000000000 
,
0.0000000000 
,
0.0000000000 
,
-0.0000000000 
,
0.0000000000 
,
0.0000000000 
,
-0.0000000000 
,
-0.0000000000 
,
-0.0000000000 
,
-0.0000000000 
,
0.0539146289 
,
-0.0000000000 
,
0.0571277887 
,
0.0000000000 
,
0.0000000000 
,
0.0000000000 
,
0.0169823803 
,
0.0127352243 
,
-0.0042639095 
,
-0.0000000000 
,
-0.0000000000 
,
0.0333246328 
,
0.0000000000 
,
-0.0000000000 
,
0.0000000000 
,
0.0060992860 
,
-0.0257873461 
,
0.0109878527 
,
0.0016859756 
,
-0.0000000000 
,
-0.0668945983 
,
-0.0000000000 
,
0.0000000000 
,
-0.0000000000 
,
0.0000000000 
,
-0.0228998885 
,
0.0000000000 
,
0.0000000000 
,
-0.0000000000 
,
0.0403514802 
,
-0.0010226353 
,
-0.0112026688 
,
0.0222629812 
,
0.0000000000 
,
-0.0000000000 
,
0.0237051956 
,
0.0053186538 
,
-0.0000000000 
,
0.0000000000 
,
-0.0000000000 
,
-0.0000000000 
,
-0.0000000000 
,
-0.0000000000 
,
-0.0000000000 
,
-0.0000000000 
,
0.0000000000 
,
-0.0043143174 
,
-0.0000000000 
,
0.0161671359 
,
-0.0000000000 
,
-0.0000000000 
,
-0.0000000000 
,
0.0007873302 
,
0.0286896154 
,
0.0000000000 
,
0.0000000000 
,
-0.0000000000 
,
0.0000000000 
,
-0.0000000000 
,
0.0000000000 
,
0.0023129899 
,
0.0000000000 
,
0.0000000000 
,
0.0000000000 
,
0.0000000000 
,
-0.0000000000 
,
0.0104129650 
,
0.0000000000 
,
0.0030612345 
,
0.0000000000 
,
0.0000000000 
,
0.0000000000 
,
-0.0000000000 
,
-0.0000000000 
,
-0.0380385816 
,
-0.0000000000 
,
-0.0168632008 
,
-0.0000000000 
,
0.0000000000 
,
-0.0531811044 
,
-0.0000000000 
,
0.0000000000 
,
-0.0000000000 
,
-0.0024993459 
,
0.0000000000 
,
0.0000000000 
,
0.0000000000 
,
0.0000000000 
,
-0.0000000000 
,
-0.0000000000 
,
0.0000000000 
,
-0.0000000000 
,
-0.0628016666 
,
-0.0000000000 
,
-0.0081870817 
,
0.0000000000 
,
-0.0000000000 
,
-0.0000000000 
,
0.0147286775 
,
0.0041945521 
,
0.0141451983 
,
-0.0000000000 
,
0.0000000000 
,
0.0000000000 
,
-0.0000000000 
,
0.0118765337 
,
0.0158086382 
,
-0.0000000000 
,
0.0000000000 
,
-0.0035498401 
,
0.0000000000 

,
-0.0000000000 
,
0.0000000000 
,
-0.0000000000 
,
-0.0000000000 
,
-0.0000000000 
,
0.0000000000 
,
-0.0000000000 
,
0.0000000000 
,
-0.0000000000 
,
0.0000000000 
,
-0.0000000000 
,
0.0000000000 
,
-0.0000000000 
,
0.0000000000 
,
-0.0000000000 
,
-0.0000000000 
,
0.0000000000 
,
0.0000000000 
,
-0.0000000000 
,
-0.0000000000 
,
-0.0000000000 
,
-0.0000000000 
,
0.0000000000 
,
-0.0000000000 
,
-0.0000000000 
,
-0.0000000000 
,
0.0000000000 
,
0.0000000000 
,
0.0000000000 
,
-0.0000000000 
,
0.0000000000 
,
0.0000000000 
,
0.0000000000 
,
-0.0000000000 
,
0.0000000000 
,
0.0000000000 
,
0.0000000000 
,
0.0000000000 
,
0.0000000000 
,
0.0000000000 
,
0.0000000000 
,
-0.0000000000 
,
0.0000000000 
,
-0.0000000000 
,
0.0000000000 
,
-0.0000000000 
,
-0.0000000000 
,
0.0000000000 
,
-0.0000000000 
,
-0.0000000000 
,
-0.0000000000 
,
-0.0000000000 
,
0.0000000000 
,
0.0000000000 
,
-0.0000000000 
,
0.0000000000 
,
-0.0000000000 
,
0.0000000000 
,
-0.0000000000 
,
0.0000000000 
,
-0.0000000000 
,
-0.0000000000 
,
0.0000000000 
,
0.0000000000 
,
-0.0000000000 
,
0.0000000000 
,
-0.0000000000 
,
0.0000000000 
,
-0.0000000000 
,
0.0000000000 
,
-0.0000000000 
,
-0.0000000000 
,
-0.0000000000 
,
0.0000000000 
,
0.0000000000 
,
0.0000000000 
,
-0.0000000000 
,
0.0000000000 
,
0.0000000000 
,
0.0000000000 
,
0.0000000000 
,
0.0000000000 
,
0.0000000000 
,
-0.0000000000 
,
-0.0000000000 
,
0.0000000000 
,
-0.0000000000 
,
0.0000000000 
,
0.0000000000 
,
-0.0000000000 
,
-0.0000000000 
,
-0.0000000000 
,
-0.0000000000 
,
-0.0000727528 
,
-0.0000000000 
,
0.0000000000 
,
-0.0000000000 
,
-0.0000000000 
,
-0.0000000000 
,
-0.0000000000 
,
-0.0000000000 
,
0.0000000000 
,
-0.0000000000 
,
0.0000000000 
,
-0.0000000000 
,
-0.0000000000 
,
-0.0000000000 
,
-0.0000000000 
,
-0.0000000000 
,
0.0000000000 
,
-0.0000000000 
,
-0.0000000000 
,
0.0000000000 
,
-0.0000000000 
,
-0.0000000000 
,
-0.0000000000 
,
-0.0000000000 
,
0.0000000000 
,
-0.0000000000 
,
-0.0000000000 
,
-0.0000000000 
,
-0.0000000000 
,
0.0000000000 
,
0.0000000000 
,
-0.0000000000 
,
-0.0000000000 
,
0.0000000000 
,
0.0000000000 
,
-0.0000000000 
,
0.0000000000 
,
0.0000000000 
,
0.0000000000 
,
-0.0000000000 
,
0.0000000000 
,
-0.0000000000 
,
-0.0000000000 
,
0.0000000000 
,
0.0000000000 
,
-0.0000000000 
,
-0.0000000000 
,
-0.0000000000 
,
0.0000000000 
,
0.0000000000 
,
-0.0000000000 
,
-0.0000000000 
,
-0.0000000000 
,
-0.0000000000 
,
-0.0000000000 
,
-0.0000000000 
,
-0.0000000000 
,
0.0000000000 
,
-0.0000000000 
,
-0.0000000000 
,
-0.0000000000 
,
-0.0000000000 
,
0.0000000000 
,
0.0000000000 
,
-0.0000000000 
,
0.0000000000 
,
-0.0000000000 
,
-0.0000000000 
,
-0.0000000000 
,
0.0000000000 
,
0.0000000000 
,
0.0000000000 
,
0.0000000000 
,
0.0000000000 
,
-0.0000000000 
,
-0.0000000000 
,
0.0000000000 
,
0.0000000000 
,
-0.0000000000 
,
-0.0000000000 
,
-0.0000000000 
,
-0.0000000000 
,
-0.0000000000 
,
-0.0000000000 
,
-0.0000000000 
,
-0.0000000000 
,
-0.0000000000 
,
0.0000000000 
,
0.0000000000 
,
0.0000000000 
,
-0.0000000000 
,
0.0000000000 
,
0.0000000000 
,
-0.0000000000 
,
0.0000000000 
,
-0.0000000000 
,
-0.0000000000 
,
0.0000000000 
,
0.0000000000 
,
-0.0000000000 
,
-0.0000000000 
,
0.0000000000 
,
-0.0000000000 
,
-0.0000000000 
,
0.0000000000 
,
-0.0000000000 
,
-0.0000000000 

,
0.0000000000 
,
-0.0000000000 
,
0.0000000000 
,
-0.0000000000 
,
-0.0000000000 
,
-0.0000000000 
,
-0.0000000000 
,
-0.0000000000 
,
-0.0000000000 
,
-0.0000000000 
,
-0.0000000000 
,
-0.0000000000 
,
-0.0000000000 
,
0.0000000000 
,
-0.0000000000 
,
0.0000727528 
,
0.0000000000 
,
-0.0000000000 
,
-0.0000000000 
,
0.0000000000 
,
-0.0000000000 
,
-0.0000000000 
,
-0.0000727528 
,
0.0000000000 
,
0.0000000000 
,
-0.0000000000 
,
0.0000000000 
,
-0.0000000000 
,
-0.0000000000 
,
-0.0000000000 
,
-0.0000000000 
,
-0.0000000000 
,
0.0000000000 
,
-0.0000000000 
,
-0.0000000000 
,
-0.0000000000 
,
0.0000000000 
,
-0.0000000000 
,
-0.0000000000 
,
0.0000000000 
,
0.0000000000 
,
0.0000000000 
,
-0.0000000000 
,
-0.0000000000 
,
-0.0000000000 
,
0.0000000000 
,
-0.0000000000 
,
0.0000000000 
,
0.0000000000 
,
-0.0000727528 
,
-0.0000000000 
,
-0.0000000000 
,
0.0000000000 
,
-0.0000000000 
,
0.0000000000 
,
-0.0000000000 
,
-0.0000000000 
,
-0.0000000000 
,
0.0000000000 
,
-0.0000000000 
,
-0.0000000000 
,
0.0000000000 
,
0.0000000000 
,
0.0000000000 
,
0.0000000000 
,
-0.0000000000 
,
0.0000000000 
,
-0.0000000000 
,
-0.0000000000 
,
0.0000000000 
,
-0.0000000000 
,
-0.0000000000 
,
0.0000727528 
,
-0.0000000000 
,
-0.0000000000 
,
-0.0000000000 
,
-0.0000000000 
,
-0.0000000000 
,
0.0000000000 
,
-0.0000000000 
,
0.0000000000 
,
-0.0000000000 
,
-0.0000000000 
,
-0.0000000000 
,
-0.0000000000 
,
-0.0000000000 
,
-0.0000000000 
,
0.0000000000 
,
-0.0000000000 
,
-0.0000000000 
,
-0.0000000000 
,
-0.0000000000 
,
0.0000000000 
,
0.0000000000 
,
0.0000000000 
,
0.0000000000 
,
0.0000000000 
,
-0.0000000000 
,
-0.0000000000 
,
0.0000000000 
,
0.0000000000 
,
0.0000000000 
,
0.0000000000 
,
-0.0000000000 
,
-0.0000000000 
,
-0.0000000000 
,
0.0000000000 
,
-0.0000000000 
,
0.0000000000 
,
-0.0000000000 
,
-0.0000000000 
,
-0.0000000000 
,
0.0000000000 
,
-0.0000000000 
,
-0.0000000000 
,
-0.0000000000 
,
0.0000000000 
,
-0.0000000000 
,
-0.0000000000 
,
-0.0000000000 
,
-0.0000000000 
,
-0.0000000000 
,
-0.0000000000 
,
-0.0000000000 
,
-0.0000727528 
,
0.0000000000 
,
0.0000000000 
,
-0.0000000000 
,
-0.0000000000 
,
-0.0000000000 
,
0.0000000000 
,
0.0000000000 
,
-0.0000000000 
,
-0.0000000000 
,
-0.0000000000 
,
0.0000000000 
,
-0.0000000000 
,
0.0000000000 
,
-0.0000000000 
,
0.0000727528 
,
-0.0000000000 
,
0.0000000000 
,
-0.0000000000 
,
0.0000000000 
,
0.0000000000 
,
-0.0000727528 
,
0.0000000000 
,
-0.0000000000 
,
-0.0000000000 
,
0.0000000000 
,
0.0000000000 
,
-0.0000000000 
,
-0.0000000000 
,
-0.0000000000 
,
0.0000000000 
,
-0.0000000000 
,
0.0000000000 
,
-0.0000000000 
,
-0.0000000000 
,
-0.0000000000 
,
-0.0000000000 
,
-0.0000000000 
,
-0.0000000000 
,
-0.0000000000 
,
-0.0000000000 
,
-0.0000000000 
,
-0.0000000000 
,
0.0000000000 
,
0.0000000000 
,
0.0000000000 
,
-0.0000000000 
,
-0.0000000000 
,
-0.0000000000 
,
-0.0000000000 
,
-0.0000000000 
,
-0.0000000000 
,
-0.0000000000 
,
0.0000000000 
,
-0.0000000000 
,
0.0000727528 
,
0.0000000000 
,
-0.0000000000 
,
-0.0000000000 
,
0.0000000000 
,
0.0000000000 
,
0.0000000000 
,
-0.0000727528 
,
-0.0000000000 
,
-0.0000000000 
,
0.0000000000 
,
-0.0000000000 
,
-0.0000727528 
,
-0.0000000000 
,
0.0000000000 
,
-0.0000000000 
,
-0.0000000000 
,
0.0000727528 
,
0.0000000000 
,
-0.0000000000 
,
-0.0000000000 

,
-0.0000000000 
,
-0.0000000000 
,
0.0000000000 
,
0.0469355807 
,
-0.0000000000 
,
0.0078102974 
,
0.0147043802 
,
-0.0000000000 
,
-0.0262532290 
,
0.0000000000 
,
-0.0000000000 
,
0.0024455041 
,
0.0089269131 
,
-0.0000000000 
,
0.0000000000 
,
0.0000000000 
,
0.0000000000 
,
0.0207277313 
,
0.0000000000 
,
0.0100399479 
,
-0.0000000000 
,
-0.0283935051 
,
0.0000000000 
,
0.0000000000 
,
0.0000000000 
,
0.0052541182 
,
-0.0000000000 
,
-0.0000000000 
,
-0.0000000000 
,
0.0082425233 
,
-0.0000000000 
,
0.0000000000 
,
0.0000000000 
,
0.0000000000 
,
-0.0000000000 
,
-0.0000000000 
,
-0.0000000000 
,
-0.0104571246 
,
-0.0000000000 
,
-0.0000000000 
,
-0.0000000000 
,
0.0000000000 
,
0.0000000000 
,
0.0228839982 
,
0.0111837089 
,
0.0123308413 
,
-0.0294539705 
,
0.0000000000 
,
-0.0000000000 
,
-0.0000000000 
,
-0.0000000000 
,
0.0000000000 
,
0.0000000000 
,
-0.0000000000 
,
0.0082622692 
,
0.0000000000 
,
0.0000000000 
,
-0.0000000000 
,
0.0000000000 
,
-0.0000000000 
,
0.0000000000 
,
-0.0000000000 
,
0.0000000000 
,
-0.0000000000 
,
0.0112166861 
,
0.0000000000 
,
-0.0412129350 
,
-0.0000000000 
,
-0.0000000000 
,
0.0000000000 
,
-0.0000000000 
,
0.0000000000 
,
0.0000000000 
,
-0.0008538837 
,
-0.0000000000 
,
-0.0000000000 
,
0.0490114577 
,
-0.0000000000 
,
0.0000000000 
,
-0.0000000000 
,
-0.0000000000 
,
0.0000000000 
,
0.0000000000 
,
0.0000000000 
,
0.0000000000 
,
0.0000000000 
,
-0.0000000000 
,
-0.0000000000 
,
-0.0000000000 
,
-0.0294701457 
,
0.0000000000 
,
-0.0436947383 
,
0.0000000000 
,
-0.0000000000 
,
-0.0000000000 
,
0.0494807810 
,
-0.0035040947 
,
0.0294401944 
,
0.0000000000 
,
-0.0000000000 
,
-0.0165817067 
,
-0.0000000000 
,
0.0000000000 
,
0.0000000000 
,
0.0108865509 
,
0.0446984991 
,
0.0015077168 
,
-0.0014015507 
,
0.0000000000 
,
0.0403888039 
,
-0.0000000000 
,
0.0000000000 
,
0.0000000000 
,
-0.0000000000 
,
0.0213874001 
,
0.0000000000 
,
0.0000000000 
,
0.0000000000 
,
-0.0376412384 
,
0.0006162609 
,
0.0042408193 
,
0.0065214490 
,
0.0000000000 
,
0.0000000000 
,
-0.0074417950 
,
0.0127212424 
,
0.0000000000 
,
0.0000000000 
,
0.0000000000 
,
-0.0000000000 
,
-0.0000000000 
,
0.0000000000 
,
0.0000000000 
,
-0.0000000000 
,
0.0000000000 
,
0.0123691456 
,
-0.0000000000 
,
-0.0038174242 
,
0.0000000000 
,
-0.0000000000 
,
-0.0000000000 
,
-0.0116062174 
,
-0.0299424566 
,
0.0000000000 
,
-0.0000000000 
,
-0.0000000000 
,
0.0000000000 
,
-0.0000000000 
,
0.0000000000 
,
-0.0107375141 
,
-0.0000000000 
,
-0.0000000000 
,
-0.0000000000 
,
0.0000000000 
,
-0.0000000000 
,
-0.0054696789 
,
-0.0000000000 
,
-0.0071636862 
,
-0.0000000000 
,
-0.0000000000 
,
0.0000000000 
,
-0.0000000000 
,
0.0000000000 
,
0.0353901200 
,
-0.0000000000 
,
0.0101709077 
,
-0.0000000000 
,
0.0000000000 
,
-0.0501303673 
,
-0.0000000000 
,
-0.0000000000 
,
0.0000000000 
,
0.0030700674 
,
-0.0000000000 
,
0.0000000000 
,
-0.0000000000 
,
0.0000000000 
,
-0.0000000000 
,
-0.0000000000 
,
0.0000000000 
,
0.0000000000 
,
-0.0474894084 
,
-0.0000000000 
,
-0.0105019035 
,
-0.0000000000 
,
-0.0000000000 
,
0.0000000000 
,
0.0219446737 
,
-0.0365702845 
,
-0.0026544111 
,
0.0000000000 
,
0.0000000000 
,
-0.0000000000 
,
-0.0000000000 
,
-0.0288286228 
,
-0.0240758993 
,
0.0000000000 
,
0.0000000000 
,
0.0029483570 
,
-0.0000000000 

,
0.0000000000 
,
-0.0000000000 
,
-0.0000000000 
,
0.0224797484 
,
0.0000000000 
,
0.0181649998 
,
0.0376674235 
,
0.0000000000 
,
-0.0275766440 
,
-0.0000000000 
,
0.0000000000 
,
0.0078901509 
,
0.0003074451 
,
0.0000000000 
,
-0.0000000000 
,
0.0000000000 
,
0.0000000000 
,
0.0193151478 
,
-0.0000000000 
,
0.0317197032 
,
0.0000000000 
,
-0.0387175754 
,
-0.0000000000 
,
0.0000000000 
,
0.0000000000 
,
0.0352756083 
,
0.0000000000 
,
0.0000000000 
,
0.0000000000 
,
-0.0090309940 
,
-0.0000000000 
,
0.0000000000 
,
-0.0000000000 
,
-0.0000000000 
,
0.0000000000 
,
-0.0000000000 
,
-0.0000000000 
,
-0.0207579136 
,
-0.0000000000 
,
0.0000000000 
,
-0.0000000000 
,
-0.0000000000 
,
-0.0000000000 
,
0.0513737313 
,
-0.0310904812 
,
0.0507920571 
,
0.0143169258 
,
-0.0000000000 
,
-0.0000000000 
,
-0.0000000000 
,
-0.0000000000 
,
0.0000000000 
,
0.0000000000 
,
-0.0000000000 
,
0.0298397485 
,
0.0000000000 
,
-0.0000000000 
,
-0.0000000000 
,
0.0000000000 
,
0.0000000000 
,
-0.0000000000 
,
0.0000000000 
,
-0.0000000000 
,
0.0000000000 
,
-0.0294805933 
,
0.0000000000 
,
-0.0196435060 
,
0.0000000000 
,
-0.0000000000 
,
-0.0000000000 
,
-0.0000000000 
,
-0.0000000000 
,
0.0000000000 
,
0.0009215096 
,
-0.0000000000 
,
-0.0000000000 
,
-0.0001503298 
,
-0.0000000000 
,
0.0000000000 
,
-0.0000000000 
,
0.0000000000 
,
-0.0000000000 
,
0.0000000000 
,
-0.0000000000 
,
-0.0000000000 
,
0.0000000000 
,
0.0000000000 
,
-0.0000000000 
,
0.0000000000 
,
-0.0328386016 
,
-0.0000000000 
,
-0.0269912668 
,
-0.0000000000 
,
-0.0000000000 
,
0.0000000000 
,
0.0635707229 
,
0.0601589344 
,
0.0344726518 
,
0.0000000000 
,
-0.0000000000 
,
-0.0127239618 
,
0.0000000000 
,
-0.0000000000 
,
-0.0000000000 
,
0.0567910559 
,
0.0074187494 
,
0.0425898694 
,
0.0004275050 
,
-0.0000000000 
,
-0.0211757738 
,
-0.0000000000 
,
0.0000000000 
,
0.0000000000 
,
0.0000000000 
,
-0.0199797340 
,
-0.0000000000 
,
0.0000000000 
,
0.0000000000 
,
0.0122438064 
,
0.0008052594 
,
-0.0127834976 
,
0.0480785072 
,
0.0000000000 
,
0.0000000000 
,
-0.0228629112 
,
0.0316689238 
,
-0.0000000000 
,
-0.0000000000 
,
0.0000000000 
,
-0.0000000000 
,
-0.0000000000 
,
-0.0000000000 
,
0.0000000000 
,
0.0000000000 
,
0.0000000000 
,
0.0336431116 
,
-0.0000000000 
,
-0.0216815621 
,
0.0000000000 
,
0.0000000000 
,
-0.0000000000 
,
-0.0312966481 
,
-0.0378807560 
,
0.0000000000 
,
0.0000000000 
,
-0.0000000000 
,
0.0000000000 
,
-0.0000000000 
,
0.0000000000 
,
-0.0419191122 
,
0.0000000000 
,
0.0000000000 
,
-0.0000000000 
,
-0.0000000000 
,
0.0000000000 
,
0.0456883088 
,
0.0000000000 
,
0.0349096321 
,
-0.0000000000 
,
-0.0000000000 
,
0.0000000000 
,
-0.0000000000 
,
-0.0000000000 
,
0.0307184737 
,
-0.0000000000 
,
0.0262625013 
,
-0.0000000000 
,
-0.0000000000 
,
-0.0532087982 
,
-0.0000000000 
,
0.0000000000 
,
-0.0000000000 
,
-0.0003979396 
,
0.0000000000 
,
-0.0000000000 
,
0.0000000000 
,
0.0000000000 
,
-0.0000000000 
,
-0.0000000000 
,
0.0000000000 
,
0.0000000000 
,
-0.0362531543 
,
-0.0000000000 
,
-0.0298322644 
,
-0.0000000000 
,
-0.0000000000 
,
0.0000000000 
,
-0.0111247357 
,
0.0359029658 
,
0.0433757938 
,
0.0000000000 
,
0.0000000000 
,
0.0000000000 
,
-0.0000000000 
,
0.0210063010 
,
-0.0111079961 
,
-0.0000000000 
,
-0.0000000000 
,
-0.0339027010 
,
0.0000000000 

,
-0.0000000000 
,
0.0000000000 
,
-0.0000000000 
,
-0.0150697222 
,
0.0000000000 
,
-0.0317197740 
,
-0.0300673842 
,
0.0000000000 
,
0.0151124569 
,
-0.0000000000 
,
0.0000000000 
,
-0.0173857808 
,
0.0007281584 
,
0.0000000000 
,
0.0000000000 
,
0.0000000000 
,
0.0000000000 
,
-0.0094837314 
,
-0.0000000000 
,
-0.0225224495 
,
-0.0000000000 
,
0.0437309854 
,
-0.0000000000 
,
0.0000000000 
,
-0.0000000000 
,
-0.0339589529 
,
-0.0000000000 
,
0.0000000000 
,
0.0000000000 
,
-0.0129496390 
,
-0.0000000000 
,
-0.0000000000 
,
-0.0000000000 
,
-0.0000000000 
,
-0.0000000000 
,
0.0000000000 
,
0.0000000000 
,
0.0223160442 
,
-0.0000000000 
,
0.0000000000 
,
0.0000000000 
,
-0.0000000000 
,
0.0000000000 
,
-0.0136995986 
,
0.0315947160 
,
-0.0460236073 
,
-0.0340715386 
,
0.0000000000 
,
0.0000000000 
,
0.0000000000 
,
0.0000000000 
,
0.0000000000 
,
-0.0000000000 
,
-0.0000000000 
,
-0.0200351346 
,
0.0000000000 
,
-0.0000000000 
,
0.0000000000 
,
-0.0000000000 
,
-0.0000000000 
,
0.0000000000 
,
-0.0000000000 
,
0.0000000000 
,
0.0000000000 
,
0.0228261873 
,
0.0000000000 
,
0.0070860428 
,
-0.0000000000 
,
-0.0000000000 
,
0.0000000000 
,
0.0000000000 
,
-0.0000000000 
,
-0.0000000000 
,
-0.0004352824 
,
0.0000000000 
,
-0.0000000000 
,
0.0027124458 
,
-0.0000000000 
,
-0.0000000000 
,
-0.0000000000 
,
0.0000000000 
,
-0.0000000000 
,
0.0000000000 
,
0.0000000000 
,
-0.0000000000 
,
0.0000000000 
,
-0.0000000000 
,
0.0000000000 
,
0.0000000000 
,
0.0564551353 
,
-0.0000000000 
,
0.0464263931 
,
0.0000000000 
,
-0.0000000000 
,
0.0000000000 
,
-0.0268619694 
,
-0.0468815975 
,
-0.0232537109 
,
-0.0000000000 
,
-0.0000000000 
,
0.0264411382 
,
-0.0000000000 
,
-0.0000000000 
,
-0.0000000000 
,
-0.0399722569 
,
0.0036890977 
,
-0.0328905918 
,
0.0007714906 
,
-0.0000000000 
,
-0.0062694359 
,
-0.0000000000 
,
-0.0000000000 
,
0.0000000000 
,
-0.0000000000 
,
0.0112131648 
,
-0.0000000000 
,
0.0000000000 
,
-0.0000000000 
,
-0.0022800120 
,
-0.0012889296 
,
0.0063404008 
,
-0.0271690674 
,
-0.0000000000 
,
-0.0000000000 
,
0.0322036184 
,
-0.0210367441 
,
-0.0000000000 
,
0.0000000000 
,
-0.0000000000 
,
0.0000000000 
,
0.0000000000 
,
-0.0000000000 
,
-0.0000000000 
,
-0.0000000000 
,
-0.0000000000 
,
-0.0285198949 
,
-0.0000000000 
,
0.0297078006 
,
-0.0000000000 
,
-0.0000000000 
,
-0.0000000000 
,
0.0251357090 
,
0.0394963399 
,
0.0000000000 
,
0.0000000000 
,
-0.0000000000 
,
-0.0000000000 
,
-0.0000000000 
,
-0.0000000000 
,
0.0332462452 
,
0.0000000000 
,
0.0000000000 
,
0.0000000000 
,
0.0000000000 
,
0.0000000000 
,
-0.0369833335 
,
0.0000000000 
,
-0.0316424817 
,
-0.0000000000 
,
-0.0000000000 
,
0.0000000000 
,
-0.0000000000 
,
0.0000000000 
,
-0.0315735750 
,
-0.0000000000 
,
-0.0282295160 
,
-0.0000000000 
,
-0.0000000000 
,
-0.0038776235 
,
-0.0000000000 
,
-0.0000000000 
,
-0.0000000000 
,
0.0008649596 
,
-0.0000000000 
,
-0.0000000000 
,
0.0000000000 
,
0.0000000000 
,
0.0000000000 
,
-0.0000000000 
,
-0.0000000000 
,
0.0000000000 
,
-0.0226610303 
,
-0.0000000000 
,
0.0205300432 
,
-0.0000000000 
,
-0.0000000000 
,
-0.0000000000 
,
0.0304216295 
,
-0.0481822118 
,
-0.0340607651 
,
-0.0000000000 
,
-0.0000000000 
,
-0.0000000000 
,
0.0000000000 
,
-0.0206924360 
,
0.0110369911 
,
0.0000000000 
,
0.0000000000 
,
0.0342676193 
,
0.0000000000 

,
-0.0000000000 
,
0.0000000000 
,
0.0000000000 
,
-0.0000000000 
,
-0.0000000000 
,
-0.0000000000 
,
0.0000000000 
,
0.0000000000 
,
0.0000000000 
,
-0.0000000000 
,
0.0000000000 
,
-0.0000000000 
,
-0.0000000000 
,
-0.0000000000 
,
0.0000000000 
,
0.0000000000 
,
-0.0000000000 
,
-0.0000000000 
,
-0.0000000000 
,
-0.0000000000 
,
0.0000000000 
,
-0.0000000000 
,
0.0000000000 
,
-0.0000000000 
,
-0.0000000000 
,
0.0000000000 
,
0.0000000000 
,
0.0000000000 
,
-0.0000000000 
,
0.0000000000 
,
-0.0000000000 
,
-0.0000727528 
,
0.0000000000 
,
0.0000000000 
,
0.0000000000 
,
0.0000000000 
,
-0.0000000000 
,
