float conv3_weights [200][100][3][3] = {
-0.0000000000, 0.0000727528, 0.0000000000 ,
-0.0000000000, 0.0000000000, -0.0000000000 ,
0.0000000000, -0.0000727528, -0.0000000000 
,
-0.0000000000, -0.0000000000, -0.0000000000 ,
0.0000000000, -0.0000000000, 0.0000727528 ,
-0.0000000000, -0.0000000000, 0.0000000000 
,
0.0000000000, 0.0000000000, -0.0000000000 ,
0.0000000000, 0.0000000000, 0.0000000000 ,
0.0000000000, -0.0000000000, -0.0000000000 
,
0.0000727528, 0.0000000000, 0.0000000000 ,
0.0000000000, -0.0000727528, 0.0000000000 ,
-0.0000000000, 0.0000000000, -0.0000000000 
,
-0.0000000000, -0.0000000000, -0.0000000000 ,
0.0000000000, -0.0000727528, -0.0000000000 ,
0.0000000000, -0.0000000000, 0.0000000000 
,
0.0000000000, 0.0000727528, -0.0000000000 ,
-0.0000000000, 0.0000000000, -0.0000000000 ,
0.0000727528, 0.0000000000, 0.0000000000 
,
0.0000000000, -0.0000000000, -0.0000727528 ,
0.0000000000, 0.0000000000, -0.0000000000 ,
0.0000000000, 0.0000000000, 0.0000000000 
,
0.0000000000, -0.0000000000, -0.0000000000 ,
0.0000000000, -0.0000000000, -0.0000000000 ,
0.0000000000, 0.0000000000, -0.0000000000 
,
0.0000727528, -0.0000000000, -0.0000000000 ,
0.0000000000, 0.0000000000, -0.0000000000 ,
-0.0000000000, -0.0000000000, -0.0000000000 
,
0.0000000000, -0.0000000000, -0.0000000000 ,
-0.0000000000, 0.0000000000, -0.0000000000 ,
0.0000000000, -0.0000000000, -0.0000000000 
,
-0.0000000000, -0.0000000000, -0.0000000000 ,
-0.0000000000, 0.0000000000, 0.0000000000 ,
-0.0000000000, -0.0000000000, -0.0000000000 
,
0.0000000000, 0.0000000000, -0.0000000000 ,
0.0000000000, -0.0000000000, -0.0000000000 ,
0.0000000000, 0.0000000000, -0.0000000000 
,
-0.0000000000, -0.0000000000, -0.0000000000 ,
0.0000000000, 0.0000000000, -0.0000000000 ,
-0.0000000000, -0.0000000000, -0.0000000000 
,
-0.0000000000, -0.0000000000, -0.0000000000 ,
0.0000000000, -0.0000000000, 0.0000000000 ,
-0.0000000000, -0.0000000000, -0.0000000000 
,
-0.0000000000, -0.0000000000, -0.0000000000 ,
-0.0000000000, 0.0000000000, 0.0000000000 ,
-0.0000000000, -0.0000000000, -0.0000000000 
,
-0.0000000000, 0.0000000000, 0.0000000000 ,
-0.0000000000, -0.0000000000, -0.0000000000 ,
0.0000000000, -0.0000000000, -0.0000000000 
,
0.0000000000, 0.0000000000, 0.0000000000 ,
0.0000000000, 0.0000000000, -0.0000000000 ,
0.0000000000, 0.0000727528, -0.0000000000 
,
0.0000000000, -0.0000000000, -0.0000000000 ,
-0.0000000000, 0.0000000000, -0.0000000000 ,
-0.0000000000, -0.0000000000, -0.0000000000 
,
-0.0000000000, 0.0000000000, -0.0000000000 ,
0.0000000000, -0.0000000000, -0.0000000000 ,
0.0000000000, -0.0000000000, 0.0000000000 
,
-0.0000727528, 0.0000000000, -0.0000000000 ,
0.0000000000, -0.0000000000, -0.0000000000 ,
-0.0000000000, 0.0000727528, -0.0000000000 
,
0.0000000000, -0.0000000000, 0.0000000000 ,
0.0000000000, 0.0000000000, 0.0000000000 ,
0.0000000000, 0.0000000000, -0.0000000000 
,
-0.0000000000, -0.0000000000, -0.0000000000 ,
-0.0000000000, -0.0000000000, 0.0000000000 ,
-0.0000000000, -0.0000000000, -0.0000000000 
,
0.0000000000, 0.0000000000, 0.0000000000 ,
0.0000000000, 0.0000000000, -0.0000000000 ,
-0.0000000000, 0.0000000000, -0.0000000000 
,
-0.0000000000, -0.0000000000, 0.0000000000 ,
0.0000000000, -0.0000000000, -0.0000000000 ,
0.0000000000, 0.0000000000, -0.0000000000 
,
0.0000000000, 0.0000000000, -0.0000000000 ,
-0.0000000000, -0.0000000000, -0.0000000000 ,
-0.0000000000, 0.0000000000, 0.0000000000 
,
0.0000000000, 0.0000000000, 0.0000000000 ,
-0.0000727528, -0.0000000000, -0.0000000000 ,
-0.0000727528, -0.0000000000, 0.0000000000 
,
-0.0000000000, -0.0000000000, 0.0000000000 ,
0.0000000000, 0.0000000000, 0.0000000000 ,
-0.0000000000, -0.0000000000, -0.0000000000 
,
0.0000000000, -0.0000000000, -0.0000000000 ,
0.0000000000, 0.0000000000, 0.0000000000 ,
-0.0000000000, 0.0000000000, -0.0000000000 
,
-0.0000000000, -0.0000000000, -0.0000000000 ,
-0.0000000000, 0.0000000000, 0.0000000000 ,
0.0000000000, 0.0000000000, -0.0000000000 
,
0.0000000000, -0.0000000000, -0.0000000000 ,
0.0000000000, -0.0000000000, -0.0000000000 ,
0.0000000000, -0.0000000000, 0.0000000000 
,
0.0000000000, -0.0000000000, 0.0000727528 ,
0.0000000000, -0.0000000000, 0.0000000000 ,
-0.0000000000, 0.0000000000, 0.0000000000 
,
0.0000000000, -0.0000000000, 0.0000000000 ,
-0.0000000000, -0.0000000000, -0.0000000000 ,
-0.0000000000, 0.0000000000, -0.0000000000 
,
-0.0000000000, -0.0000000000, -0.0000000000 ,
0.0000000000, -0.0000000000, -0.0000000000 ,
0.0000000000, 0.0000000000, -0.0000000000 
,
-0.0000000000, 0.0000000000, 0.0000000000 ,
-0.0000000000, -0.0000000000, 0.0000000000 ,
0.0000000000, -0.0000000000, -0.0000000000 
,
-0.0000000000, -0.0000000000, 0.0000000000 ,
0.0000000000, 0.0000000000, -0.0000000000 ,
0.0000000000, 0.0000000000, -0.0000000000 
,
-0.0000000000, -0.0000000000, -0.0000000000 ,
-0.0000000000, -0.0000000000, 0.0000000000 ,
-0.0000000000, -0.0000000000, 0.0000000000 
,
-0.0000000000, 0.0000000000, -0.0000000000 ,
-0.0000000000, -0.0000000000, -0.0000000000 ,
0.0000000000, -0.0000000000, -0.0000000000 
,
0.0000000000, -0.0000727528, 0.0000000000 ,
0.0000727528, -0.0000000000, 0.0000000000 ,
0.0000000000, -0.0000000000, 0.0000000000 
,
0.0000000000, -0.0000000000, -0.0000000000 ,
0.0000000000, -0.0000000000, -0.0000000000 ,
-0.0000000000, -0.0000000000, -0.0000000000 
,
0.0000000000, 0.0000000000, -0.0000000000 ,
-0.0000000000, 0.0000000000, -0.0000000000 ,
0.0000000000, 0.0000000000, 0.0000000000 
,
-0.0000000000, 0.0000000000, -0.0000000000 ,
-0.0000000000, 0.0000000000, 0.0000000000 ,
-0.0000000000, 0.0000000000, 0.0000000000 
,
0.0000000000, 0.0000000000, 0.0000000000 ,
-0.0000000000, -0.0000000000, -0.0000000000 ,
-0.0000000000, 0.0000000000, -0.0000000000 
,
0.0000000000, -0.0000000000, -0.0000000000 ,
-0.0000000000, 0.0000000000, 0.0000000000 ,
-0.0000000000, -0.0000000000, 0.0000000000 
,
0.0000000000, -0.0000000000, -0.0000000000 ,
0.0000000000, -0.0000000000, -0.0000000000 ,
0.0000000000, 0.0000000000, 0.0000000000 
,
-0.0000000000, 0.0000000000, 0.0000000000 ,
-0.0000000000, 0.0000727528, 0.0000000000 ,
0.0000000000, -0.0000000000, -0.0000000000 
,
0.0000000000, 0.0000000000, 0.0000000000 ,
0.0000000000, -0.0000000000, 0.0000000000 ,
0.0000000000, -0.0000000000, 0.0000000000 
,
0.0000000000, -0.0000000000, 0.0000000000 ,
-0.0000000000, -0.0000000000, -0.0000000000 ,
-0.0000000000, -0.0000000000, -0.0000000000 
,
-0.0000000000, -0.0000000000, -0.0000000000 ,
0.0000000000, 0.0000000000, 0.0000000000 ,
0.0000000000, 0.0000000000, -0.0000000000 
,
-0.0000000000, -0.0000000000, -0.0000000000 ,
-0.0000000000, 0.0000000000, -0.0000000000 ,
-0.0000000000, -0.0000000000, -0.0000000000 
,
-0.0000000000, -0.0000000000, 0.0000000000 ,
-0.0000000000, 0.0000000000, 0.0000000000 ,
0.0000000000, -0.0000000000, 0.0000000000 
,
-0.0000000000, -0.0000000000, -0.0000000000 ,
-0.0000000000, -0.0000000000, 0.0000000000 ,
-0.0000000000, 0.0000000000, 0.0000000000 
,
-0.0000000000, -0.0000000000, 0.0000000000 ,
0.0000000000, 0.0000000000, 0.0000000000 ,
-0.0000000000, -0.0000000000, 0.0000000000 
,
-0.0000000000, 0.0000000000, 0.0000000000 ,
0.0000000000, 0.0000000000, -0.0000727528 ,
0.0000000000, 0.0000000000, -0.0000000000 
,
0.0000000000, -0.0000000000, -0.0000000000 ,
-0.0000000000, -0.0000000000, 0.0000000000 ,
0.0000000000, -0.0000000000, -0.0000000000 
,
0.0000000000, -0.0000000000, -0.0000000000 ,
0.0000000000, -0.0000000000, -0.0000000000 ,
-0.0000000000, -0.0000000000, 0.0000000000 
,
0.0000000000, -0.0000727528, -0.0000727528 ,
-0.0000000000, -0.0000000000, -0.0000000000 ,
-0.0000000000, 0.0000727528, 0.0000000000 
,
0.0000000000, 0.0000000000, -0.0000000000 ,
-0.0000000000, -0.0000727528, 0.0000000000 ,
-0.0000000000, -0.0000000000, 0.0000000000 
,
-0.0000000000, -0.0000000000, -0.0000000000 ,
-0.0000000000, -0.0000000000, -0.0000000000 ,
-0.0000000000, 0.0000000000, 0.0000000000 
,
-0.0000000000, -0.0000000000, 0.0000000000 ,
0.0000000000, 0.0000000000, -0.0000000000 ,
0.0000000000, 0.0000000000, 0.0000000000 
,
-0.0000000000, 0.0000000000, 0.0000000000 ,
0.0000000000, 0.0000000000, 0.0000000000 ,
0.0000000000, 0.0000000000, 0.0000000000 
,
0.0000000000, -0.0000000000, -0.0000727528 ,
0.0000000000, -0.0000727528, 0.0000000000 ,
-0.0000000000, -0.0000000000, -0.0000000000 
,
-0.0000000000, 0.0000727528, 0.0000000000 ,
0.0000000000, 0.0000000000, 0.0000727528 ,
0.0000727528, 0.0000000000, 0.0000000000 
,
0.0000000000, -0.0000000000, -0.0000000000 ,
-0.0000000000, -0.0000000000, -0.0000000000 ,
-0.0000000000, -0.0000000000, -0.0000000000 
,
-0.0000000000, 0.0000000000, 0.0000000000 ,
-0.0000000000, -0.0000000000, -0.0000000000 ,
-0.0000000000, -0.0000000000, 0.0000000000 
,
-0.0000000000, 0.0000000000, -0.0000000000 ,
0.0000000000, 0.0000000000, -0.0000000000 ,
-0.0000000000, -0.0000000000, 0.0000000000 
,
-0.0000000000, 0.0000000000, 0.0000000000 ,
0.0000727528, 0.0000727528, -0.0000000000 ,
0.0000000000, 0.0000000000, 0.0000000000 
,
-0.0000000000, 0.0000000000, -0.0000000000 ,
-0.0000000000, 0.0000000000, 0.0000000000 ,
-0.0000000000, -0.0000000000, 0.0000000000 
,
-0.0000000000, 0.0000000000, -0.0000000000 ,
0.0000000000, -0.0000000000, -0.0000000000 ,
-0.0000000000, -0.0000000000, -0.0000000000 
,
-0.0000000000, -0.0000000000, -0.0000000000 ,
0.0000000000, -0.0000000000, -0.0000000000 ,
-0.0000000000, 0.0000000000, 0.0000000000 
,
0.0000000000, 0.0000000000, -0.0000000000 ,
-0.0000000000, 0.0000000000, 0.0000000000 ,
-0.0000000000, 0.0000000000, -0.0000000000 
,
-0.0000000000, -0.0000000000, 0.0000000000 ,
-0.0000000000, -0.0000000000, -0.0000000000 ,
0.0000000000, -0.0000000000, -0.0000000000 
,
0.0000000000, 0.0000727528, -0.0000000000 ,
0.0000000000, 0.0000000000, -0.0000000000 ,
0.0000000000, 0.0000727528, 0.0000000000 
,
-0.0000000000, -0.0000000000, 0.0000000000 ,
0.0000000000, 0.0000000000, -0.0000000000 ,
0.0000000000, -0.0000000000, -0.0000000000 
,
-0.0000000000, -0.0000000000, -0.0000000000 ,
-0.0000000000, -0.0000000000, 0.0000000000 ,
0.0000000000, 0.0000000000, 0.0000000000 
,
-0.0000727528, -0.0000000000, 0.0000000000 ,
0.0000000000, -0.0000000000, 0.0000000000 ,
0.0000000000, -0.0000000000, -0.0000000000 
,
-0.0000000000, -0.0000000000, 0.0000000000 ,
-0.0000000000, -0.0000000000, -0.0000000000 ,
-0.0000000000, 0.0000000000, -0.0000000000 
,
0.0000000000, -0.0000727528, 0.0000000000 ,
0.0000000000, -0.0000000000, 0.0000000000 ,
-0.0000727528, 0.0000727528, -0.0000000000 
,
0.0000000000, -0.0000000000, -0.0000000000 ,
0.0000000000, -0.0000000000, 0.0000000000 ,
-0.0000000000, 0.0000000000, 0.0000000000 
,
-0.0000000000, 0.0000000000, 0.0000000000 ,
-0.0000000000, -0.0000000000, -0.0000000000 ,
-0.0000000000, -0.0000000000, -0.0000000000 
,
0.0000000000, 0.0000000000, -0.0000000000 ,
0.0000000000, 0.0000000000, 0.0000000000 ,
0.0000000000, -0.0000000000, -0.0000000000 
,
-0.0000000000, -0.0000000000, -0.0000000000 ,
-0.0000000000, -0.0000000000, 0.0000000000 ,
-0.0000000000, 0.0000000000, 0.0000000000 
,
-0.0000000000, 0.0000727528, 0.0000000000 ,
-0.0000727528, 0.0000000000, 0.0000727528 ,
-0.0000000000, 0.0000000000, 0.0000000000 
,
0.0000000000, -0.0000000000, -0.0000000000 ,
-0.0000000000, 0.0000000000, 0.0000000000 ,
-0.0000000000, 0.0000000000, -0.0000000000 
,
-0.0000000000, -0.0000000000, 0.0000000000 ,
-0.0000000000, -0.0000000000, -0.0000000000 ,
0.0000000000, -0.0000000000, 0.0000000000 
,
0.0000000000, 0.0000000000, 0.0000000000 ,
-0.0000000000, -0.0000000000, -0.0000000000 ,
-0.0000000000, -0.0000000000, -0.0000000000 
,
0.0000000000, -0.0000000000, 0.0000000000 ,
0.0000000000, 0.0000000000, -0.0000000000 ,
-0.0000000000, 0.0000000000, -0.0000000000 
,
0.0000727528, 0.0000000000, 0.0000000000 ,
0.0000000000, -0.0000000000, -0.0000727528 ,
0.0000000000, -0.0000727528, -0.0000000000 
,
0.0000000000, -0.0000000000, -0.0000000000 ,
-0.0000000000, -0.0000000000, -0.0000000000 ,
-0.0000000000, 0.0000000000, -0.0000000000 
,
-0.0000000000, -0.0000000000, -0.0000000000 ,
-0.0000000000, -0.0000000000, -0.0000000000 ,
-0.0000000000, -0.0000000000, -0.0000000000 
,
0.0000000000, -0.0000000000, -0.0000000000 ,
-0.0000000000, -0.0000000000, 0.0000000000 ,
-0.0000000000, -0.0000000000, -0.0000000000 
,
0.0000000000, -0.0000727528, 0.0000000000 ,
0.0000000000, -0.0000727528, -0.0000000000 ,
0.0000000000, -0.0000000000, -0.0000727528 
,
0.0000000000, 0.0000000000, 0.0000000000 ,
0.0000000000, 0.0000000000, -0.0000000000 ,
-0.0000000000, 0.0000000000, -0.0000000000 
,
-0.0000000000, 0.0000000000, -0.0000000000 ,
0.0000000000, -0.0000727528, 0.0000000000 ,
-0.0000000000, 0.0000000000, 0.0000000000 
,
-0.0000000000, -0.0000000000, -0.0000000000 ,
0.0000000000, -0.0000000000, 0.0000000000 ,
-0.0000000000, -0.0000000000, 0.0000000000 
,
-0.0000000000, -0.0000000000, 0.0000000000 ,
-0.0000000000, -0.0000000000, 0.0000000000 ,
0.0000000000, -0.0000000000, 0.0000000000 
,
0.0000000000, 0.0000000000, 0.0000000000 ,
-0.0000000000, 0.0000000000, -0.0000000000 ,
-0.0000000000, -0.0000000000, -0.0000000000 
,
0.0000727528, 0.0000000000, 0.0000000000 ,
0.0000000000, -0.0000000000, 0.0000000000 ,
0.0000000000, 0.0000727528, 0.0000000000 
,
-0.0000000000, 0.0000000000, -0.0000727528 ,
0.0000000000, -0.0000000000, 0.0000000000 ,
-0.0000000000, -0.0000000000, -0.0000000000 
,
-0.0000000000, -0.0000000000, -0.0000000000 ,
-0.0000000000, -0.0000000000, -0.0000000000 ,
-0.0000000000, -0.0000000000, 0.0000000000 
,
-0.0000000000, 0.0000000000, -0.0000000000 ,
0.0000000000, -0.0000000000, 0.0000000000 ,
-0.0000000000, -0.0000000000, -0.0000000000 

,
-0.0000000000, -0.0000000000, -0.0000000000 ,
0.0000000000, -0.0000000000, 0.0000000000 ,
-0.0000000000, 0.0000000000, -0.0000000000 
,
-0.0000000000, -0.0000000000, 0.0000000000 ,
-0.0000000000, 0.0000000000, -0.0000000000 ,
0.0000000000, 0.0000000000, 0.0000000000 
,
-0.0000000000, 0.0000000000, 0.0000000000 ,
0.0000000000, 0.0000000000, -0.0000000000 ,
0.0000000000, -0.0000000000, -0.0000000000 
,
0.0000000000, 0.0000000000, 0.0000000000 ,
0.0000000000, -0.0000000000, -0.0000000000 ,
-0.0000000000, 0.0000000000, -0.0000000000 
,
-0.0000000000, -0.0000000000, -0.0000000000 ,
0.0000000000, 0.0000000000, -0.0000000000 ,
-0.0000000000, -0.0000000000, -0.0000000000 
,
0.0000000000, -0.0000000000, -0.0000000000 ,
0.0000727528, 0.0000000000, 0.0000000000 ,
-0.0000000000, 0.0000000000, 0.0000000000 
,
-0.0000000000, -0.0000000000, 0.0000000000 ,
-0.0000000000, 0.0000000000, -0.0000000000 ,
-0.0000000000, 0.0000000000, 0.0000000000 
,
0.0000000000, -0.0000000000, -0.0000000000 ,
-0.0000000000, -0.0000000000, -0.0000000000 ,
-0.0000000000, -0.0000000000, 0.0000000000 
,
0.0000000000, -0.0000000000, 0.0000000000 ,
0.0000000000, -0.0000000000, -0.0000000000 ,
-0.0000000000, 0.0000000000, 0.0000000000 
,
-0.0000000000, -0.0000000000, -0.0000000000 ,
-0.0000000000, 0.0000000000, 0.0000000000 ,
0.0000000000, -0.0000000000, -0.0000000000 
,
0.0000000000, 0.0000000000, -0.0000000000 ,
-0.0000000000, -0.0000000000, -0.0000000000 ,
-0.0000000000, -0.0000000000, -0.0000000000 
,
-0.0000000000, -0.0000000000, 0.0000000000 ,
-0.0000000000, -0.0000000000, 0.0000000000 ,
-0.0000000000, -0.0000000000, 0.0000000000 
,
0.0000000000, -0.0000000000, -0.0000000000 ,
0.0000000000, -0.0000000000, -0.0000000000 ,
-0.0000000000, 0.0000000000, -0.0000000000 
,
-0.0000000000, -0.0000000000, 0.0000000000 ,
0.0000000000, -0.0000000000, -0.0000000000 ,
-0.0000000000, -0.0000000000, -0.0000000000 
,
0.0000000000, -0.0000000000, -0.0000000000 ,
-0.0000000000, -0.0000000000, 0.0000000000 ,
-0.0000000000, -0.0000000000, -0.0000000000 
,
-0.0000000000, -0.0000000000, -0.0000000000 ,
-0.0000000000, -0.0000000000, -0.0000000000 ,
0.0000000000, -0.0000000000, -0.0000000000 
,
0.0000000000, -0.0000000000, -0.0000000000 ,
-0.0000000000, 0.0000000000, -0.0000000000 ,
0.0000000000, 0.0000000000, 0.0000000000 
,
0.0000000000, -0.0000000000, -0.0000000000 ,
-0.0000000000, -0.0000000000, -0.0000000000 ,
0.0000000000, 0.0000000000, -0.0000000000 
,
-0.0000000000, -0.0000000000, -0.0000000000 ,
-0.0000000000, -0.0000000000, 0.0000000000 ,
-0.0000000000, -0.0000000000, -0.0000000000 
,
-0.0000000000, -0.0000000000, -0.0000000000 ,
-0.0000000000, 0.0000727528, -0.0000000000 ,
-0.0000000000, -0.0000000000, 0.0000000000 
,
0.0000000000, 0.0000000000, 0.0000000000 ,
-0.0000000000, -0.0000000000, 0.0000000000 ,
0.0000000000, -0.0000000000, 0.0000000000 
,
-0.0000000000, -0.0000000000, 0.0000000000 ,
-0.0000000000, 0.0000000000, 0.0000000000 ,
-0.0000000000, -0.0000000000, -0.0000000000 
,
-0.0000000000, 0.0000000000, -0.0000000000 ,
-0.0000000000, -0.0000000000, -0.0000000000 ,
-0.0000000000, -0.0000000000, -0.0000000000 
,
-0.0000000000, -0.0000000000, -0.0000000000 ,
0.0000000000, -0.0000000000, 0.0000000000 ,
-0.0000000000, -0.0000000000, 0.0000000000 
,
-0.0000000000, 0.0000000000, -0.0000000000 ,
-0.0000000000, -0.0000000000, -0.0000000000 ,
-0.0000000000, 0.0000000000, -0.0000000000 
,
-0.0000000000, -0.0000000000, -0.0000000000 ,
-0.0000000000, 0.0000000000, 0.0000000000 ,
0.0000000000, -0.0000000000, 0.0000000000 
,
-0.0000000000, -0.0000000000, -0.0000000000 ,
-0.0000000000, 0.0000000000, -0.0000000000 ,
-0.0000000000, 0.0000000000, 0.0000000000 
,
-0.0000000000, 0.0000000000, -0.0000000000 ,
-0.0000000000, 0.0000000000, 0.0000000000 ,
-0.0000000000, 0.0000000000, -0.0000000000 
,
-0.0000000000, 0.0000000000, -0.0000000000 ,
0.0000000000, 0.0000000000, -0.0000000000 ,
-0.0000000000, -0.0000000000, 0.0000000000 
,
-0.0000727528, -0.0000000000, -0.0000000000 ,
-0.0000000000, -0.0000000000, -0.0000000000 ,
-0.0000000000, -0.0000000000, -0.0000000000 
,
0.0000000000, -0.0000000000, 0.0000727528 ,
0.0000000000, -0.0000000000, 0.0000000000 ,
0.0000000000, -0.0000000000, -0.0000000000 
,
0.0000000000, 0.0000000000, -0.0000000000 ,
-0.0000000000, -0.0000000000, 0.0000000000 ,
-0.0000000000, -0.0000000000, 0.0000000000 
,
0.0000000000, -0.0000000000, -0.0000000000 ,
-0.0000000000, -0.0000000000, -0.0000000000 ,
-0.0000000000, -0.0000000000, -0.0000000000 
,
-0.0000000000, -0.0000000000, -0.0000000000 ,
-0.0000000000, 0.0000000000, 0.0000000000 ,
0.0000000000, -0.0000000000, -0.0000000000 
,
-0.0000000000, -0.0000000000, 0.0000000000 ,
0.0000000000, -0.0000000000, -0.0000000000 ,
-0.0000000000, -0.0000000000, -0.0000000000 
,
-0.0000000000, 0.0000000000, -0.0000000000 ,
-0.0000000000, -0.0000000000, -0.0000000000 ,
-0.0000000000, -0.0000000000, 0.0000000000 
,
-0.0000000000, -0.0000000000, 0.0000000000 ,
-0.0000000000, -0.0000000000, -0.0000000000 ,
-0.0000000000, 0.0000000000, -0.0000000000 
,
-0.0000000000, -0.0000000000, -0.0000000000 ,
0.0000000000, -0.0000000000, -0.0000000000 ,
-0.0000000000, -0.0000000000, -0.0000000000 
,
-0.0000000000, -0.0000000000, -0.0000000000 ,
-0.0000000000, -0.0000000000, 0.0000000000 ,
0.0000000000, -0.0000000000, 0.0000000000 
,
-0.0000000000, -0.0000000000, -0.0000000000 ,
-0.0000000000, -0.0000000000, -0.0000000000 ,
-0.0000000000, 0.0000000000, -0.0000000000 
,
0.0000000000, -0.0000000000, 0.0000000000 ,
-0.0000000000, -0.0000000000, -0.0000000000 ,
-0.0000000000, 0.0000000000, 0.0000000000 
,
-0.0000000000, -0.0000000000, -0.0000000000 ,
0.0000000000, 0.0000000000, 0.0000000000 ,
-0.0000000000, 0.0000000000, -0.0000000000 
,
-0.0000000000, -0.0000000000, 0.0000000000 ,
-0.0000000000, -0.0000000000, -0.0000000000 ,
-0.0000000000, 0.0000000000, 0.0000000000 
,
0.0000000000, -0.0000000000, 0.0000000000 ,
-0.0000000000, -0.0000000000, -0.0000000000 ,
-0.0000000000, -0.0000000000, -0.0000000000 
,
-0.0000727528, -0.0000000000, 0.0000000000 ,
0.0000000000, -0.0000000000, 0.0000727528 ,
0.0000000000, -0.0000000000, -0.0000000000 
,
-0.0000000000, -0.0000000000, 0.0000000000 ,
-0.0000000000, -0.0000000000, 0.0000000000 ,
0.0000000000, -0.0000000000, -0.0000000000 
,
-0.0000000000, -0.0000000000, -0.0000000000 ,
0.0000000000, 0.0000000000, -0.0000000000 ,
-0.0000000000, 0.0000000000, -0.0000000000 
,
0.0000000000, -0.0000000000, -0.0000000000 ,
0.0000000000, -0.0000000000, -0.0000000000 ,
-0.0000000000, 0.0000000000, -0.0000000000 
,
0.0000000000, 0.0000000000, -0.0000000000 ,
-0.0000000000, -0.0000000000, -0.0000000000 ,
0.0000000000, -0.0000000000, -0.0000000000 
,
-0.0000000000, -0.0000000000, 0.0000000000 ,
-0.0000000000, -0.0000000000, -0.0000000000 ,
0.0000000000, -0.0000000000, -0.0000000000 
,
-0.0000000000, 0.0000000000, -0.0000000000 ,
-0.0000000000, 0.0000000000, -0.0000000000 ,
0.0000000000, -0.0000000000, 0.0000000000 
,
-0.0000000000, -0.0000000000, -0.0000000000 ,
-0.0000000000, 0.0000000000, 0.0000000000 ,
0.0000000000, -0.0000000000, -0.0000000000 
,
0.0000000000, -0.0000000000, -0.0000000000 ,
0.0000000000, 0.0000000000, -0.0000000000 ,
-0.0000727528, 0.0000000000, 0.0000000000 
,
0.0000000000, -0.0000000000, 0.0000000000 ,
-0.0000000000, 0.0000000000, 0.0000000000 ,
-0.0000000000, -0.0000000000, -0.0000000000 
,
-0.0000000000, -0.0000000000, 0.0000000000 ,
-0.0000000000, -0.0000000000, -0.0000000000 ,
0.0000000000, -0.0000000000, -0.0000000000 
,
-0.0000000000, 0.0000000000, 0.0000000000 ,
0.0000000000, 0.0000000000, 0.0000000000 ,
0.0000000000, -0.0000000000, -0.0000000000 
,
-0.0000000000, 0.0000000000, 0.0000727528 ,
-0.0000000000, 0.0000000000, -0.0000000000 ,
-0.0000000000, -0.0000000000, -0.0000000000 
,
-0.0000000000, -0.0000000000, -0.0000000000 ,
-0.0000000000, -0.0000000000, -0.0000000000 ,
-0.0000000000, -0.0000000000, -0.0000000000 
,
0.0000000000, 0.0000000000, 0.0000000000 ,
0.0000000000, -0.0000000000, -0.0000000000 ,
0.0000000000, 0.0000000000, 0.0000000000 
,
0.0000000000, 0.0000000000, 0.0000000000 ,
-0.0000727528, -0.0000000000, 0.0000000000 ,
-0.0000000000, -0.0000000000, -0.0000000000 
,
0.0000000000, 0.0000000000, -0.0000000000 ,
-0.0000000000, -0.0000000000, -0.0000000000 ,
-0.0000000000, 0.0000000000, 0.0000000000 
,
-0.0000000000, -0.0000000000, -0.0000000000 ,
-0.0000000000, -0.0000000000, -0.0000000000 ,
0.0000000000, -0.0000000000, -0.0000000000 
,
-0.0000000000, -0.0000000000, -0.0000000000 ,
-0.0000000000, -0.0000000000, -0.0000000000 ,
-0.0000000000, -0.0000000000, -0.0000000000 
,
-0.0000000000, 0.0000000000, -0.0000000000 ,
-0.0000000000, -0.0000000000, -0.0000000000 ,
0.0000000000, 0.0000000000, -0.0000000000 
,
-0.0000000000, -0.0000000000, 0.0000000000 ,
0.0000000000, -0.0000000000, -0.0000000000 ,
-0.0000000000, -0.0000000000, -0.0000000000 
,
0.0000000000, -0.0000000000, 0.0000000000 ,
0.0000000000, -0.0000000000, 0.0000000000 ,
-0.0000000000, 0.0000000000, -0.0000000000 
,
-0.0000000000, -0.0000000000, -0.0000000000 ,
-0.0000000000, -0.0000000000, -0.0000000000 ,
-0.0000000000, 0.0000000000, -0.0000000000 
,
-0.0000000000, -0.0000000000, -0.0000000000 ,
-0.0000000000, -0.0000000000, 0.0000000000 ,
-0.0000000000, -0.0000000000, -0.0000000000 
,
-0.0000000000, -0.0000000000, -0.0000000000 ,
-0.0000000000, 0.0000000000, -0.0000000000 ,
0.0000000000, 0.0000000000, -0.0000000000 
,
-0.0000000000, -0.0000000000, 0.0000000000 ,
-0.0000000000, -0.0000000000, 0.0000000000 ,
-0.0000000000, -0.0000000000, -0.0000000000 
,
-0.0000000000, -0.0000000000, -0.0000000000 ,
-0.0000000000, -0.0000000000, 0.0000000000 ,
-0.0000000000, 0.0000000000, -0.0000000000 
,
0.0000000000, -0.0000000000, 0.0000000000 ,
-0.0000727528, -0.0000000000, 0.0000000000 ,
-0.0000000000, 0.0000000000, -0.0000000000 
,
-0.0000000000, -0.0000000000, 0.0000000000 ,
0.0000000000, -0.0000000000, 0.0000000000 ,
-0.0000000000, -0.0000000000, 0.0000000000 
,
-0.0000000000, -0.0000000000, -0.0000000000 ,
0.0000000000, 0.0000000000, -0.0000000000 ,
-0.0000000000, -0.0000000000, -0.0000000000 
,
0.0000000000, -0.0000727528, -0.0000000000 ,
-0.0000000000, -0.0000000000, 0.0000000000 ,
-0.0000000000, -0.0000000000, -0.0000000000 
,
-0.0000000000, -0.0000000000, -0.0000000000 ,
0.0000000000, 0.0000000000, -0.0000000000 ,
-0.0000000000, 0.0000000000, 0.0000000000 
,
0.0000000000, 0.0000000000, -0.0000000000 ,
-0.0000000000, 0.0000000000, 0.0000000000 ,
0.0000000000, -0.0000000000, -0.0000000000 
,
-0.0000000000, -0.0000000000, 0.0000000000 ,
-0.0000000000, -0.0000000000, -0.0000000000 ,
0.0000000000, 0.0000000000, 0.0000000000 
,
-0.0000000000, 0.0000000000, 0.0000000000 ,
-0.0000000000, 0.0000000000, 0.0000000000 ,
-0.0000000000, 0.0000000000, -0.0000000000 
,
0.0000000000, -0.0000000000, 0.0000000000 ,
-0.0000000000, 0.0000000000, -0.0000000000 ,
-0.0000000000, 0.0000000000, -0.0000000000 
,
-0.0000000000, -0.0000000000, 0.0000000000 ,
-0.0000000000, -0.0000000000, -0.0000000000 ,
-0.0000000000, -0.0000000000, 0.0000000000 
,
-0.0000000000, 0.0000000000, -0.0000000000 ,
-0.0000000000, 0.0000000000, 0.0000000000 ,
-0.0000000000, -0.0000000000, -0.0000000000 
,
-0.0000000000, -0.0000000000, -0.0000000000 ,
-0.0000000000, -0.0000000000, -0.0000000000 ,
-0.0000000000, 0.0000000000, 0.0000000000 
,
-0.0000000000, -0.0000000000, 0.0000000000 ,
-0.0000000000, 0.0000000000, -0.0000000000 ,
-0.0000000000, -0.0000000000, 0.0000000000 
,
-0.0000000000, -0.0000000000, -0.0000000000 ,
-0.0000000000, 0.0000000000, 0.0000000000 ,
-0.0000000000, -0.0000000000, -0.0000000000 
,
-0.0000000000, -0.0000000000, -0.0000000000 ,
-0.0000000000, -0.0000000000, 0.0000727528 ,
-0.0000000000, -0.0000000000, 0.0000000000 
,
0.0000000000, 0.0000000000, -0.0000000000 ,
0.0000000000, 0.0000000000, -0.0000000000 ,
0.0000000000, 0.0000000000, 0.0000000000 
,
-0.0000000000, -0.0000000000, -0.0000000000 ,
-0.0000000000, -0.0000000000, -0.0000000000 ,
0.0000000000, -0.0000000000, -0.0000000000 
,
-0.0000000000, -0.0000000000, -0.0000000000 ,
0.0000000000, -0.0000000000, 0.0000000000 ,
0.0000000000, -0.0000000000, 0.0000000000 
,
-0.0000000000, 0.0000000000, -0.0000000000 ,
-0.0000000000, -0.0000000000, -0.0000000000 ,
-0.0000000000, -0.0000000000, -0.0000000000 
,
-0.0000000000, 0.0000000000, 0.0000000000 ,
-0.0000000000, -0.0000000000, -0.0000000000 ,
-0.0000000000, -0.0000000000, 0.0000000000 
,
0.0000000000, 0.0000000000, -0.0000000000 ,
-0.0000000000, -0.0000000000, 0.0000000000 ,
0.0000000000, -0.0000000000, 0.0000000000 
,
-0.0000000000, 0.0000000000, -0.0000000000 ,
0.0000000000, -0.0000000000, -0.0000000000 ,
0.0000000000, -0.0000000000, -0.0000000000 
,
-0.0000000000, -0.0000000000, 0.0000000000 ,
-0.0000000000, -0.0000000000, -0.0000000000 ,
-0.0000000000, 0.0000000000, -0.0000000000 
,
-0.0000000000, -0.0000000000, 0.0000000000 ,
0.0000000000, -0.0000000000, -0.0000000000 ,
0.0000000000, -0.0000000000, -0.0000000000 
,
-0.0000000000, -0.0000000000, 0.0000000000 ,
-0.0000000000, 0.0000000000, -0.0000000000 ,
0.0000000000, 0.0000000000, -0.0000000000 
,
-0.0000000000, -0.0000000000, -0.0000000000 ,
-0.0000000000, 0.0000000000, 0.0000000000 ,
0.0000000000, -0.0000000000, 0.0000000000 
,
-0.0000000000, -0.0000000000, -0.0000000000 ,
-0.0000000000, 0.0000000000, -0.0000000000 ,
-0.0000000000, 0.0000000000, 0.0000000000 
,
-0.0000000000, -0.0000000000, 0.0000000000 ,
-0.0000000000, 0.0000000000, 0.0000000000 ,
0.0000000000, -0.0000000000, -0.0000000000 
,
-0.0000000000, -0.0000000000, -0.0000000000 ,
-0.0000000000, -0.0000000000, -0.0000000000 ,
-0.0000000000, 0.0000000000, -0.0000000000 

,
0.0000000000, -0.0000000000, -0.0000000000 ,
-0.0000000000, -0.0000000000, 0.0000000000 ,
-0.0000000000, -0.0000000000, -0.0000000000 
,
0.0000000000, 0.0000000000, -0.0000000000 ,
-0.0000000000, 0.0000727528, -0.0000000000 ,
-0.0000000000, -0.0000000000, -0.0000000000 
,
-0.0000000000, 0.0000000000, 0.0000000000 ,
-0.0000000000, -0.0000000000, -0.0000000000 ,
-0.0000000000, 0.0000000000, -0.0000000000 
,
0.0000000000, 0.0000000000, -0.0000000000 ,
0.0000000000, -0.0000000000, -0.0000000000 ,
0.0000000000, -0.0000000000, 0.0000000000 
,
-0.0000000000, 0.0000000000, -0.0000000000 ,
-0.0000000000, 0.0000000000, -0.0000000000 ,
-0.0000000000, -0.0000000000, -0.0000000000 
,
-0.0000000000, 0.0000000000, -0.0000000000 ,
0.0000000000, -0.0000000000, 0.0000000000 ,
0.0000000000, -0.0000000000, -0.0000000000 
,
0.0000000000, -0.0000000000, 0.0000000000 ,
0.0000000000, 0.0000000000, 0.0000000000 ,
0.0000000000, -0.0000000000, -0.0000000000 
,
-0.0000000000, 0.0000000000, 0.0000000000 ,
-0.0000000000, -0.0000000000, 0.0000000000 ,
0.0000000000, -0.0000000000, -0.0000000000 
,
0.0000000000, 0.0000000000, 0.0000000000 ,
-0.0000000000, 0.0000000000, 0.0000000000 ,
0.0000000000, -0.0000000000, 0.0000000000 
,
-0.0000000000, -0.0000000000, 0.0000000000 ,
-0.0000000000, -0.0000000000, -0.0000000000 ,
-0.0000000000, -0.0000000000, 0.0000000000 
,
-0.0000000000, 0.0000000000, -0.0000000000 ,
0.0000000000, -0.0000000000, 0.0000000000 ,
-0.0000000000, -0.0000000000, -0.0000000000 
,
-0.0000000000, -0.0000000000, -0.0000000000 ,
0.0000000000, -0.0000000000, -0.0000000000 ,
-0.0000000000, -0.0000000000, -0.0000000000 
,
0.0000000000, 0.0000000000, -0.0000000000 ,
0.0000000000, -0.0000000000, -0.0000000000 ,
-0.0000000000, -0.0000000000, -0.0000000000 
,
-0.0000000000, -0.0000000000, 0.0000000000 ,
-0.0000000000, 0.0000000000, -0.0000000000 ,
-0.0000000000, -0.0000000000, -0.0000000000 
,
-0.0000000000, -0.0000000000, -0.0000000000 ,
0.0000000000, -0.0000000000, -0.0000000000 ,
0.0000000000, -0.0000000000, -0.0000000000 
,
-0.0000000000, 0.0000000000, -0.0000000000 ,
-0.0000000000, 0.0000000000, 0.0000000000 ,
-0.0000000000, -0.0000000000, -0.0000000000 
,
-0.0000000000, 0.0000000000, 0.0000000000 ,
-0.0000000000, -0.0000000000, -0.0000000000 ,
0.0000000000, -0.0000000000, 0.0000000000 
,
-0.0000000000, -0.0000000000, -0.0000000000 ,
-0.0000000000, 0.0000000000, -0.0000000000 ,
-0.0000000000, -0.0000000000, -0.0000000000 
,
-0.0000000000, -0.0000000000, -0.0000000000 ,
-0.0000000000, -0.0000000000, 0.0000000000 ,
-0.0000000000, -0.0000000000, 0.0000000000 
,
0.0000000000, 0.0000000000, 0.0000000000 ,
-0.0000000000, -0.0000000000, -0.0000000000 ,
-0.0000000000, -0.0000000000, 0.0000000000 
,
-0.0000000000, -0.0000000000, 0.0000000000 ,
0.0000000000, -0.0000000000, 0.0000000000 ,
-0.0000000000, -0.0000000000, 0.0000000000 
,
-0.0000000000, 0.0000000000, 0.0000000000 ,
-0.0000000000, -0.0000000000, 0.0000000000 ,
-0.0000000000, -0.0000000000, -0.0000000000 
,
-0.0000000000, -0.0000000000, -0.0000000000 ,
-0.0000000000, -0.0000000000, -0.0000000000 ,
-0.0000000000, -0.0000000000, 0.0000000000 
,
0.0000000000, 0.0000000000, -0.0000000000 ,
-0.0000000000, -0.0000000000, -0.0000000000 ,
-0.0000000000, 0.0000000000, -0.0000727528 
,
-0.0000000000, -0.0000000000, -0.0000000000 ,
-0.0000000000, -0.0000000000, -0.0000000000 ,
-0.0000000000, -0.0000000000, 0.0000000000 
,
0.0000000000, -0.0000000000, -0.0000000000 ,
0.0000000000, -0.0000000000, -0.0000000000 ,
0.0000000000, -0.0000000000, 0.0000000000 
,
-0.0000000000, -0.0000000000, -0.0000000000 ,
-0.0000000000, -0.0000000000, -0.0000000000 ,
-0.0000000000, -0.0000000000, -0.0000000000 
,
-0.0000000000, 0.0000000000, 0.0000000000 ,
-0.0000000000, -0.0000000000, 0.0000000000 ,
-0.0000000000, 0.0000000000, -0.0000000000 
,
0.0000000000, -0.0000000000, 0.0000000000 ,
-0.0000000000, -0.0000000000, -0.0000000000 ,
-0.0000000000, 0.0000000000, 0.0000000000 
,
-0.0000000000, 0.0000000000, 0.0000000000 ,
0.0000000000, 0.0000000000, -0.0000000000 ,
0.0000000000, -0.0000000000, 0.0000000000 
,
0.0000000000, -0.0000000000, -0.0000000000 ,
0.0000000000, -0.0000000000, -0.0000000000 ,
-0.0000000000, -0.0000000000, -0.0000000000 
,
-0.0000000000, -0.0000000000, -0.0000000000 ,
-0.0000000000, 0.0000000000, -0.0000000000 ,
-0.0000000000, -0.0000000000, -0.0000000000 
,
-0.0000000000, -0.0000000000, -0.0000000000 ,
-0.0000000000, -0.0000000000, -0.0000000000 ,
0.0000000000, -0.0000000000, 0.0000000000 
,
-0.0000000000, -0.0000000000, 0.0000000000 ,
0.0000000000, 0.0000000000, -0.0000000000 ,
-0.0000000000, -0.0000000000, 0.0000000000 
,
0.0000000000, -0.0000000000, -0.0000000000 ,
-0.0000000000, -0.0000000000, 0.0000000000 ,
-0.0000000000, -0.0000000000, -0.0000000000 
,
-0.0000000000, 0.0000000000, 0.0000000000 ,
0.0000000000, -0.0000000000, -0.0000000000 ,
-0.0000000000, -0.0000000000, -0.0000000000 
,
-0.0000000000, -0.0000000000, -0.0000000000 ,
-0.0000000000, -0.0000000000, -0.0000000000 ,
-0.0000000000, -0.0000000000, -0.0000000000 
,
-0.0000000000, -0.0000000000, 0.0000000000 ,
-0.0000000000, -0.0000000000, -0.0000000000 ,
-0.0000000000, 0.0000000000, 0.0000000000 
,
-0.0000000000, 0.0000000000, -0.0000000000 ,
-0.0000000000, -0.0000000000, -0.0000000000 ,
-0.0000000000, -0.0000000000, -0.0000000000 
,
-0.0000000000, 0.0000000000, -0.0000000000 ,
-0.0000000000, -0.0000000000, -0.0000000000 ,
-0.0000000000, -0.0000000000, 0.0000000000 
,
0.0000000000, 0.0000000000, -0.0000000000 ,
-0.0000000000, 0.0000000000, -0.0000000000 ,
-0.0000727528, 0.0000000000, 0.0000000000 
,
-0.0000000000, 0.0000000000, 0.0000000000 ,
0.0000000000, 0.0000000000, -0.0000000000 ,
-0.0000727528, 0.0000000000, -0.0000000000 
,
-0.0000000000, -0.0000000000, 0.0000000000 ,
-0.0000000000, -0.0000000000, 0.0000000000 ,
0.0000000000, 0.0000000000, -0.0000000000 
,
-0.0000000000, -0.0000000000, -0.0000000000 ,
-0.0000000000, 0.0000000000, -0.0000000000 ,
0.0000000000, 0.0000000000, -0.0000000000 
,
-0.0000000000, 0.0000000000, 0.0000000000 ,
0.0000000000, 0.0000000000, 0.0000000000 ,
-0.0000000000, -0.0000000000, -0.0000000000 
,
-0.0000000000, -0.0000000000, -0.0000000000 ,
-0.0000000000, -0.0000000000, -0.0000000000 ,
-0.0000000000, 0.0000000000, -0.0000000000 
,
-0.0000000000, 0.0000000000, 0.0000000000 ,
0.0000000000, -0.0000000000, -0.0000000000 ,
0.0000000000, -0.0000000000, -0.0000000000 
,
-0.0000000000, -0.0000000000, -0.0000000000 ,
-0.0000000000, -0.0000000000, -0.0000000000 ,
-0.0000000000, -0.0000000000, -0.0000000000 
,
0.0000000000, -0.0000000000, -0.0000000000 ,
-0.0000000000, -0.0000000000, 0.0000000000 ,
-0.0000000000, -0.0000000000, -0.0000000000 
,
-0.0000000000, -0.0000000000, -0.0000000000 ,
-0.0000000000, -0.0000000000, 0.0000000000 ,
-0.0000000000, -0.0000000000, 0.0000000000 
,
0.0000000000, -0.0000000000, -0.0000000000 ,
-0.0000000000, -0.0000000000, 0.0000000000 ,
-0.0000000000, 0.0000000000, 0.0000000000 
,
-0.0000000000, -0.0000000000, 0.0000000000 ,
-0.0000000000, -0.0000000000, 0.0000727528 ,
-0.0000000000, 0.0000000000, 0.0000000000 
,
-0.0000000000, 0.0000000000, -0.0000000000 ,
0.0000000000, 0.0000000000, -0.0000000000 ,
-0.0000000000, -0.0000000000, -0.0000000000 
,
-0.0000000000, -0.0000000000, -0.0000000000 ,
-0.0000000000, 0.0000000000, -0.0000000000 ,
0.0000000000, -0.0000000000, 0.0000000000 
,
-0.0000000000, -0.0000000000, -0.0000000000 ,
-0.0000000000, -0.0000000000, 0.0000000000 ,
-0.0000000000, -0.0000000000, -0.0000000000 
,
0.0000000000, -0.0000000000, 0.0000000000 ,
-0.0000000000, 0.0000000000, 0.0000000000 ,
-0.0000000000, -0.0000000000, 0.0000000000 
,
-0.0000000000, 0.0000000000, 0.0000727528 ,
-0.0000000000, -0.0000000000, 0.0000000000 ,
0.0000000000, -0.0000000000, 0.0000000000 
,
-0.0000000000, 0.0000000000, -0.0000000000 ,
0.0000000000, 0.0000000000, -0.0000000000 ,
0.0000000000, -0.0000000000, -0.0000000000 
,
0.0000000000, 0.0000000000, 0.0000000000 ,
0.0000000000, 0.0000000000, 0.0000000000 ,
-0.0000000000, 0.0000000000, -0.0000000000 
,
0.0000000000, -0.0000000000, -0.0000000000 ,
-0.0000000000, 0.0000000000, -0.0000727528 ,
-0.0000000000, -0.0000000000, -0.0000000000 
,
-0.0000000000, 0.0000000000, 0.0000000000 ,
-0.0000000000, 0.0000000000, 0.0000000000 ,
0.0000000000, 0.0000000000, 0.0000000000 
,
0.0000000000, 0.0000727528, -0.0000000000 ,
-0.0000000000, -0.0000000000, -0.0000000000 ,
-0.0000000000, -0.0000000000, 0.0000000000 
,
-0.0000000000, -0.0000000000, 0.0000000000 ,
0.0000000000, -0.0000000000, -0.0000000000 ,
0.0000000000, -0.0000000000, -0.0000000000 
,
-0.0000000000, -0.0000000000, 0.0000000000 ,
-0.0000000000, -0.0000000000, 0.0000000000 ,
-0.0000000000, -0.0000000000, -0.0000000000 
,
0.0000000000, -0.0000000000, -0.0000000000 ,
-0.0000000000, -0.0000000000, -0.0000000000 ,
0.0000000000, 0.0000000000, -0.0000000000 
,
0.0000000000, 0.0000000000, 0.0000000000 ,
-0.0000000000, 0.0000000000, 0.0000000000 ,
0.0000000000, -0.0000000000, 0.0000727528 
,
-0.0000000000, -0.0000000000, -0.0000000000 ,
0.0000000000, -0.0000000000, -0.0000000000 ,
-0.0000000000, 0.0000000000, -0.0000000000 
,
-0.0000000000, -0.0000000000, -0.0000000000 ,
0.0000000000, -0.0000000000, -0.0000000000 ,
0.0000000000, -0.0000000000, 0.0000000000 
,
-0.0000000000, 0.0000000000, -0.0000000000 ,
-0.0000000000, -0.0000000000, -0.0000000000 ,
-0.0000000000, 0.0000000000, -0.0000000000 
,
0.0000000000, -0.0000000000, -0.0000000000 ,
0.0000000000, -0.0000000000, 0.0000000000 ,
-0.0000000000, 0.0000000000, -0.0000000000 
,
-0.0000000000, -0.0000000000, -0.0000000000 ,
-0.0000000000, -0.0000000000, -0.0000000000 ,
0.0000000000, -0.0000000000, -0.0000000000 
,
0.0000000000, 0.0000000000, 0.0000000000 ,
-0.0000000000, 0.0000000000, -0.0000000000 ,
0.0000000000, -0.0000000000, -0.0000000000 
,
0.0000000000, 0.0000000000, 0.0000000000 ,
-0.0000000000, 0.0000000000, 0.0000000000 ,
0.0000000000, -0.0000000000, 0.0000000000 
,
-0.0000000000, -0.0000000000, 0.0000000000 ,
-0.0000000000, -0.0000000000, -0.0000000000 ,
-0.0000000000, 0.0000000000, -0.0000000000 
,
-0.0000000000, -0.0000000000, 0.0000000000 ,
-0.0000727528, 0.0000000000, -0.0000000000 ,
0.0000000000, -0.0000000000, -0.0000727528 
,
0.0000000000, 0.0000000000, -0.0000000000 ,
0.0000000000, -0.0000000000, -0.0000000000 ,
-0.0000000000, 0.0000000000, -0.0000000000 
,
-0.0000000000, 0.0000000000, -0.0000000000 ,
0.0000000000, -0.0000000000, 0.0000727528 ,
-0.0000000000, 0.0000000000, -0.0000000000 
,
-0.0000000000, -0.0000000000, -0.0000000000 ,
-0.0000000000, -0.0000000000, -0.0000000000 ,
0.0000000000, -0.0000000000, -0.0000000000 
,
0.0000000000, 0.0000000000, -0.0000000000 ,
0.0000000000, 0.0000000000, -0.0000000000 ,
-0.0000000000, 0.0000000000, 0.0000000000 
,
-0.0000000000, -0.0000000000, 0.0000000000 ,
0.0000000000, 0.0000000000, -0.0000000000 ,
0.0000000000, -0.0000000000, 0.0000000000 
,
0.0000000000, -0.0000000000, -0.0000000000 ,
-0.0000000000, -0.0000000000, -0.0000000000 ,
0.0000000000, -0.0000000000, 0.0000000000 
,
-0.0000000000, -0.0000000000, 0.0000000000 ,
0.0000000000, -0.0000000000, -0.0000000000 ,
-0.0000000000, -0.0000000000, -0.0000000000 
,
-0.0000000000, 0.0000000000, 0.0000000000 ,
0.0000000000, -0.0000000000, -0.0000000000 ,
-0.0000000000, 0.0000000000, 0.0000000000 
,
-0.0000000000, 0.0000000000, -0.0000000000 ,
-0.0000000000, -0.0000000000, -0.0000000000 ,
-0.0000000000, 0.0000000000, 0.0000000000 
,
-0.0000000000, 0.0000000000, -0.0000000000 ,
-0.0000000000, -0.0000000000, -0.0000000000 ,
-0.0000000000, -0.0000000000, -0.0000000000 
,
-0.0000000000, -0.0000000000, -0.0000000000 ,
0.0000000000, -0.0000000000, -0.0000000000 ,
0.0000000000, -0.0000000000, -0.0000000000 
,
-0.0000000000, 0.0000000000, -0.0000000000 ,
-0.0000000000, -0.0000000000, 0.0000000000 ,
-0.0000000000, 0.0000000000, 0.0000000000 
,
-0.0000000000, -0.0000000000, -0.0000000000 ,
-0.0000000000, -0.0000000000, -0.0000000000 ,
-0.0000000000, -0.0000000000, 0.0000000000 
,
-0.0000000000, -0.0000000000, -0.0000000000 ,
0.0000000000, -0.0000000000, 0.0000000000 ,
0.0000000000, -0.0000000000, -0.0000000000 
,
0.0000000000, -0.0000000000, -0.0000000000 ,
-0.0000000000, -0.0000000000, 0.0000000000 ,
0.0000000000, -0.0000000000, -0.0000000000 
,
0.0000000000, 0.0000000000, -0.0000000000 ,
-0.0000000000, -0.0000000000, 0.0000000000 ,
0.0000000000, -0.0000000000, 0.0000000000 
,
0.0000000000, -0.0000000000, 0.0000000000 ,
-0.0000000000, -0.0000000000, 0.0000000000 ,
-0.0000000000, -0.0000000000, -0.0000000000 
,
0.0000000000, -0.0000000000, 0.0000000000 ,
0.0000000000, -0.0000000000, -0.0000000000 ,
0.0000000000, -0.0000000000, -0.0000000000 
,
-0.0000000000, -0.0000000000, -0.0000000000 ,
0.0000000000, -0.0000000000, -0.0000000000 ,
0.0000000000, -0.0000000000, -0.0000000000 
,
-0.0000000000, 0.0000000000, 0.0000000000 ,
0.0000000000, -0.0000000000, 0.0000000000 ,
-0.0000000000, -0.0000000000, 0.0000000000 
,
-0.0000000000, 0.0000000000, -0.0000000000 ,
-0.0000000000, -0.0000000000, -0.0000000000 ,
0.0000000000, -0.0000000000, -0.0000000000 
,
0.0000000000, 0.0000000000, 0.0000000000 ,
-0.0000000000, 0.0000000000, 0.0000000000 ,
-0.0000000000, -0.0000000000, -0.0000000000 
,
-0.0000000000, 0.0000000000, 0.0000000000 ,
-0.0000000000, -0.0000000000, 0.0000000000 ,
0.0000000000, -0.0000000000, -0.0000000000 
,
0.0000000000, -0.0000000000, -0.0000000000 ,
-0.0000000000, -0.0000000000, -0.0000000000 ,
-0.0000000000, -0.0000000000, -0.0000000000 
,
-0.0000000000, -0.0000000000, -0.0000000000 ,
-0.0000000000, 0.0000000000, -0.0000000000 ,
0.0000000000, -0.0000000000, -0.0000000000 

,
-0.0000000000, -0.0000000000, -0.0000000000 ,
0.0000000000, -0.0000000000, 0.0000000000 ,
0.0000000000, 0.0000000000, 0.0000000000 
,
0.0000000000, -0.0000000000, 0.0000000000 ,
-0.0000000000, 0.0000000000, -0.0000000000 ,
-0.0000000000, 0.0000727528, 0.0000727528 
,
-0.0000000000, -0.0000000000, 0.0000727528 ,
0.0000000000, 0.0000000000, 0.0000000000 ,
0.0000000000, 0.0000000000, -0.0000000000 
,
0.0000000000, -0.0000000000, 0.0000000000 ,
-0.0000000000, -0.0000000000, -0.0000000000 ,
0.0000000000, 0.0000000000, 0.0000000000 
,
0.0000000000, 0.0000000000, 0.0000000000 ,
-0.0000000000, -0.0000000000, 0.0000000000 ,
0.0000000000, -0.0000000000, -0.0000000000 
,
-0.0000000000, 0.0000000000, 0.0000000000 ,
0.0000000000, -0.0000000000, -0.0000000000 ,
0.0000000000, -0.0000000000, 0.0000000000 
,
-0.0000000000, 0.0000000000, 0.0000000000 ,
-0.0000000000, 0.0000000000, 0.0000000000 ,
-0.0000000000, -0.0000000000, -0.0000000000 
,
-0.0000000000, 0.0000000000, -0.0000000000 ,
-0.0000000000, 0.0000000000, -0.0000000000 ,
0.0000000000, -0.0000727528, -0.0000000000 
,
-0.0000000000, 0.0000000000, 0.0000727528 ,
-0.0000000000, -0.0000000000, -0.0000000000 ,
0.0000000000, -0.0000000000, -0.0000000000 
,
-0.0081577720, -0.0078302855, -0.0066461829 ,
0.0003047820, -0.0012396682, 0.0150022255 ,
0.0020868105, 0.0049910778, 0.0156203900 
,
-0.0251752120, -0.0332736969, -0.0282006823 ,
-0.0309940837, -0.0475945808, -0.0280503910 ,
-0.0615589581, -0.0394004174, -0.0553692207 
,
0.0098609244, 0.0106658861, 0.0160458405 ,
0.0451811329, 0.0352614373, 0.0313359275 ,
0.0524453111, 0.0264087375, 0.0507707857 
,
0.0055660298, 0.0083743054, 0.0070663034 ,
-0.0017686682, -0.0060420255, 0.0034728472 ,
-0.0022264346, -0.0015579946, 0.0012006683 
,
0.0299496725, 0.0098800734, 0.0296230242 ,
0.0242310278, 0.0176117104, 0.0270761605 ,
0.0498502664, 0.0395065174, 0.0531158485 
,
0.0093084294, 0.0009891246, 0.0109276306 ,
0.0250005722, 0.0195760429, 0.0219061244 ,
-0.0209331177, -0.0222600885, -0.0138950078 
,
-0.0015286938, -0.0047679627, 0.0094579328 ,
-0.0018170254, -0.0017918019, 0.0060614143 ,
0.0030739403, -0.0070671528, -0.0028608483 
,
0.0000000000, -0.0000000000, 0.0000000000 ,
0.0000000000, -0.0000000000, -0.0000000000 ,
-0.0000000000, -0.0000727528, -0.0000000000 
,
-0.0017756966, 0.0233359691, 0.0288123284 ,
-0.0326630548, -0.0207090918, -0.0098158633 ,
-0.0203858688, -0.0330362767, -0.0305929594 
,
-0.0025202765, -0.0002258872, 0.0070932042 ,
0.0092552127, 0.0119617665, 0.0149680665 ,
0.0020935822, -0.0016418207, -0.0020468461 
,
0.0000000000, -0.0000000000, -0.0000000000 ,
-0.0000000000, -0.0000000000, -0.0000000000 ,
0.0000000000, -0.0000000000, -0.0000000000 
,
-0.0000000000, 0.0000000000, 0.0000000000 ,
-0.0000000000, -0.0000000000, -0.0000000000 ,
0.0000000000, -0.0000000000, 0.0000000000 
,
-0.0266884156, -0.0219271705, -0.0241904203 ,
-0.0221960675, -0.0253873207, -0.0199149828 ,
-0.0319700390, -0.0372014046, -0.0418059491 
,
-0.0130090732, -0.0135749280, -0.0093894014 ,
-0.0014425376, -0.0040733037, -0.0057713711 ,
-0.0169960484, -0.0147570278, -0.0225445647 
,
0.0000000000, 0.0000000000, -0.0000000000 ,
0.0000000000, 0.0000000000, 0.0000727528 ,
-0.0000000000, -0.0000000000, 0.0000000000 
,
0.0426747128, 0.0154676195, -0.0069407793 ,
0.0116492035, 0.0002967816, 0.0004387815 ,
-0.0181469228, -0.0048559429, 0.0028091483 
,
-0.0000000000, 0.0000000000, 0.0000000000 ,
0.0000000000, 0.0000000000, -0.0000000000 ,
-0.0000000000, -0.0000000000, -0.0000000000 
,
-0.0008610961, -0.0073170909, -0.0075221462 ,
-0.0021947359, -0.0124141462, -0.0013655144 ,
-0.0250361897, -0.0403686352, -0.0323264524 
,
0.0000000000, -0.0000000000, -0.0000000000 ,
0.0000000000, 0.0000000000, 0.0000000000 ,
0.0000000000, -0.0000000000, 0.0000000000 
,
-0.0204019062, -0.0312552191, -0.0238179378 ,
-0.0135969101, -0.0123682683, -0.0140857799 ,
0.0013191915, 0.0003388114, -0.0032689404 
,
-0.0000000000, -0.0000000000, 0.0000000000 ,
-0.0000000000, 0.0000727528, 0.0000727528 ,
0.0000000000, 0.0000000000, -0.0000000000 
,
0.0000000000, -0.0000727528, 0.0000000000 ,
0.0000000000, -0.0000000000, -0.0000000000 ,
-0.0000000000, 0.0000000000, 0.0000000000 
,
0.0158351548, 0.0053312262, 0.0114233065 ,
0.0042011333, 0.0046062223, 0.0053239255 ,
0.0073732547, 0.0087273577, 0.0073747379 
,
0.0248455405, 0.0248546768, 0.0251060966 ,
0.0145661747, 0.0169719700, 0.0130865965 ,
0.0149254594, 0.0093717640, 0.0143847540 
,
0.0126929525, -0.0090776840, -0.0094911782 ,
0.0058290940, -0.0074379602, 0.0154544534 ,
0.0105831120, 0.0107138362, 0.0328311250 
,
0.0108177802, 0.0097611826, 0.0080247810 ,
0.0119058946, 0.0362831615, 0.0210639108 ,
0.0363933370, 0.0371140651, 0.0370226093 
,
0.0009482745, -0.0033154178, 0.0123068308 ,
-0.0287109893, -0.0363906547, -0.0328276716 ,
0.0016262314, 0.0075310767, 0.0162012465 
,
-0.0073178126, 0.0174182262, 0.0327217504 ,
-0.0039198920, 0.0131621240, 0.0422775820 ,
-0.0084155267, -0.0182479564, 0.0037175016 
,
-0.0000000000, 0.0000000000, 0.0000000000 ,
-0.0000000000, -0.0000000000, 0.0000000000 ,
0.0000000000, -0.0000000000, -0.0000000000 
,
-0.0076194387, -0.0137866782, -0.0099847671 ,
-0.0174280014, -0.0185182411, -0.0209358055 ,
-0.0119209588, -0.0061084302, -0.0104495790 
,
-0.0123331305, -0.0139292609, -0.0146482168 ,
-0.0067900768, -0.0153174950, -0.0071772686 ,
0.0052746427, 0.0014790772, -0.0050283624 
,
0.0000000000, -0.0000000000, -0.0000000000 ,
-0.0000000000, 0.0000000000, -0.0000000000 ,
0.0000000000, -0.0000000000, -0.0000000000 
,
0.0000000000, -0.0000000000, 0.0000000000 ,
0.0000000000, 0.0000000000, -0.0000000000 ,
0.0000000000, 0.0000000000, -0.0000000000 
,
-0.0032246017, -0.0074041490, 0.0024202035 ,
0.0001930014, -0.0064267186, -0.0000964092 ,
-0.0138049088, -0.0082083512, -0.0016252052 
,
-0.0228758249, -0.0159547422, -0.0245523434 ,
-0.0059348131, -0.0213349778, -0.0104205897 ,
0.0274382364, 0.0059505412, 0.0199948307 
,
-0.0000000000, -0.0000000000, -0.0000000000 ,
-0.0000000000, 0.0000000000, 0.0000000000 ,
0.0000000000, 0.0000000000, 0.0000000000 
,
0.0013262290, -0.0047453409, 0.0008814921 ,
0.0044304542, -0.0031117911, 0.0034039342 ,
0.0101766642, 0.0037300326, 0.0087032113 
,
-0.0386399627, -0.0336785838, -0.0349518023 ,
-0.0300571602, -0.0212315936, -0.0278240014 ,
-0.0294148754, -0.0237542689, -0.0262314882 
,
0.0090358239, 0.0027040611, 0.0123488158 ,
-0.0137473596, -0.0223080292, -0.0102523323 ,
-0.0120281819, -0.0241137873, -0.0254391152 
,
0.0087223342, 0.0122969216, 0.0095745800 ,
0.0080165276, 0.0075178612, 0.0057044770 ,
0.0057216357, 0.0007980598, 0.0010083424 
,
-0.0436805412, -0.0466312617, -0.0416375585 ,
-0.0295148697, -0.0367678627, -0.0329116657 ,
-0.0343037955, -0.0424455479, -0.0424757153 
,
-0.0067775957, -0.0003358890, -0.0005267946 ,
0.0018209764, 0.0018354519, -0.0035448377 ,
-0.0144049739, -0.0109221488, -0.0156598482 
,
-0.0000000000, 0.0000000000, 0.0000000000 ,
0.0000000000, -0.0000000000, -0.0000000000 ,
0.0000000000, -0.0000000000, -0.0000000000 
,
-0.0000000000, 0.0000000000, 0.0000000000 ,
0.0000000000, 0.0000000000, 0.0000000000 ,
-0.0000000000, -0.0000000000, -0.0000000000 
,
0.0061820191, -0.0039346474, -0.0047243531 ,
0.0208535437, 0.0064728819, -0.0012722670 ,
0.0080835465, -0.0079873102, -0.0113157276 
,
-0.0109865656, -0.0112527255, -0.0194231626 ,
-0.0043226001, -0.0202115607, -0.0166353341 ,
-0.0503761880, -0.0532101281, -0.0371856466 
,
0.0000000000, 0.0000000000, 0.0000000000 ,
-0.0000000000, -0.0000000000, 0.0000000000 ,
0.0000000000, 0.0000000000, -0.0000727528 
,
0.0000000000, 0.0000000000, -0.0000000000 ,
-0.0000000000, -0.0000000000, 0.0000000000 ,
-0.0000000000, 0.0000000000, -0.0000000000 
,
0.0534601398, 0.0232168641, 0.0003971710 ,
0.0156395640, -0.0097247278, -0.0012854387 ,
-0.0221076347, -0.0223071184, -0.0037204428 
,
-0.0000000000, 0.0000000000, -0.0000000000 ,
-0.0000000000, 0.0000000000, -0.0000000000 ,
-0.0000727528, 0.0000000000, 0.0000000000 
,
-0.0000000000, -0.0000000000, 0.0000000000 ,
-0.0000000000, -0.0000000000, 0.0000000000 ,
0.0000000000, 0.0000000000, 0.0000000000 
,
0.0000000000, 0.0000000000, -0.0000000000 ,
-0.0000000000, 0.0000000000, 0.0000000000 ,
0.0000000000, 0.0000000000, 0.0000000000 
,
-0.0000000000, -0.0000000000, -0.0000000000 ,
0.0000000000, -0.0000000000, -0.0000000000 ,
-0.0000000000, -0.0000000000, 0.0000000000 
,
0.0503696464, 0.0277234316, 0.0364697985 ,
0.0306185260, -0.0013229206, 0.0377822481 ,
0.0730096623, 0.0122436890, 0.0510298796 
,
0.0268473905, 0.0390258692, 0.0280244946 ,
-0.0231860708, -0.0290544238, -0.0246865917 ,
0.0046780105, -0.0151333977, -0.0047100438 
,
-0.0369789451, -0.0235335212, -0.0223438460 ,
-0.0088202273, -0.0195211042, -0.0042309151 ,
-0.0127354097, -0.0338974521, -0.0057133869 
,
0.0000000000, 0.0000000000, 0.0000000000 ,
0.0000000000, 0.0000000000, -0.0000000000 ,
-0.0000000000, 0.0000000000, 0.0000000000 
,
-0.0063821357, -0.0115117086, 0.0030008061 ,
-0.0067472393, 0.0023063123, 0.0117022879 ,
-0.0112684229, -0.0203239825, -0.0041783154 
,
0.0098225083, 0.0032383827, 0.0036694594 ,
0.0201946422, -0.0000480313, -0.0004050471 ,
0.0027835988, -0.0174749140, -0.0173223373 
,
0.0031707759, -0.0079858368, 0.0032498972 ,
-0.0035533020, -0.0050587784, 0.0034976986 ,
0.0067047440, 0.0080168238, 0.0060037165 
,
0.0232701339, 0.0182055067, 0.0307524726 ,
0.0222100355, 0.0060804458, 0.0238571316 ,
0.0219216384, 0.0085092876, 0.0207507629 
,
-0.0094576459, -0.0155656291, -0.0150049860 ,
0.0042725140, -0.0013287172, 0.0050942735 ,
0.0073019704, 0.0054565673, 0.0100530470 
,
-0.0000000000, -0.0000000000, 0.0000000000 ,
0.0000000000, 0.0000000000, -0.0000000000 ,
0.0000000000, 0.0000000000, 0.0000000000 
,
-0.0000000000, -0.0000000000, 0.0000000000 ,
0.0000000000, 0.0000000000, 0.0000000000 ,
0.0000000000, 0.0000000000, 0.0000000000 
,
-0.0233753454, -0.0165100768, -0.0105137900 ,
0.0181402341, -0.0042067110, -0.0007473922 ,
0.0297255460, 0.0142786894, 0.0126021150 
,
0.0000727528, 0.0000000000, -0.0000000000 ,
-0.0000000000, -0.0000000000, 0.0000000000 ,
-0.0000000000, 0.0000000000, 0.0000000000 
,
-0.0054865880, -0.0053803679, 0.0018658347 ,
-0.0139483092, -0.0108449254, -0.0111475298 ,
-0.0210791342, -0.0050803223, -0.0229074080 
,
0.0000000000, -0.0000000000, -0.0000000000 ,
-0.0000000000, -0.0000000000, 0.0000000000 ,
-0.0000000000, -0.0000000000, 0.0000000000 
,
-0.0325322263, -0.0350386500, -0.0316663459 ,
-0.0190766435, -0.0165254064, -0.0150470845 ,
-0.0207778662, -0.0180088691, -0.0205218121 
,
-0.0000000000, -0.0000000000, 0.0000000000 ,
-0.0000000000, 0.0000000000, 0.0000000000 ,
-0.0000000000, 0.0000000000, -0.0000000000 
,
-0.0000000000, 0.0000000000, -0.0000000000 ,
-0.0000000000, -0.0000000000, -0.0000000000 ,
-0.0000000000, -0.0000000000, -0.0000000000 
,
-0.0070324740, -0.0054135704, -0.0056535997 ,
-0.0040037618, -0.0016315443, -0.0026279772 ,
-0.0065649692, -0.0056661507, -0.0022530954 
,
-0.0000000000, 0.0000000000, 0.0000000000 ,
-0.0000000000, 0.0000000000, -0.0000000000 ,
0.0000000000, -0.0000000000, 0.0000000000 
,
-0.0149341999, 0.0043870914, -0.0074716844 ,
-0.0046831886, -0.0163190067, -0.0125275236 ,
-0.0014009369, -0.0189780667, 0.0025552097 
,
0.0107086515, 0.0036017899, -0.0038253460 ,
0.0251467843, 0.0092789950, 0.0048649930 ,
0.0046932595, -0.0175887812, -0.0061591282 
,
-0.0217773672, -0.0253089480, -0.0228983425 ,
0.0233328547, 0.0040810611, 0.0195113290 ,
0.0283789150, 0.0102793043, 0.0238185786 
,
-0.0025622179, -0.0146511067, -0.0103878621 ,
0.0000289052, -0.0020617521, 0.0014419343 ,
0.0007882019, -0.0048104590, -0.0099912044 
,
-0.0000000000, -0.0000000000, -0.0000000000 ,
-0.0000000000, -0.0000000000, 0.0000000000 ,
-0.0000000000, -0.0000000000, -0.0000000000 
,
0.0004445022, -0.0006626551, 0.0143039208 ,
-0.0147916535, 0.0062313704, 0.0324249528 ,
-0.0044550584, -0.0054758126, 0.0189052932 
,
-0.0136018191, -0.0134122139, -0.0153210582 ,
-0.0067790370, -0.0130426669, -0.0104650687 ,
-0.0124007566, -0.0100746481, -0.0166464616 
,
-0.0017315508, -0.0207915436, -0.0082136774 ,
-0.0022062927, -0.0151255354, 0.0014499361 ,
0.0170429815, 0.0067130616, 0.0211614817 
,
-0.0000000000, -0.0000000000, 0.0000000000 ,
0.0000000000, -0.0000000000, -0.0000000000 ,
0.0000000000, -0.0000000000, 0.0000000000 
,
-0.0000000000, 0.0000000000, 0.0000000000 ,
-0.0000000000, 0.0000000000, 0.0000000000 ,
-0.0000000000, 0.0000000000, 0.0000000000 
,
-0.0000000000, 0.0000000000, 0.0000000000 ,
0.0000000000, 0.0000000000, 0.0000000000 ,
-0.0000000000, -0.0000727528, 0.0000000000 
,
0.0093010589, 0.0154829295, 0.0179259311 ,
0.0040998808, -0.0064337165, -0.0045916634 ,
0.0105344821, 0.0063022375, 0.0195277557 
,
-0.0282387808, -0.0323194899, -0.0278274491 ,
-0.0014313832, 0.0062337960, 0.0011677339 ,
-0.0262611005, -0.0285284109, -0.0259368178 
,
0.0098238736, 0.0012068312, -0.0185811128 ,
0.0009806117, -0.0191701837, -0.0208157785 ,
-0.0301561616, -0.0215205550, -0.0285056327 
,
-0.0000000000, 0.0000000000, -0.0000000000 ,
0.0000000000, 0.0000000000, 0.0000000000 ,
0.0000000000, 0.0000000000, 0.0000000000 
,
-0.0000000000, 0.0000000000, 0.0000000000 ,
-0.0000000000, -0.0000000000, -0.0000000000 ,
0.0000000000, 0.0000000000, 0.0000000000 
,
-0.0156681854, -0.0129224714, 0.0012913777 ,
-0.0207732953, -0.0170710254, -0.0148146311 ,
-0.0234333351, -0.0247778669, -0.0284263343 
,
0.0248525143, 0.0392193459, 0.0258171000 ,
0.0195669774, 0.0135858171, 0.0194358416 ,
0.0250186715, -0.0145302061, 0.0241084676 

,
0.0000000000, -0.0000000000, 0.0000000000 ,
0.0000000000, -0.0000000000, -0.0000000000 ,
0.0000000000, 0.0000000000, 0.0000000000 
,
0.0000000000, -0.0000000000, -0.0000000000 ,
0.0000000000, -0.0000000000, -0.0000000000 ,
0.0000000000, -0.0000000000, 0.0000000000 
,
0.0000000000, 0.0000000000, 0.0000000000 ,
0.0000000000, 0.0000000000, -0.0000000000 ,
-0.0000000000, -0.0000000000, 0.0000000000 
,
-0.0000000000, -0.0000000000, -0.0000727528 ,
0.0000000000, 0.0000000000, -0.0000000000 ,
-0.0000000000, 0.0000000000, -0.0000000000 
,
-0.0000000000, -0.0000000000, 0.0000000000 ,
-0.0000000000, -0.0000000000, -0.0000000000 ,
0.0000000000, -0.0000000000, -0.0000000000 
,
0.0000000000, -0.0000000000, 0.0000000000 ,
-0.0000000000, 0.0000000000, 0.0000000000 ,
0.0000000000, 0.0000000000, 0.0000000000 
,
0.0000000000, 0.0000000000, -0.0000000000 ,
0.0000000000, 0.0000000000, 0.0000000000 ,
0.0000000000, 0.0000000000, 0.0000000000 
,
0.0000000000, -0.0000000000, -0.0000000000 ,
-0.0000000000, -0.0000000000, -0.0000000000 ,
0.0000000000, -0.0000000000, 0.0000000000 
,
0.0000000000, 0.0000000000, -0.0000000000 ,
0.0000000000, 0.0000000000, 0.0000000000 ,
-0.0000000000, -0.0000000000, -0.0000000000 
,
0.0000000000, -0.0000000000, -0.0000000000 ,
-0.0000000000, 0.0000000000, 0.0000000000 ,
0.0000000000, 0.0000000000, -0.0000000000 
,
-0.0000000000, -0.0000000000, -0.0000000000 ,
-0.0000000000, -0.0000000000, -0.0000000000 ,
-0.0000000000, 0.0000000000, 0.0000000000 
,
-0.0000000000, -0.0000000000, -0.0000000000 ,
-0.0000000000, -0.0000000000, -0.0000000000 ,
-0.0000000000, -0.0000000000, -0.0000000000 
,
0.0000000000, 0.0000000000, -0.0000000000 ,
0.0000000000, 0.0000000000, -0.0000000000 ,
0.0000000000, -0.0000000000, 0.0000000000 
,
0.0000000000, 0.0000000000, -0.0000000000 ,
0.0000000000, -0.0000000000, -0.0000000000 ,
0.0000000000, -0.0000000000, -0.0000000000 
,
-0.0000000000, -0.0000000000, 0.0000000000 ,
0.0000000000, 0.0000000000, -0.0000000000 ,
0.0000000000, 0.0000000000, -0.0000000000 
,
0.0000000000, -0.0000000000, 0.0000000000 ,
0.0000000000, -0.0000000000, 0.0000000000 ,
0.0000000000, 0.0000000000, -0.0000000000 
,
-0.0000000000, 0.0000000000, 0.0000000000 ,
0.0000000000, 0.0000000000, -0.0000000000 ,
-0.0000000000, 0.0000000000, -0.0000000000 
,
-0.0000000000, -0.0000000000, -0.0000000000 ,
0.0000000000, 0.0000000000, 0.0000000000 ,
0.0000000000, 0.0000000000, -0.0000000000 
,
-0.0000000000, -0.0000000000, 0.0000000000 ,
0.0000000000, -0.0000000000, -0.0000000000 ,
0.0000000000, -0.0000000000, 0.0000000000 
,
-0.0000000000, -0.0000000000, -0.0000000000 ,
-0.0000000000, 0.0000000000, -0.0000000000 ,
-0.0000000000, -0.0000000000, -0.0000000000 
,
0.0000000000, -0.0000000000, -0.0000000000 ,
-0.0000000000, -0.0000000000, -0.0000000000 ,
0.0000000000, 0.0000000000, -0.0000000000 
,
-0.0000000000, -0.0000000000, -0.0000000000 ,
0.0000000000, 0.0000000000, -0.0000000000 ,
-0.0000000000, 0.0000000000, -0.0000000000 
,
-0.0000000000, 0.0000000000, 0.0000000000 ,
-0.0000000000, 0.0000000000, -0.0000000000 ,
-0.0000000000, -0.0000000000, -0.0000000000 
,
0.0000000000, -0.0000000000, -0.0000000000 ,
-0.0000000000, -0.0000000000, -0.0000000000 ,
-0.0000000000, -0.0000000000, 0.0000000000 
,
-0.0000000000, 0.0000000000, -0.0000000000 ,
-0.0000000000, 0.0000000000, -0.0000000000 ,
-0.0000000000, 0.0000000000, -0.0000000000 
,
-0.0000000000, -0.0000000000, -0.0000000000 ,
-0.0000000000, -0.0000727528, 0.0000000000 ,
-0.0000000000, -0.0000000000, 0.0000000000 
,
0.0000000000, -0.0000000000, -0.0000000000 ,
-0.0000000000, -0.0000000000, -0.0000000000 ,
-0.0000000000, -0.0000000000, -0.0000000000 
,
-0.0000000000, 0.0000000000, 0.0000000000 ,
0.0000000000, -0.0000000000, 0.0000000000 ,
0.0000000000, 0.0000000000, 0.0000000000 
,
0.0000000000, 0.0000000000, -0.0000000000 ,
-0.0000000000, 0.0000000000, 0.0000000000 ,
-0.0000000000, 0.0000000000, -0.0000000000 
,
-0.0000000000, -0.0000000000, -0.0000000000 ,
-0.0000000000, 0.0000000000, 0.0000000000 ,
-0.0000000000, 0.0000727528, -0.0000000000 
,
0.0000000000, 0.0000000000, -0.0000000000 ,
-0.0000000000, -0.0000000000, 0.0000000000 ,
0.0000000000, -0.0000000000, -0.0000000000 
,
0.0000000000, -0.0000000000, -0.0000000000 ,
-0.0000000000, 0.0000000000, -0.0000000000 ,
0.0000000000, -0.0000000000, 0.0000000000 
,
-0.0000000000, -0.0000000000, 0.0000000000 ,
-0.0000000000, 0.0000000000, -0.0000000000 ,
-0.0000000000, -0.0000000000, 0.0000000000 
,
0.0000000000, 0.0000000000, -0.0000000000 ,
0.0000000000, -0.0000000000, -0.0000000000 ,
-0.0000000000, -0.0000000000, 0.0000000000 
,
-0.0000000000, -0.0000000000, -0.0000000000 ,
-0.0000000000, -0.0000000000, -0.0000000000 ,
-0.0000000000, -0.0000000000, -0.0000000000 
,
-0.0000000000, 0.0000000000, -0.0000000000 ,
-0.0000000000, 0.0000000000, 0.0000000000 ,
-0.0000000000, -0.0000000000, -0.0000000000 
,
-0.0000000000, 0.0000000000, -0.0000000000 ,
0.0000000000, 0.0000000000, -0.0000000000 ,
0.0000000000, 0.0000000000, 0.0000000000 
,
-0.0000000000, -0.0000000000, 0.0000000000 ,
0.0000000000, -0.0000000000, 0.0000000000 ,
0.0000000000, -0.0000000000, 0.0000000000 
,
-0.0000000000, -0.0000000000, 0.0000000000 ,
0.0000000000, 0.0000000000, -0.0000000000 ,
-0.0000000000, -0.0000000000, 0.0000000000 
,
0.0000000000, -0.0000000000, -0.0000000000 ,
-0.0000000000, -0.0000000000, -0.0000000000 ,
-0.0000000000, 0.0000000000, 0.0000000000 
,
0.0000000000, -0.0000000000, 0.0000000000 ,
0.0000000000, -0.0000000000, -0.0000000000 ,
-0.0000000000, 0.0000000000, 0.0000000000 
,
-0.0000000000, 0.0000000000, 0.0000727528 ,
-0.0000000000, 0.0000000000, -0.0000000000 ,
0.0000000000, 0.0000000000, 0.0000000000 
,
-0.0000000000, 0.0000000000, -0.0000000000 ,
0.0000000000, -0.0000000000, -0.0000000000 ,
-0.0000000000, -0.0000000000, 0.0000000000 
,
-0.0000000000, 0.0000000000, -0.0000000000 ,
-0.0000000000, 0.0000000000, -0.0000000000 ,
-0.0000000000, -0.0000000000, 0.0000000000 
,
0.0000000000, -0.0000000000, 0.0000000000 ,
0.0000000000, 0.0000000000, -0.0000000000 ,
-0.0000000000, -0.0000000000, 0.0000000000 
,
-0.0000000000, -0.0000000000, 0.0000000000 ,
0.0000000000, -0.0000000000, -0.0000000000 ,
-0.0000000000, 0.0000000000, -0.0000000000 
,
-0.0000000000, -0.0000000000, 0.0000000000 ,
0.0000000000, -0.0000000000, -0.0000000000 ,
0.0000000000, 0.0000000000, -0.0000000000 
,
-0.0000000000, 0.0000000000, -0.0000000000 ,
-0.0000000000, 0.0000000000, -0.0000000000 ,
0.0000000000, 0.0000000000, 0.0000000000 
,
-0.0000000000, -0.0000000000, -0.0000000000 ,
-0.0000000000, -0.0000000000, 0.0000000000 ,
-0.0000000000, -0.0000000000, -0.0000000000 
,
-0.0000000000, -0.0000000000, 0.0000000000 ,
-0.0000000000, -0.0000000000, -0.0000000000 ,
0.0000000000, -0.0000000000, -0.0000000000 
,
0.0000000000, 0.0000000000, -0.0000000000 ,
0.0000000000, -0.0000000000, -0.0000000000 ,
-0.0000000000, -0.0000000000, -0.0000000000 
,
0.0000000000, -0.0000000000, 0.0000000000 ,
-0.0000000000, 0.0000000000, 0.0000000000 ,
0.0000000000, 0.0000000000, 0.0000727528 
,
-0.0000000000, 0.0000000000, -0.0000000000 ,
-0.0000000000, 0.0000000000, -0.0000000000 ,
0.0000000000, -0.0000000000, 0.0000000000 
,
-0.0000000000, -0.0000000000, 0.0000000000 ,
0.0000000000, 0.0000000000, -0.0000000000 ,
-0.0000000000, 0.0000000000, -0.0000000000 
,
-0.0000000000, -0.0000000000, -0.0000000000 ,
-0.0000000000, -0.0000000000, -0.0000000000 ,
-0.0000000000, -0.0000000000, 0.0000000000 
,
0.0000000000, -0.0000000000, -0.0000000000 ,
-0.0000000000, -0.0000000000, 0.0000000000 ,
-0.0000000000, -0.0000000000, -0.0000000000 
,
0.0000000000, -0.0000000000, -0.0000000000 ,
-0.0000000000, 0.0000000000, 0.0000000000 ,
-0.0000000000, -0.0000000000, 0.0000000000 
,
0.0000000000, -0.0000000000, 0.0000000000 ,
0.0000000000, -0.0000000000, -0.0000000000 ,
0.0000000000, -0.0000000000, -0.0000000000 
,
0.0000000000, -0.0000000000, -0.0000000000 ,
-0.0000000000, -0.0000000000, -0.0000000000 ,
0.0000000000, 0.0000000000, 0.0000000000 
,
-0.0000000000, -0.0000000000, -0.0000000000 ,
-0.0000000000, 0.0000000000, 0.0000000000 ,
-0.0000000000, 0.0000000000, -0.0000000000 
,
0.0000000000, 0.0000000000, 0.0000000000 ,
0.0000727528, 0.0000000000, -0.0000000000 ,
0.0000000000, 0.0000000000, 0.0000000000 
,
-0.0000000000, 0.0000000000, -0.0000000000 ,
-0.0000000000, 0.0000000000, 0.0000000000 ,
-0.0000000000, 0.0000000000, 0.0000000000 
,
-0.0000000000, -0.0000000000, -0.0000000000 ,
0.0000000000, -0.0000000000, -0.0000000000 ,
-0.0000000000, -0.0000000000, -0.0000000000 
,
-0.0000000000, -0.0000000000, -0.0000000000 ,
-0.0000000000, -0.0000000000, -0.0000000000 ,
-0.0000000000, -0.0000000000, -0.0000000000 
,
-0.0000000000, -0.0000000000, -0.0000000000 ,
-0.0000000000, -0.0000000000, -0.0000000000 ,
-0.0000000000, -0.0000000000, -0.0000000000 
,
-0.0000000000, -0.0000000000, -0.0000000000 ,
0.0000000000, -0.0000000000, -0.0000000000 ,
0.0000000000, 0.0000000000, -0.0000000000 
,
0.0000000000, -0.0000000000, 0.0000000000 ,
-0.0000000000, -0.0000000000, -0.0000000000 ,
0.0000000000, -0.0000000000, -0.0000000000 
,
-0.0000000000, 0.0000000000, 0.0000000000 ,
0.0000000000, -0.0000000000, -0.0000000000 ,
-0.0000000000, 0.0000000000, -0.0000000000 
,
-0.0000000000, 0.0000000000, -0.0000000000 ,
0.0000000000, -0.0000000000, 0.0000000000 ,
0.0000000000, 0.0000000000, 0.0000000000 
,
0.0000000000, -0.0000000000, -0.0000000000 ,
-0.0000000000, -0.0000000000, -0.0000000000 ,
0.0000000000, -0.0000000000, -0.0000000000 
,
0.0000000000, -0.0000000000, -0.0000000000 ,
-0.0000727528, -0.0000000000, -0.0000000000 ,
0.0000000000, 0.0000000000, 0.0000000000 
,
0.0000000000, 0.0000000000, -0.0000000000 ,
-0.0000000000, 0.0000000000, -0.0000000000 ,
-0.0000000000, 0.0000000000, 0.0000000000 
,
0.0000000000, -0.0000000000, 0.0000000000 ,
0.0000000000, -0.0000000000, 0.0000000000 ,
0.0000000000, -0.0000000000, 0.0000000000 
,
-0.0000000000, -0.0000000000, 0.0000000000 ,
-0.0000000000, -0.0000000000, 0.0000000000 ,
0.0000000000, -0.0000000000, 0.0000000000 
,
-0.0000000000, 0.0000000000, 0.0000000000 ,
-0.0000000000, 0.0000000000, -0.0000000000 ,
-0.0000000000, -0.0000000000, 0.0000727528 
,
0.0000000000, -0.0000000000, 0.0000000000 ,
-0.0000000000, 0.0000000000, 0.0000000000 ,
-0.0000000000, -0.0000000000, -0.0000000000 
,
0.0000000000, -0.0000000000, 0.0000000000 ,
-0.0000000000, -0.0000000000, -0.0000000000 ,
0.0000000000, -0.0000000000, 0.0000000000 
,
-0.0000000000, -0.0000000000, -0.0000000000 ,
-0.0000000000, -0.0000000000, -0.0000000000 ,
-0.0000000000, -0.0000000000, -0.0000000000 
,
-0.0000000000, -0.0000000000, 0.0000000000 ,
0.0000000000, -0.0000000000, -0.0000000000 ,
0.0000000000, 0.0000000000, 0.0000000000 
,
-0.0000000000, -0.0000000000, 0.0000000000 ,
0.0000000000, 0.0000000000, 0.0000000000 ,
0.0000727528, -0.0000000000, -0.0000000000 
,
0.0000000000, -0.0000727528, 0.0000000000 ,
-0.0000000000, 0.0000000000, 0.0000727528 ,
0.0000000000, -0.0000727528, 0.0000727528 
,
0.0000000000, 0.0000000000, 0.0000000000 ,
-0.0000000000, -0.0000000000, -0.0000727528 ,
0.0000000000, 0.0000000000, 0.0000000000 
,
-0.0000000000, -0.0000000000, 0.0000000000 ,
-0.0000000000, -0.0000000000, -0.0000000000 ,
-0.0000000000, -0.0000000000, 0.0000000000 
,
-0.0000000000, -0.0000000000, -0.0000000000 ,
-0.0000000000, 0.0000000000, -0.0000000000 ,
-0.0000000000, -0.0000000000, -0.0000000000 
,
-0.0000000000, 0.0000000000, -0.0000000000 ,
0.0000000000, -0.0000000000, -0.0000000000 ,
0.0000000000, -0.0000000000, 0.0000000000 
,
-0.0000000000, 0.0000000000, -0.0000000000 ,
0.0000000000, 0.0000000000, -0.0000000000 ,
0.0000000000, 0.0000000000, 0.0000000000 
,
0.0000000000, 0.0000000000, -0.0000000000 ,
-0.0000000000, 0.0000000000, -0.0000727528 ,
-0.0000000000, 0.0000000000, 0.0000000000 
,
-0.0000000000, -0.0000000000, 0.0000000000 ,
-0.0000000000, -0.0000000000, 0.0000000000 ,
-0.0000000000, 0.0000000000, 0.0000000000 
,
-0.0000000000, 0.0000000000, -0.0000000000 ,
-0.0000000000, -0.0000000000, -0.0000000000 ,
-0.0000000000, -0.0000000000, -0.0000000000 
,
0.0000000000, -0.0000000000, 0.0000000000 ,
-0.0000000000, 0.0000000000, -0.0000000000 ,
-0.0000000000, -0.0000000000, -0.0000000000 
,
0.0000000000, 0.0000000000, 0.0000000000 ,
0.0000000000, -0.0000000000, 0.0000000000 ,
0.0000000000, -0.0000000000, -0.0000000000 
,
-0.0000000000, 0.0000000000, 0.0000000000 ,
-0.0000000000, 0.0000000000, -0.0000000000 ,
0.0000000000, 0.0000000000, -0.0000000000 
,
0.0000000000, -0.0000727528, -0.0000000000 ,
0.0000000000, -0.0000000000, 0.0000000000 ,
-0.0000000000, -0.0000000000, -0.0000000000 
,
0.0000000000, 0.0000000000, -0.0000000000 ,
-0.0000000000, -0.0000000000, -0.0000000000 ,
0.0000000000, 0.0000000000, -0.0000000000 
,
-0.0000000000, -0.0000000000, -0.0000000000 ,
-0.0000000000, 0.0000000000, -0.0000000000 ,
0.0000000000, -0.0000000000, -0.0000000000 
,
0.0000000000, -0.0000000000, 0.0000000000 ,
0.0000000000, -0.0000000000, -0.0000000000 ,
-0.0000000000, -0.0000000000, -0.0000000000 
,
-0.0000000000, -0.0000000000, -0.0000000000 ,
-0.0000000000, -0.0000000000, 0.0000000000 ,
-0.0000000000, -0.0000000000, -0.0000000000 
,
0.0000000000, 0.0000000000, -0.0000000000 ,
-0.0000000000, -0.0000000000, 0.0000000000 ,
0.0000000000, -0.0000000000, 0.0000000000 
,
0.0000000000, -0.0000000000, 0.0000000000 ,
-0.0000000000, 0.0000000000, -0.0000000000 ,
0.0000000000, -0.0000000000, -0.0000000000 
,
-0.0000000000, 0.0000000000, 0.0000000000 ,
-0.0000000000, 0.0000000000, -0.0000000000 ,
0.0000000000, -0.0000000000, -0.0000000000 

,
0.0000000000, -0.0000000000, 0.0000000000 ,
-0.0000000000, -0.0000000000, -0.0000000000 ,
0.0000000000, -0.0000000000, -0.0000000000 
,
0.0000000000, -0.0000000000, 0.0000000000 ,
-0.0000000000, -0.0000000000, -0.0000000000 ,
0.0000000000, -0.0000000000, -0.0000000000 
,
0.0000000000, 0.0000000000, -0.0000000000 ,
0.0000000000, -0.0000000000, 0.0000000000 ,
-0.0000000000, -0.0000000000, 0.0000000000 
,
0.0000000000, 0.0000000000, 0.0000000000 ,
-0.0000000000, -0.0000000000, -0.0000000000 ,
0.0000000000, -0.0000000000, -0.0000000000 
,
-0.0000000000, -0.0000000000, -0.0000000000 ,
0.0000000000, -0.0000000000, 0.0000000000 ,
-0.0000727528, -0.0000000000, 0.0000000000 
,
-0.0000000000, -0.0000000000, -0.0000000000 ,
0.0000000000, -0.0000000000, -0.0000000000 ,
0.0000000000, 0.0000000000, 0.0000000000 
,
0.0000000000, 0.0000000000, -0.0000000000 ,
-0.0000000000, -0.0000000000, -0.0000000000 ,
-0.0000000000, 0.0000000000, -0.0000000000 
,
0.0000000000, -0.0000000000, 0.0000000000 ,
0.0000000000, -0.0000000000, 0.0000000000 ,
-0.0000000000, 0.0000000000, -0.0000000000 
,
0.0000000000, -0.0000000000, -0.0000000000 ,
0.0000000000, 0.0000000000, 0.0000000000 ,
0.0000000000, 0.0000000000, 0.0000000000 
,
-0.0106154680, -0.0126010822, -0.0182763245 ,
-0.0218302608, -0.0096561760, -0.0021692102 ,
-0.0029618458, -0.0013264082, 0.0074580926 
,
0.0111920694, 0.0726069063, 0.0205004513 ,
-0.0329974964, 0.0096295066, 0.0022186521 ,
-0.0414215215, -0.0156214405, 0.0045042806 
,
0.0409935117, 0.0613970980, 0.0467321686 ,
-0.0195155386, -0.0235573649, -0.0110734235 ,
-0.0008694092, 0.0090473583, -0.0079008676 
,
-0.0060076010, 0.0114453649, -0.0044478625 ,
-0.0115966182, -0.0240897145, -0.0073130941 ,
0.0084906453, 0.0060973363, 0.0214691591 
,
-0.0050406172, 0.0136953257, 0.0024066083 ,
0.0185758099, 0.0281827208, 0.0057393983 ,
-0.0093085309, 0.0085305115, -0.0055058515 
,
0.0138570368, 0.0194420069, 0.0209971275 ,
-0.0038155934, -0.0035543456, -0.0134183327 ,
0.0021155954, 0.0058226539, -0.0020843449 
,
-0.0094837705, 0.0079522887, -0.0297888033 ,
-0.0155344820, 0.0050777211, -0.0253687222 ,
-0.0213078670, -0.0061938637, -0.0210265238 
,
-0.0000000000, 0.0000000000, 0.0000000000 ,
-0.0000000000, -0.0000000000, -0.0000000000 ,
-0.0000000000, -0.0000000000, -0.0000000000 
,
0.0178142879, 0.0104788588, -0.0105646998 ,
0.0031208608, -0.0044523724, -0.0064958269 ,
0.0051271943, 0.0032270753, 0.0095762303 
,
0.0127522424, 0.0048239040, -0.0000961345 ,
-0.0022829683, -0.0033487917, -0.0025049599 ,
-0.0024875728, -0.0023995447, 0.0050192210 
,
-0.0000000000, 0.0000000000, -0.0000000000 ,
-0.0000727528, -0.0000000000, 0.0000727528 ,
-0.0000000000, -0.0000000000, -0.0000000000 
,
0.0000000000, 0.0000000000, -0.0000000000 ,
0.0000000000, 0.0000000000, -0.0000000000 ,
-0.0000000000, -0.0000000000, 0.0000000000 
,
0.0324946307, -0.0007645876, 0.0166062154 ,
0.0079769213, -0.0121419504, -0.0076711453 ,
0.0138269207, -0.0053800992, 0.0066600479 
,
0.0078745000, 0.0162784606, 0.0185681265 ,
0.0124886977, 0.0124548934, 0.0134519516 ,
0.0260282662, 0.0270865597, 0.0222530589 
,
-0.0000000000, 0.0000000000, 0.0000000000 ,
-0.0000000000, -0.0000000000, -0.0000000000 ,
0.0000000000, -0.0000000000, 0.0000000000 
,
-0.0157146677, -0.0215659123, 0.0112666832 ,
-0.0154323848, -0.0039381995, 0.0173314083 ,
-0.0048757764, 0.0113758529, 0.0149015589 
,
-0.0000000000, 0.0000000000, -0.0000000000 ,
-0.0000000000, -0.0000000000, -0.0000000000 ,
0.0000000000, -0.0000000000, -0.0000000000 
,
0.0012486542, 0.0167387333, -0.0032049185 ,
-0.0082840081, -0.0008564807, -0.0060794805 ,
0.0071989452, 0.0105666164, -0.0061454056 
,
-0.0000000000, 0.0000000000, 0.0000000000 ,
0.0000000000, -0.0000000000, 0.0000000000 ,
-0.0000000000, 0.0000000000, 0.0000000000 
,
-0.0284489729, -0.0175531749, -0.0221935213 ,
0.0248382930, 0.0321193449, 0.0196710415 ,
0.0192744136, 0.0235557780, 0.0193735044 
,
-0.0000000000, 0.0000000000, 0.0000000000 ,
0.0000000000, 0.0000000000, 0.0000000000 ,
-0.0000000000, -0.0000000000, 0.0000727528 
,
0.0000000000, -0.0000000000, -0.0000000000 ,
-0.0000000000, 0.0000000000, 0.0000000000 ,
0.0000000000, -0.0000000000, 0.0000000000 
,
0.0078610862, 0.0160769168, 0.0088063972 ,
0.0026974888, 0.0062757637, 0.0095826574 ,
-0.0130933514, -0.0078150472, -0.0067605320 
,
0.0219361596, 0.0287251882, 0.0342672952 ,
0.0183458775, 0.0304616671, 0.0265414380 ,
-0.0117174210, 0.0011427645, -0.0004257930 
,
0.0029185985, -0.0103887646, -0.0237989146 ,
-0.0230432581, -0.0139268963, -0.0054895417 ,
0.0058276560, 0.0001959406, 0.0102790771 
,
-0.0014062440, 0.0032800359, -0.0015105885 ,
-0.0026924845, 0.0035578108, 0.0047591506 ,
0.0077027036, 0.0011196360, -0.0022923383 
,
0.0001036195, -0.0138293337, -0.0136725698 ,
0.0050765672, 0.0027509653, -0.0100179166 ,
0.0169407502, 0.0207082722, 0.0158857871 
,
0.0181116238, 0.0167467166, -0.0057376497 ,
-0.0121138860, -0.0098596672, -0.0254337918 ,
0.0029954291, -0.0115426332, -0.0079701208 
,
-0.0000000000, -0.0000000000, 0.0000000000 ,
0.0000000000, 0.0000000000, -0.0000000000 ,
-0.0000000000, -0.0000000000, 0.0000000000 
,
-0.0015209788, 0.0049650050, 0.0042089634 ,
-0.0036840546, -0.0025401553, 0.0054502501 ,
-0.0072638653, 0.0005396285, 0.0064895772 
,
-0.0039015883, -0.0001094007, 0.0148521755 ,
-0.0109204650, -0.0033458059, 0.0126364473 ,
-0.0021427772, -0.0107875429, 0.0055607581 
,
0.0000000000, -0.0000000000, -0.0000000000 ,
0.0000000000, 0.0000000000, 0.0000000000 ,
0.0000000000, 0.0000000000, 0.0000000000 
,
-0.0000000000, 0.0000000000, -0.0000000000 ,
-0.0000000000, -0.0000000000, -0.0000000000 ,
-0.0000000000, 0.0000000000, -0.0000000000 
,
-0.0176910628, -0.0201053433, -0.0071440777 ,
-0.0219294410, -0.0160335712, 0.0047409162 ,
-0.0303275827, -0.0341983140, 0.0071453056 
,
-0.0066679125, 0.0154504506, 0.0028547759 ,
-0.0100159477, -0.0230907779, -0.0234145038 ,
0.0270406306, 0.0357216485, 0.0298001841 
,
-0.0000000000, 0.0000000000, 0.0000000000 ,
-0.0000000000, 0.0000000000, -0.0000000000 ,
-0.0000000000, -0.0000000000, 0.0000000000 
,
0.0041929604, -0.0061425320, -0.0021595019 ,
0.0055606300, -0.0001870078, 0.0041969428 ,
0.0017289899, 0.0007604962, -0.0001477109 
,
-0.0082283504, -0.0057274532, 0.0000158072 ,
-0.0062031331, -0.0005506515, -0.0005507705 ,
-0.0203617942, -0.0135155804, -0.0108360928 
,
-0.0102073811, -0.0076776813, -0.0083963536 ,
-0.0250959378, -0.0220864248, -0.0275986884 ,
0.0036744848, 0.0045212652, 0.0048407223 
,
0.0108353989, 0.0137624899, 0.0117684118 ,
0.0121647147, 0.0118638799, 0.0111329164 ,
0.0107667642, 0.0076614884, 0.0112063950 
,
0.0456593074, 0.0126931919, 0.0280495919 ,
0.0131430486, -0.0237731803, 0.0158084184 ,
-0.0023528410, -0.0110858884, 0.0205314122 
,
-0.0069068503, -0.0005012417, -0.0095125074 ,
0.0001359924, -0.0064094062, -0.0048181876 ,
-0.0200532917, -0.0267519262, -0.0225020498 
,
0.0000000000, 0.0000000000, -0.0000000000 ,
-0.0000000000, 0.0000000000, 0.0000000000 ,
-0.0000000000, -0.0000000000, 0.0000000000 
,
-0.0000000000, -0.0000000000, 0.0000727528 ,
-0.0000000000, 0.0000000000, -0.0000000000 ,
-0.0000000000, -0.0000000000, 0.0000000000 
,
-0.0255668629, -0.0398886204, 0.0158483982 ,
-0.0243618488, -0.0327071212, -0.0035179660 ,
-0.0126579311, -0.0263526253, -0.0015132045 
,
-0.0169506557, 0.0159931779, -0.0372541994 ,
-0.0370519422, -0.0137299998, -0.0144486427 ,
-0.0250616930, -0.0135348188, -0.0032710831 
,
-0.0000000000, -0.0000000000, -0.0000000000 ,
-0.0000000000, -0.0000000000, 0.0000000000 ,
0.0000000000, 0.0000000000, 0.0000000000 
,
-0.0000000000, -0.0000000000, 0.0000000000 ,
-0.0000000000, 0.0000000000, 0.0000000000 ,
-0.0000000000, -0.0000000000, 0.0000000000 
,
-0.0210271068, 0.0115119405, 0.0133394720 ,
-0.0248509999, 0.0061950092, -0.0037680052 ,
0.0066009783, 0.0097536733, 0.0119846780 
,
-0.0000000000, -0.0000000000, 0.0000000000 ,
0.0000000000, -0.0000000000, 0.0000000000 ,
0.0000727528, -0.0000000000, -0.0000000000 
,
-0.0000000000, -0.0000000000, 0.0000727528 ,
0.0000000000, -0.0000000000, 0.0000000000 ,
-0.0000000000, 0.0000000000, -0.0000000000 
,
-0.0000000000, -0.0000000000, 0.0000000000 ,
-0.0000000000, 0.0000000000, -0.0000000000 ,
0.0000000000, -0.0000000000, -0.0000000000 
,
-0.0000000000, -0.0000000000, 0.0000000000 ,
0.0000000000, -0.0000000000, -0.0000000000 ,
-0.0000000000, 0.0000000000, -0.0000000000 
,
-0.0373553149, -0.0043959944, -0.0150406938 ,
0.0229243506, 0.0363935120, 0.0227624048 ,
0.0313044637, 0.0282542016, 0.0061132032 
,
0.0354725383, 0.0501160696, 0.0386474691 ,
-0.0044446425, -0.0003819141, 0.0029664005 ,
-0.0066574281, -0.0145900697, -0.0115627032 
,
0.0167824104, -0.0041374778, 0.0013973156 ,
0.0243695043, 0.0149968052, 0.0083250729 ,
0.0168728586, 0.0084299855, 0.0017501966 
,
-0.0000000000, 0.0000000000, -0.0000000000 ,
-0.0000000000, -0.0000000000, -0.0000000000 ,
-0.0000000000, 0.0000000000, 0.0000000000 
,
-0.0265695360, -0.0054653087, -0.0288663246 ,
0.0030805594, 0.0227450151, -0.0106324265 ,
-0.0041727079, -0.0021829307, -0.0093327798 
,
-0.0049998658, 0.0232004169, 0.0075553721 ,
-0.0062763933, 0.0056543881, 0.0178800058 ,
-0.0127870385, -0.0028312064, 0.0057512135 
,
0.0045233006, 0.0026422106, 0.0072093084 ,
0.0015261096, 0.0046591409, -0.0022187487 ,
0.0030967342, 0.0046435767, 0.0007171333 
,
0.0279978793, 0.0326909944, 0.0312772989 ,
-0.0099882856, -0.0156433433, -0.0127250496 ,
-0.0041377186, -0.0075523169, -0.0010160172 
,
-0.0040062815, -0.0066281813, -0.0078176074 ,
0.0019324084, -0.0008987378, -0.0030655209 ,
0.0005826742, -0.0013170993, -0.0000241815 
,
0.0000000000, 0.0000000000, 0.0000000000 ,
0.0000000000, -0.0000000000, 0.0000000000 ,
0.0000000000, 0.0000000000, 0.0000000000 
,
-0.0000000000, 0.0000000000, -0.0000000000 ,
0.0000000000, -0.0000000000, -0.0000000000 ,
-0.0000000000, 0.0000000000, -0.0000000000 
,
-0.0187932048, -0.0240975637, -0.0025937462 ,
-0.0205378160, -0.0265683215, -0.0141351093 ,
0.0131550934, -0.0043351841, 0.0028696833 
,
0.0000000000, -0.0000000000, 0.0000000000 ,
0.0000000000, -0.0000000000, 0.0000000000 ,
0.0000000000, -0.0000000000, 0.0000000000 
,
0.0126311360, 0.0386861823, 0.0333979353 ,
-0.0050311205, -0.0172829274, 0.0091245007 ,
-0.0030881078, -0.0190943591, 0.0243900642 
,
-0.0000000000, -0.0000000000, -0.0000000000 ,
0.0000000000, -0.0000000000, -0.0000727528 ,
-0.0000000000, 0.0000000000, -0.0000000000 
,
-0.0167009532, -0.0109645100, -0.0015141079 ,
-0.0163292550, -0.0108036287, -0.0024242448 ,
-0.0247631986, -0.0260764733, -0.0081376471 
,
0.0000000000, 0.0000000000, -0.0000000000 ,
-0.0000000000, 0.0000000000, 0.0000000000 ,
0.0000000000, 0.0000000000, -0.0000000000 
,
0.0000000000, -0.0000000000, -0.0000000000 ,
-0.0000000000, 0.0000000000, -0.0000000000 ,
0.0000000000, -0.0000000000, 0.0000000000 
,
-0.0010441998, -0.0023240759, -0.0053166649 ,
-0.0044604810, -0.0033726895, -0.0034191175 ,
-0.0005139752, 0.0003660679, 0.0002797753 
,
-0.0000000000, 0.0000727528, 0.0000000000 ,
0.0000000000, 0.0000000000, -0.0000000000 ,
0.0000000000, 0.0000000000, 0.0000000000 
,
0.0113595081, 0.0153875817, -0.0005783309 ,
-0.0141787129, -0.0024063301, -0.0072269957 ,
-0.0167499166, -0.0217365921, -0.0165739376 
,
0.0116096335, 0.0020067091, 0.0171994418 ,
-0.0183233880, -0.0186217539, -0.0052052648 ,
-0.0019065398, 0.0004099990, -0.0114879385 
,
-0.0241389591, -0.0249233600, 0.0042936224 ,
0.0086343894, 0.0226113144, 0.0027299365 ,
-0.0065904693, -0.0023695275, -0.0050745388 
,
-0.0125025008, -0.0173848644, -0.0237073451 ,
-0.0064622466, -0.0069264811, -0.0205077622 ,
-0.0161864236, -0.0065987450, -0.0127288625 
,
-0.0000000000, 0.0000000000, -0.0000000000 ,
0.0000000000, 0.0000000000, -0.0000000000 ,
0.0000000000, 0.0000000000, 0.0000000000 
,
0.0104308231, 0.0107294349, -0.0248779263 ,
-0.0102006923, -0.0126134381, -0.0139716826 ,
0.0024574809, -0.0065190224, 0.0010020061 
,
-0.0171549078, -0.0124635631, -0.0092437873 ,
-0.0036667723, -0.0022161619, 0.0081888447 ,
0.0081615113, 0.0105492249, 0.0103479670 
,
0.0101558380, 0.0249203350, 0.0136977341 ,
0.0244937912, 0.0247937534, 0.0329179652 ,
-0.0118662221, -0.0047246804, -0.0235443637 
,
0.0000000000, -0.0000000000, -0.0000000000 ,
-0.0000000000, -0.0000000000, 0.0000000000 ,
-0.0000000000, 0.0000000000, 0.0000000000 
,
0.0000000000, -0.0000000000, 0.0000000000 ,
-0.0000000000, -0.0000727528, -0.0000000000 ,
-0.0000000000, -0.0000000000, 0.0000000000 
,
0.0000000000, -0.0000000000, -0.0000000000 ,
0.0000000000, -0.0000000000, -0.0000000000 ,
-0.0000000000, -0.0000000000, -0.0000000000 
,
0.0118860137, 0.0237563886, 0.0127278557 ,
-0.0157249421, -0.0138788801, -0.0175711978 ,
-0.0147796292, -0.0086845774, -0.0106042549 
,
0.0103351464, 0.0111374576, -0.0043171803 ,
-0.0233410727, -0.0202971324, -0.0197724700 ,
-0.0195108205, -0.0072615813, -0.0083315661 
,
-0.0093339887, 0.0104221692, 0.0065971268 ,
-0.0015972136, 0.0005500582, 0.0143718151 ,
-0.0164779834, -0.0055973013, -0.0000669175 
,
0.0000000000, 0.0000000000, -0.0000000000 ,
-0.0000000000, 0.0000000000, -0.0000000000 ,
-0.0000000000, 0.0000000000, -0.0000000000 
,
-0.0000727528, 0.0000000000, 0.0000000000 ,
0.0000000000, -0.0000000000, -0.0000000000 ,
-0.0000000000, 0.0000000000, 0.0000000000 
,
-0.0012998267, 0.0003070132, 0.0002003381 ,
-0.0079860911, -0.0094997669, 0.0033638547 ,
0.0212891102, 0.0018269143, 0.0205569603 
,
-0.0146197248, -0.0140981665, -0.0030086003 ,
0.0087231677, 0.0102634132, -0.0030891073 ,
-0.0103280237, -0.0123055605, -0.0179012585 

,
-0.0000000000, -0.0000000000, -0.0000000000 ,
0.0000000000, 0.0000000000, -0.0000000000 ,
0.0000000000, 0.0000000000, -0.0000000000 
,
0.0000000000, -0.0000000000, 0.0000000000 ,
0.0000000000, 0.0000000000, -0.0000000000 ,
0.0000000000, -0.0000000000, -0.0000000000 
,
0.0000000000, 0.0000000000, 0.0000000000 ,
0.0000727528, -0.0000000000, 0.0000000000 ,
0.0000000000, 0.0000000000, -0.0000000000 
,
-0.0000000000, -0.0000000000, 0.0000000000 ,
0.0000000000, -0.0000000000, -0.0000000000 ,
0.0000000000, -0.0000000000, -0.0000000000 
,
-0.0000000000, -0.0000000000, 0.0000000000 ,
0.0000000000, -0.0000000000, 0.0000000000 ,
-0.0000000000, -0.0000000000, 0.0000000000 
,
0.0000000000, -0.0000000000, -0.0000000000 ,
-0.0000000000, -0.0000000000, -0.0000000000 ,
-0.0000000000, 0.0000000000, -0.0000000000 
,
0.0000000000, 0.0000000000, -0.0000000000 ,
0.0000000000, -0.0000000000, -0.0000000000 ,
0.0000000000, 0.0000000000, -0.0000000000 
,
0.0000000000, 0.0000000000, 0.0000000000 ,
-0.0000000000, -0.0000000000, 0.0000000000 ,
-0.0000000000, -0.0000000000, 0.0000000000 
,
-0.0000000000, 0.0000000000, 0.0000000000 ,
-0.0000000000, -0.0000000000, 0.0000000000 ,
-0.0000000000, -0.0000000000, 0.0000000000 
,
-0.0171297416, -0.0169710852, -0.0113411732 ,
-0.0155041786, -0.0126608927, -0.0150084840 ,
-0.0080947783, -0.0024069785, 0.0006668516 
,
0.0285071600, 0.0296881702, 0.0155075425 ,
-0.0014062463, 0.0037099405, -0.0078043146 ,
0.0142506724, 0.0059054489, 0.0064301509 
,
-0.0338452421, -0.0321321450, -0.0318108760 ,
-0.0242816266, -0.0172498841, -0.0255478844 ,
-0.0019910492, -0.0151475845, -0.0125392051 
,
0.0022072578, -0.0054448936, 0.0020707559 ,
0.0054449663, -0.0016380060, -0.0044266530 ,
0.0218036119, 0.0123773841, 0.0187920146 
,
0.0006071326, 0.0038674285, -0.0074961456 ,
0.0058326800, 0.0172774028, 0.0093151256 ,
0.0033953506, 0.0164615493, 0.0032886902 
,
-0.0168611277, -0.0097398758, -0.0097619640 ,
0.0093114944, 0.0241442695, 0.0033443563 ,
0.0067340494, 0.0080720158, 0.0010682541 
,
0.0188892800, 0.0219730325, 0.0328420438 ,
0.0136630703, 0.0146085927, 0.0120253023 ,
0.0098268911, 0.0035038346, -0.0010982938 
,
-0.0000000000, -0.0000000000, 0.0000000000 ,
-0.0000000000, -0.0000000000, -0.0000000000 ,
-0.0000000000, 0.0000000000, 0.0000000000 
,
-0.0180777647, -0.0021620872, 0.0551700369 ,
-0.0167922378, 0.0140719134, 0.0011695790 ,
-0.0220966786, 0.0156459138, 0.0238443818 
,
0.0015701856, -0.0171532072, 0.0124938348 ,
0.0065809493, -0.0000360618, 0.0102159008 ,
-0.0063165389, -0.0053963093, -0.0105828783 
,
0.0000000000, -0.0000000000, -0.0000000000 ,
0.0000000000, -0.0000000000, -0.0000000000 ,
0.0000000000, -0.0000000000, 0.0000000000 
,
0.0000000000, 0.0000000000, -0.0000000000 ,
0.0000000000, 0.0000000000, 0.0000000000 ,
0.0000000000, -0.0000000000, -0.0000000000 
,
-0.0066288090, -0.0079157362, -0.0105059901 ,
0.0104999691, 0.0061958181, 0.0094291884 ,
-0.0017631003, 0.0038042525, 0.0128153404 
,
-0.0034964560, 0.0102540925, 0.0059454967 ,
-0.0004310353, 0.0023564687, 0.0111610340 ,
-0.0020675079, -0.0073669325, 0.0022843932 
,
0.0000000000, 0.0000000000, -0.0000000000 ,
-0.0000000000, -0.0000000000, 0.0000000000 ,
-0.0000000000, 0.0000000000, -0.0000000000 
,
0.0365087129, -0.0097253788, 0.0073365141 ,
0.0168864485, -0.0136932675, -0.0034931533 ,
-0.0030134593, -0.0130520184, -0.0227342378 
,
-0.0000000000, -0.0000000000, -0.0000000000 ,
-0.0000000000, -0.0000000000, -0.0000000000 ,
-0.0000000000, 0.0000000000, 0.0000000000 
,
0.0058536977, 0.0042119431, -0.0059767915 ,
-0.0130037433, -0.0067683831, -0.0082405843 ,
0.0023295209, -0.0161141288, 0.0037680890 
,
0.0000000000, 0.0000000000, 0.0000000000 ,
-0.0000000000, -0.0000727528, -0.0000000000 ,
-0.0000000000, -0.0000000000, -0.0000000000 
,
-0.0107424725, 0.0032052866, 0.0028719953 ,
-0.0096043367, -0.0122181289, -0.0048056729 ,
-0.0464717597, -0.0480692275, -0.0416660979 
,
0.0000000000, 0.0000000000, -0.0000000000 ,
-0.0000000000, -0.0000000000, 0.0000000000 ,
-0.0000000000, -0.0000000000, 0.0000000000 
,
-0.0000000000, -0.0000000000, 0.0000000000 ,
-0.0000000000, 0.0000000000, 0.0000000000 ,
-0.0000000000, 0.0000000000, -0.0000000000 
,
-0.0213255174, -0.0182257108, -0.0179452598 ,
-0.0155269522, 0.0017150475, -0.0113214301 ,
-0.0199530646, -0.0219299402, -0.0186718628 
,
0.0043351371, 0.0148579711, 0.0109442882 ,
-0.0066964477, 0.0046406030, -0.0021900951 ,
-0.0027426034, -0.0029271299, -0.0044038785 
,
0.0185499266, 0.0029255894, -0.0010712130 ,
0.0066136448, 0.0054940842, 0.0123025775 ,
0.0176300239, -0.0067227622, -0.0056518395 
,
-0.0309548117, -0.0218742844, -0.0325053185 ,
-0.0021001294, -0.0083493721, -0.0141395247 ,
0.0000750904, 0.0023433890, -0.0157414265 
,
0.0179982781, 0.0182949267, 0.0185043924 ,
0.0108104423, 0.0167045277, 0.0027021170 ,
0.0075686146, 0.0102668488, 0.0045243250 
,
-0.0191785935, -0.0022832670, 0.0253446866 ,
-0.0055371504, -0.0039391420, 0.0100481762 ,
-0.0141160646, -0.0028587079, 0.0150013482 
,
-0.0000000000, 0.0000000000, 0.0000000000 ,
-0.0000000000, 0.0000000000, 0.0000000000 ,
0.0000000000, -0.0000000000, 0.0000000000 
,
-0.0366032533, -0.0267628748, -0.0309411865 ,
-0.0265258793, -0.0254377257, -0.0275920164 ,
-0.0107820230, -0.0117769474, -0.0118909720 
,
-0.0174351595, -0.0203824397, -0.0164832100 ,
-0.0193276145, -0.0134894811, -0.0128333643 ,
-0.0299497861, -0.0230161417, -0.0271794982 
,
0.0000000000, -0.0000000000, -0.0000000000 ,
-0.0000000000, 0.0000000000, -0.0000000000 ,
0.0000000000, -0.0000000000, -0.0000000000 
,
-0.0000000000, -0.0000000000, -0.0000000000 ,
0.0000000000, 0.0000727528, -0.0000000000 ,
-0.0000000000, 0.0000000000, -0.0000000000 
,
0.0096618468, 0.0101995096, 0.0166250113 ,
-0.0027678770, 0.0122583350, 0.0015158650 ,
-0.0092176134, -0.0131419310, -0.0078369370 
,
-0.0444626175, -0.0258695912, -0.0581901334 ,
-0.0215538871, 0.0012883979, -0.0113985315 ,
0.0144952023, 0.0145287719, 0.0295282695 
,
0.0000000000, -0.0000000000, -0.0000000000 ,
-0.0000000000, -0.0000000000, -0.0000000000 ,
-0.0000000000, -0.0000000000, -0.0000000000 
,
-0.0013713040, -0.0053644432, -0.0068687974 ,
0.0055862186, 0.0012329820, 0.0058772517 ,
0.0131389275, 0.0193802379, 0.0108583635 
,
0.0139114372, 0.0057838922, 0.0094851181 ,
0.0008342041, -0.0083118454, -0.0016335895 ,
-0.0155936042, -0.0176604353, -0.0162104629 
,
-0.0003671146, 0.0075853993, 0.0138567956 ,
0.0008498482, 0.0142257456, -0.0031388646 ,
0.0098668626, -0.0060351831, 0.0072028101 
,
-0.0021210758, -0.0026147286, -0.0035031606 ,
0.0001034000, 0.0035516645, 0.0006834116 ,
-0.0037322755, -0.0038635200, -0.0009115771 
,
-0.0040282905, -0.0334925316, -0.0084128110 ,
-0.0001789600, 0.0004035729, 0.0289629437 ,
0.0020495502, -0.0073810164, -0.0035259996 
,
0.0127336774, 0.0010694909, 0.0023777625 ,
0.0030944692, 0.0009475395, 0.0068178363 ,
-0.0059953653, -0.0034377931, -0.0030767566 
,
0.0000000000, -0.0000000000, 0.0000000000 ,
-0.0000000000, -0.0000000000, 0.0000000000 ,
0.0000000000, -0.0000000000, 0.0000000000 
,
-0.0000000000, -0.0000000000, 0.0000000000 ,
-0.0000000000, 0.0000000000, -0.0000000000 ,
-0.0000000000, -0.0000000000, 0.0000000000 
,
0.0457912944, 0.0425097346, 0.0347706974 ,
0.0120955538, 0.0060874256, 0.0231216494 ,
0.0018407028, 0.0054102973, 0.0122955227 
,
-0.0031955387, -0.0129426010, -0.0136223417 ,
0.0210847948, 0.0077280365, 0.0009857540 ,
0.0402289443, 0.0071069724, -0.0047312835 
,
0.0000000000, -0.0000000000, -0.0000000000 ,
0.0000000000, -0.0000000000, 0.0000000000 ,
-0.0000000000, -0.0000000000, 0.0000000000 
,
-0.0000000000, 0.0000000000, 0.0000000000 ,
-0.0000000000, -0.0000000000, -0.0000000000 ,
-0.0000000000, 0.0000000000, 0.0000000000 
,
0.0368495509, 0.0030148549, -0.0050151707 ,
-0.0028332272, 0.0087209241, -0.0211659241 ,
0.0136902584, 0.0093467506, -0.0198786184 
,
-0.0000000000, -0.0000000000, -0.0000000000 ,
0.0000000000, 0.0000000000, -0.0000727528 ,
0.0000000000, -0.0000000000, 0.0000000000 
,
-0.0000000000, 0.0000000000, 0.0000000000 ,
0.0000000000, -0.0000000000, -0.0000000000 ,
0.0000000000, -0.0000000000, 0.0000000000 
,
-0.0000727528, -0.0000000000, 0.0000000000 ,
0.0000000000, 0.0000000000, -0.0000000000 ,
-0.0000000000, -0.0000000000, -0.0000727528 
,
-0.0000000000, 0.0000000000, 0.0000000000 ,
0.0000000000, 0.0000000000, 0.0000000000 ,
0.0000000000, -0.0000000000, 0.0000000000 
,
-0.0183840152, -0.0022877709, -0.0245794449 ,
-0.0310533717, 0.0058104224, -0.0312855616 ,
-0.0177120436, -0.0156389792, -0.0247605126 
,
-0.0129604749, -0.0230775420, -0.0268984921 ,
0.0145862484, 0.0163352136, 0.0103045376 ,
-0.0109592685, 0.0025236374, -0.0159525890 
,
0.0340268835, 0.0099952593, 0.0199242663 ,
0.0013587899, -0.0174584687, 0.0112601584 ,
-0.0071817138, 0.0092876581, -0.0049737692 
,
0.0000000000, -0.0000000000, -0.0000000000 ,
-0.0000000000, -0.0000000000, 0.0000000000 ,
-0.0000727528, 0.0000000000, -0.0000000000 
,
-0.0038227239, -0.0061725071, 0.0142914038 ,
-0.0145607833, -0.0078922361, -0.0003680169 ,
-0.0364790075, -0.0427087359, -0.0388065167 
,
0.0143178226, -0.0015823006, 0.0033051171 ,
-0.0042272238, 0.0270811003, 0.0099311192 ,
-0.0020234566, 0.0077131358, -0.0050289147 
,
-0.0035555311, -0.0093268286, 0.0020022790 ,
0.0027145059, 0.0090017365, 0.0046713115 ,
0.0031838326, 0.0062471014, 0.0020621608 
,
-0.0115759848, -0.0229622703, -0.0123143317 ,
-0.0047496702, -0.0100686643, -0.0102254795 ,
-0.0021066014, -0.0058508129, -0.0093934480 
,
-0.0127817625, -0.0166283995, -0.0150250066 ,
-0.0127032287, -0.0090373112, -0.0078810565 ,
-0.0083301095, -0.0123508573, -0.0072127040 
,
0.0000000000, -0.0000000000, 0.0000000000 ,
-0.0000000000, 0.0000000000, 0.0000727528 ,
0.0000000000, 0.0000000000, 0.0000000000 
,
-0.0000000000, -0.0000000000, -0.0000000000 ,
0.0000000000, 0.0000000000, 0.0000000000 ,
0.0000000000, -0.0000000000, 0.0000000000 
,
-0.0085798847, -0.0012620690, -0.0057421545 ,
-0.0029527619, -0.0034143152, 0.0035194543 ,
-0.0167532507, -0.0218144450, 0.0163050126 
,
-0.0000000000, 0.0000000000, 0.0000000000 ,
0.0000000000, 0.0000000000, 0.0000000000 ,
-0.0000000000, 0.0000000000, 0.0000000000 
,
-0.0115536582, -0.0245562252, -0.0249287654 ,
-0.0092113977, -0.0286063347, -0.0018079785 ,
-0.0074871904, -0.0207693167, -0.0188638438 
,
0.0000000000, -0.0000000000, -0.0000000000 ,
0.0000000000, 0.0000000000, -0.0000000000 ,
0.0000000000, 0.0000000000, 0.0000000000 
,
-0.0242580548, -0.0266900510, -0.0215510447 ,
-0.0349097364, -0.0217952151, -0.0282836594 ,
-0.0353799947, -0.0218380038, -0.0268870946 
,
0.0000000000, 0.0000000000, -0.0000000000 ,
-0.0000000000, 0.0000000000, -0.0000000000 ,
-0.0000000000, -0.0000000000, 0.0000000000 
,
-0.0000000000, -0.0000000000, 0.0000000000 ,
0.0000000000, 0.0000000000, 0.0000000000 ,
-0.0000000000, -0.0000000000, -0.0000000000 
,
-0.0093283970, -0.0077894195, -0.0124671301 ,
-0.0032538378, -0.0015085506, -0.0045285556 ,
-0.0046573267, -0.0050850268, -0.0041221092 
,
0.0000000000, 0.0000000000, -0.0000000000 ,
-0.0000000000, -0.0000000000, -0.0000000000 ,
0.0000000000, 0.0000000000, -0.0000000000 
,
-0.0055965679, -0.0219202638, -0.0251867343 ,
0.0056211455, 0.0001154884, 0.0030037416 ,
-0.0272874013, -0.0265509207, -0.0193907451 
,
-0.0017452865, -0.0158137195, -0.0143047860 ,
-0.0166399684, -0.0324404463, -0.0267323460 ,
-0.0085565429, -0.0090593481, -0.0086702844 
,
0.0185344331, 0.0182713661, 0.0081683444 ,
-0.0271494705, 0.0108518377, -0.0136712920 ,
0.0113085378, 0.0093369596, 0.0135733811 
,
0.0200332515, 0.0017970348, 0.0025359786 ,
0.0106451456, -0.0007665458, -0.0012095009 ,
0.0059816837, 0.0005142537, -0.0012686180 
,
0.0000000000, -0.0000000000, -0.0000000000 ,
-0.0000000000, -0.0000000000, -0.0000000000 ,
-0.0000000000, 0.0000000000, 0.0000000000 
,
-0.0004860913, 0.0008633345, 0.0143995332 ,
0.0007935559, -0.0103085376, -0.0000922560 ,
-0.0078397878, -0.0102050193, -0.0066567264 
,
-0.0301233605, -0.0244404301, -0.0293791983 ,
-0.0233556852, -0.0164851993, -0.0280006714 ,
-0.0196102411, -0.0114980368, -0.0189291500 
,
0.0353342183, 0.0470346287, 0.0368628986 ,
0.0246266238, 0.0390299708, 0.0227854103 ,
0.0250293817, 0.0287164710, 0.0316619352 
,
-0.0000000000, 0.0000000000, 0.0000000000 ,
-0.0000000000, -0.0000000000, -0.0000000000 ,
0.0000000000, -0.0000000000, -0.0000000000 
,
0.0000000000, -0.0000000000, -0.0000000000 ,
-0.0000000000, 0.0000000000, -0.0000000000 ,
-0.0000000000, -0.0000000000, 0.0000000000 
,
0.0000000000, -0.0000727528, -0.0000000000 ,
-0.0000000000, 0.0000000000, 0.0000000000 ,
-0.0000000000, 0.0000000000, -0.0000000000 
,
-0.0251005106, -0.0342276767, -0.0323100351 ,
-0.0121718841, 0.0023779890, -0.0036271315 ,
0.0164583288, 0.0276289880, 0.0234492365 
,
-0.0214628279, -0.0163385589, -0.0175291803 ,
-0.0099761514, -0.0009700708, -0.0050736158 ,
-0.0012495394, 0.0088377018, -0.0027167802 
,
0.0370662287, 0.0122832572, 0.0058452045 ,
0.0159713402, 0.0162560511, 0.0042159534 ,
0.0204850752, 0.0155082308, 0.0032409816 
,
0.0000000000, 0.0000000000, 0.0000000000 ,
-0.0000000000, 0.0000000000, 0.0000000000 ,
0.0000000000, -0.0000000000, -0.0000000000 
,
-0.0000000000, 0.0000000000, 0.0000727528 ,
-0.0000000000, -0.0000000000, 0.0000000000 ,
-0.0000727528, 0.0000000000, -0.0000000000 
,
-0.0229372717, -0.0207074918, -0.0241533518 ,
-0.0003945787, 0.0036635492, 0.0032127358 ,
-0.0036060067, 0.0109281391, 0.0171074606 
,
-0.0256803166, -0.0489424057, -0.0422310606 ,
-0.0159879774, -0.0113574984, -0.0100801792 ,
-0.0116023580, -0.0078905774, -0.0081200749 

,
0.0000000000, 0.0000000000, 0.0000000000 ,
0.0000000000, -0.0000000000, 0.0000000000 ,
-0.0000000000, 0.0000000000, 0.0000000000 
,
0.0000000000, 0.0000000000, -0.0000000000 ,
0.0000000000, 0.0000000000, -0.0000000000 ,
-0.0000000000, 0.0000000000, -0.0000000000 
,
0.0000000000, 0.0000727528, 0.0000000000 ,
0.0000000000, -0.0000000000, 0.0000000000 ,
-0.0000000000, 0.0000000000, -0.0000000000 
,
0.0000000000, 0.0000000000, -0.0000000000 ,
-0.0000000000, -0.0000000000, 0.0000000000 ,
0.0000000000, -0.0000000000, 0.0000000000 
,
-0.0000000000, 0.0000000000, 0.0000000000 ,
0.0000000000, -0.0000000000, 0.0000000000 ,
0.0000000000, 0.0000000000, 0.0000000000 
,
0.0000000000, 0.0000000000, -0.0000000000 ,
0.0000000000, 0.0000000000, 0.0000000000 ,
-0.0000000000, -0.0000000000, -0.0000000000 
,
-0.0000000000, -0.0000000000, -0.0000000000 ,
0.0000000000, -0.0000000000, -0.0000000000 ,
-0.0000000000, 0.0000000000, -0.0000000000 
,
-0.0000000000, -0.0000000000, -0.0000000000 ,
-0.0000000000, -0.0000727528, 0.0000727528 ,
-0.0000000000, 0.0000000000, -0.0000000000 
,
-0.0000000000, -0.0000000000, 0.0000000000 ,
0.0000000000, 0.0000000000, -0.0000000000 ,
0.0000727528, 0.0000000000, -0.0000000000 
,
-0.0000000000, 0.0000000000, -0.0000000000 ,
-0.0000000000, -0.0000000000, 0.0000000000 ,
-0.0000000000, 0.0000000000, -0.0000000000 
,
-0.0000000000, 0.0000000000, 0.0000000000 ,
-0.0000000000, -0.0000000000, -0.0000000000 ,
0.0000000000, -0.0000000000, -0.0000000000 
,
0.0000000000, -0.0000000000, 0.0000000000 ,
-0.0000000000, 0.0000000000, 0.0000000000 ,
-0.0000000000, 0.0000000000, -0.0000000000 
,
0.0000000000, -0.0000000000, 0.0000000000 ,
0.0000000000, 0.0000000000, 0.0000000000 ,
0.0000000000, -0.0000000000, -0.0000000000 
,
0.0000000000, -0.0000000000, -0.0000000000 ,
-0.0000000000, -0.0000000000, -0.0000000000 ,
0.0000000000, -0.0000000000, -0.0000000000 
,
0.0000000000, 0.0000000000, 0.0000000000 ,
-0.0000000000, 0.0000000000, -0.0000000000 ,
-0.0000000000, -0.0000000000, 0.0000000000 
,
0.0000000000, -0.0000000000, -0.0000000000 ,
0.0000000000, -0.0000000000, -0.0000000000 ,
-0.0000000000, -0.0000000000, -0.0000000000 
,
-0.0000000000, 0.0000000000, 0.0000000000 ,
0.0000000000, -0.0000000000, 0.0000000000 ,
0.0000000000, 0.0000000000, -0.0000000000 
,
-0.0000000000, -0.0000000000, -0.0000000000 ,
0.0000000000, -0.0000000000, -0.0000000000 ,
-0.0000000000, 0.0000000000, 0.0000000000 
,
0.0000000000, -0.0000000000, -0.0000000000 ,
0.0000000000, -0.0000000000, -0.0000000000 ,
0.0000000000, 0.0000000000, -0.0000000000 
,
0.0000000000, 0.0000000000, 0.0000000000 ,
0.0000000000, -0.0000000000, -0.0000000000 ,
0.0000000000, 0.0000000000, 0.0000000000 
,
0.0000000000, 0.0000000000, 0.0000000000 ,
0.0000000000, 0.0000000000, 0.0000000000 ,
0.0000000000, 0.0000000000, 0.0000000000 
,
0.0000000000, -0.0000000000, -0.0000000000 ,
0.0000000000, -0.0000000000, -0.0000000000 ,
-0.0000000000, -0.0000000000, -0.0000000000 
,
-0.0000000000, -0.0000000000, -0.0000000000 ,
0.0000000000, -0.0000000000, -0.0000000000 ,
-0.0000000000, 0.0000000000, -0.0000000000 
,
-0.0000000000, 0.0000000000, -0.0000000000 ,
-0.0000000000, -0.0000000000, 0.0000000000 ,
-0.0000000000, -0.0000000000, -0.0000000000 
,
0.0000000000, -0.0000000000, -0.0000000000 ,
-0.0000000000, 0.0000000000, 0.0000000000 ,
-0.0000000000, -0.0000000000, -0.0000000000 
,
-0.0000000000, 0.0000000000, 0.0000000000 ,
-0.0000000000, 0.0000000000, 0.0000000000 ,
-0.0000000000, 0.0000000000, 0.0000000000 
,
-0.0000000000, -0.0000000000, -0.0000000000 ,
0.0000000000, 0.0000000000, 0.0000000000 ,
-0.0000000000, 0.0000000000, 0.0000000000 
,
-0.0000000000, -0.0000000000, -0.0000000000 ,
-0.0000000000, 0.0000000000, -0.0000000000 ,
0.0000000000, 0.0000000000, 0.0000000000 
,
-0.0000000000, 0.0000000000, -0.0000000000 ,
-0.0000000000, 0.0000000000, 0.0000000000 ,
-0.0000000000, -0.0000000000, -0.0000000000 
,
-0.0000000000, 0.0000000000, 0.0000000000 ,
0.0000000000, -0.0000000000, 0.0000000000 ,
0.0000000000, -0.0000000000, 0.0000000000 
,
0.0000000000, 0.0000000000, -0.0000000000 ,
-0.0000000000, 0.0000000000, 0.0000000000 ,
0.0000000000, 0.0000000000, 0.0000000000 
,
-0.0000000000, -0.0000000000, -0.0000000000 ,
0.0000000000, 0.0000000000, -0.0000000000 ,
-0.0000000000, -0.0000000000, 0.0000000000 
,
0.0000000000, 0.0000000000, 0.0000000000 ,
-0.0000000000, -0.0000000000, -0.0000000000 ,
-0.0000000000, -0.0000000000, 0.0000000000 
,
-0.0000000000, -0.0000000000, 0.0000000000 ,
-0.0000000000, -0.0000000000, 0.0000000000 ,
-0.0000000000, -0.0000000000, -0.0000000000 
,
-0.0000000000, -0.0000000000, -0.0000000000 ,
0.0000000000, 0.0000000000, -0.0000000000 ,
-0.0000000000, -0.0000000000, -0.0000000000 
,
-0.0000000000, -0.0000000000, -0.0000000000 ,
-0.0000000000, 0.0000000000, -0.0000000000 ,
0.0000000000, -0.0000000000, 0.0000000000 
,
0.0000000000, 0.0000000000, -0.0000000000 ,
0.0000000000, 0.0000000000, -0.0000000000 ,
-0.0000000000, -0.0000000000, -0.0000000000 
,
0.0000000000, -0.0000000000, -0.0000000000 ,
-0.0000000000, 0.0000000000, 0.0000000000 ,
0.0000000000, 0.0000000000, -0.0000000000 
,
0.0000000000, -0.0000000000, 0.0000000000 ,
-0.0000000000, -0.0000000000, -0.0000000000 ,
-0.0000000000, -0.0000000000, -0.0000000000 
,
