float fc_class_weights [4][1536] = {
0.0000000000,
0.0000000000,
0.0000000000,
0.0000000000,
0.0840185881,
0.0821615160,
-0.0403882451,
-0.0435709730,
0.0000000000,
0.0000000000,
-0.0000000000,
0.0000000000,
-0.0000000000,
-0.0000000000,
-0.0000000000,
-0.0000000000,
-0.0000000000,
-0.0000000000,
-0.0000000000,
0.0000000000,
0.0000000000,
-0.0000000000,
-0.0000000000,
-0.0000000000,
-0.0464818031,
-0.0435125157,
-0.0322294012,
-0.0286683030,
0.0000000000,
-0.0000000000,
-0.0000000000,
0.0000000000,
-0.1410170048,
-0.1369184852,
0.0448429286,
0.0532208011,
0.0000000000,
0.0000000000,
-0.0000000000,
-0.0000000000,
0.0000000000,
0.0000000000,
0.0000000000,
-0.0000000000,
0.0000000000,
0.0000000000,
0.0000000000,
0.0000000000,
-0.0000000000,
0.0000000000,
-0.0000000000,
-0.0000000000,
0.0000000000,
0.0000000000,
-0.0000000000,
-0.0000000000,
0.0000000000,
-0.0000000000,
0.0000000000,
-0.0000000000,
0.0000000000,
-0.0000000000,
-0.0000000000,
0.0000000000,
-0.0000000000,
-0.0000000000,
-0.0000000000,
-0.0000000000,
-0.0182606839,
-0.0232818890,
0.0825232491,
0.0831896365,
0.0000000000,
-0.0000000000,
0.0000000000,
0.0000000000,
0.0000000000,
-0.0000000000,
-0.0000000000,
0.0000000000,
0.0000000000,
0.0000000000,
0.0000000000,
0.0000000000,
-0.0833020955,
-0.0812713727,
0.0168219525,
0.0182156917,
-0.0000000000,
-0.0000000000,
0.0000000000,
-0.0000000000,
0.1322839558,
0.1347176433,
-0.1232032105,
-0.1277728379,
0.0886937305,
0.0790821761,
0.0473052301,
0.0420033932,
-0.0000000000,
-0.0000000000,
0.0000000000,
-0.0000000000,
0.0000727528,
-0.0000000000,
-0.0000000000,
0.0000000000,
-0.0597931817,
-0.0552485585,
-0.0128886728,
-0.0092698038,
-0.0657992959,
-0.0732194856,
0.1178932562,
0.1176786125,
0.0874892101,
0.0892370939,
-0.0861332119,
-0.0894278437,
-0.0000000000,
-0.0000000000,
-0.0000000000,
0.0000000000,
-0.0062380857,
-0.0123311626,
0.0815024823,
0.0814556554,
0.0134900128,
0.0103970859,
0.0667779297,
0.0670601726,
-0.0000000000,
0.0000000000,
0.0000000000,
-0.0000000000,
-0.0860082731,
-0.0885654464,
0.0799463987,
0.0822344795,
0.0000000000,
-0.0000000000,
-0.0000000000,
-0.0000000000,
-0.0051765628,
-0.0006945455,
-0.0707072914,
-0.0714253858,
-0.0466425642,
-0.0623436421,
0.2185861319,
0.2152942568,
-0.0000000000,
-0.0000000000,
0.0000000000,
0.0000000000,
0.0000000000,
0.0000000000,
-0.0000000000,
-0.0000000000,
-0.0000000000,
-0.0000000000,
0.0000000000,
-0.0000000000,
-0.0000000000,
0.0000000000,
0.0000000000,
0.0000000000,
-0.0000000000,
0.0000000000,
-0.0000000000,
0.0000000000,
-0.0000000000,
0.0000000000,
0.0000000000,
0.0000000000,
-0.0573751964,
-0.0555012040,
-0.0359949730,
-0.0328922607,
-0.0576184914,
-0.0527399071,
-0.1204695478,
-0.1182198003,
-0.0000000000,
0.0000000000,
0.0000000000,
-0.0000000000,
0.0000000000,
-0.0000000000,
-0.0000000000,
0.0000000000,
0.0000000000,
0.0000000000,
-0.0000000000,
0.0000000000,
-0.0000000000,
0.0000000000,
0.0000000000,
-0.0000000000,
-0.0000000000,
-0.0000000000,
0.0000000000,
0.0000000000,
0.0000000000,
-0.0000000000,
0.0000000000,
0.0000000000,
0.0000000000,
-0.0000000000,
0.0000000000,
-0.0000000000,
0.0000000000,
-0.0000727528,
0.0000727528,
0.0000727528,
0.0376902074,
0.0381462723,
-0.0332550108,
-0.0350501947,
-0.0918118805,
-0.0901487246,
-0.0523202606,
-0.0490939692,
-0.0000000000,
0.0000000000,
0.0000000000,
-0.0000000000,
0.0000000000,
-0.0000000000,
0.0000000000,
0.0000000000,
-0.0090734698,
-0.0103020146,
0.1774368435,
0.1855339408,
-0.0000000000,
-0.0000000000,
-0.0000000000,
-0.0000000000,
0.0000000000,
-0.0000000000,
-0.0000000000,
-0.0000000000,
-0.0000000000,
0.0000000000,
0.0000000000,
-0.0000000000,
0.0000000000,
-0.0000000000,
0.0000000000,
-0.0000000000,
0.0000000000,
-0.0000000000,
-0.0000000000,
-0.0000000000,
0.1563613266,
0.1532668322,
-0.0900424272,
-0.0970679149,
0.0000000000,
0.0000000000,
-0.0000000000,
0.0000000000,
0.0000000000,
0.0000000000,
0.0000000000,
0.0000000000,
0.0000000000,
-0.0000000000,
-0.0000000000,
0.0000000000,
0.0000000000,
0.0000000000,
0.0000000000,
-0.0000000000,
0.0179593433,
0.0130900461,
0.0526874997,
0.0515001565,
-0.0000000000,
0.0000000000,
-0.0000000000,
-0.0000000000,
0.0000000000,
0.0000000000,
-0.0000000000,
0.0000000000,
-0.0000000000,
0.0000000000,
0.0000000000,
-0.0000000000,
-0.0000000000,
0.0000000000,
0.0000000000,
0.0000000000,
-0.0453234464,
-0.0399672985,
-0.0566877350,
-0.0543707237,
0.0000000000,
0.0000000000,
-0.0000000000,
0.0000000000,
-0.0000000000,
0.0000000000,
0.0000000000,
0.0000000000,
-0.0000000000,
-0.0000000000,
0.0000000000,
-0.0000000000,
0.0000000000,
0.0000000000,
-0.0000000000,
-0.0000000000,
-0.0000000000,
0.0000000000,
0.0000000000,
0.0000000000,
-0.0000000000,
0.0000000000,
-0.0000000000,
-0.0000000000,
-0.0000727528,
0.0000000000,
-0.0000000000,
0.0000000000,
0.0559007861,
0.0505139269,
0.0372434407,
0.0352988504,
-0.0000000000,
0.0000000000,
-0.0000000000,
-0.0000000000,
0.0000000000,
-0.0000000000,
-0.0000000000,
-0.0000000000,
-0.0036481200,
-0.0081609497,
0.2130472064,
0.2229528278,
0.0000000000,
-0.0000000000,
0.0000000000,
0.0000000000,
-0.0000000000,
0.0000000000,
0.0000000000,
0.0000000000,
0.0000000000,
0.0000000000,
0.0000000000,
-0.0000000000,
-0.0000000000,
0.0000000000,
0.0000000000,
0.0000000000,
-0.0000000000,
-0.0000000000,
-0.0000000000,
-0.0000000000,
-0.0000000000,
-0.0000000000,
-0.0000000000,
-0.0000000000,
-0.0000000000,
0.0000000000,
-0.0000000000,
0.0000000000,
0.0000000000,
0.0000000000,
-0.0000000000,
-0.0000000000,
-0.0000000000,
-0.0000000000,
-0.0000000000,
-0.0000000000,
-0.0637222752,
-0.0690528303,
0.1272644550,
0.1298685521,
0.0000000000,
-0.0000000000,
-0.0000000000,
0.0000000000,
-0.0000000000,
-0.0000000000,
-0.0000000000,
-0.0000000000,
0.0000000000,
0.0000000000,
-0.0000000000,
0.0000000000,
0.0000000000,
0.0000000000,
-0.0000000000,
0.0000000000,
-0.0000000000,
-0.0000000000,
0.0000000000,
-0.0000000000,
-0.0000000000,
-0.0000000000,
-0.0000000000,
-0.0000000000,
0.0567977838,
0.0573672913,
-0.0505636260,
-0.0529424883,
-0.0000000000,
0.0000000000,
0.0000000000,
0.0000000000,
-0.0000000000,
-0.0000000000,
-0.0000000000,
-0.0000000000,
0.0000000000,
-0.0000000000,
0.0000000000,
0.0000000000,
-0.0000000000,
-0.0000000000,
0.0000000000,
0.0000000000,
0.0000000000,
0.0000000000,
-0.0000000000,
0.0000000000,
0.0000000000,
-0.0000000000,
0.0000000000,
0.0000000000,
0.0256160367,
0.0219623372,
0.2039626986,
0.2109259814,
0.0000000000,
0.0000000000,
-0.0000000000,
-0.0000000000,
-0.0010984918,
-0.0151984245,
0.2026260346,
0.1998929381,
-0.0000000000,
-0.0000000000,
0.0000000000,
-0.0000000000,
0.0000000000,
0.0000000000,
-0.0000000000,
0.0000000000,
0.1885102838,
0.1892882437,
-0.1508941054,
-0.1580027789,
0.0000000000,
-0.0000000000,
-0.0000000000,
0.0000000000,
0.0346169062,
0.0223262608,
0.0875440240,
0.0817230046,
-0.0000000000,
0.0000000000,
0.0000000000,
-0.0000000000,
-0.0124577368,
-0.0061486200,
-0.0360168107,
-0.0323878750,
-0.0074567939,
-0.0051093632,
0.1341716945,
0.1440451741,
0.0000000000,
-0.0000000000,
0.0000000000,
0.0000000000,
0.0000000000,
0.0000000000,
0.0000000000,
0.0000000000,
-0.0089168772,
-0.0080345534,
0.0185611527,
0.0216915179,
0.0288950410,
0.0213443320,
0.0749150887,
0.0719495192,
-0.0000000000,
-0.0000000000,
0.0000000000,
-0.0000000000,
0.1269423962,
0.1290333718,
-0.1141464934,
-0.1185035333,
-0.0000000000,
-0.0000000000,
0.0000000000,
-0.0000000000,
0.0000000000,
-0.0000000000,
-0.0000000000,
-0.0000000000,
0.0851016566,
0.0844660848,
-0.0587719977,
-0.0619153567,
0.0000000000,
-0.0000000000,
0.0000000000,
0.0000000000,
-0.0924193859,
-0.0868194327,
0.0743756443,
0.0843587592,
-0.0000000000,
-0.0000000000,
0.0000000000,
0.0000000000,
-0.1330401599,
-0.1293065995,
0.0226055682,
0.0275647938,
-0.0000000000,
0.0000000000,
-0.0000000000,
0.0000000000,
0.1260285378,
0.1195296943,
0.0439520888,
0.0415585153,
0.0610449538,
0.0616969764,
-0.0544314384,
-0.0569304787,
-0.0000000000,
0.0000000000,
-0.0000000000,
0.0000000000,
-0.0084583033,
-0.0048574950,
-0.0420152470,
-0.0423909687,
0.0000000000,
-0.0000000000,
-0.0000000000,
0.0000000000,
-0.0000000000,
-0.0000000000,
0.0000000000,
-0.0000000000,
0.0000000000,
0.0000000000,
-0.0000000000,
0.0000000000,
-0.0674765632,
-0.0680807978,
0.0349677131,
0.0381693766,
-0.0000000000,
-0.0000000000,
0.0000000000,
-0.0000000000,
0.0000000000,
0.0000000000,
-0.0000000000,
-0.0000000000,
-0.0000000000,
-0.0000000000,
-0.0000000000,
-0.0000000000,
-0.0859762132,
-0.0913613811,
0.0821408704,
0.0817307532,
-0.0000727528,
-0.0000000000,
0.0000000000,
0.0000000000,
0.0000000000,
-0.0000000000,
-0.0000000000,
0.0000000000,
-0.0000000000,
-0.0000000000,
-0.0000000000,
-0.0000000000,
-0.0000000000,
-0.0000000000,
0.0000000000,
-0.0000000000,
-0.0000000000,
0.0000000000,
0.0000000000,
0.0000000000,
0.0000000000,
-0.0000000000,
-0.0000000000,
-0.0000000000,
0.1195451692,
0.1137327254,
0.0396395326,
0.0363144241,
-0.0000000000,
0.0000000000,
0.0000000000,
0.0000000000,
-0.0789895430,
-0.0873284787,
0.1624205709,
0.1640435308,
-0.0678530484,
-0.0724353418,
0.2141757607,
0.2232655734,
-0.0535979792,
-0.0534359142,
0.0255178474,
0.0264545027,
-0.0000000000,
-0.0000000000,
-0.0000000000,
0.0000000000,
-0.0268981215,
-0.0244771801,
-0.0104490686,
-0.0099998266,
0.0524368137,
0.0473222286,
0.0915749446,
0.0915826783,
0.0000000000,
0.0000000000,
0.0000000000,
0.0000000000,
-0.0463510491,
-0.0393906049,
-0.0864548534,
-0.0847199112,
0.0000000000,
-0.0000000000,
0.0000000000,
0.0000000000,
0.0000000000,
0.0000000000,
0.0000000000,
-0.0000000000,
0.0000000000,
-0.0000000000,
-0.0000000000,
-0.0000000000,
-0.0928757787,
-0.0945549980,
-0.1027488708,
-0.0982883349,
0.0494920760,
0.0509855375,
0.0969633982,
0.1044330001,
-0.0000000000,
-0.0000000000,
-0.0000000000,
-0.0000000000,
-0.0825321525,
-0.0894312337,
0.1489617229,
0.1510805488,
-0.0000000000,
0.0000000000,
0.0000000000,
-0.0000000000,
0.0000000000,
0.0000000000,
-0.0000000000,
0.0000000000,
0.0000000000,
-0.0000000000,
-0.0000000000,
-0.0000000000,
0.0000000000,
0.0000000000,
0.0000000000,
0.0000000000,
0.0000000000,
0.0000000000,
0.0000000000,
0.0000000000,
-0.0000000000,
0.0000000000,
0.0000000000,
0.0000000000,
0.0382544547,
0.0418264084,
-0.1108976901,
-0.1152880788,
0.0000000000,
0.0000727528,
0.0000000000,
0.0000727528,
0.0000000000,
0.0000000000,
-0.0000000000,
0.0000000000,
-0.0000000000,
0.0000000000,
0.0000000000,
-0.0000000000,
-0.0127733499,
-0.0004835504,
-0.1573742777,
-0.1537969708,
0.0000000000,
0.0000000000,
-0.0000000000,
0.0000000000,
-0.1088959128,
-0.1074218377,
-0.0541795455,
-0.0509130768,
0.0000000000,
-0.0000000000,
-0.0000000000,
-0.0000000000,
0.0000000000,
-0.0000000000,
-0.0000000000,
-0.0000000000,
-0.0000000000,
-0.0000000000,
-0.0000000000,
0.0000000000,
0.1505744755,
0.1512547880,
-0.1218053773,
-0.1276119798,
0.0986379609,
0.0946097448,
-0.0213357992,
-0.0250187684,
0.0000000000,
0.0000000000,
-0.0000000000,
0.0000000000,
-0.0719525740,
-0.0683866069,
-0.0818482712,
-0.0777057782,
0.1549441814,
0.1548840404,
-0.1190194264,
-0.1252486855,
-0.0000000000,
-0.0000000000,
-0.0000000000,
-0.0000000000,
-0.0000000000,
-0.0000000000,
0.0000000000,
-0.0000000000,
-0.0000000000,
0.0000000000,
-0.0000000000,
-0.0000000000,
-0.0222732276,
-0.0157926437,
-0.0895367190,
-0.0877571926,
-0.0000000000,
-0.0000000000,
0.0000000000,
-0.0000000000,
0.0183352400,
0.0191403981,
-0.0167558473,
-0.0181902032,
-0.0000000000,
0.0000000000,
-0.0000000000,
0.0000000000,
0.0000000000,
0.0000000000,
-0.0000000000,
-0.0000000000,
0.0000000000,
-0.0000000000,
0.0000000000,
0.0000000000,
0.1701079458,
0.1728056222,
-0.1469673216,
-0.1521781385,
-0.0000000000,
-0.0000000000,
0.0000000000,
-0.0000000000,
0.0000000000,
0.0000000000,
0.0000000000,
-0.0000000000,
-0.0000000000,
0.0000000000,
0.0000000000,
-0.0000000000,
-0.0489387475,
-0.0641096458,
0.1797482073,
0.1749584973,
0.0000000000,
0.0000000000,
-0.0000000000,
0.0000000000,
-0.0000000000,
-0.0000000000,
-0.0000000000,
0.0000000000,
-0.0000000000,
0.0000000000,
0.0000000000,
-0.0000000000,
-0.0000000000,
0.0000000000,
-0.0000000000,
-0.0000000000,
0.0000000000,
0.0000000000,
0.0000000000,
0.0000000000,
-0.0000000000,
-0.0000000000,
0.0000000000,
-0.0000000000,
-0.0000000000,
-0.0000000000,
-0.0000000000,
-0.0000000000,
-0.0000000000,
-0.0000000000,
0.0000000000,
-0.0000000000,
-0.0000000000,
0.0000000000,
-0.0000000000,
-0.0000000000,
-0.0000000000,
0.0000000000,
0.0000000000,
-0.0000000000,
-0.0716905072,
-0.0710623264,
-0.0733718500,
-0.0692923814,
-0.0000000000,
-0.0000000000,
0.0000000000,
0.0000000000,
0.0000000000,
0.0000000000,
0.0000000000,
0.0000000000,
-0.0880806819,
-0.0914324820,
0.1410801560,
0.1457481831,
-0.1134872809,
-0.1145952791,
0.1346133649,
0.1407096535,
-0.0000000000,
0.0000000000,
-0.0000000000,
-0.0000000000,
0.0000000000,
0.0000000000,
-0.0000000000,
0.0000000000,
-0.1049612314,
-0.1039938927,
-0.0622584112,
-0.0602396987,
-0.0000000000,
-0.0000000000,
0.0000000000,
0.0000000000,
-0.0000000000,
-0.0000000000,
-0.0000000000,
-0.0000000000,
0.0000000000,
-0.0000000000,
-0.0000000000,
-0.0000000000,
0.0000000000,
-0.0000000000,
-0.0000000000,
0.0000000000,
-0.0000000000,
-0.0000000000,
0.0000000000,
-0.0000000000,
-0.1089394614,
-0.1077346355,
0.0518469214,
0.0575358048,
-0.0000000000,
-0.0000000000,
0.0000000000,
0.0000000000,
0.0000000000,
0.0000000000,
0.0000000000,
-0.0000000000,
0.0845847949,
0.0851855427,
-0.0721627623,
-0.0754880533,
0.0000000000,
-0.0000000000,
0.0000000000,
-0.0000000000,
0.0000000000,
-0.0000000000,
-0.0000000000,
-0.0000000000,
0.0000000000,
0.0000000000,
-0.0000000000,
0.0000000000,
-0.0000000000,
-0.0000000000,
0.0000000000,
0.0000000000,
-0.0000000000,
-0.0000000000,
0.0000000000,
0.0000000000,
-0.0691595376,
-0.0671894252,
-0.0425157547,
-0.0392865986,
0.0000000000,
-0.0000000000,
-0.0000000000,
0.0000000000,
-0.0000000000,
0.0000000000,
0.0000000000,
-0.0000000000,
-0.0732478574,
-0.0659356117,
-0.0896883309,
-0.0845797881,
-0.0000000000,
0.0000000000,
-0.0000000000,
-0.0000000000,
0.0000000000,
0.0000000000,
0.0000000000,
0.0000000000,
0.0000000000,
0.0000000000,
-0.0000000000,
-0.0000000000,
-0.0538410135,
-0.0595505275,
0.1233963817,
0.1251376122,
0.0000000000,
0.0000000000,
-0.0000000000,
0.0000000000,
0.0000000000,
0.0000000000,
0.0000000000,
0.0000000000,
-0.1016082838,
-0.1039890498,
0.0489735752,
0.0513110608,
-0.0000000000,
-0.0000000000,
-0.0000000000,
-0.0000000000,
-0.1086225510,
-0.1230393648,
0.2353751957,
0.2352320552,
0.0000000000,
0.0000000000,
0.0000000000,
0.0000000000,
-0.1012275442,
-0.0977120101,
-0.1166770384,
-0.1105373427,
0.0000000000,
0.0000000000,
0.0000000000,
-0.0000000000,
0.1468605548,
0.1481886804,
-0.1283408403,
-0.1340588629,
0.0305882078,
0.0308146104,
-0.0253169239,
-0.0268279258,
-0.0000000000,
0.0000000000,
0.0000000000,
0.0000000000,
0.0000000000,
0.0000000000,
0.0000000000,
0.0000000000,
-0.0000000000,
0.0000000000,
0.0000000000,
-0.0000000000,
0.0000000000,
0.0000000000,
0.0000000000,
0.0000000000,
0.0000727528,
-0.0000727528,
-0.0000727528,
-0.0000727528,
0.0368171595,
0.0372870900,
-0.0325922705,
-0.0343757607,
-0.0000000000,
-0.0000000000,
0.0000000000,
0.0000000000,
-0.0996681973,
-0.0994722471,
-0.0820879117,
-0.0822792053,
-0.0210419912,
-0.0192546211,
0.0922838077,
0.0995701328,
-0.0000727528,
-0.0000000000,
-0.0000000000,
-0.0000000000,
-0.0394200087,
-0.0422469378,
0.0647570267,
0.0664533898,
0.0000000000,
0.0000000000,
-0.0000000000,
-0.0000000000,
0.0000000000,
-0.0000000000,
-0.0000000000,
-0.0000000000,
-0.1248912439,
-0.1260407865,
0.0991649628,
0.1054563969,
0.0237087868,
0.0279166624,
0.0699325725,
0.0808374882,
0.0000000000,
0.0000000000,
0.0000000000,
-0.0000000000,
-0.0338910669,
-0.0363141820,
0.0651096925,
0.0662144348,
-0.0000000000,
0.0000000000,
0.0000000000,
-0.0000000000,
0.0000000000,
-0.0000000000,
-0.0000000000,
0.0000000000,
0.0000000000,
0.0000000000,
-0.0000000000,
-0.0000000000,
-0.0348567478,
-0.0389890336,
0.0891737714,
0.0907792449,
-0.0000000000,
0.0000000000,
-0.0000000000,
-0.0000000000,
-0.0000000000,
0.0000000000,
-0.0000000000,
0.0000000000,
-0.0832934380,
-0.0789919719,
-0.0254741982,
-0.0211767349,
-0.0000000000,
-0.0000000000,
-0.0000000000,
-0.0000000000,
0.0000000000,
-0.0000000000,
-0.0000000000,
-0.0000000000,
0.0000000000,
0.0000000000,
-0.0000000000,
-0.0000000000,
0.0000000000,
0.0000000000,
-0.0000000000,
0.0000000000,
0.0000000000,
0.0000000000,
-0.0000000000,
-0.0000000000,
-0.0000000000,
0.0000000000,
-0.0000000000,
0.0000000000,
0.0000000000,
-0.0000000000,
0.0000000000,
-0.0000000000,
0.0000000000,
0.0000000000,
-0.0000000000,
0.0000000000,
-0.0333436579,
-0.0321247429,
0.0121950144,
0.0137067232,
0.0000000000,
0.0000000000,
0.0000000000,
-0.0000000000,
0.0000000000,
-0.0000000000,
-0.0000000000,
-0.0000000000,
-0.0000000000,
-0.0000000000,
-0.0000000000,
-0.0000000000,
-0.0790243596,
-0.0886035040,
0.1659384668,
0.1657637656,
-0.0000000000,
-0.0000000000,
0.0000000000,
0.0000000000,
0.0000000000,
0.0000000000,
0.0000000000,
0.0000000000,
0.0795009136,
0.0800716877,
-0.0675503984,
-0.0706560612,
0.1700769812,
0.1664069146,
-0.1037938744,
-0.1121335849,
-0.0000000000,
0.0000000000,
0.0000000000,
0.0000000000,
-0.0906844214,
-0.0901812911,
-0.0629603714,
-0.0615996867,
0.0000000000,
0.0000000000,
0.0000000000,
-0.0000000000,
-0.0257698614,
-0.0197724644,
-0.0879677683,
-0.0862252042,
-0.0000000000,
-0.0000000000,
0.0000000000,
0.0000000000,
0.1193331107,
0.1130368859,
0.0279103685,
0.0251531005,
-0.0858166739,
-0.0849566832,
-0.0727024525,
-0.0680354014,
-0.0000000000,
-0.0000000000,
-0.0000000000,
0.0000000000,
0.0000000000,
0.0000000000,
0.0000000000,
0.0000000000,
-0.1397290081,
-0.1377312541,
0.1304846704,
0.1408316791,
0.0000000000,
0.0000000000,
0.0000000000,
0.0000000000,
0.0000000000,
-0.0000000000,
-0.0000000000,
-0.0000000000,
-0.0664566532,
-0.0694522783,
0.0893660784,
0.0925438702,
0.0000000000,
0.0000000000,
0.0000000000,
0.0000000000,
-0.0000000000,
0.0000000000,
-0.0000000000,
0.0000000000,
-0.0000000000,
0.0000000000,
-0.0000000000,
0.0000000000,
-0.0000000000,
-0.0000000000,
-0.0000000000,
-0.0000000000,
-0.0555529371,
-0.0546443872,
0.0758963823,
0.0788044333,
0.0000000000,
0.0000000000,
-0.0000000000,
0.0000000000,
0.0000000000,
0.0000000000,
-0.0000000000,
-0.0000000000,
-0.0000000000,
0.0000000000,
0.0000000000,
-0.0000000000,
-0.0000000000,
-0.0000000000,
-0.0000000000,
0.0000000000,
0.0000000000,
-0.0000000000,
0.0000000000,
-0.0000000000,
-0.0629557148,
-0.0685960650,
0.1197740659,
0.1216502786,
0.0000000000,
-0.0000000000,
-0.0000000000,
-0.0000000000,
0.0000727528,
-0.0000000000,
0.0000727528,
-0.0000000000,
-0.0000000000,
0.0000000000,
0.0000000000,
0.0000000000,
-0.1125676557,
-0.1119850874,
-0.0673590600,
-0.0652957037,
0.0000000000,
0.0000000000,
0.0000000000,
0.0000000000,
-0.0000000000,
0.0000000000,
-0.0000000000,
-0.0000000000,
0.0000000000,
0.0000000000,
-0.0000000000,
-0.0000000000,
-0.0000000000,
-0.0000000000,
0.0000000000,
0.0000000000,
-0.0000000000,
0.0000000000,
0.0000000000,
-0.0000000000,
-0.0313234814,
-0.0334574021,
0.0445123240,
0.0464037396,
-0.0855425894,
-0.0843853652,
-0.0064130477,
-0.0062652719,
-0.0000000000,
0.0000000000,
0.0000000000,
0.0000000000,
0.0000000000,
-0.0000000000,
-0.0000000000,
-0.0000000000,
-0.0000000000,
0.0000000000,
0.0000000000,
0.0000000000,
0.0000000000,
0.0000000000,
-0.0000000000,
-0.0000000000,
-0.0000000000,
-0.0000000000,
0.0000000000,
-0.0000000000,
0.0000000000,
0.0000000000,
-0.0000000000,
0.0000000000,
0.1314792037,
0.1249256507,
0.0804549009,
0.0788632259,
0.0000000000,
0.0000000000,
-0.0000000000,
-0.0000000000,
0.0000000000,
0.0000000000,
0.0000000000,
0.0000000000,
0.0000000000,
-0.0000000000,
0.0000000000,
0.0000000000,
-0.0000000000,
0.0000000000,
-0.0000000000,
0.0000000000,
0.1562652886,
0.1527960598,
-0.0495046116,
-0.0546240024,
0.0000000000,
0.0000000000,
0.0000000000,
0.0000000000,
-0.0000000000,
-0.0000000000,
0.0000000000,
-0.0000000000,
0.0000000000,
0.0000000000,
0.0000000000,
0.0000000000,
-0.0867384300,
-0.0864241570,
0.0914216265,
0.0962888002,
0.0000000000,
0.0000000000,
0.0000000000,
0.0000000000,
0.0054141274,
0.0017642456,
0.1144180298,
0.1171637103,
-0.0700760707,
-0.0755314007,
0.1611273587,
0.1645252258,
-0.0000000000,
0.0000000000,
0.0000000000,
-0.0000000000,
-0.0716401860,
-0.0806532577,
0.1738641411,
0.1747199893,
-0.0000000000,
0.0000000000,
0.0000000000,
0.0000000000,
0.0731352344,
0.0769098252,
-0.1060953960,
-0.1094655469,
-0.0950128064,
-0.1082156524,
0.2149655819,
0.2140907198,
0.0000000000,
0.0000000000,
0.0000000000,
0.0000000000,
-0.0000000000,
-0.0000000000,
-0.0000000000,
-0.0000000000,
0.0000000000,
0.0000000000,
-0.0000000000,
0.0000000000,
-0.0959806517,
-0.0941082910,
-0.0445266105,
-0.0408101119,
0.0000000000,
0.0000000000,
0.0000000000,
0.0000000000,
-0.0000000000,
0.0000000000,
-0.0000000000,
0.0000000000,
0.0641610473,
0.0554252230,
0.1069572046,
0.1055709273,
-0.0000000000,
-0.0000000000,
0.0000000000,
-0.0000000000,
0.1524402648,
0.1492348313,
-0.0828802884,
-0.0896186158,
0.0627800524,
0.0655739605,
-0.1196784005,
-0.1246562749,
-0.0478439294,
-0.0461763740,
-0.0675139874,
-0.0613332540,
-0.0000000000,
-0.0000000000,
0.0000000000,
0.0000000000,
0.0180738065,
0.0118810209,
0.1413225830,
0.1431389451,
0.1034749523,
0.1052335575,
-0.0965492651,
-0.1002622470,
-0.0000000000,
0.0000000000,
-0.0000000000,
0.0000000000,
-0.0000000000,
0.0000000000,
0.0000000000,
-0.0000000000,
-0.1103410721,
-0.1038690656,
-0.0299688876,
-0.0253776666,
-0.0000000000,
-0.0000000000,
-0.0000000000,
-0.0000000000,
-0.1165984869,
-0.1197110787,
0.1606150120,
0.1668923646,
0.0834738612,
0.0843406692,
-0.0788700506,
-0.0823550448,
0.0000000000,
0.0000000000,
0.0000000000,
-0.0000000000,
0.0000000000,
0.0000000000,
0.0000000000,
0.0000000000,
0.0000000000,
-0.0000000000,
-0.0000000000,
-0.0000000000,
-0.0301153660,
-0.0250069536,
-0.0574111007,
-0.0561270379,
-0.1119894385,
-0.1216596738,
0.1955669969,
0.1969770789,
-0.0000000000,
0.0000000000,
-0.0000000000,
0.0000000000,
0.0999979675,
0.0887176991,
0.0902770162,
0.0849450827,
0.0635557920,
0.0639203265,
-0.0546461903,
-0.0572106540,
0.0000000000,
0.0000000000,
-0.0000000000,
-0.0000000000,
-0.1233220249,
-0.1223835871,
-0.0100265304,
-0.0058691525
,
-0.0000000000,
0.0000000000,
-0.0000000000,
0.0000000000,
0.0001794940,
0.0024074174,
0.0104591129,
0.0158606097,
-0.0000000000,
-0.0000000000,
-0.0000000000,
-0.0000000000,
0.0000000000,
-0.0000000000,
-0.0000000000,
-0.0000000000,
-0.0000000000,
0.0000000000,
0.0000000000,
0.0000000000,
-0.0000000000,
-0.0000000000,
0.0000000000,
-0.0000000000,
-0.0056959251,
-0.0043981578,
0.0196243450,
0.0217345338,
-0.0000000000,
-0.0000000000,
0.0000000000,
-0.0000000000,
-0.0433252081,
-0.0412685499,
-0.0428970717,
-0.0433068946,
-0.0000000000,
0.0000000000,
-0.0000000000,
0.0000000000,
-0.0000000000,
-0.0000000000,
-0.0000000000,
-0.0000000000,
0.0000000000,
0.0000000000,
0.0000000000,
0.0000000000,
0.0000000000,
0.0000000000,
0.0000000000,
-0.0000000000,
0.0000000000,
0.0000000000,
-0.0000000000,
-0.0000000000,
0.0000000000,
-0.0000000000,
-0.0000000000,
-0.0000000000,
0.0000000000,
-0.0000000000,
-0.0000000000,
-0.0000000000,
0.0000000000,
0.0000000000,
-0.0000000000,
0.0000000000,
0.0520608127,
0.0565677807,
-0.0101528745,
-0.0105719408,
-0.0000000000,
0.0000000000,
-0.0000000000,
0.0000000000,
0.0000000000,
0.0000000000,
-0.0000000000,
-0.0000000000,
-0.0000000000,
0.0000000000,
-0.0000000000,
0.0000000000,
0.1250949651,
0.1246600673,
0.0913825780,
0.0831263959,
-0.0000000000,
-0.0000000000,
0.0000000000,
-0.0000000000,
-0.0252580773,
-0.0266963001,
0.0368386358,
0.0430552922,
0.0161248222,
0.0237272922,
-0.0362460390,
-0.0292663164,
-0.0000000000,
0.0000000000,
-0.0000000000,
0.0000000000,
0.0000000000,
0.0000000000,
-0.0000000000,
0.0000000000,
0.0512383804,
0.0510605462,
0.0603088215,
0.0588466898,
0.0495380834,
0.0572140552,
-0.0321747921,
-0.0314800367,
-0.0142417848,
-0.0150233405,
0.0293354336,
0.0338520594,
0.0000000000,
-0.0000000000,
-0.0000000000,
-0.0000000000,
-0.0888629258,
-0.0789523423,
-0.1245632097,
-0.1135077849,
0.0404847488,
0.0412151068,
-0.0088718627,
-0.0124888448,
0.0000000000,
0.0000000000,
-0.0000000000,
0.0000000000,
0.1212691143,
0.1256941110,
0.0539510176,
0.0501994267,
-0.0000000000,
0.0000727528,
0.0000727528,
-0.0000727528,
0.0585590564,
0.0549731106,
0.0864822045,
0.0838514194,
0.0899878666,
0.1033608392,
-0.0692474917,
-0.0676852316,
0.0000000000,
-0.0000000000,
-0.0000000000,
-0.0000000000,
0.0000000000,
0.0000000000,
-0.0000000000,
0.0000000000,
-0.0000000000,
0.0000000000,
0.0000000000,
0.0000000000,
-0.0000000000,
0.0000000000,
-0.0000000000,
-0.0000000000,
0.0000000000,
0.0000000000,
0.0000000000,
-0.0000000000,
-0.0000000000,
0.0000000000,
-0.0000000000,
0.0000000000,
-0.0387439802,
-0.0356878974,
-0.0141789047,
-0.0106356842,
0.0543987341,
0.0428846888,
0.1141436622,
0.1013743132,
0.0000000000,
0.0000000000,
0.0000000000,
-0.0000000000,
0.0000000000,
-0.0000000000,
0.0000000000,
-0.0000000000,
-0.0000000000,
0.0000000000,
-0.0000000000,
-0.0000000000,
-0.0000000000,
0.0000000000,
0.0000000000,
-0.0000000000,
0.0000000000,
0.0000000000,
-0.0000000000,
-0.0000000000,
0.0000000000,
0.0000000000,
-0.0000000000,
0.0000000000,
0.0000000000,
0.0000000000,
-0.0000000000,
-0.0000000000,
-0.0000000000,
-0.0000727528,
-0.0000727528,
-0.0000727528,
-0.0087848678,
-0.0078576626,
0.0081634028,
0.0113026993,
-0.0634535179,
-0.0593789443,
-0.0319264121,
-0.0261288043,
0.0000000000,
-0.0000000000,
-0.0000000000,
0.0000000000,
-0.0000000000,
-0.0000000000,
-0.0000000000,
-0.0000000000,
-0.0492880568,
-0.0404079407,
-0.1285476983,
-0.1226133108,
0.0000000000,
0.0000000000,
0.0000000000,
0.0000000000,
-0.0000000000,
0.0000000000,
-0.0000000000,
-0.0000000000,
0.0000000000,
-0.0000000000,
-0.0000000000,
-0.0000000000,
-0.0000000000,
-0.0000000000,
0.0000000000,
-0.0000000000,
0.0000000000,
0.0000000000,
0.0000000000,
-0.0000000000,
-0.0155412918,
-0.0131405378,
0.0148782972,
0.0237252861,
0.0000000000,
0.0000000000,
0.0000000000,
0.0000000000,
0.0000000000,
-0.0000000000,
0.0000000000,
0.0000000000,
-0.0000000000,
0.0000000000,
0.0000000000,
-0.0000000000,
0.0000000000,
0.0000000000,
0.0000000000,
-0.0000000000,
0.0428774059,
0.0459763557,
-0.0023615060,
-0.0017001072,
0.0000000000,
-0.0000000000,
-0.0000000000,
0.0000000000,
0.0000000000,
-0.0000000000,
-0.0000000000,
0.0000000000,
0.0000000000,
0.0000000000,
0.0000000000,
-0.0000000000,
0.0000000000,
0.0000000000,
0.0000000000,
-0.0000000000,
0.1273946762,
0.1234948710,
0.1351276040,
0.1285186261,
-0.0000000000,
-0.0000000000,
0.0000000000,
-0.0000000000,
-0.0000000000,
-0.0000000000,
0.0000000000,
0.0000000000,
0.0000000000,
0.0000000000,
-0.0000000000,
-0.0000000000,
0.0000000000,
-0.0000000000,
-0.0000000000,
-0.0000000000,
-0.0000000000,
0.0000000000,
0.0000000000,
0.0000000000,
-0.0000000000,
0.0000000000,
-0.0000000000,
-0.0000727528,
0.0000000000,
-0.0000000000,
-0.0000000000,
-0.0000727528,
0.0344627947,
0.0389177315,
-0.0060816258,
-0.0029909865,
0.0000000000,
0.0000000000,
-0.0000000000,
-0.0000000000,
-0.0000000000,
-0.0000000000,
0.0000000000,
-0.0000000000,
-0.1028883234,
-0.0992282853,
-0.1817779690,
-0.1852253377,
-0.0000000000,
0.0000000000,
0.0000000000,
-0.0000000000,
-0.0000000000,
-0.0000000000,
-0.0000000000,
-0.0000000000,
0.0000000000,
-0.0000000000,
0.0000000000,
-0.0000000000,
-0.0000000000,
0.0000000000,
-0.0000000000,
0.0000000000,
0.0000000000,
0.0000000000,
0.0000000000,
-0.0000000000,
-0.0000000000,
-0.0000000000,
0.0000000000,
-0.0000000000,
0.0000000000,
-0.0000000000,
-0.0000000000,
0.0000000000,
-0.0000000000,
-0.0000000000,
0.0000000000,
-0.0000000000,
-0.0000000000,
0.0000000000,
0.0000000000,
0.0000000000,
0.0413515009,
0.0478769019,
-0.0382178687,
-0.0383978821,
0.0000000000,
-0.0000000000,
0.0000000000,
0.0000000000,
-0.0000000000,
0.0000000000,
-0.0000000000,
-0.0000000000,
-0.0000000000,
0.0000000000,
-0.0000000000,
0.0000000000,
-0.0000000000,
-0.0000000000,
0.0000000000,
0.0000000000,
-0.0000000000,
0.0000000000,
0.0000000000,
-0.0000000000,
-0.0000000000,
0.0000000000,
0.0000000000,
-0.0000000000,
-0.0118467975,
-0.0112495488,
0.0135534741,
0.0174404848,
-0.0000000000,
0.0000000000,
-0.0000000000,
0.0000000000,
-0.0000000000,
0.0000000000,
0.0000000000,
0.0000000000,
-0.0000000000,
-0.0000000000,
-0.0000000000,
-0.0000000000,
-0.0000000000,
0.0000000000,
-0.0000000000,
-0.0000000000,
-0.0000000000,
-0.0000000000,
-0.0000000000,
-0.0000000000,
0.0000000000,
-0.0000000000,
0.0000000000,
0.0000000000,
-0.0760003999,
-0.0639484376,
-0.1701588929,
-0.1607741714,
0.0000000000,
-0.0000000000,
0.0000000000,
-0.0000000000,
0.1146849990,
0.1252603680,
-0.0401729196,
-0.0411991701,
-0.0000000000,
0.0000000000,
0.0000000000,
0.0000000000,
0.0000000000,
0.0000000000,
0.0000000000,
0.0000000000,
-0.0141128367,
-0.0140932007,
0.0500427522,
0.0592402369,
-0.0000000000,
-0.0000000000,
0.0000000000,
-0.0000000000,
0.0811997280,
0.0896899179,
-0.0074550295,
-0.0045389044,
0.0000000000,
-0.0000000000,
-0.0000000000,
-0.0000000000,
0.0109125162,
0.0079485159,
0.0430999547,
0.0412948132,
-0.0587216876,
-0.0584562346,
-0.1040625200,
-0.1095585972,
-0.0000000000,
0.0000000000,
0.0000000000,
0.0000000000,
0.0000000000,
0.0000000000,
0.0000000000,
0.0000000000,
-0.0611798875,
-0.0645824596,
-0.0458822511,
-0.0511344895,
0.0829707384,
0.0877301395,
0.0076562706,
0.0071945703,
0.0000000000,
-0.0000000000,
-0.0000000000,
0.0000000000,
-0.0233243220,
-0.0244293977,
0.0334397927,
0.0395095088,
0.0000000000,
0.0000000000,
-0.0000000000,
-0.0000000000,
0.0000000000,
0.0000000000,
-0.0000000000,
-0.0000000000,
-0.0101490151,
-0.0085244635,
0.0143068060,
0.0199159663,
-0.0000000000,
0.0000000000,
-0.0000000000,
-0.0000000000,
-0.0277614258,
-0.0302070584,
-0.0377263650,
-0.0453332029,
0.0000000000,
-0.0000000000,
0.0000000000,
-0.0000000000,
0.1672192961,
0.1700693220,
0.1352991909,
0.1293722689,
0.0000000000,
0.0000000000,
0.0000000000,
0.0000000000,
-0.1292231232,
-0.1172115058,
-0.1627160162,
-0.1463426054,
-0.0125394519,
-0.0120387329,
0.0147283515,
0.0187521689,
0.0000000000,
0.0000000000,
-0.0000000000,
0.0000000000,
0.0633699968,
0.0605385676,
0.0725233853,
0.0700685233,
0.0000000000,
-0.0000000000,
-0.0000000000,
0.0000000000,
0.0000000000,
0.0000000000,
-0.0000000000,
-0.0000000000,
-0.0000000000,
-0.0000000000,
-0.0000000000,
0.0000000000,
-0.0130376397,
-0.0097395163,
-0.0301111974,
-0.0289121568,
0.0000000000,
-0.0000000000,
-0.0000000000,
-0.0000000000,
0.0000000000,
-0.0000000000,
0.0000000000,
0.0000000000,
-0.0000000000,
-0.0000000000,
0.0000000000,
-0.0000000000,
0.1593357772,
0.1644835323,
0.0703747198,
0.0641933531,
-0.0000727528,
-0.0000727528,
-0.0000727528,
-0.0000727528,
-0.0000000000,
0.0000000000,
-0.0000000000,
-0.0000000000,
-0.0000000000,
0.0000000000,
0.0000000000,
-0.0000000000,
0.0000000000,
0.0000000000,
0.0000000000,
-0.0000000000,
0.0000000000,
0.0000000000,
-0.0000000000,
-0.0000000000,
0.0000000000,
0.0000000000,
-0.0000000000,
0.0000000000,
-0.0926226377,
-0.0871908739,
-0.1121692508,
-0.1038663611,
-0.0000000000,
-0.0000000000,
-0.0000000000,
0.0000000000,
0.0621510558,
0.0703037977,
-0.0450078361,
-0.0464068092,
-0.1255778819,
-0.1175153404,
-0.2095891535,
-0.2061768025,
0.1008022502,
0.1018700898,
0.0658308044,
0.0617687702,
-0.0000000000,
0.0000000000,
0.0000000000,
-0.0000000000,
0.0954245031,
0.0934768841,
0.0788965225,
0.0741246864,
0.0319815762,
0.0361674316,
-0.0322100557,
-0.0313429050,
0.0000000000,
-0.0000000000,
-0.0000000000,
0.0000000000,
0.0329268537,
0.0321693681,
0.0799337700,
0.0813645273,
0.0000000000,
-0.0000000000,
-0.0000000000,
-0.0000000000,
0.0000000000,
-0.0000000000,
0.0000000000,
-0.0000000000,
0.0000000000,
0.0000000000,
-0.0000000000,
-0.0000000000,
-0.0571947470,
-0.0629906431,
0.0026070380,
-0.0122111561,
-0.1034760773,
-0.1034764573,
-0.1173681244,
-0.1193874180,
0.0000000000,
0.0000000000,
-0.0000000000,
0.0000000000,
0.0569051877,
0.0647924617,
-0.0396886617,
-0.0403417312,
0.0000000000,
0.0000000000,
-0.0000000000,
-0.0000000000,
0.0000000000,
0.0000000000,
-0.0000000000,
-0.0000000000,
-0.0000000000,
-0.0000000000,
-0.0000000000,
-0.0000000000,
0.0000000000,
-0.0000000000,
-0.0000000000,
-0.0000000000,
-0.0000000000,
0.0000000000,
-0.0000000000,
0.0000000000,
0.0000727528,
0.0000727528,
0.0000727528,
0.0000727528,
0.0494454391,
0.0476383455,
0.0903585553,
0.0917161256,
-0.0000000000,
0.0000727528,
-0.0000000000,
0.0000727528,
-0.0000000000,
0.0000000000,
0.0000000000,
-0.0000000000,
0.0000000000,
0.0000000000,
-0.0000000000,
0.0000000000,
0.1284904927,
0.1209145486,
0.2007074505,
0.1927871257,
0.0000000000,
0.0000000000,
0.0000000000,
0.0000000000,
-0.0781679377,
-0.0736290067,
-0.0418742709,
-0.0348590016,
0.0000000000,
0.0000000000,
0.0000000000,
0.0000000000,
-0.0000000000,
-0.0000000000,
-0.0000000000,
0.0000000000,
-0.0000000000,
-0.0000000000,
-0.0000000000,
0.0000000000,
-0.0273868795,
-0.0277295448,
0.0296421777,
0.0372754522,
0.0016345007,
0.0054690819,
-0.0039392216,
0.0027596250,
0.0000000000,
-0.0000000000,
0.0000000000,
-0.0000000000,
-0.0210884288,
-0.0286983363,
0.0319006853,
0.0202351678,
-0.0265212283,
-0.0264880490,
0.0270900447,
0.0349928178,
0.0000000000,
0.0000000000,
0.0000000000,
0.0000000000,
-0.0000000000,
-0.0000000000,
0.0000000000,
-0.0000000000,
0.0000000000,
-0.0000000000,
0.0000000000,
-0.0000000000,
0.0899155736,
0.0823854282,
0.1253982484,
0.1170713529,
-0.0000000000,
-0.0000000000,
0.0000000000,
-0.0000000000,
-0.0050558485,
-0.0042150491,
0.0038572024,
0.0058405302,
-0.0000000000,
-0.0000000000,
-0.0000000000,
0.0000000000,
-0.0000000000,
-0.0000000000,
-0.0000000000,
0.0000000000,
0.0000000000,
-0.0000000000,
-0.0000000000,
0.0000000000,
-0.0318905339,
-0.0325088091,
0.0425967202,
0.0518033616,
-0.0000000000,
0.0000000000,
0.0000000000,
-0.0000000000,
-0.0000000000,
0.0000000000,
-0.0000000000,
0.0000000000,
0.0000000000,
-0.0000000000,
0.0000000000,
0.0000000000,
0.1060287952,
0.1179104224,
-0.0333332494,
-0.0325554907,
-0.0000000000,
0.0000000000,
-0.0000000000,
-0.0000000000,
0.0000000000,
-0.0000000000,
-0.0000000000,
0.0000000000,
0.0000000000,
-0.0000000000,
0.0000000000,
-0.0000000000,
0.0000000000,
0.0000000000,
-0.0000000000,
0.0000000000,
-0.0000000000,
0.0000000000,
0.0000000000,
-0.0000000000,
0.0000000000,
-0.0000000000,
-0.0000000000,
0.0000000000,
-0.0000000000,
-0.0000000000,
0.0000000000,
-0.0000000000,
0.0000727528,
0.0000727528,
0.0000727528,
0.0000727528,
0.0000000000,
-0.0000000000,
0.0000000000,
0.0000000000,
-0.0000000000,
-0.0000000000,
0.0000000000,
-0.0000000000,
-0.0467154458,
-0.0525986776,
0.0018724169,
-0.0097304787,
0.0000000000,
-0.0000000000,
0.0000000000,
-0.0000000000,
0.0000000000,
-0.0000000000,
0.0000000000,
0.0000000000,
0.0420180000,
0.0485407710,
-0.0390190035,
-0.0393822975,
0.0404410958,
0.0469114482,
-0.0294720698,
-0.0299104396,
0.0000000000,
0.0000000000,
0.0000000000,
0.0000000000,
-0.0000000000,
-0.0000000000,
-0.0000000000,
-0.0000000000,
-0.0792411268,
-0.0744214877,
-0.0358165726,
-0.0280632414,
0.0000000000,
0.0000000000,
-0.0000000000,
0.0000000000,
0.0000000000,
0.0000000000,
0.0000000000,
-0.0000000000,
0.0000000000,
0.0000000000,
-0.0000000000,
0.0000000000,
0.0000000000,
0.0000000000,
-0.0000000000,
0.0000000000,
0.0000000000,
-0.0000000000,
0.0000000000,
-0.0000000000,
-0.0307595003,
-0.0272713974,
-0.0448090583,
-0.0433211699,
-0.0000000000,
-0.0000000000,
0.0000000000,
0.0000000000,
0.0000000000,
-0.0000000000,
-0.0000000000,
-0.0000000000,
-0.0169293229,
-0.0165523626,
0.0182856489,
0.0233619139,
0.0000000000,
-0.0000000000,
0.0000000000,
0.0000000000,
0.0000000000,
0.0000000000,
0.0000000000,
-0.0000000000,
0.0000000000,
-0.0000000000,
0.0000000000,
0.0000000000,
-0.0000000000,
0.0000000000,
0.0000000000,
0.0000000000,
0.0000000000,
-0.0000000000,
-0.0000000000,
0.0000000000,
-0.0437884666,
-0.0403490290,
-0.0114725819,
-0.0071553653,
-0.0000000000,
-0.0000000000,
-0.0000000000,
-0.0000000000,
-0.0000000000,
-0.0000000000,
-0.0000000000,
-0.0000000000,
0.2124662846,
0.2072036862,
0.2240127921,
0.2126243860,
-0.0000000000,
-0.0000000000,
0.0000000000,
-0.0000000000,
0.0000000000,
0.0000000000,
0.0000000000,
0.0000000000,
-0.0000000000,
0.0000000000,
0.0000000000,
-0.0000000000,
0.0607435629,
0.0671058372,
-0.0223287679,
-0.0229294598,
0.0000000000,
0.0000000000,
-0.0000000000,
0.0000000000,
0.0000000000,
-0.0000000000,
0.0000000000,
-0.0000000000,
-0.0435795598,
-0.0388156697,
-0.0641465709,
-0.0604412109,
-0.0000000000,
-0.0000000000,
-0.0000000000,
-0.0000000000,
0.0498432368,
0.0614851825,
-0.1012608856,
-0.1030374989,
-0.0000000000,
-0.0000000000,
-0.0000000000,
0.0000000000,
-0.0245186910,
-0.0343956687,
0.0487104580,
0.0327246264,
-0.0000000000,
0.0000000000,
0.0000000000,
-0.0000000000,
-0.0263031702,
-0.0273323283,
0.0353123546,
0.0424294099,
-0.0067245890,
-0.0055448767,
0.0056455373,
0.0085445791,
-0.0000000000,
-0.0000000000,
-0.0000000000,
-0.0000000000,
-0.0000000000,
0.0000000000,
0.0000000000,
-0.0000000000,
0.0000000000,
-0.0000000000,
-0.0000000000,
0.0000000000,
0.0000000000,
0.0000000000,
0.0000000000,
0.0000000000,
-0.0000727528,
-0.0000727528,
-0.0000727528,
-0.0000727528,
-0.0086107617,
-0.0077030864,
0.0080560679,
0.0111408914,
0.0000000000,
0.0000000000,
-0.0000000000,
-0.0000000000,
-0.0891155601,
-0.0834976137,
-0.0370538980,
-0.0271898974,
-0.0740662739,
-0.0747244358,
-0.0918053389,
-0.0962605253,
-0.0000727528,
-0.0000727528,
-0.0000727528,
-0.0000727528,
0.0303416327,
0.0330426209,
-0.0121524576,
-0.0138786482,
-0.0000000000,
-0.0000000000,
-0.0000000000,
-0.0000000000,
-0.0000000000,
0.0000000000,
0.0000000000,
-0.0000000000,
-0.0579769015,
-0.0525473915,
-0.0922378004,
-0.0898926482,
-0.1252251267,
-0.1291336417,
-0.1100645959,
-0.1155344695,
-0.0000000000,
0.0000000000,
-0.0000000000,
-0.0000000000,
0.0503181070,
0.0524296463,
0.0037753799,
0.0013590074,
0.0000000000,
-0.0000000000,
-0.0000000000,
-0.0000000000,
-0.0000000000,
-0.0000727528,
-0.0000000000,
0.0000000000,
0.0000000000,
-0.0000000000,
-0.0000000000,
0.0000000000,
0.0540951267,
0.0585212931,
-0.0086703608,
-0.0096028522,
-0.0000000000,
-0.0000000000,
-0.0000000000,
-0.0000000000,
-0.0000000000,
-0.0000000000,
0.0000000000,
-0.0000000000,
0.0044032517,
0.0065101823,
0.0237577856,
0.0267996080,
-0.0000000000,
0.0000000000,
-0.0000000000,
-0.0000000000,
-0.0000000000,
-0.0000000000,
0.0000000000,
0.0000000000,
-0.0000000000,
-0.0000000000,
-0.0000000000,
-0.0000000000,
-0.0000000000,
0.0000000000,
-0.0000000000,
0.0000000000,
0.0000000000,
-0.0000000000,
-0.0000000000,
0.0000000000,
0.0000000000,
-0.0000000000,
0.0000000000,
-0.0000000000,
0.0000000000,
-0.0000000000,
0.0000000000,
0.0000000000,
0.0000000000,
0.0000000000,
0.0000000000,
-0.0000000000,
0.0579190366,
0.0597569011,
0.0432556532,
0.0433845222,
0.0000000000,
-0.0000000000,
0.0000000000,
0.0000000000,
0.0000000000,
-0.0000000000,
-0.0000000000,
-0.0000000000,
-0.0000000000,
0.0000000000,
-0.0000000000,
-0.0000000000,
0.1167424247,
0.1256973594,
-0.0058964966,
-0.0083508119,
-0.0000000000,
0.0000000000,
-0.0000000000,
-0.0000000000,
0.0000000000,
-0.0000000000,
-0.0000000000,
0.0000000000,
-0.0153053124,
-0.0148496656,
0.0176067092,
0.0224627368,
-0.0330244750,
-0.0298762601,
0.0049207504,
0.0155564127,
0.0000000000,
0.0000000000,
0.0000000000,
0.0000000000,
-0.0722292438,
-0.0683455095,
-0.0337736309,
-0.0271182209,
-0.0000000000,
-0.0000000000,
-0.0000000000,
-0.0000000000,
0.0763885453,
0.0704437122,
0.1150735840,
0.1090088859,
0.0000000000,
0.0000000000,
0.0000000000,
0.0000000000,
-0.0713757277,
-0.0624244697,
-0.0964362249,
-0.0848019198,
-0.0490253158,
-0.0521034785,
-0.0059656096,
-0.0181243904,
0.0000000000,
-0.0000000000,
-0.0000000000,
-0.0000000000,
0.0000000000,
-0.0000000000,
-0.0000000000,
-0.0000000000,
-0.0161577892,
-0.0127766170,
-0.0683299750,
-0.0720587522,
-0.0000000000,
-0.0000000000,
-0.0000000000,
-0.0000000000,
-0.0000000000,
0.0000000000,
-0.0000000000,
-0.0000000000,
0.0151034994,
0.0200460330,
-0.0349237695,
-0.0349132121,
0.0000000000,
-0.0000000000,
0.0000000000,
0.0000000000,
-0.0000000000,
-0.0000000000,
-0.0000000000,
0.0000000000,
0.0000000000,
-0.0000000000,
-0.0000000000,
0.0000000000,
-0.0000000000,
0.0000000000,
-0.0000000000,
0.0000000000,
0.1576070487,
0.1599782407,
0.0930660665,
0.0870516896,
0.0000000000,
-0.0000000000,
-0.0000000000,
0.0000000000,
0.0000000000,
0.0000000000,
-0.0000000000,
-0.0000000000,
-0.0000000000,
-0.0000000000,
-0.0000000000,
-0.0000000000,
0.0000000000,
-0.0000000000,
-0.0000000000,
-0.0000000000,
-0.0000000000,
0.0000000000,
-0.0000000000,
0.0000000000,
0.0535840616,
0.0597797520,
-0.0259879585,
-0.0269277617,
-0.0000000000,
0.0000000000,
-0.0000000000,
-0.0000000000,
0.0000727528,
-0.0000000000,
0.0000727528,
-0.0000000000,
-0.0000000000,
-0.0000000000,
-0.0000000000,
-0.0000000000,
-0.0826182291,
-0.0775787383,
-0.0473755747,
-0.0391865931,
0.0000000000,
-0.0000000000,
-0.0000000000,
0.0000000000,
-0.0000000000,
0.0000000000,
0.0000000000,
0.0000000000,
-0.0000000000,
-0.0000000000,
0.0000000000,
0.0000000000,
-0.0000000000,
-0.0000000000,
-0.0000000000,
0.0000000000,
-0.0000000000,
0.0000000000,
-0.0000000000,
-0.0000000000,
0.0124444142,
0.0142489076,
-0.0141633451,
-0.0154541619,
0.2166865915,
0.2159162611,
0.1742297411,
0.1626611054,
0.0000000000,
0.0000000000,
-0.0000000000,
-0.0000000000,
-0.0000000000,
-0.0000000000,
0.0000000000,
0.0000000000,
-0.0000000000,
-0.0000000000,
0.0000000000,
0.0000000000,
-0.0000000000,
0.0000000000,
-0.0000000000,
-0.0000000000,
-0.0000000000,
-0.0000000000,
0.0000000000,
0.0000000000,
-0.0000000000,
-0.0000000000,
-0.0000000000,
-0.0000000000,
-0.0222040266,
-0.0143433958,
-0.0790551677,
-0.0716831982,
0.0000000000,
-0.0000000000,
0.0000000000,
-0.0000000000,
0.0000000000,
-0.0000000000,
-0.0000000000,
0.0000000000,
-0.0000000000,
-0.0000000000,
-0.0000000000,
0.0000000000,
0.0000000000,
-0.0000000000,
0.0000000000,
-0.0000000000,
-0.0448442474,
-0.0404062495,
-0.0313804746,
-0.0206017904,
-0.0000000000,
-0.0000000000,
-0.0000000000,
-0.0000000000,
0.0000000000,
-0.0000000000,
0.0000000000,
-0.0000000000,
-0.0000000000,
-0.0000000000,
-0.0000000000,
-0.0000000000,
0.0852822587,
0.0894856900,
0.0275298506,
0.0251289401,
-0.0000000000,
0.0000000000,
-0.0000000000,
0.0000000000,
-0.0402559377,
-0.0355611145,
-0.0929740071,
-0.0912414640,
0.0726699680,
0.0812933370,
-0.0321928374,
-0.0316186249,
-0.0000000000,
0.0000000000,
-0.0000000000,
-0.0000000000,
0.0827910453,
0.0924001113,
-0.0365150273,
-0.0364869460,
-0.0000000000,
0.0000000000,
0.0000000000,
0.0000000000,
0.0102687106,
0.0073122890,
0.0622932501,
0.0640677959,
0.1130253151,
0.1260859370,
-0.0425490402,
-0.0426725671,
0.0000000000,
-0.0000000000,
0.0000000000,
-0.0000000000,
0.0000000000,
0.0000000000,
-0.0000000000,
-0.0000000000,
-0.0000000000,
-0.0000000000,
-0.0000000000,
-0.0000000000,
-0.0654991716,
-0.0613364913,
-0.0333078802,
-0.0275530834,
-0.0000000000,
-0.0000000000,
-0.0000000000,
-0.0000000000,
-0.0000000000,
0.0000000000,
0.0000000000,
0.0000000000,
-0.0040653273,
0.0050025587,
-0.0755378008,
-0.0703473017,
-0.0000000000,
0.0000000000,
0.0000000000,
-0.0000000000,
-0.0134622436,
-0.0107048377,
0.0126176234,
0.0214535315,
0.0401598550,
0.0372662805,
0.0890577808,
0.0900446996,
-0.0748956725,
-0.0843660757,
-0.0136242723,
-0.0258092657,
-0.0000000000,
0.0000000000,
-0.0000000000,
-0.0000000000,
-0.0046302653,
0.0030161997,
-0.0851898417,
-0.0819722116,
-0.0117919808,
-0.0126894359,
0.0350230373,
0.0400329530,
-0.0000000000,
-0.0000000000,
-0.0000000000,
0.0000000000,
0.0000000000,
0.0000000000,
0.0000000000,
-0.0000000000,
0.2010827810,
0.2017423511,
0.1857686788,
0.1779179424,
-0.0000000000,
0.0000000000,
0.0000000000,
0.0000000000,
-0.0022511249,
0.0055748988,
-0.0807201341,
-0.0796123743,
-0.0041224570,
-0.0040856120,
0.0316446535,
0.0362503454,
-0.0000000000,
0.0000000000,
0.0000000000,
0.0000000000,
-0.0000000000,
-0.0000000000,
-0.0000000000,
-0.0000000000,
0.0000000000,
0.0000000000,
-0.0000000000,
0.0000000000,
0.0966799259,
0.0928136632,
0.1108632460,
0.1058023423,
0.1087581590,
0.1198341995,
-0.0279422030,
-0.0291906241,
0.0000000000,
-0.0000000000,
-0.0000000000,
-0.0000000000,
0.0828932896,
0.0916441679,
-0.0129969083,
-0.0091136917,
-0.0080545181,
-0.0073627164,
0.0175925028,
0.0218589660,
0.0000000000,
-0.0000000000,
-0.0000000000,
-0.0000000000,
-0.0670740530,
-0.0623198897,
-0.0459805392,
-0.0403412953
,
0.0000000000,
-0.0000000000,
-0.0000000000,
0.0000000000,
-0.0424926393,
-0.0454474315,
0.0261765253,
0.0192127246,
-0.0000000000,
0.0000000000,
0.0000000000,
-0.0000000000,
0.0000000000,
-0.0000000000,
0.0000000000,
-0.0000000000,
-0.0000000000,
0.0000000000,
-0.0000000000,
-0.0000000000,
0.0000000000,
-0.0000000000,
-0.0000000000,
-0.0000000000,
0.0843147561,
0.0876281708,
0.0499817543,
0.0534950867,
0.0000000000,
0.0000000000,
0.0000000000,
0.0000000000,
0.1609867960,
0.1733594984,
0.0380110331,
0.0493286289,
0.0000000000,
0.0000000000,
0.0000000000,
0.0000000000,
-0.0000000000,
0.0000000000,
-0.0000000000,
-0.0000000000,
0.0000000000,
0.0000000000,
0.0000000000,
0.0000000000,
0.0000000000,
0.0000000000,
0.0000000000,
0.0000000000,
0.0000000000,
-0.0000000000,
-0.0000000000,
-0.0000000000,
-0.0000000000,
-0.0000000000,
0.0000000000,
-0.0000000000,
-0.0000000000,
-0.0000000000,
0.0000000000,
0.0000000000,
0.0000000000,
0.0000000000,
0.0000000000,
-0.0000000000,
-0.0191707816,
-0.0223012697,
-0.0398304537,
-0.0413298607,
-0.0000000000,
0.0000000000,
0.0000000000,
0.0000000000,
0.0000000000,
-0.0000000000,
-0.0000000000,
-0.0000000000,
-0.0000000000,
-0.0000000000,
0.0000000000,
-0.0000000000,
-0.0411542431,
-0.0421412885,
-0.0813718364,
-0.0706980228,
-0.0000000000,
-0.0000000000,
0.0000000000,
-0.0000000000,
-0.0607168153,
-0.0625671893,
0.0522493646,
0.0456402339,
-0.0458056815,
-0.0524493307,
0.0192416869,
0.0062865964,
0.0000000000,
-0.0000000000,
-0.0000000000,
0.0000000000,
-0.0000000000,
-0.0000000000,
0.0000000000,
-0.0000000000,
0.0459466651,
0.0502300784,
-0.0015258528,
0.0075062783,
0.0380892456,
0.0341047198,
-0.0172610153,
-0.0190456901,
-0.0422248207,
-0.0437971763,
0.0338075608,
0.0294644944,
-0.0000000000,
-0.0000000000,
0.0000000000,
0.0000000000,
0.1512730122,
0.1489089280,
0.1113716885,
0.0981006473,
-0.0899659097,
-0.0938956738,
-0.0826788768,
-0.0830258355,
-0.0000000000,
-0.0000000000,
0.0000000000,
-0.0000000000,
-0.0077295136,
-0.0104997372,
-0.0700631887,
-0.0635300279,
0.0000000000,
0.0000000000,
0.0000000000,
-0.0000727528,
-0.0334834605,
-0.0342371687,
-0.0150251687,
-0.0106796501,
-0.0194058735,
-0.0303834025,
-0.0664371848,
-0.0739382729,
-0.0000000000,
0.0000000000,
0.0000000000,
-0.0000000000,
0.0000000000,
0.0000000000,
0.0000000000,
-0.0000000000,
-0.0000000000,
0.0000000000,
0.0000000000,
0.0000000000,
-0.0000000000,
0.0000000000,
-0.0000000000,
0.0000000000,
-0.0000000000,
-0.0000000000,
0.0000000000,
0.0000000000,
0.0000000000,
-0.0000000000,
-0.0000000000,
-0.0000000000,
0.1089348197,
0.1134440377,
0.0740400180,
0.0768263787,
-0.0881164148,
-0.0824840665,
-0.0781407729,
-0.0680707321,
0.0000000000,
-0.0000000000,
-0.0000000000,
0.0000000000,
0.0000000000,
0.0000000000,
0.0000000000,
-0.0000000000,
-0.0000000000,
0.0000000000,
-0.0000000000,
-0.0000000000,
0.0000000000,
-0.0000000000,
0.0000000000,
0.0000000000,
0.0000000000,
0.0000000000,
0.0000000000,
0.0000000000,
-0.0000000000,
-0.0000000000,
0.0000000000,
-0.0000000000,
-0.0000000000,
0.0000000000,
0.0000000000,
-0.0000000000,
-0.0000727528,
-0.0000727528,
0.0000727528,
-0.0000727528,
-0.0152952243,
-0.0166016445,
0.0166094378,
0.0140300849,
0.1752567142,
0.1816628277,
0.1246062666,
0.1268993318,
0.0000000000,
0.0000000000,
0.0000000000,
0.0000000000,
-0.0000000000,
-0.0000000000,
0.0000000000,
0.0000000000,
0.0624619946,
0.0672118068,
-0.0086958418,
-0.0111521790,
-0.0000000000,
-0.0000000000,
-0.0000000000,
-0.0000000000,
-0.0000000000,
-0.0000000000,
-0.0000000000,
-0.0000000000,
0.0000000000,
0.0000000000,
0.0000000000,
0.0000000000,
0.0000000000,
-0.0000000000,
0.0000000000,
-0.0000000000,
0.0000000000,
0.0000000000,
-0.0000000000,
-0.0000000000,
-0.0714126974,
-0.0766132176,
0.0598632842,
0.0469136052,
-0.0000000000,
-0.0000000000,
-0.0000000000,
-0.0000000000,
0.0000000000,
-0.0000000000,
-0.0000000000,
0.0000000000,
-0.0000000000,
-0.0000000000,
-0.0000000000,
-0.0000000000,
-0.0000000000,
0.0000000000,
0.0000000000,
0.0000000000,
-0.0368795954,
-0.0410777479,
-0.0288332589,
-0.0324736275,
-0.0000000000,
-0.0000000000,
0.0000000000,
-0.0000000000,
-0.0000000000,
-0.0000000000,
0.0000000000,
0.0000000000,
0.0000000000,
-0.0000000000,
0.0000000000,
0.0000000000,
-0.0000000000,
0.0000000000,
-0.0000000000,
-0.0000000000,
-0.0517058894,
-0.0508328974,
-0.0545515455,
-0.0464213230,
0.0000000000,
-0.0000000000,
-0.0000000000,
0.0000000000,
-0.0000000000,
0.0000000000,
0.0000000000,
0.0000000000,
0.0000000000,
0.0000000000,
-0.0000000000,
0.0000000000,
0.0000000000,
-0.0000000000,
0.0000000000,
0.0000000000,
-0.0000000000,
-0.0000000000,
0.0000000000,
-0.0000000000,
-0.0000000000,
-0.0000000000,
0.0000000000,
-0.0000000000,
0.0000727528,
0.0000000000,
0.0000000000,
0.0000000000,
-0.0506243519,
-0.0545807220,
-0.0123275016,
-0.0188221671,
0.0000000000,
0.0000000000,
0.0000000000,
-0.0000000000,
-0.0000000000,
0.0000000000,
-0.0000000000,
0.0000000000,
-0.0757256821,
-0.0741430521,
-0.1360229999,
-0.1385070682,
0.0000000000,
-0.0000000000,
-0.0000000000,
-0.0000000000,
-0.0000000000,
-0.0000000000,
0.0000000000,
-0.0000000000,
0.0000000000,
-0.0000000000,
0.0000000000,
0.0000000000,
-0.0000000000,
0.0000000000,
-0.0000000000,
0.0000000000,
0.0000000000,
0.0000000000,
0.0000000000,
-0.0000000000,
0.0000000000,
0.0000000000,
-0.0000000000,
0.0000000000,
0.0000000000,
0.0000000000,
-0.0000000000,
0.0000000000,
-0.0000000000,
-0.0000000000,
-0.0000000000,
-0.0000000000,
0.0000000000,
0.0000000000,
0.0000000000,
0.0000000000,
0.0303175244,
0.0287579522,
-0.0341066532,
-0.0340492874,
0.0000000000,
-0.0000000000,
-0.0000000000,
0.0000000000,
-0.0000000000,
-0.0000000000,
-0.0000000000,
-0.0000000000,
-0.0000000000,
-0.0000000000,
-0.0000000000,
0.0000000000,
-0.0000000000,
0.0000000000,
-0.0000000000,
0.0000000000,
0.0000000000,
-0.0000000000,
-0.0000000000,
-0.0000000000,
-0.0000000000,
-0.0000000000,
-0.0000000000,
-0.0000000000,
-0.0245188493,
-0.0258995146,
0.0238505509,
0.0203645173,
0.0000000000,
-0.0000000000,
0.0000000000,
-0.0000000000,
0.0000000000,
-0.0000000000,
-0.0000000000,
-0.0000000000,
-0.0000000000,
0.0000000000,
0.0000000000,
-0.0000000000,
-0.0000000000,
-0.0000000000,
-0.0000000000,
-0.0000000000,
-0.0000000000,
-0.0000000000,
-0.0000000000,
0.0000000000,
0.0000000000,
0.0000000000,
-0.0000000000,
-0.0000000000,
0.0674074218,
0.0698961318,
0.0122078704,
0.0040362258,
-0.0000000000,
-0.0000000000,
0.0000000000,
-0.0000000000,
-0.1057933196,
-0.1170425117,
-0.1201294959,
-0.1262405962,
-0.0000000000,
0.0000000000,
0.0000000000,
-0.0000000000,
-0.0000000000,
-0.0000000000,
-0.0000000000,
0.0000000000,
-0.0844296068,
-0.0885543153,
0.0770005733,
0.0655320734,
0.0000000000,
0.0000000000,
0.0000000000,
-0.0000000000,
-0.0594854876,
-0.0692138523,
-0.0291899480,
-0.0383874997,
-0.0000000000,
0.0000000000,
0.0000000000,
-0.0000000000,
0.0098150680,
0.0152582554,
-0.0073004146,
0.0003821491,
-0.0627288371,
-0.0585043505,
-0.1069603264,
-0.1035246998,
-0.0000000000,
-0.0000000000,
0.0000000000,
0.0000000000,
-0.0000000000,
-0.0000000000,
0.0000000000,
-0.0000000000,
-0.0434180237,
-0.0389915220,
-0.0569473952,
-0.0532182716,
-0.0842446461,
-0.0910389349,
-0.0595527589,
-0.0636959448,
0.0000000000,
-0.0000000000,
0.0000000000,
-0.0000000000,
-0.0595820621,
-0.0614643507,
0.0484429784,
0.0419174656,
-0.0000000000,
0.0000000000,
-0.0000000000,
-0.0000000000,
0.0000000000,
0.0000000000,
-0.0000000000,
0.0000000000,
-0.0369779617,
-0.0391564146,
0.0339692868,
0.0277001541,
-0.0000000000,
-0.0000000000,
0.0000000000,
-0.0000000000,
0.0138501506,
0.0225680843,
-0.0784651861,
-0.0671882406,
0.0000000000,
-0.0000000000,
-0.0000000000,
0.0000000000,
0.0210089330,
0.0258170925,
-0.0684388950,
-0.0501322933,
-0.0000000000,
-0.0000000000,
0.0000000000,
-0.0000000000,
0.0824418515,
0.0800300092,
0.1567425579,
0.1367209703,
-0.0265401155,
-0.0279713329,
0.0255100429,
0.0218129791,
-0.0000000000,
-0.0000000000,
0.0000000000,
-0.0000000000,
-0.0333061330,
-0.0345204435,
-0.0213768352,
-0.0179067440,
-0.0000000000,
0.0000000000,
0.0000000000,
0.0000000000,
-0.0000000000,
-0.0000000000,
-0.0000000000,
0.0000000000,
0.0000000000,
0.0000000000,
-0.0000000000,
-0.0000000000,
0.0827320293,
0.0855981112,
0.0300986152,
0.0327936150,
0.0000000000,
0.0000000000,
0.0000000000,
0.0000000000,
0.0000000000,
-0.0000000000,
-0.0000000000,
0.0000000000,
-0.0000000000,
0.0000000000,
0.0000000000,
0.0000000000,
-0.0486577712,
-0.0555507280,
-0.0926236510,
-0.0871607140,
0.0000727528,
-0.0000000000,
-0.0000727528,
-0.0000727528,
0.0000000000,
0.0000000000,
0.0000000000,
0.0000000000,
-0.0000000000,
0.0000000000,
-0.0000000000,
-0.0000000000,
0.0000000000,
-0.0000000000,
0.0000000000,
0.0000000000,
0.0000000000,
0.0000000000,
0.0000000000,
-0.0000000000,
0.0000000000,
-0.0000000000,
0.0000000000,
-0.0000000000,
-0.0339274704,
-0.0391590521,
0.0410150886,
0.0249577630,
-0.0000000000,
-0.0000000000,
0.0000000000,
-0.0000000000,
0.0137768965,
0.0092914831,
-0.0579921827,
-0.0585256331,
0.1001668572,
0.1034638956,
-0.0071198740,
-0.0120119108,
-0.0221193321,
-0.0255893562,
-0.0523247831,
-0.0470497087,
-0.0000000000,
-0.0000000000,
-0.0000000000,
0.0000000000,
-0.0465889722,
-0.0493363515,
-0.0486433208,
-0.0435920097,
-0.0780036151,
-0.0821935087,
-0.0573148094,
-0.0627464131,
-0.0000000000,
0.0000000000,
-0.0000000000,
0.0000000000,
0.0822365135,
0.0875416398,
0.0650504231,
0.0728275329,
-0.0000000000,
-0.0000000000,
-0.0000000000,
-0.0000000000,
-0.0000000000,
-0.0000000000,
-0.0000000000,
0.0000000000,
-0.0000000000,
-0.0000000000,
0.0000000000,
-0.0000000000,
-0.0789089054,
-0.0759353712,
-0.0791760683,
-0.0729338154,
-0.0652047619,
-0.0614742897,
-0.0753069893,
-0.0774393901,
0.0000000000,
-0.0000000000,
0.0000000000,
-0.0000000000,
0.0313035846,
0.0280796140,
-0.0442471728,
-0.0439772233,
-0.0000000000,
-0.0000000000,
-0.0000000000,
0.0000000000,
-0.0000000000,
-0.0000000000,
0.0000000000,
0.0000000000,
0.0000000000,
-0.0000000000,
-0.0000000000,
0.0000000000,
-0.0000000000,
-0.0000000000,
-0.0000000000,
-0.0000000000,
-0.0000000000,
-0.0000000000,
-0.0000000000,
-0.0000000000,
-0.0000000000,
0.0000727528,
-0.0000000000,
-0.0000000000,
-0.0301758014,
-0.0328249745,
0.0333775729,
0.0342254154,
-0.0000000000,
-0.0000000000,
-0.0000000000,
-0.0000000000,
-0.0000000000,
-0.0000000000,
-0.0000000000,
-0.0000000000,
0.0000000000,
-0.0000000000,
0.0000000000,
-0.0000000000,
-0.0824209377,
-0.0776913017,
-0.0482941121,
-0.0335158557,
0.0000000000,
0.0000000000,
0.0000000000,
0.0000000000,
0.2115525156,
0.2186124176,
0.1467521936,
0.1484582722,
-0.0000000000,
-0.0000000000,
0.0000000000,
0.0000000000,
-0.0000000000,
-0.0000000000,
-0.0000000000,
-0.0000000000,
0.0000000000,
-0.0000000000,
-0.0000000000,
-0.0000000000,
-0.0667305365,
-0.0697924644,
0.0607608296,
0.0513537936,
-0.0500865057,
-0.0538664497,
0.0283789150,
0.0187295862,
0.0000000000,
-0.0000000000,
0.0000000000,
0.0000000000,
-0.0606606640,
-0.0565085262,
-0.0701886341,
-0.0622494146,
-0.0702848583,
-0.0738624856,
0.0612158626,
0.0509080142,
-0.0000000000,
0.0000000000,
-0.0000000000,
0.0000000000,
0.0000000000,
-0.0000000000,
0.0000000000,
0.0000000000,
0.0000000000,
0.0000000000,
0.0000000000,
0.0000000000,
-0.0733325407,
-0.0710837469,
-0.0570849665,
-0.0473417714,
0.0000000000,
0.0000000000,
-0.0000000000,
0.0000000000,
-0.0069905384,
-0.0085015455,
0.0085071856,
0.0072239614,
0.0000000000,
0.0000000000,
0.0000000000,
0.0000000000,
-0.0000000000,
-0.0000000000,
-0.0000000000,
0.0000000000,
0.0000000000,
-0.0000000000,
-0.0000000000,
0.0000000000,
-0.0569723509,
-0.0582450889,
0.0796324536,
0.0706358179,
-0.0000000000,
0.0000000000,
-0.0000000000,
0.0000000000,
0.0000000000,
-0.0000000000,
0.0000000000,
-0.0000000000,
0.0000000000,
0.0000000000,
0.0000000000,
-0.0000000000,
-0.0271029808,
-0.0397179127,
-0.0680155233,
-0.0745401159,
0.0000727528,
0.0000727528,
0.0000727528,
0.0000727528,
0.0000000000,
0.0000000000,
0.0000000000,
0.0000000000,
-0.0000000000,
-0.0000000000,
-0.0000000000,
0.0000000000,
-0.0000000000,
0.0000000000,
0.0000000000,
-0.0000000000,
0.0000000000,
0.0000000000,
0.0000000000,
-0.0000000000,
-0.0000000000,
0.0000000000,
0.0000000000,
0.0000000000,
0.0000000000,
0.0000000000,
0.0000000000,
0.0000000000,
-0.0000727528,
0.0000000000,
-0.0000727528,
-0.0000000000,
0.0000727528,
0.0000000000,
-0.0000000000,
0.0000000000,
-0.0000000000,
0.0000000000,
0.0000000000,
0.0000000000,
-0.0640179738,
-0.0600975230,
-0.0697180107,
-0.0633061156,
-0.0000000000,
-0.0000000000,
-0.0000000000,
-0.0000000000,
-0.0000000000,
0.0000000000,
0.0000000000,
-0.0000000000,
0.0509891920,
0.0520340800,
-0.0393238924,
-0.0358752646,
0.0843607038,
0.0885456949,
-0.0307569783,
-0.0236365069,
0.0000000000,
-0.0000000000,
0.0000000000,
-0.0000000000,
-0.0000000000,
-0.0000000000,
-0.0000000000,
-0.0000000000,
0.2168801874,
0.2224673331,
0.1563475430,
0.1562469155,
0.0000000000,
0.0000000000,
0.0000000000,
-0.0000000000,
0.0000000000,
0.0000000000,
0.0000000000,
0.0000000000,
-0.0000000000,
-0.0000000000,
-0.0000000000,
-0.0000000000,
0.0000000000,
-0.0000000000,
-0.0000000000,
0.0000000000,
0.0000000000,
0.0000000000,
-0.0000000000,
-0.0000000000,
0.1398239434,
0.1470772177,
0.0427557006,
0.0491748452,
-0.0000000000,
0.0000000000,
-0.0000000000,
0.0000000000,
-0.0000000000,
-0.0000000000,
0.0000000000,
0.0000000000,
-0.0371157825,
-0.0388592593,
0.0348678716,
0.0296584703,
0.0000000000,
-0.0000000000,
0.0000000000,
-0.0000000000,
-0.0000000000,
0.0000000000,
-0.0000000000,
-0.0000000000,
0.0000000000,
0.0000000000,
-0.0000000000,
0.0000000000,
-0.0000000000,
-0.0000000000,
-0.0000000000,
-0.0000000000,
0.0000000000,
-0.0000000000,
-0.0000000000,
0.0000000000,
0.1356512606,
0.1407107115,
0.0904522464,
0.0931630656,
0.0000000000,
0.0000000000,
0.0000000000,
0.0000000000,
-0.0000000000,
-0.0000000000,
-0.0000000000,
-0.0000000000,
-0.0888904482,
-0.0861425176,
-0.0938757285,
-0.0793339163,
0.0000000000,
-0.0000000000,
0.0000000000,
-0.0000000000,
-0.0000000000,
-0.0000000000,
-0.0000000000,
-0.0000000000,
-0.0000000000,
-0.0000000000,
-0.0000000000,
-0.0000000000,
0.0042641414,
0.0009527669,
-0.0492460616,
-0.0492138825,
0.0000000000,
-0.0000000000,
-0.0000000000,
-0.0000000000,
-0.0000000000,
0.0000000000,
-0.0000000000,
-0.0000000000,
0.1513255090,
0.1547494084,
0.0730727166,
0.0742042661,
0.0000000000,
-0.0000000000,
0.0000000000,
-0.0000000000,
0.0220548566,
0.0137579003,
-0.0703511462,
-0.0748164877,
-0.0000000000,
0.0000000000,
-0.0000000000,
0.0000000000,
-0.0858554319,
-0.0805083066,
-0.0969981924,
-0.0872188136,
0.0000000000,
-0.0000000000,
0.0000000000,
-0.0000000000,
-0.0667649955,
-0.0696728751,
0.0594330579,
0.0507472157,
-0.0118853422,
-0.0133084347,
0.0138580808,
0.0114096003,
-0.0000000000,
0.0000000000,
0.0000000000,
0.0000000000,
-0.0000000000,
-0.0000000000,
-0.0000000000,
-0.0000000000,
-0.0000000000,
0.0000000000,
0.0000000000,
0.0000000000,
-0.0000000000,
-0.0000000000,
0.0000000000,
0.0000000000,
0.0000727528,
0.0000727528,
-0.0000727528,
0.0000727528,
-0.0149346301,
-0.0162551012,
0.0162032694,
0.0136867641,
0.0000000000,
0.0000000000,
0.0000000000,
-0.0000000000,
0.2378347814,
0.2400370687,
0.1901399046,
0.1847088933,
-0.0225383285,
-0.0163093936,
-0.0684711859,
-0.0650484189,
0.0000727528,
0.0000000000,
0.0000727528,
-0.0000000000,
0.0077770334,
0.0069168657,
-0.0277166497,
-0.0266583115,
-0.0000000000,
0.0000000000,
0.0000000000,
0.0000000000,
-0.0000000000,
-0.0000000000,
-0.0000000000,
0.0000000000,
0.1657642424,
0.1729185581,
0.0480129160,
0.0517103001,
-0.0752136856,
-0.0665987656,
-0.0981206670,
-0.0950347781,
0.0000000000,
0.0000000000,
-0.0000000000,
-0.0000000000,
-0.0160665400,
-0.0181470457,
-0.0463790521,
-0.0446142480,
0.0000000000,
-0.0000000000,
-0.0000000000,
-0.0000000000,
-0.0000000000,
-0.0000000000,
-0.0000000000,
-0.0000000000,
0.0000000000,
0.0000000000,
-0.0000000000,
-0.0000000000,
-0.0086425235,
-0.0110802939,
-0.0439399071,
-0.0437478907,
0.0000000000,
-0.0000000000,
-0.0000000000,
-0.0000000000,
-0.0000000000,
-0.0000000000,
0.0000000000,
-0.0000000000,
0.1372442842,
0.1427533329,
0.0764784068,
0.0819961950,
-0.0000000000,
-0.0000000000,
-0.0000000000,
0.0000000000,
0.0000000000,
0.0000000000,
0.0000000000,
-0.0000000000,
-0.0000000000,
-0.0000000000,
0.0000000000,
-0.0000000000,
-0.0000000000,
-0.0000000000,
0.0000000000,
0.0000000000,
-0.0000000000,
0.0000000000,
-0.0000000000,
-0.0000000000,
-0.0000000000,
-0.0000000000,
-0.0000000000,
0.0000000000,
0.0000000000,
0.0000000000,
0.0000000000,
0.0000000000,
-0.0000000000,
-0.0000000000,
0.0000000000,
-0.0000000000,
0.0220046323,
0.0229883678,
-0.0052831625,
-0.0007128568,
0.0000000000,
-0.0000000000,
-0.0000000000,
-0.0000000000,
0.0000000000,
-0.0000000000,
0.0000000000,
0.0000000000,
-0.0000000000,
0.0000000000,
0.0000000000,
0.0000000000,
-0.0274156164,
-0.0352599584,
-0.0932641253,
-0.0925873891,
-0.0000000000,
-0.0000000000,
-0.0000000000,
-0.0000000000,
0.0000000000,
0.0000000000,
-0.0000000000,
0.0000000000,
-0.0351957195,
-0.0368958935,
0.0323187932,
0.0273999311,
-0.0624521039,
-0.0674745291,
0.0829193592,
0.0684012026,
-0.0000000000,
-0.0000000000,
-0.0000000000,
-0.0000000000,
0.1825401634,
0.1872819513,
0.1385518909,
0.1386772543,
-0.0000000000,
-0.0000000000,
-0.0000000000,
0.0000000000,
-0.0441490225,
-0.0419322550,
-0.0348716155,
-0.0268562287,
-0.0000000000,
0.0000000000,
-0.0000000000,
-0.0000000000,
0.0070369039,
0.0033750781,
0.0827395692,
0.0671081394,
-0.0555771030,
-0.0536015853,
-0.0641376376,
-0.0561078787,
-0.0000000000,
0.0000000000,
-0.0000000000,
-0.0000000000,
-0.0000000000,
0.0000000000,
0.0000000000,
-0.0000000000,
0.0982981324,
0.1071204022,
-0.0329933949,
-0.0233278945,
0.0000000000,
-0.0000000000,
-0.0000000000,
-0.0000000000,
0.0000000000,
-0.0000000000,
0.0000000000,
-0.0000000000,
0.0583836883,
0.0594092049,
-0.0059972801,
-0.0045617740,
-0.0000000000,
-0.0000000000,
-0.0000000000,
0.0000000000,
0.0000000000,
-0.0000000000,
-0.0000000000,
-0.0000000000,
0.0000000000,
0.0000000000,
-0.0000000000,
0.0000000000,
0.0000000000,
0.0000000000,
0.0000000000,
0.0000000000,
-0.0723967254,
-0.0756052360,
-0.1176822111,
-0.1086467281,
0.0000000000,
-0.0000000000,
-0.0000000000,
0.0000000000,
-0.0000000000,
0.0000000000,
0.0000000000,
-0.0000000000,
-0.0000000000,
0.0000000000,
0.0000000000,
0.0000000000,
0.0000000000,
-0.0000000000,
0.0000000000,
0.0000000000,
0.0000000000,
0.0000000000,
-0.0000000000,
0.0000000000,
0.0156917274,
0.0128364740,
-0.0423130766,
-0.0419814028,
0.0000000000,
0.0000000000,
0.0000000000,
-0.0000000000,
0.0000727528,
-0.0000000000,
0.0000727528,
-0.0000000000,
0.0000000000,
0.0000000000,
0.0000000000,
0.0000000000,
0.2226427495,
0.2292086035,
0.1694993228,
0.1697367430,
0.0000000000,
-0.0000000000,
-0.0000000000,
-0.0000000000,
0.0000000000,
0.0000000000,
0.0000000000,
0.0000000000,
-0.0000000000,
0.0000000000,
0.0000000000,
-0.0000000000,
-0.0000000000,
-0.0000000000,
-0.0000000000,
0.0000000000,
0.0000000000,
-0.0000000000,
0.0000000000,
0.0000000000,
0.0163212661,
0.0165721141,
-0.0125179999,
-0.0120211774,
-0.1004757062,
-0.1053681150,
-0.1235347092,
-0.1102117077,
-0.0000000000,
0.0000000000,
0.0000000000,
-0.0000000000,
0.0000000000,
-0.0000000000,
-0.0000000000,
0.0000000000,
0.0000000000,
-0.0000000000,
0.0000000000,
0.0000000000,
-0.0000000000,
-0.0000727528,
-0.0000000000,
0.0000000000,
0.0000000000,
0.0000000000,
-0.0000000000,
0.0000000000,
0.0000000000,
-0.0000000000,
-0.0000000000,
0.0000000000,
-0.0763595775,
-0.0813206583,
-0.0008554621,
-0.0159626361,
0.0000000000,
-0.0000000000,
-0.0000000000,
-0.0000000000,
0.0000000000,
-0.0000000000,
0.0000000000,
-0.0000000000,
-0.0000000000,
0.0000000000,
-0.0000000000,
0.0000000000,
-0.0000000000,
-0.0000000000,
-0.0000000000,
0.0000000000,
-0.0560866967,
-0.0597355515,
0.0639582798,
0.0501621217,
-0.0000000000,
0.0000000000,
0.0000000000,
0.0000000000,
-0.0000000000,
0.0000000000,
-0.0000000000,
0.0000000000,
0.0000000000,
0.0000000000,
0.0000000000,
-0.0000000000,
0.0219905525,
0.0246146917,
-0.0570698082,
-0.0481046177,
0.0000000000,
-0.0000000000,
0.0000000000,
-0.0000000000,
0.0045788041,
0.0041504977,
-0.0232336950,
-0.0279251803,
0.0221590325,
0.0210105721,
-0.0532008521,
-0.0513536744,
0.0000000000,
0.0000727528,
-0.0000000000,
0.0000000000,
0.0058521549,
0.0000055434,
-0.0634800941,
-0.0645551756,
0.0000000000,
-0.0000000000,
0.0000000000,
0.0000000000,
-0.0552960001,
-0.0568351187,
0.0174465589,
0.0165183451,
0.0020922800,
-0.0071976366,
-0.0789842904,
-0.0810812935,
0.0000000000,
-0.0000000000,
0.0000000000,
-0.0000000000,
-0.0000000000,
0.0000000000,
-0.0000000000,
0.0000000000,
0.0000000000,
0.0000000000,
-0.0000000000,
0.0000000000,
0.1833745539,
0.1901132315,
0.1223282143,
0.1249126568,
-0.0000000000,
-0.0000000000,
-0.0000000000,
-0.0000000000,
-0.0000000000,
0.0000000000,
0.0000000000,
-0.0000000000,
-0.0301791150,
-0.0345805250,
-0.0027512331,
-0.0143310558,
0.0000000000,
0.0000000000,
-0.0000000000,
0.0000000000,
-0.0690111443,
-0.0741408989,
0.0583281741,
0.0455760770,
-0.0619071238,
-0.0650419742,
0.0165042821,
0.0157604609,
-0.1020523161,
-0.0970593542,
-0.0991178975,
-0.0931157172,
-0.0000000000,
-0.0000000000,
0.0000000000,
0.0000000000,
-0.0092804357,
-0.0116068972,
-0.0286625102,
-0.0354186669,
-0.0527222306,
-0.0546672046,
0.0367667004,
0.0314722694,
0.0000000000,
0.0000000000,
0.0000000000,
0.0000000000,
-0.0000000000,
0.0000000000,
0.0000000000,
0.0000000000,
-0.0235143267,
-0.0222711135,
-0.0759220123,
-0.0590549521,
-0.0000000000,
0.0000000000,
0.0000000000,
-0.0000000000,
0.1137113422,
0.1170857623,
-0.0085420040,
-0.0053115934,
-0.0429731347,
-0.0452800244,
0.0316327810,
0.0268959515,
-0.0000000000,
-0.0000000000,
0.0000000000,
0.0000000000,
-0.0000000000,
0.0000000000,
0.0000000000,
0.0000000000,
-0.0000000000,
-0.0000000000,
-0.0000000000,
-0.0000000000,
-0.0415814295,
-0.0411580503,
-0.0375449806,
-0.0307007097,
0.0180242229,
0.0123680672,
-0.0768852532,
-0.0748801678,
-0.0000000000,
0.0000000000,
0.0000000000,
0.0000000000,
-0.1174375638,
-0.1262115985,
-0.0436131544,
-0.0544820316,
-0.0292270407,
-0.0308840834,
0.0252246615,
0.0211383589,
0.0000000000,
0.0000000000,
-0.0000000000,
0.0000000000,
0.2073945105,
0.2153474689,
0.1153756678,
0.1191556454
,
-0.0000000000,
-0.0000000000,
0.0000000000,
-0.0000000000,
-0.0419985615,
-0.0380621664,
0.0006112242,
0.0064292224,
-0.0000000000,
-0.0000000000,
-0.0000000000,
-0.0000000000,
0.0000000000,
0.0000000000,
0.0000000000,
0.0000000000,
-0.0000000000,
0.0000000000,
-0.0000000000,
0.0000000000,
0.0000000000,
0.0000000000,
0.0000000000,
0.0000000000,
-0.0349062979,
-0.0406968892,
-0.0410060249,
-0.0483341105,
-0.0000000000,
-0.0000000000,
0.0000000000,
0.0000000000,
0.0178596433,
0.0020543272,
-0.0488818549,
-0.0639463663,
-0.0000000000,
-0.0000000000,
-0.0000000000,
0.0000000000,
0.0000000000,
0.0000000000,
-0.0000000000,
0.0000000000,
0.0000000000,
-0.0000000000,
-0.0000000000,
-0.0000000000,
-0.0000000000,
-0.0000000000,
-0.0000000000,
-0.0000000000,
-0.0000000000,
-0.0000000000,
0.0000000000,
0.0000000000,
-0.0000000000,
-0.0000000000,
0.0000000000,
0.0000000000,
0.0000000000,
0.0000000000,
0.0000000000,
-0.0000000000,
0.0000000000,
0.0000000000,
-0.0000000000,
-0.0000000000,
-0.0152320294,
-0.0130766639,
-0.0318155885,
-0.0304827243,
-0.0000000000,
-0.0000000000,
0.0000000000,
-0.0000000000,
0.0000000000,
0.0000000000,
0.0000000000,
0.0000000000,
0.0000000000,
-0.0000000000,
0.0000000000,
0.0000000000,
-0.0005635433,
-0.0020886674,
-0.0236706547,
-0.0273342822,
-0.0000000000,
-0.0000000000,
0.0000000000,
-0.0000000000,
-0.0463072956,
-0.0424419269,
0.0284858048,
0.0358710364,
-0.0605666749,
-0.0531587899,
-0.0312827639,
-0.0220893621,
-0.0000000000,
0.0000000000,
0.0000000000,
0.0000000000,
0.0000000000,
-0.0000000000,
-0.0000000000,
-0.0000000000,
-0.0406535268,
-0.0463702083,
-0.0483136103,
-0.0571283810,
-0.0245232005,
-0.0243627969,
-0.0656659380,
-0.0666883960,
-0.0312376302,
-0.0282624960,
0.0195201896,
0.0243903641,
-0.0000000000,
-0.0000000000,
0.0000000000,
-0.0000000000,
-0.0629639030,
-0.0681512505,
-0.0798730329,
-0.0797458738,
0.0346566103,
0.0404572822,
0.0250644945,
0.0281370599,
-0.0000000000,
-0.0000000000,
-0.0000000000,
0.0000000000,
-0.0293152090,
-0.0301799625,
-0.0612273961,
-0.0657772347,
0.0000000000,
-0.0000000000,
-0.0000000000,
0.0000727528,
-0.0198459625,
-0.0194535963,
0.0002498925,
-0.0011183580,
-0.0293708425,
-0.0207300149,
-0.0796121210,
-0.0753874853,
-0.0000000000,
-0.0000000000,
0.0000000000,
0.0000000000,
0.0000000000,
-0.0000000000,
-0.0000000000,
0.0000000000,
-0.0000000000,
0.0000000000,
0.0000000000,
-0.0000000000,
-0.0000000000,
0.0000000000,
0.0000000000,
0.0000000000,
0.0000000000,
0.0000000000,
0.0000000000,
-0.0000000000,
-0.0000000000,
-0.0000000000,
0.0000000000,
-0.0000000000,
-0.0155745558,
-0.0225722175,
-0.0283652600,
-0.0355084911,
0.0934158564,
0.0947202742,
0.0876162052,
0.0867214799,
0.0000000000,
-0.0000000000,
0.0000000000,
-0.0000000000,
-0.0000727528,
0.0000000000,
-0.0000000000,
-0.0000000000,
-0.0000000000,
-0.0000000000,
0.0000000000,
-0.0000000000,
0.0000000000,
0.0000000000,
0.0000000000,
0.0000000000,
0.0000000000,
0.0000000000,
0.0000000000,
0.0000000000,
0.0000000000,
0.0000000000,
-0.0000000000,
-0.0000000000,
-0.0000000000,
0.0000000000,
-0.0000000000,
-0.0000000000,
0.0000727528,
0.0000727528,
-0.0000727528,
0.0000727528,
-0.0138459979,
-0.0122414036,
0.0069756592,
0.0095177665,
-0.0233039148,
-0.0346551761,
-0.0462876447,
-0.0557051562,
-0.0000000000,
0.0000000000,
-0.0000000000,
-0.0000000000,
0.0000000000,
0.0000000000,
-0.0000000000,
-0.0000000000,
-0.0130884042,
-0.0208777133,
-0.0520420037,
-0.0580681004,
-0.0000000000,
-0.0000000000,
-0.0000000000,
-0.0000000000,
-0.0000000000,
0.0000000000,
0.0000000000,
-0.0000000000,
-0.0000000000,
0.0000000000,
0.0000000000,
0.0000000000,
-0.0000000000,
0.0000000000,
0.0000000000,
0.0000000000,
-0.0000000000,
0.0000000000,
0.0000000000,
-0.0000000000,
-0.0699222907,
-0.0627305806,
0.0097060613,
0.0211443957,
-0.0000000000,
0.0000000000,
0.0000000000,
-0.0000000000,
0.0000000000,
0.0000000000,
-0.0000000000,
0.0000000000,
0.0000000000,
-0.0000000000,
0.0000000000,
0.0000000000,
0.0000000000,
-0.0000000000,
0.0000000000,
-0.0000000000,
-0.0247792974,
-0.0200820751,
-0.0221628305,
-0.0181652699,
0.0000000000,
0.0000000000,
0.0000000000,
-0.0000000000,
0.0000000000,
0.0000000000,
-0.0000000000,
0.0000000000,
-0.0000000000,
-0.0000000000,
-0.0000000000,
0.0000000000,
-0.0000000000,
0.0000000000,
0.0000000000,
-0.0000000000,
-0.0302422941,
-0.0329974853,
-0.0211009085,
-0.0244281236,
-0.0000000000,
-0.0000000000,
0.0000000000,
0.0000000000,
-0.0000000000,
-0.0000000000,
-0.0000000000,
-0.0000000000,
-0.0000000000,
0.0000000000,
-0.0000000000,
0.0000000000,
-0.0000000000,
0.0000000000,
-0.0000000000,
-0.0000000000,
0.0000000000,
0.0000000000,
0.0000000000,
0.0000000000,
0.0000000000,
0.0000000000,
-0.0000000000,
0.0000000000,
-0.0000000000,
-0.0000000000,
0.0000000000,
0.0000000000,
-0.0395610817,
-0.0346419662,
-0.0201422349,
-0.0143816257,
-0.0000000000,
-0.0000000000,
-0.0000000000,
0.0000000000,
-0.0000000000,
0.0000000000,
0.0000000000,
-0.0000000000,
0.1735278219,
0.1732871830,
0.1047343463,
0.1010762081,
0.0000000000,
-0.0000000000,
-0.0000000000,
0.0000000000,
-0.0000000000,
-0.0000000000,
0.0000000000,
0.0000000000,
0.0000000000,
0.0000000000,
-0.0000000000,
0.0000000000,
-0.0000000000,
0.0000000000,
0.0000000000,
0.0000000000,
0.0000000000,
-0.0000000000,
-0.0000000000,
-0.0000000000,
-0.0000000000,
-0.0000000000,
-0.0000000000,
-0.0000000000,
-0.0000000000,
-0.0000000000,
-0.0000000000,
-0.0000000000,
-0.0000000000,
-0.0000000000,
-0.0000000000,
-0.0000000000,
0.0000000000,
0.0000000000,
0.0000000000,
0.0000000000,
-0.0125314696,
-0.0133043500,
-0.0556369238,
-0.0580222830,
-0.0000000000,
0.0000000000,
-0.0000000000,
0.0000000000,
0.0000000000,
-0.0000000000,
0.0000000000,
0.0000000000,
0.0000000000,
0.0000000000,
0.0000000000,
-0.0000000000,
0.0000000000,
-0.0000000000,
0.0000000000,
-0.0000000000,
-0.0000000000,
-0.0000000000,
0.0000000000,
0.0000000000,
-0.0000000000,
-0.0000000000,
-0.0000000000,
-0.0000000000,
-0.0208335910,
-0.0186545402,
0.0107964035,
0.0142729850,
0.0000000000,
0.0000000000,
0.0000000000,
0.0000000000,
0.0000000000,
0.0000000000,
0.0000000000,
-0.0000000000,
-0.0000000000,
-0.0000000000,
0.0000000000,
0.0000000000,
0.0000000000,
-0.0000000000,
-0.0000000000,
-0.0000000000,
-0.0000000000,
-0.0000000000,
-0.0000000000,
0.0000000000,
0.0000000000,
0.0000000000,
0.0000000000,
-0.0000000000,
-0.0272674840,
-0.0345484279,
-0.0592376441,
-0.0627171546,
-0.0000000000,
0.0000000000,
-0.0000000000,
0.0000000000,
-0.0113912746,
0.0011376365,
-0.0422851555,
-0.0344358943,
-0.0000000000,
0.0000000000,
0.0000000000,
0.0000000000,
-0.0000000000,
-0.0000000000,
-0.0000000000,
0.0000000000,
-0.0893943459,
-0.0826179758,
0.0164742097,
0.0280839521,
-0.0000000000,
0.0000000000,
-0.0000000000,
0.0000000000,
-0.0554596707,
-0.0456453487,
-0.0490590259,
-0.0408401266,
0.0000000000,
-0.0000000000,
-0.0000000000,
-0.0000000000,
-0.0095966170,
-0.0142677473,
-0.0031845521,
-0.0091789830,
0.1233068332,
0.1171915233,
0.0770421252,
0.0696553066,
0.0000000000,
0.0000000000,
-0.0000000000,
-0.0000000000,
-0.0000000000,
0.0000000000,
0.0000000000,
-0.0000000000,
0.1119153276,
0.1095522270,
0.0850303620,
0.0829322264,
-0.0264268015,
-0.0182026923,
-0.0235596113,
-0.0165502969,
0.0000000000,
-0.0000000000,
-0.0000000000,
0.0000000000,
-0.0441639386,
-0.0403424688,
0.0268785637,
0.0340345502,
-0.0000000000,
0.0000000000,
0.0000000000,
-0.0000000000,
-0.0000000000,
0.0000000000,
0.0000000000,
-0.0000000000,
-0.0385433547,
-0.0353660323,
0.0070397872,
0.0124400789,
0.0000000000,
0.0000000000,
0.0000000000,
-0.0000000000,
0.1026842892,
0.0916501805,
0.0414134935,
0.0281630401,
0.0000000000,
0.0000000000,
0.0000000000,
-0.0000000000,
-0.0586995631,
-0.0675991848,
-0.0866751820,
-0.1013642102,
-0.0000000000,
0.0000000000,
-0.0000000000,
-0.0000000000,
-0.0885358602,
-0.0908626914,
-0.0502568334,
-0.0425739847,
-0.0223849956,
-0.0201081019,
0.0116324183,
0.0153317843,
-0.0000000000,
-0.0000000000,
-0.0000000000,
-0.0000000000,
-0.0215167012,
-0.0213139206,
-0.0082314946,
-0.0090438649,
-0.0000000000,
0.0000000000,
0.0000000000,
0.0000000000,
-0.0000000000,
0.0000000000,
-0.0000000000,
0.0000000000,
0.0000000000,
0.0000000000,
-0.0000000000,
-0.0000000000,
-0.0048025129,
-0.0102523994,
-0.0366401635,
-0.0430690087,
0.0000000000,
0.0000000000,
-0.0000000000,
-0.0000000000,
0.0000000000,
-0.0000000000,
0.0000000000,
-0.0000000000,
0.0000000000,
-0.0000000000,
-0.0000000000,
-0.0000000000,
-0.0235954002,
-0.0194259025,
-0.0559393540,
-0.0551147684,
0.0000727528,
0.0000727528,
0.0000000000,
-0.0000000000,
-0.0000000000,
-0.0000000000,
-0.0000000000,
-0.0000000000,
-0.0000000000,
0.0000000000,
0.0000000000,
0.0000000000,
-0.0000000000,
-0.0000000000,
-0.0000000000,
-0.0000000000,
-0.0000000000,
0.0000000000,
-0.0000000000,
-0.0000000000,
-0.0000000000,
0.0000000000,
-0.0000000000,
0.0000000000,
0.0026186726,
0.0079758586,
0.0276116505,
0.0376170985,
0.0000000000,
0.0000000000,
0.0000000000,
-0.0000000000,
-0.0018339412,
-0.0002329468,
-0.0577318110,
-0.0593519695,
0.0822508410,
0.0741233900,
-0.0045029451,
-0.0121609513,
-0.0257340353,
-0.0251579117,
-0.0373060219,
-0.0392879471,
-0.0000000000,
-0.0000000000,
-0.0000000000,
0.0000000000,
-0.0218195338,
-0.0208567567,
-0.0190370083,
-0.0191651117,
-0.0092725400,
-0.0040400783,
-0.0040967632,
0.0006004308,
0.0000000000,
0.0000000000,
0.0000000000,
-0.0000000000,
-0.0716774464,
-0.0794512406,
-0.0615617260,
-0.0698202327,
-0.0000000000,
0.0000000000,
0.0000000000,
0.0000000000,
-0.0000000000,
0.0000000000,
-0.0000000000,
-0.0000000000,
0.0000000000,
-0.0000000000,
-0.0000000000,
0.0000000000,
0.2287907451,
0.2360131890,
0.1812729537,
0.1872053146,
0.1157379150,
0.1110057309,
0.0946004018,
0.0916460752,
-0.0000000000,
0.0000000000,
0.0000000000,
-0.0000000000,
-0.0105483271,
-0.0107759722,
-0.0641842857,
-0.0671057627,
0.0000000000,
-0.0000000000,
-0.0000000000,
0.0000000000,
-0.0000000000,
0.0000000000,
-0.0000000000,
-0.0000000000,
-0.0000000000,
-0.0000000000,
-0.0000000000,
0.0000000000,
0.0000000000,
0.0000000000,
0.0000000000,
-0.0000000000,
0.0000000000,
-0.0000000000,
0.0000000000,
0.0000000000,
0.0000000000,
-0.0000000000,
0.0000000000,
0.0000000000,
-0.0562028624,
-0.0537985452,
-0.0123092011,
-0.0100450246,
-0.0000000000,
-0.0000000000,
-0.0000000000,
0.0000000000,
-0.0000000000,
-0.0000000000,
0.0000000000,
0.0000000000,
0.0000000000,
0.0000000000,
0.0000000000,
-0.0000000000,
-0.0349093042,
-0.0409615487,
0.0066288915,
-0.0013600695,
-0.0000000000,
0.0000000000,
0.0000000000,
0.0000000000,
-0.0284630433,
-0.0426717848,
-0.0580099933,
-0.0689828172,
0.0000000000,
0.0000000000,
0.0000000000,
0.0000000000,
0.0000000000,
0.0000000000,
-0.0000000000,
-0.0000000000,
0.0000000000,
0.0000000000,
-0.0000000000,
-0.0000000000,
-0.0565698892,
-0.0513196327,
0.0252012163,
0.0346914642,
-0.0505995788,
-0.0456245653,
-0.0063288035,
0.0009930818,
-0.0000000000,
-0.0000000000,
0.0000000000,
0.0000000000,
0.1544574946,
0.1546356380,
0.1231467947,
0.1218738183,
-0.0582628772,
-0.0523987822,
0.0245700423,
0.0348100886,
-0.0000000000,
0.0000000000,
0.0000000000,
-0.0000000000,
-0.0000000000,
-0.0000000000,
-0.0000000000,
-0.0000727528,
0.0000000000,
-0.0000000000,
-0.0000000000,
0.0000000000,
0.0051544597,
0.0042165602,
0.0213405136,
0.0180407874,
-0.0000000000,
-0.0000000000,
0.0000000000,
-0.0000000000,
-0.0063280412,
-0.0052754958,
0.0039372556,
0.0054717031,
0.0000000000,
-0.0000000000,
-0.0000000000,
-0.0000000000,
-0.0000000000,
-0.0000000000,
0.0000000000,
-0.0000000000,
0.0000000000,
-0.0000000000,
0.0000000000,
-0.0000000000,
-0.0810838789,
-0.0773129240,
0.0163697191,
0.0249536857,
-0.0000000000,
0.0000000000,
-0.0000000000,
-0.0000000000,
0.0000000000,
-0.0000000000,
-0.0000000000,
0.0000000000,
-0.0000000000,
-0.0000000000,
-0.0000000000,
-0.0000000000,
-0.0321904495,
-0.0228642579,
-0.0742529109,
-0.0698598251,
-0.0000727528,
0.0000727528,
0.0000727528,
0.0000727528,
0.0000000000,
0.0000000000,
0.0000000000,
0.0000000000,
-0.0000000000,
0.0000000000,
0.0000000000,
0.0000000000,
-0.0000000000,
-0.0000000000,
0.0000000000,
0.0000000000,
-0.0000000000,
0.0000000000,
0.0000000000,
-0.0000000000,
0.0000000000,
0.0000000000,
0.0000000000,
-0.0000000000,
0.0000000000,
-0.0000000000,
0.0000000000,
0.0000000000,
0.0000000000,
-0.0000727528,
0.0000000000,
-0.0000727528,
0.0000000000,
0.0000000000,
0.0000000000,
-0.0000000000,
-0.0000000000,
-0.0000000000,
0.0000000000,
-0.0000000000,
0.1824026853,
0.1848807484,
0.1433651596,
0.1448543668,
0.0000000000,
0.0000000000,
0.0000000000,
-0.0000000000,
0.0000000000,
-0.0000000000,
-0.0000000000,
-0.0000000000,
-0.0113756172,
-0.0149171408,
-0.0656544641,
-0.0716384947,
-0.0184295978,
-0.0253345910,
-0.0794885829,
-0.0887266025,
-0.0000000000,
-0.0000000000,
0.0000000000,
-0.0000000000,
-0.0000000000,
0.0000000000,
0.0000000000,
-0.0000000000,
-0.0375392921,
-0.0515730157,
-0.0653113797,
-0.0754369274,
0.0000000000,
-0.0000000000,
-0.0000000000,
0.0000000000,
0.0000000000,
0.0000000000,
-0.0000000000,
0.0000000000,
-0.0000000000,
-0.0000000000,
-0.0000000000,
-0.0000000000,
-0.0000000000,
-0.0000000000,
-0.0000000000,
-0.0000000000,
-0.0000000000,
0.0000000000,
-0.0000000000,
-0.0000000000,
-0.0050434545,
-0.0156065011,
-0.0567339696,
-0.0680107623,
-0.0000000000,
0.0000000000,
0.0000000000,
-0.0000000000,
0.0000000000,
-0.0000000000,
-0.0000000000,
-0.0000000000,
-0.0311299227,
-0.0281648599,
0.0154099846,
0.0205498878,
-0.0000000000,
0.0000000000,
-0.0000000000,
0.0000000000,
-0.0000000000,
-0.0000000000,
-0.0000000000,
-0.0000000000,
0.0000000000,
-0.0000000000,
-0.0000000000,
0.0000000000,
-0.0000000000,
-0.0000000000,
-0.0000000000,
0.0000000000,
0.0000000000,
-0.0000000000,
-0.0000000000,
-0.0000000000,
-0.0261836387,
-0.0354337394,
-0.0419415385,
-0.0503788516,
-0.0000000000,
-0.0000000000,
-0.0000000000,
-0.0000000000,
0.0000000000,
0.0000000000,
0.0000000000,
0.0000000000,
-0.0504240096,
-0.0554129444,
-0.0369933471,
-0.0433750041,
0.0000000000,
0.0000000000,
0.0000000000,
-0.0000000000,
-0.0000000000,
-0.0000000000,
0.0000000000,
-0.0000000000,
-0.0000000000,
0.0000000000,
0.0000000000,
0.0000000000,
-0.0145022906,
-0.0137573322,
-0.0513981208,
-0.0530688129,
0.0000000000,
0.0000000000,
0.0000000000,
-0.0000000000,
0.0000000000,
0.0000000000,
0.0000000000,
-0.0000000000,
-0.0115265930,
-0.0197367314,
-0.0616382882,
-0.0700967014,
-0.0000000000,
0.0000000000,
0.0000000000,
-0.0000000000,
0.0284739807,
0.0342297964,
-0.0593785830,
-0.0589479282,
-0.0000000000,
0.0000000000,
-0.0000000000,
-0.0000000000,
0.2120162845,
0.2145870477,
0.1685569584,
0.1686032116,
-0.0000000000,
0.0000000000,
-0.0000000000,
-0.0000000000,
-0.0536217541,
-0.0485537760,
0.0277165342,
0.0368952975,
-0.0120225260,
-0.0106529621,
0.0046866881,
0.0069632553,
0.0000000000,
0.0000000000,
-0.0000000000,
-0.0000000000,
0.0000000000,
0.0000000000,
0.0000000000,
0.0000000000,
0.0000000000,
0.0000000000,
0.0000000000,
-0.0000000000,
0.0000000000,
0.0000000000,
0.0000000000,
-0.0000000000,
-0.0000727528,
-0.0000727528,
-0.0000727528,
-0.0000727528,
-0.0134890238,
-0.0118969185,
0.0068717380,
0.0093677482,
0.0000000000,
0.0000000000,
0.0000000000,
0.0000000000,
-0.0542583764,
-0.0682394654,
-0.0769095272,
-0.0848708674,
0.1135005057,
0.1061188430,
0.0680921301,
0.0613707826,
0.0000727528,
-0.0000000000,
0.0000000000,
0.0000000000,
-0.0001502629,
-0.0008195857,
-0.0244365577,
-0.0256249346,
0.0000000000,
0.0000000000,
0.0000000000,
0.0000000000,
0.0000000000,
-0.0000000000,
-0.0000000000,
0.0000000000,
0.0093405433,
-0.0024331501,
-0.0632860437,
-0.0742523521,
0.1737291068,
0.1648162454,
0.1386900842,
0.1304907799,
0.0000000000,
-0.0000000000,
0.0000000000,
-0.0000000000,
-0.0015177993,
-0.0007957140,
-0.0220074002,
-0.0225447714,
-0.0000000000,
-0.0000000000,
0.0000000000,
0.0000000000,
0.0000000000,
0.0000000000,
0.0000000000,
0.0000000000,
-0.0000000000,
0.0000000000,
0.0000000000,
-0.0000000000,
-0.0121483542,
-0.0114486376,
-0.0360115655,
-0.0365385115,
-0.0000000000,
-0.0000000000,
0.0000000000,
0.0000000000,
0.0000000000,
0.0000000000,
0.0000000000,
-0.0000000000,
-0.0629602298,
-0.0726711601,
-0.0798402652,
-0.0902827159,
0.0000000000,
-0.0000000000,
0.0000000000,
0.0000000000,
-0.0000000000,
0.0000000000,
0.0000000000,
0.0000000000,
0.0000000000,
-0.0000000000,
-0.0000000000,
-0.0000000000,
-0.0000000000,
-0.0000000000,
-0.0000000000,
-0.0000000000,
-0.0000000000,
-0.0000000000,
-0.0000000000,
-0.0000000000,
-0.0000000000,
-0.0000000000,
0.0000000000,
-0.0000000000,
-0.0000000000,
-0.0000000000,
-0.0000000000,
-0.0000000000,
-0.0000000000,
0.0000000000,
-0.0000000000,
-0.0000000000,
-0.0494028851,
-0.0517122224,
-0.0519647263,
-0.0566055663,
0.0000000000,
0.0000000000,
-0.0000000000,
0.0000000000,
0.0000000000,
-0.0000000000,
0.0000000000,
-0.0000000000,
0.0000000000,
0.0000000000,
0.0000000000,
0.0000000000,
-0.0127965687,
-0.0083476547,
-0.0635961220,
-0.0639449432,
-0.0000000000,
-0.0000000000,
-0.0000000000,
-0.0000000000,
-0.0000000000,
-0.0000000000,
-0.0000000000,
-0.0000000000,
-0.0295654796,
-0.0267282072,
0.0142400591,
0.0190694220,
-0.0755497664,
-0.0688066706,
0.0100129023,
0.0225681514,
-0.0000000000,
-0.0000000000,
0.0000000000,
0.0000000000,
-0.0236829557,
-0.0350871794,
-0.0472476184,
-0.0555422977,
0.0000000000,
0.0000000000,
0.0000000000,
0.0000000000,
-0.0064529246,
-0.0082685715,
0.0092566507,
0.0051022996,
0.0000000000,
0.0000000000,
-0.0000727528,
0.0000000000,
-0.0602883473,
-0.0581475720,
-0.0210756660,
-0.0133909322,
0.1910903156,
0.1927028894,
0.1453183144,
0.1463169903,
0.0000000000,
-0.0000000000,
-0.0000000000,
0.0000000000,
-0.0000000000,
-0.0000000000,
-0.0000000000,
-0.0000000000,
0.0512399487,
0.0393282212,
-0.0337049775,
-0.0472454168,
-0.0000000000,
0.0000000000,
0.0000000000,
-0.0000000000,
-0.0000000000,
-0.0000000000,
0.0000000000,
0.0000000000,
-0.0104327323,
-0.0136857191,
-0.0498741046,
-0.0535913669,
-0.0000000000,
-0.0000000000,
-0.0000000000,
-0.0000000000,
-0.0000000000,
0.0000000000,
-0.0000000000,
0.0000000000,
0.0000000000,
-0.0000000000,
0.0000000000,
0.0000000000,
-0.0000000000,
-0.0000000000,
-0.0000000000,
0.0000000000,
-0.0336881354,
-0.0330841653,
-0.0511365905,
-0.0549974442,
-0.0000000000,
0.0000000000,
-0.0000000000,
0.0000000000,
-0.0000000000,
-0.0000000000,
0.0000000000,
-0.0000000000,
0.0000000000,
-0.0000000000,
0.0000000000,
0.0000000000,
0.0000000000,
-0.0000000000,
0.0000000000,
-0.0000000000,
-0.0000000000,
0.0000000000,
0.0000000000,
0.0000000000,
-0.0095504615,
-0.0095100943,
-0.0504832864,
-0.0525371358,
-0.0000000000,
-0.0000000000,
-0.0000000000,
-0.0000000000,
0.0000000000,
0.0000000000,
0.0000000000,
-0.0000000000,
-0.0000000000,
-0.0000000000,
-0.0000000000,
0.0000000000,
-0.0312941670,
-0.0449711382,
-0.0604959019,
-0.0702242404,
0.0000000000,
-0.0000000000,
-0.0000000000,
-0.0000000000,
0.0000000000,
0.0000000000,
-0.0000000000,
0.0000000000,
0.0000000000,
0.0000000000,
-0.0000000000,
-0.0000000000,
0.0000000000,
0.0000000000,
-0.0000000000,
-0.0000000000,
-0.0000000000,
0.0000000000,
-0.0000000000,
0.0000000000,
0.0014287508,
0.0004556495,
-0.0177218113,
-0.0187606290,
-0.0309407208,
-0.0283978116,
-0.0418832786,
-0.0434561335,
-0.0000000000,
0.0000000000,
-0.0000000000,
-0.0000000000,
0.0000000000,
0.0000000000,
0.0000000000,
-0.0000000000,
0.0000000000,
0.0000000000,
-0.0000000000,
0.0000000000,
-0.0000000000,
0.0000000000,
0.0000000000,
0.0000000000,
0.0000000000,
0.0000000000,
-0.0000000000,
-0.0000000000,
0.0000000000,
0.0000000000,
0.0000000000,
-0.0000000000,
-0.0359675586,
-0.0306533556,
-0.0048345141,
0.0043131826,
0.0000000000,
0.0000000000,
0.0000000000,
-0.0000000000,
-0.0000000000,
-0.0000000000,
0.0000000000,
-0.0000000000,
-0.0000000000,
0.0000727528,
-0.0000000000,
0.0000727528,
0.0000000000,
0.0000000000,
-0.0000000000,
0.0000000000,
-0.0576400310,
-0.0527490228,
0.0100719556,
0.0195858944,
-0.0000000000,
-0.0000000000,
-0.0000000000,
-0.0000000000,
-0.0000000000,
0.0000000000,
-0.0000727528,
-0.0000000000,
-0.0000000000,
-0.0000000000,
-0.0000000000,
-0.0000000000,
-0.0246601477,
-0.0297219586,
-0.0626963153,
-0.0712836310,
0.0000000000,
-0.0000000000,
-0.0000000000,
0.0000000000,
0.0249395836,
0.0245199502,
-0.0019470033,
-0.0016297065,
-0.0305984542,
-0.0319186188,
-0.0773179904,
-0.0815712363,
0.0000727528,
-0.0000000000,
0.0000000000,
0.0000727528,
-0.0219113678,
-0.0195027236,
-0.0727643222,
-0.0744188651,
0.0000000000,
-0.0000000000,
0.0000000000,
0.0000000000,
-0.0274995007,
-0.0244802013,
0.0242976882,
0.0279632229,
-0.0241635982,
-0.0193775464,
-0.0891694874,
-0.0900517926,
0.0000000000,
0.0000000000,
-0.0000000000,
0.0000000000,
-0.0000000000,
-0.0000000000,
-0.0000000000,
-0.0000000000,
0.0000000000,
0.0000000000,
-0.0000000000,
0.0000000000,
-0.0256027393,
-0.0382683463,
-0.0514343791,
-0.0618906394,
0.0000000000,
0.0000000000,
-0.0000000000,
-0.0000000000,
-0.0000000000,
-0.0000000000,
0.0000000000,
0.0000000000,
-0.0339586772,
-0.0296898037,
-0.0306395162,
-0.0236162078,
0.0000000000,
0.0000000000,
0.0000000000,
-0.0000000000,
-0.0704762489,
-0.0635098368,
0.0064655622,
0.0175475702,
-0.0393891558,
-0.0345282815,
0.0134743797,
0.0186662320,
0.2231312245,
0.2269750834,
0.1823037565,
0.1834557950,
0.0000000000,
0.0000000000,
-0.0000000000,
0.0000000000,
-0.0098491367,
-0.0084150676,
-0.0311326291,
-0.0289744772,
-0.0390633419,
-0.0354599804,
0.0206869598,
0.0265096538,
-0.0000000000,
-0.0000000000,
0.0000000000,
0.0000000000,
0.0000000000,
-0.0000000000,
-0.0000000000,
0.0000000000,
-0.0686373860,
-0.0761719570,
-0.0756262392,
-0.0868100002,
0.0000000000,
0.0000000000,
-0.0000000000,
0.0000000000,
-0.0038392739,
-0.0114190038,
-0.0780525282,
-0.0870774537,
-0.0364242345,
-0.0329411440,
0.0127723338,
0.0177191161,
-0.0000000000,
0.0000000000,
-0.0000000000,
-0.0000000000,
-0.0000000000,
0.0000000000,
-0.0000000000,
-0.0000000000,
-0.0000000000,
0.0000000000,
0.0000000000,
0.0000000000,
-0.0250598248,
-0.0269453023,
-0.0138495415,
-0.0168149862,
-0.0194623936,
-0.0184203237,
-0.0875614807,
-0.0917933211,
0.0000000000,
0.0000000000,
-0.0000000000,
0.0000000000,
-0.0646887422,
-0.0533340722,
-0.0361322761,
-0.0249195062,
-0.0265869629,
-0.0240288712,
0.0094144614,
0.0132847391,
-0.0000000000,
0.0000000000,
0.0000000000,
0.0000000000,
-0.0225334410,
-0.0368430950,
-0.0678939447,
-0.0804578364

};